6.446974713772575249e+00,-2.157880297928607138e+00,-7.318792661770146424e+00,1.108949693656571700e+00,-3.027766056484418655e+00,-1.041807539954728945e+01,-3.496723837943884305e+00,2.352805375006521427e+00,-8.656831632270171051e-01,-2.584497471007436431e+00,1.469898004909120370e+00,5.059834659372207000e+00,-2.614590395666681832e+00,4.401403302977154652e+00,-3.188248790797023169e+00,5.061489606860684276e+00,1.025880654764772615e+01,-2.722101999738655298e+00,-2.018673575179119339e+01,-7.595479903913517461e+00,-4.389781637985801233e+00,1.283449092712524653e+01,-2.096141268132459956e+01,-1.352414298391365932e+01,-6.631375160820274228e-01,1.018384748304908705e+01,-1.222479001831818302e+01,-5.152540027671796530e+00,-5.366443383429737146e+00,-9.475915163015038445e+00,-1.034326648758591460e+01,5.616256138745916004e+00,-2.572484254794930703e+00,5.510491884909798799e+00,-2.535267877804204151e+00,-2.547120096840238102e+00,1.738415449301857763e+00,-1.328398919969040648e+01,-2.576361665754967945e+00,2.978210073684131931e+00,-1.232119086318687984e+01,-6.697255576815435596e+00,-1.129323334297113846e+01,9.447291246357917061e+00,-1.225876555772853926e+01,-8.038031605120609768e+00,2.712260546427448293e+00,-1.489220747842652948e+01,9.074025858849315895e+00,1.088523831161089639e+01,-1.657392837868393798e+01,-1.961644137023760281e+00,-2.495868342708638943e-01,-1.040700319399809892e+01,-3.192611647226831773e-01,5.877223070901783863e+00,9.554256398702817066e+00,-7.392115843036414224e-01,-2.553059020615645380e+00,-1.664274309689101727e+00,-2.574064212994775946e+00,1.855402041343494401e+00,-1.311322310276112191e+01,-8.817170077031253328e+00,3.744644246459132020e-02,-1.022239366072232869e+01,-2.299410328400439241e+01,6.452118912718995070e+00,-1.932399560872939048e+01,-9.170395868006201212e+00,9.961983218433541065e-01,-4.333657891427190378e+00,1.541053769450260402e+00,8.325607898391059081e+00,5.716297735369482602e+00,1.225731353144954916e+01,-7.425996855255470486e+00,-4.428530325105040077e-01,-2.582914779375021563e+00,-6.863764086321666014e+00
