1.210324849175501205e+00,7.314906007594792481e-01,-2.082384340694485581e-01,3.905230801524363637e-01,9.247996423125847132e-01,-2.514265444491656343e+00,-3.056090461173854508e-02,7.048986218462408582e-01,-1.659999576712654301e+00,4.414401743948821732e-02,-1.513745851346956772e-01,-1.825767691159293937e+00,8.927684894629234202e-01,1.004404729754753367e+00,-3.402251406192129402e-01,-3.228271025067463995e-01,1.823533180262166153e+00,1.752265694354831482e-01,4.452329001304808354e-01,5.375588645030780766e-02,-1.254528573031013172e+00,9.884415087652036469e-01,8.816319542199958503e-01,-1.615316538289427450e+00,1.179821589512770608e+00,-2.073506844753967293e+00,-1.164912297343699554e-02,-8.413765505311016080e-01,1.891145741905273292e+00,-7.591634535215311397e-01,2.880311313963401232e-01,-1.166513947831475884e+00
-2.048949033044773049e+00,2.638352065242616451e+00,-5.602326555487050497e-01,-2.319894531811274252e+00,-2.685349318301536670e+00,-7.503201013941239728e-01,3.247707369376926057e+00,9.566292998444684281e-01,-9.337845840161276278e-01,-3.395003079675872115e+00,-3.983171400920543920e-02,1.399694814517727925e+00,-2.304479690371935563e-01,-2.367334675387231968e+00,1.901802474800059262e+00,2.407971002333860078e+00,1.330159571073739277e+00,8.487751979399145164e-01,-5.274255393923008572e-01,-3.502990090895721775e-01,6.455369672037956086e-01,1.370588933936786935e+00,1.770136509089191623e+00,-1.819748093496717178e+00,-7.229037806166256630e-02,5.452529918025299238e-02,-1.624968106233072973e+00,-6.965752775765503280e-02,-2.083743489614332756e+00,-3.260818392751153372e+00,-3.177030101734916734e-01,-1.600980681733984889e+00
2.234574617241574135e+00,1.480736563593428645e+00,-1.165176233720929044e+00,-2.632311853628206966e-01,6.767854092387571852e-01,4.889535610837920099e-01,-7.156467130189550496e-02,1.299226379776179385e+00,-7.684768195307560834e-01,-1.003066801268780228e+00,2.558140068326848926e+00,-1.998785444864175309e+00,-2.348863515287596737e+00,-1.676186261591517512e+00,-7.741093987818208066e-02,1.666298569443573019e+00,-1.525707324144953025e+00,-2.545236293222121304e+00,1.757767556186962121e+00,-3.387416277168800782e+00,-4.079396063148512525e-02,-2.460608880801204101e+00,9.327717759280398369e-01,6.875012988867518215e-02,-8.929645561613673843e-01,-3.180233681997713946e-01,7.999120416428219249e-01,-1.686156281578608196e+00,-3.277722668640749015e-01,-1.446980871226364762e+00,7.881764887078950010e-02,1.115243972778962256e+00
-2.129234742843971073e+00,-1.301493849062120178e+00,-5.676485805744674318e-01,2.592101164154264614e-02,-1.804914925463605213e+00,1.920983263506979677e+00,1.610809634463585382e+00,7.633953909823102402e-01,-1.777332000914306764e+00,2.297188343039380687e+00,-6.361611604106821860e-02,-1.375675545579288839e+00,1.413998486730651205e+00,-1.746202317638511747e+00,3.332205242677685475e-02,3.870364312183987021e-01,5.345110148719555143e-01,1.284528125861119863e+00,1.905071290229011227e+00,-2.758598262873824147e+00,2.259538716874767594e+00,1.673630518681959778e+00,-3.624843620403614963e+00,1.229726947394936265e-01,-3.214195974607203521e+00,-1.769107353868517585e+00,4.875799524885320868e-01,1.089224320666186463e+00,1.627660742946152928e+00,-3.223486379056757833e+00,7.259699998977295898e-01,4.508410761623196095e-01
2.762067938499448427e+00,-2.979158693028675309e+00,-1.448271289754265112e+00,2.498948174200450456e-01,-6.045069012006870635e-01,3.166626830831790751e-01,1.615855952195035750e+00,-2.307439302019718141e+00,-2.594414502831022748e-02,-1.943055836613492016e+00,-8.684705582099574439e-01,-1.524443991235200135e+00,-2.094105525827218983e+00,-1.109796484035561193e+00,1.300340907268303647e+00,-1.925714931586707673e-02,9.854630637556826417e-03,2.375929369421427406e+00,-1.676898596730931335e+00,-2.167398149060460799e+00,-1.380106474927963456e+00,1.193068358851427924e+00,2.495692717144202710e+00,2.072426367376596801e+00,-4.063439061755590442e-01,1.812864434777882172e+00,-3.203213073371339537e+00,7.722944263077032856e-01,8.435648437099967367e-01,-1.738515762428112232e+00,-2.131074082177877749e+00,3.129073176788622845e+00
-2.212591499182830768e-01,2.252399854739912222e+00,2.525457294500755290e-01,-3.283620485875656247e-01,8.482418877109040301e-01,-1.089298784831412403e+00,1.545513693479329209e+00,-3.978676131574489627e+00,-2.215713539365147255e+00,2.354651792105036723e+00,-3.550400777747001690e+00,-1.382941411558300970e+00,1.617951833522446758e+00,-1.685721921134709200e+00,6.781205044198541920e-02,-1.145243351813019395e+00,-9.708184185362661589e-01,-3.808458560328876974e+00,4.259989394272887808e-01,3.417776206800778871e-01,-3.260402100132223646e-01,2.831533365705181104e-01,1.484720087918159903e+00,6.651219684630698126e-01,-2.382821526534850687e+00,8.476502261103520119e-01,-2.483144235064492222e-01,3.216392691077155863e+00,-1.859516724497326301e+00,-6.714773160665570284e-01,-6.866594702577115683e-01,1.612988820499619447e+00
1.573762032370102482e+00,1.798635821688434819e-02,1.882674424198972574e+00,-2.787510735032203257e+00,-2.282128453067617357e+00,1.675552543006294526e+00,2.402542391190714000e-01,2.359430065995013481e-02,-1.192069377428884858e+00,-1.161356851767294751e+00,-2.035960610173162877e+00,4.163322315869396606e-01,2.329243076901041931e+00,2.756514207954524398e+00,-2.361301709945328453e-01,-7.971657595443558675e-01,8.030288117933434000e-01,-2.688763402532505231e-01,-1.544920012359816130e+00,-2.747113731905240108e+00,-1.447572332056127786e+00,-2.991684194417532638e-01,4.757767144911663748e-01,-1.631677474199547673e+00,-3.137157816800812959e+00,1.802727532209636552e+00,-1.071478617705372782e+00,-2.787446443026342813e+00,5.169201920226165203e-01,8.806294715813747231e-01,3.523802274016209490e-01,-8.389020177459722769e-03
-2.818959201977687457e+00,-2.107850256848588621e+00,-3.871177148302201498e+00,7.539158868196313423e-02,1.680073158020530366e+00,-2.160417985612271163e+00,1.946032060455061607e+00,-1.105935440996327346e+00,1.584404221475890440e+00,-7.654166510781861277e-01,-1.638627657337647370e-01,2.492446197544766928e+00,1.736412045757155687e+00,9.647847849999264813e-01,-2.002749760482360308e+00,-4.396467241135829096e-01,6.012276285069464432e-01,-1.251671106420044977e+00,3.104501681984186967e-01,-3.167997483533058656e+00,1.593643012182673679e+00,6.117515284695608235e-01,1.103480478161156242e+00,4.917785080397764630e-01,-2.582575050455290899e+00,-4.784645405219196956e-02,-1.632135692281102335e+00,-2.388202831126049031e+00,9.618679317742576673e-01,3.849681435859497736e-01,5.625784333852716923e-01,-1.020854893779536698e-01
-1.468651004139000515e-01,-4.455477014692545090e+00,7.664835418979900616e-01,2.151104340831416106e+00,2.156664449115018034e-01,-5.434900232734766190e-01,-1.727885930679199655e-01,1.444355460208306408e+00,-2.409650929045075163e+00,-4.263249514676023644e+00,-2.307130584320355116e+00,1.653377057139928386e-01,2.874096876772405551e+00,-1.589024071862753740e+00,-1.009796375074133667e+00,1.010066990551921284e+00,2.030315548340043019e+00,-8.928105928791607582e-01,1.085491667700082985e+00,5.414953473588391963e-01,-1.883755903792497577e+00,-3.549137861902716740e+00,1.360519435375439734e+00,-6.570523536248379370e-01,-1.516886546818796144e-01,-4.177367615344667467e-02,8.936353973282038510e-01,1.629396077718994862e+00,-1.862915650412916069e+00,1.051889731952595275e+00,-1.181173009230273019e+00,4.393816980461378585e-01
7.712401540069606376e-02,1.455508332779566483e-01,-7.022232395902619495e-02,-5.378046679495826488e-02,2.575857175259063103e-01,-1.185133718415372905e-01,-1.519963861187373193e-02,1.271083184905994479e-01,1.092598354546947016e-02,6.517620278310036486e-02,-4.465975914890457643e-02,4.137350603505451224e-02,-1.460741427454478325e-01,1.853846457602096598e-01,-1.321114187019174248e-02,-7.604623504753382779e-02,7.450389352395894726e-02,-5.151003815900277033e-02,-1.491746320805757975e-01,-1.505675944726150295e-01,7.756619651897386780e-02,-1.784085275492054007e-02,-1.494828880581871092e-02,1.204954206246133808e-01,-1.259829553590628148e-01,-8.169225625262699353e-02,-4.303087082482397879e-02,1.054882837490602084e-02,-4.714911589777786953e-03,-3.207496320289468517e-02,-6.890041214730154191e-03,-1.199709460657315610e-02
2.401722212147995084e+00,2.991979818621619547e+00,-3.343418800823568238e-01,-1.113175446976077065e+00,7.689493304326504575e-01,-4.881041799340996690e+00,-1.892537222966204302e+00,-4.230760727001709576e+00,-2.033151040183637459e+00,8.625196018866271297e-01,-1.888166414274549565e+00,2.015391148109131780e+00,-2.003236520781777052e+00,-4.690778829402614036e+00,2.366881519075394902e+00,1.630086548521708867e+00,-3.410743009857416297e+00,-3.389183846667531252e+00,-3.693972220336747547e+00,-2.446962780970157070e+00,1.507078273092993692e+00,-2.786242229120900582e+00,-2.357236298375013028e+00,2.943026666964990934e+00,-8.253339343952443841e-01,-1.431698169693153222e+00,-7.772421380677538849e-01,2.459119976020800014e+00,3.060142035462991128e+00,-3.617127551771069371e-01,-5.313504869417984722e+00,-3.117527488079813391e+00
6.940229109631982363e-01,-2.999989784337494303e+00,-3.872793872030669160e+00,-2.438612672764336464e-01,-1.703233931907911503e+00,-2.265200776364617585e+00,-1.085614281491816824e+00,-3.714172693341187603e+00,-2.089946610149757689e+00,9.421967594509946808e-01,-1.892919274333089708e-01,-1.360239647543749264e+00,-1.571633673838756406e+00,-3.698871812983177243e+00,1.128496389109630238e+00,-4.119156752951469436e+00,6.098336098708261321e-01,-5.081831053949050769e+00,-4.103840614467133996e+00,-4.526637903946293839e+00,-3.997072482390191972e+00,-3.153265662815756265e+00,5.129167706879601552e-01,-3.445199066303000768e-01,-1.185925406018579986e+00,-1.654568190954883278e+00,-4.803292862624045867e+00,1.900742816774403599e+00,-1.399536887089704029e+00,1.476483518700251851e+00,1.400381841084163081e+00,-5.078541915196085554e+00
4.319026996149509350e-03,-1.852263794071204173e-01,-1.101834501008862183e-01,-1.645561564176245273e-01,1.842670872254055237e-01,1.836122125309463948e-02,6.342498121266561262e-02,-2.489583308242419163e-02,-3.951487078138619241e-02,-1.807273084848763922e-01,-3.262840907392430129e-02,-8.513741749737289977e-02,9.591881071205235476e-02,1.275790671549117405e-01,1.639684851189095183e-01,9.531820454922999841e-02,-6.693154489788340211e-02,-1.247610758247285206e-01,8.571554950023407837e-02,3.983474798814813644e-02,-1.977286098267999892e-01,3.974407266692795565e-02,9.106608460519655113e-02,6.588081151217539330e-03,-2.068962939313848809e-02,-9.029784601175341874e-02,-1.617274960017985319e-01,8.947603084889922676e-02,-3.456004556683226620e-02,-2.610236628458164482e-02,1.937241180002650665e-01,7.652955028054986286e-02
-3.749939969115576588e+00,9.090696613401647586e-01,9.330035532604938897e-01,1.699830025163004077e+00,2.302221137270234141e+00,5.080811841639170101e-01,-2.245466639468214787e+00,3.004616233590431951e-01,-2.115754960515294325e+00,-1.139006088154567164e+00,2.396616075410082369e-01,8.214485899848118500e-01,-9.429572176888117996e-01,-2.654458183997245424e+00,5.207619778032096525e-01,-7.850643845538801679e-01,-1.481483708885042549e+00,5.672033656331715301e-01,-2.988965260326256423e+00,2.073942326998893526e-01,-2.460180632190124950e+00,1.521242267643203361e+00,7.428331418957593302e-01,-5.576688967510374795e-01,-3.817029064049104026e+00,-5.521071397232630851e-01,8.071268369076117777e-01,-1.178546635286789046e+00,1.465272685172754441e+00,-1.508858236730395604e-02,7.282693401916301434e-01,1.693970557078635863e+00
-2.053772208409109901e+00,-2.637267094847127957e+00,-4.117416410798536153e-01,-4.475644173198961795e+00,2.330203234506654120e+00,5.767561683811666118e-01,-1.492650660142768482e+00,-3.555805410141775758e-01,-5.321313049261937600e-01,1.669708098182729028e+00,5.445451293797216596e-01,-1.446809841132475682e+00,1.857443911961050853e+00,-3.938763123765570917e+00,1.673505757831867724e+00,1.984991711673045112e+00,-9.272179507260958076e-01,6.900519402844532690e-01,-2.646296578874393290e+00,-2.289436961846972457e-03,9.120200190121114936e-01,-2.734292871374871314e+00,1.459737142160528300e+00,-3.983792133897706034e+00,1.934787101592516656e+00,-3.063072929619840568e-01,-1.138728357353624210e+00,-1.760019753108771345e+00,7.416158077680382599e-01,6.918941238795481841e-01,-8.544488281736670743e-01,2.107491404600137397e+00
3.048158784012346967e-01,-1.922737988021831823e+00,2.373606582571642587e+00,-4.450019036805049066e-01,6.278173161142009961e-01,1.244603602886917182e+00,-1.502042047385469641e-02,-1.727120518696162232e+00,-7.487914691013120017e-01,-2.749297159122218392e+00,3.438943591812446132e-01,7.035092714718167439e-01,-2.031751943057079401e+00,2.936241835068860606e+00,-6.243480352498611552e-01,1.670356481843139340e+00,-8.937642853305870494e-01,-9.539708009478063966e-01,8.738567907709465787e-01,2.663134150235924480e+00,1.828338001809239888e+00,-8.704804074948455650e-01,2.585600624968887318e-01,-1.319812302003353199e+00,-1.735236205587944447e+00,-2.677432934982735269e+00,-1.473917849152237336e+00,-9.246345293535002119e-01,4.345691997231708181e-01,-1.337786289479256929e+00,2.110777531409123053e+00,-1.713199894976018545e+00
-1.012445483730124884e+00,1.517625475365870447e+00,-9.850976577297985148e-01,-1.399504543380220678e+00,8.754100085362519490e-01,3.579880216487525413e-01,-6.322814921009800582e-01,5.509134084879202531e-01,-6.715175273839216752e-01,-3.717965582448513606e-01,-3.538150867893333995e+00,-1.061280595956797912e+00,-2.720729220002603421e-01,2.442430326095358151e+00,1.978651964413499664e+00,1.027257369590963254e+00,8.089877397932030423e-01,2.446523825192838952e-01,2.728986581719002880e-01,1.176151404619729224e+00,1.133615927368836873e+00,-1.577428178870580622e+00,-2.002629714426351182e+00,1.776588446602042959e+00,-4.822386168765834258e-01,1.996211747922486124e-01,1.548729223043340042e+00,-3.666731022085842895e+00,-5.323989886849922470e-01,-8.079696551053571207e-01,-3.289274317273917170e+00,5.767180172933289439e-01
9.647267462773526647e-01,3.389914676942443750e-01,-1.587349332581322381e+00,-5.155223352305331908e+00,-4.928999734660514664e-01,1.864257573421216063e-01,2.383514980855880427e+00,-4.318476754887663915e+00,-7.829302946866334434e-01,1.610708135340928937e+00,-4.238399102526621554e-01,2.167993951805265440e-01,-2.747827162083328112e+00,-3.299345069081751625e-01,-3.125458726468662185e+00,1.573720608367191520e+00,1.575055421994156823e+00,-2.455535255539023284e-02,-1.371443439191545322e+00,-1.628392650388906571e+00,1.382858026150528774e+00,1.106887544664945766e+00,-3.951114586979390442e+00,2.052161257222182567e-01,1.462825456218486808e+00,-8.381530918127050311e-01,5.573366695647811175e-01,-5.466322050241755326e-01,-8.914982147308692095e-01,1.528463962756689165e+00,1.289377286709784798e+00,-7.383177975144530336e-01
-2.838067160094195795e+00,1.143614893477953087e+00,8.001573836117288341e-01,-2.222458508119337317e+00,-5.006541234315026179e-01,-4.725924633911702810e-01,-3.225356225005728383e+00,5.504187702135261429e-01,-2.323972685651340520e+00,-2.989346128353993937e+00,-8.262572411306756681e-01,6.737332898899729416e-01,2.638246144313022512e+00,-1.109340331834286486e+00,-4.017664971078888314e+00,4.580522525005779610e-01,-2.509707578534149164e+00,1.219592999917783915e+00,1.640838677615846786e+00,-2.631797059530122329e+00,2.737982202971437573e+00,2.055128293017160601e+00,-6.823912267233125384e-01,1.909548875365675302e+00,1.850756576873090919e+00,-1.612568975592515219e+00,-7.929855225533322116e-01,-1.309932718830796095e+00,5.389638877360215519e-01,3.205965021061229603e+00,-1.705377676155265032e+00,8.678466015996790794e-01
-7.185167910943703884e-01,-7.239468313519180631e-01,-2.619821756674461266e+00,-1.604521625448642186e-01,-1.701324716345760990e+00,-1.383887913590662322e+00,1.009157483390959786e+00,-4.460360787520611936e-01,-2.456774417927297449e+00,-1.184026858200482701e+00,1.865421745494017403e+00,3.251046806209860751e+00,-3.710377786861922100e+00,1.299824411713128347e+00,4.866225344903581385e-01,-2.929219418128404140e+00,9.854288876196279912e-01,4.265851711056095619e-01,2.163321074993953985e+00,-1.750391256294177467e+00,-1.785611816805369179e+00,-6.019016853504868259e-01,-3.501533798344810933e+00,-8.985235377314219063e-01,-1.691519281912199801e+00,3.014953115658046134e-01,1.715293117154025104e+00,1.395881220996548100e+00,1.075048685937422394e-01,1.572490186991545080e+00,-3.136230897056390354e+00,4.160686968868330560e+00
-2.348895173100685074e+00,8.991247625235929686e-01,-2.316296629495531445e-01,-2.652054870048866642e-01,-2.225616751370872226e+00,-1.713944674480995800e-01,3.374797450567363022e+00,-1.756159188929127257e-01,5.656995305383082373e-01,-8.912043391721181651e-01,2.570522634934064854e+00,-3.999707959336257779e-01,3.081739940072059536e+00,-2.932404512615930603e+00,-6.168506501648703955e-01,-1.216226263515806927e-01,2.718798588363268709e-01,1.724115896729731423e+00,-1.103726584741397287e+00,-6.481132856164935063e-01,-3.199976078191813844e+00,-2.686258299959073614e+00,-3.056103650623152923e+00,4.646537886126667516e+00,5.802297680549915043e-02,-2.978504604561583058e+00,-1.247071274020703058e+00,-1.664115578621334635e+00,9.153879760620162731e-01,3.972341188304862047e-01,-3.009095880115169111e-02,8.782015518911471252e-01
-3.025605801796868555e+00,1.180209810980880292e+00,-1.705849273693827328e+00,1.315401990606820615e+00,1.178012098477026592e+00,1.207354295872042682e+00,-1.534722590197065140e-01,-4.499215435619757786e-02,-6.624173656484383388e-01,-1.359945644443330215e+00,7.404291255671328065e-01,-2.064807596677545654e+00,-1.128878183257984169e+00,3.512287666124572105e+00,1.333290905926823644e+00,4.095695819044579800e+00,-6.695061159930731920e-01,3.131820414575014477e-01,-1.210462393277538018e+00,-2.091353894847739703e+00,-1.503054364589508918e+00,-1.738913863717446162e+00,-2.017312916588297256e+00,-7.763125874123661951e-01,-5.776200598824543508e-01,3.226246063600217706e-01,-3.371122921364948066e+00,2.540902346423699054e+00,1.697105633912089351e+00,7.267488173394671680e-01,-1.659929344772078652e+00,-2.771804167137951413e+00
6.663777713067739472e-02,2.590657032282867700e+00,5.731684910809484723e-01,-4.916198924659695102e+00,1.500011793721798825e-01,-2.984923694338505573e+00,-5.707165179777078379e-01,1.535088256017750785e+00,5.980645832186293198e-01,-4.203377393009442464e+00,1.822945356824654972e+00,-4.193121580769193280e+00,-4.190399406689744866e-01,1.995900893823828737e-01,-1.399684869093291983e-01,-1.630482738170103474e+00,9.774412590481726948e-01,-3.096972964794086902e-01,-2.467707075769562941e+00,-4.105054022013637782e-01,1.776067504405805408e+00,-1.612457927637943822e+00,1.258640509924257911e+00,3.030384791115671828e+00,-1.933351836316623065e-02,1.197872742891986197e+00,-3.102035506176323398e+00,3.539645575767117691e+00,-1.506028594147609923e+00,2.029620785784405523e+00,1.816678157635861934e+00,2.353660274502362704e-01
8.203332107989962374e-01,-1.713911614649686443e+00,5.509304643012613578e-01,-1.778601596254227313e-01,1.030561699019644895e+00,-4.785099467521830574e-01,-3.265361763554141206e+00,-2.063308772783751799e+00,-2.257761956884232646e+00,5.213497820595630605e-01,7.159942537993735368e-01,-4.151082705100405335e+00,1.921406250498253421e+00,2.359175619763905107e+00,-1.603987395721436116e+00,-2.290329835716188533e+00,-1.720339691575149876e+00,-5.113760854295276159e-01,-3.820283910092481250e-01,8.432483473846693611e-01,-4.842216693971497787e-01,-2.798732021824406946e+00,-3.700447276545219655e+00,3.074042056041589532e+00,-1.390497118803473597e+00,2.991739694047356735e-01,6.646823655349913818e-01,2.428956843432747537e+00,1.385027397134222626e+00,1.468313267930382748e+00,-5.248491008995668228e-01,1.414659996352025217e+00
-1.731105905930229727e-01,1.666004168413070863e+00,2.032466655519394205e+00,1.340716771042192113e+00,-3.328100209382939045e+00,-3.248989229562729841e-01,-2.909817524989964266e+00,2.650431291025910907e-01,1.218759845725759572e+00,-2.290045172123082728e-01,-4.625559595507684918e+00,2.137746934694960910e+00,2.307341180555577131e-01,-2.374153449222813628e-01,1.145196308913441818e+00,-7.123006233628687012e-01,-1.199387532096784614e+00,-1.864265449299714383e+00,3.719382947248754956e+00,-3.134853901190031600e+00,-1.351766465602911138e+00,-4.964298082456281014e-01,-1.111640571097286756e+00,1.307393916690978042e+00,5.615137214363137286e-01,-2.138062965826093897e+00,-2.461381334559046064e+00,-1.300291361464596673e-01,8.870367668749715717e-01,-2.390898521363130858e+00,-3.246034119670404006e-01,-3.660410330491303821e-01
3.263130160560153148e-01,7.958260375647981943e-01,3.085355120436048981e+00,-1.014293125751824176e+00,4.739055513076251280e-01,1.702665007747367953e+00,7.195459148585230391e-01,-2.362656867313855269e+00,-4.107067693195438629e-01,-1.138390431984929618e+00,1.129182135648568508e+00,-3.721772563547559365e+00,-2.039186101736992551e+00,-1.532945917548496961e+00,1.335464586895897199e+00,-3.845759937054613165e+00,9.825046728909317961e-01,-8.980397462937788067e-01,2.509438160392460926e+00,-9.939086726990919995e-01,8.269222350307191549e-01,8.781308177242581614e-01,-1.042619474068647994e-01,3.357563417212602319e-01,3.779987219387080377e-01,-1.606864351119867917e+00,-1.948327737906754287e+00,-2.105211160972673412e-01,-1.277747904018554204e+00,2.367395797763246268e+00,-3.642071323632551039e+00,-7.027156838856646326e-01
-2.349790905718215583e+00,3.679721621298021050e-01,1.148434465310664981e-01,-1.822562702396465895e+00,-1.352076999071601726e+00,2.610287811426498461e+00,-1.171233339406514418e-01,8.361100120460793761e-01,-2.468901003525100890e+00,-1.120463324087731749e+00,-3.382599066697681955e+00,1.674862014300741997e+00,-3.353542999616994980e+00,1.713284521635835445e+00,7.345582921488910122e-01,-3.641990031286636675e+00,-1.674212150525798345e-02,-5.077244318252195354e-01,-2.321254079041645380e+00,-6.078484857292878907e+00,2.624440049071309122e+00,-9.717567332014853676e-01,1.200090171659673244e+00,-2.727742560352670154e+00,8.473169371627959912e-01,-2.795903230035428066e+00,1.494174713223468620e+00,1.763136021921063001e+00,6.131352264582855538e-01,2.009070559705969927e+00,1.502643269299240858e+00,-1.193464629554228607e+00
7.970664233844664270e-01,-3.011552247539220684e+00,-3.937137626899828824e+00,1.483181199925287075e+00,-3.395895590155043053e-01,1.024098185484683565e+00,-2.943233663752566343e-01,-2.849462541456817100e+00,-1.069370108885405957e+00,-7.038150802132188411e-02,-2.216582113657052044e+00,1.302371587527573205e+00,1.800449364290652943e+00,1.446390953008156233e+00,2.197483063972384354e+00,1.624535057762677981e-01,-1.379457293646698224e+00,-2.700617722989961500e+00,-1.406564214492898257e+00,1.873341995888519573e+00,-3.156466017210475705e+00,1.912271981846088431e-01,-3.482057154325558734e+00,-5.093730390533384167e-01,-7.428267455680401810e-01,-5.678087225839592023e-01,-1.101964384637873495e+00,-1.176937977559402881e+00,9.143939330939662158e-01,-5.076051707985012040e-01,4.183843489711628338e-01,1.127547781139441430e+00
7.141505863345174454e-01,7.829552347785626587e-01,-2.578088128835733350e+00,1.601997645247955626e+00,-5.639625725626623565e-02,1.407433454517235338e+00,1.502407744966535730e-01,1.950322996332515268e+00,-1.155794927306413589e-01,-2.363349848372665818e+00,-1.057196138592666257e+00,-5.417756495965586616e-01,-1.658193490809215520e+00,1.730790089907633833e+00,-1.802130037852545996e+00,-2.604105745788455106e+00,2.116798154660876286e+00,-2.469911387060037988e+00,-7.810950002872560916e-01,-1.148203428739461157e-01,-1.645129841535233339e+00,8.579245022910154672e-01,-1.562942809172847669e+00,2.067982505439998064e+00,-2.257315992767526147e+00,-2.063467507322132910e+00,-1.731684786675388166e-01,2.710326064806531488e+00,-2.594087535962181779e+00,-3.333699099092299889e-01,4.022774190816502116e-01,-1.181946335670325254e+00
3.443788183996087104e-01,9.339354805947773785e-01,-3.639733712328678816e+00,2.447080013449071334e+00,1.295564504253422067e+00,-3.321783832301927752e-01,-4.810381751539636319e+00,-1.701886671970725962e+00,8.566447508419440249e-01,-1.149727967951785335e+00,-3.508345083193240121e+00,2.133105154891925537e+00,-2.396560606376581859e+00,-1.647620297684422530e+00,1.372830079626438549e+00,2.459048234244494147e+00,1.019332923326500273e+00,-9.576641837903207208e-03,-8.504600727131906845e-01,-3.560107120729360641e+00,3.916679062114079568e-01,9.850924418277278161e-01,1.323509458045264153e-01,-7.912844526366655806e-01,1.618948810598948851e-01,-3.898664667773056980e+00,-8.676934668094237191e-01,-3.512182120980414379e-01,-2.618770264347842325e+00,2.173172013883826192e+00,2.331111802049642412e-01,2.063380689081144581e+00
-6.680414856817903368e-01,-2.314135807345707008e+00,-8.145194809750420095e-01,-2.477811692244086483e+00,-4.392941262408001535e+00,8.211426576884099937e-01,-1.035260690579298259e+00,1.939596517138775011e+00,3.724148005275303763e+00,3.669237224110807327e-01,1.319460107757100875e+00,-2.828479628207037244e+00,3.806138284310051634e-01,-1.242283259472547918e+00,2.013885457445096172e+00,-1.261056620032312781e+00,2.184248995568156104e+00,-2.793011703795169165e+00,-8.967500336893591273e-01,-9.194280879821413732e-01,-2.818744046475861964e+00,5.801717997227047174e-01,-5.722486659568713774e-02,-1.100732224426318462e+00,-2.237503318322935364e-01,-2.774763298842064518e+00,2.412306974133301196e+00,-9.041179963636959416e-01,-1.219899942295402384e-01,-3.947509425857914644e-02,-3.836095165519008421e-01,7.713849740329431492e-01
-7.753777255191715012e-01,1.719702727033562306e+00,-2.540617087769222238e+00,-2.745820485183047666e+00,-3.983768759260062353e+00,-3.161011124500470726e-01,-2.969529894453641905e+00,-2.769912027743499205e+00,-1.137581190839505263e+00,-2.318219809248509566e+00,-2.864047296995931857e-01,1.523128723841201237e+00,1.275167074024230240e+00,-5.447557524876563972e-01,1.308029598068716215e+00,-3.108040054812676534e+00,1.867226193476759777e+00,-1.105014023878193363e+00,1.552402806928709023e+00,2.143574200186459056e+00,1.889909912568183747e+00,6.282298895986590005e-03,-1.737410814572917017e+00,-1.410319087301053598e+00,-4.758181156444299953e-01,-4.778594449065669991e+00,-1.083909298956737377e+00,-4.604357518367038771e-01,-1.997301421012231071e+00,2.989429630101336333e+00,3.012868233502929982e+00,-4.737920447856575762e-02
1.914415436575717389e-01,-8.856115159911596979e-02,-1.168931990876341809e-01,-1.212905947379172567e-01,1.249185318580916942e-01,-5.801480653162531531e-02,-8.426672106625072989e-02,1.539419052649980066e-02,-2.313712201950605604e-02,-7.581337727760455170e-02,8.429880873093341387e-02,1.191058928907378217e-01,1.101618464705149542e-01,8.574422573220619181e-02,4.501490285418582177e-02,-1.985503144170396583e-01,1.866279137277620515e-01,3.376342014154859461e-02,6.799395565342318537e-02,1.246565773230732393e-01,1.602536816081798487e-01,4.677831974690400962e-02,4.869554097620167055e-02,-6.699531090840638026e-02,3.699546645240943746e-03,-9.549813214639120418e-02,-8.049179848133243553e-02,-9.990465532641384927e-02,-1.744400131919759955e-02,1.172921841460552034e-01,3.545257574006913104e-01,2.118670356343530306e-02
-3.860831358355656939e-01,-2.189242851675460955e+00,-3.705599381925076319e+00,1.579818366797720808e+00,2.108719846745680915e+00,-1.546665507312064980e+00,3.029365629277125938e-01,-1.301028603093739466e+00,2.054894200866699716e+00,-2.067709703424521095e+00,1.999404498592923130e+00,-1.382501816847244935e+00,4.168026974040657251e-01,-4.358155028058855684e+00,4.526235917910070850e-01,-1.132725286384568819e-01,-1.158065410967204389e+00,-9.327478463722708169e-01,1.434439862315588954e+00,2.272121957158700578e+00,2.075609870558529302e+00,1.463162430880360576e+00,-2.478361294193112574e+00,-2.231221807437379356e-01,1.734354025100871777e+00,-2.311586419332402276e+00,-1.785890508942427957e+00,3.429677684479617294e+00,-2.720976509255058629e-01,-2.293858367782871444e+00,-1.945804553300056527e+00,1.328320352344216637e+00
7.574257314215253334e-02,5.793695675160488029e-03,-9.829314646083445184e-02,-2.583794521437108790e-02,-1.832242270374282445e-01,-8.198686432641498489e-02,2.403297391332872568e-01,-1.008956912019449981e-02,8.180195485922579779e-02,-7.321822927953578093e-03,3.892650388373997822e-02,7.415450875746423809e-02,-1.234998900571857294e-01,-3.458778711699725655e-03,1.765224951011844512e-01,-8.893966530288162364e-02,-6.332990090551400553e-02,-3.440093061381792328e-02,3.007780576029826444e-02,5.868760128580795959e-02,1.417009307825007614e-01,5.584560023384915750e-02,-6.937750375071039671e-03,1.407791648421533870e-01,7.872200546077186278e-02,-1.672220535452345058e-01,2.824565560816270082e-01,1.978832269419345258e-01,-1.880692184447352311e-02,4.225163384355458407e-02,1.480678095793672711e-01,-1.925263391247894473e-02
8.165581253858460176e-02,1.234956276694388205e-01,-1.134609857511069825e-01,-6.734274848123650292e-02,1.030165906271813953e-01,5.152062479604042206e-02,1.032835953121234857e-01,-1.482155462039508841e-02,-3.231176487726659247e-02,-2.234546864959476298e-01,-1.281267427957197558e-01,5.262149354591582479e-03,9.218829971419260916e-02,5.938754678755570754e-02,-1.433788857473520910e-02,-3.038498485124008566e-02,2.428142109538131838e-02,8.744275876129924824e-03,1.570329624448821015e-01,1.637257587334055298e-02,-1.656083331435121431e-01,-1.422763247626308569e-01,1.698024559456537130e-01,-1.309397202181200870e-01,8.547341368042168930e-02,-3.000498396178638214e-02,-1.897955424551727929e-02,-1.499650101406998885e-02,1.365549898023296072e-01,-2.156037187648321418e-02,-3.725209070165230122e-03,-1.711490340189844028e-01
5.265178522836845287e-01,1.678243159867072620e+00,1.256434693831050220e+00,6.717310663132115556e-01,-3.358927729281871777e+00,-3.267661414506521478e+00,-3.641303344743553883e-01,-1.505447426519547216e+00,1.521173005592026728e+00,-4.305850079285282739e+00,-1.898051444796545972e+00,-1.561916561907164436e+00,-1.468324174386556645e-03,1.893997726964010031e+00,2.974021131308909993e+00,1.865056576805420363e+00,-1.934433095256933521e+00,3.954517742014948545e-01,-2.144636447224631537e-01,-2.345516050046043244e+00,2.531802153762880980e+00,5.109528706319087510e-01,-1.891412290276493158e+00,-2.727587061347124808e-01,-2.220006466027022451e+00,-1.704818297657313408e+00,1.740222499321331773e+00,2.034529403261235103e+00,1.170839526179911161e+00,7.426493371307049118e-01,-3.169301387427457262e-01,3.086823468896129352e+00
1.311555847328815583e+00,-3.807544861225605981e+00,-3.904886759515732386e+00,-4.802620871782965040e+00,-1.096758726499624803e+00,6.140914508374492042e-01,2.000294706287486513e+00,1.631999423664588278e+00,-3.776489959615663139e-01,-1.513493934975838950e+00,-2.826137975724757112e+00,-6.177239942887510216e-01,2.131076327604475740e+00,9.068972011552004497e-01,2.310474409012007069e+00,-2.090522387926137871e+00,-2.737307097739976491e+00,-2.049518123317546625e-01,9.077259082499422593e-01,-2.337249477855402269e+00,1.225118578553809012e+00,1.159539630058733062e+00,7.651785929605332548e-01,1.402691550642833018e+00,1.157017712482010019e+00,-2.262933339906733288e+00,8.521832799428175065e-01,2.719103707305039030e+00,-1.834377350608546120e+00,-1.017469568965939208e+00,-2.429883373130269641e-01,2.089548349319474696e-01
8.407018427476076194e-02,6.294416406960291754e-02,-1.336035864398014139e-01,-5.594750163451940594e-02,2.826429115337329712e-02,-4.561743126165036799e-02,1.984128589594164049e-01,-4.395586345207050383e-02,-1.813657379929833890e-02,8.602490911721133449e-02,3.695468413313776623e-02,-1.624217808521240258e-02,-8.457854775580267437e-02,3.371029642554711908e-02,1.161745137932071598e-01,5.356447443895672594e-02,-8.700356264730277345e-02,1.941773432709598957e-01,-1.617323248434237581e-01,-1.769496341041959520e-01,1.073935625082443057e-01,2.524973311133509035e-02,-6.143580515365749256e-02,-1.228239412452559187e-01,2.594733101400666375e-01,1.309115748421527635e-02,5.972550658355618713e-02,3.554063432293523561e-02,4.861300753223622012e-02,6.038439640022713606e-02,8.188749370824360829e-02,-4.195113973907664551e-02
-2.429954785409530249e+00,-3.598573320997520142e+00,2.886450988394452466e+00,1.402727235985769427e+00,-2.119526388836786845e-01,-8.069207733666270421e-01,-1.886547343695513579e+00,6.755568261405793251e-01,-7.484074304614186657e-01,1.850677107767871865e+00,-9.236886779265334191e-01,-1.787072581785328129e+00,2.829278436691521903e-01,2.399849926793112154e+00,4.719199104153427859e-02,-3.518194159440385937e-01,4.550795289970674951e-01,-8.773573334068683893e-01,-1.141999089860352257e+00,-2.042636308693234426e+00,1.738454824624416695e+00,-1.399666061927284100e-01,6.053226525511663514e-01,-1.379958155293764255e-01,9.801384403439264981e-01,1.351990657635405491e+00,-2.317569375426320910e+00,1.785323422796573911e-01,-2.512676525788660520e+00,-3.078652705718505800e+00,1.064573091263051774e+00,-5.294071081543537671e-01
1.243060516946156824e+00,1.123081894798486635e+00,-4.623319651307370215e+00,1.728017822491521249e+00,-1.378091542044037832e+00,1.478780220945320911e+00,-3.265100307326875839e+00,-3.599241116904422499e-01,6.313533637248518460e-01,-8.264999888669110062e-01,-2.752390391829099503e+00,-2.562129194369777707e+00,3.664014656349600774e+00,-3.875428250064184343e+00,-2.052734752853883293e+00,-1.112333720075245003e+00,2.665689539528622642e+00,-3.677364041997444932e+00,-1.724590078008568783e+00,-2.890040933028291903e+00,1.009827678403549589e+00,-2.559407067204118480e+00,-2.403933100451593141e+00,-4.468252471627081057e-01,3.251658397307096493e+00,1.175547751328802182e+00,-2.893436732190088012e+00,-5.191946662268504653e+00,3.670766342629028789e-01,1.879697977403983478e+00,-5.417480600026621795e-01,3.888597245044326800e-01
-1.005356109354744287e+00,-1.016942076891075519e+00,-1.528774948670754474e+00,-6.921709029158760185e-01,-1.150182480455052891e+00,-1.336817070030280885e-01,-1.487679845330602824e+00,1.672207431769655583e+00,-9.661388647727685575e-01,-1.235394257782228111e+00,-7.505038446470158053e-01,-1.559838716708781936e+00,-3.190957295731200460e-01,6.243917943703303219e-01,-2.461029466831115453e+00,-4.052602764758417853e-01,-3.864924580779648955e-01,-1.711627394324463536e+00,-1.056745423398383732e+00,8.503755398069903215e-01,2.578670050866805230e+00,1.787754839931549489e+00,1.915699451661119435e+00,-2.211252757392985213e+00,-2.750009389748228283e+00,1.391159203004782796e+00,1.749350849048503242e+00,1.598992985157388746e+00,1.163883397294772637e+00,1.129477017331948607e+00,-1.807945218746547900e+00,-1.110155228705287600e+00
-2.104182463184022467e+00,-3.211183547184996989e+00,-2.740820522968748563e+00,-6.797152192997525377e-01,-1.042850407391232137e+00,1.405819247397398053e+00,4.552136360670573367e+00,-3.961016186349383350e+00,7.614865592186919052e-01,2.210206694873692701e+00,-1.175782489005432474e+00,-9.397849584006778834e-01,-7.549646804407290634e-01,9.851709878897677575e-01,1.378780040165006104e+00,-3.294766968306648725e+00,5.052153457699375405e-01,-5.599941001864671142e-01,1.356095885251070277e+00,1.740748008173689465e+00,-6.444914237537745505e-01,-1.941481078272270233e+00,2.076659240923438343e+00,-3.184884090677382318e-01,1.093675532143479900e+00,-1.776050669931048265e-01,7.645005738877912460e-01,1.175503649924963812e+00,2.009208368683597978e+00,-1.314635445812056602e+00,-2.855067557019684621e+00,-1.353124581560117612e+00
-4.467959928623886690e+00,-1.044177803389614745e+00,8.495433614977037085e-01,-5.168447433738333485e-01,-2.609909471407585002e+00,1.594666127472935679e+00,-2.195902551930898561e+00,2.733596809609024625e+00,-2.193488656648278745e+00,-1.742443746864853482e-01,-7.481989543144514920e-01,-2.604614864038915650e-02,-6.156498882773880910e-01,2.374695821590564027e+00,-4.224912062920633815e-01,-3.315829818919914906e+00,1.407785199162782941e-01,2.179695598180221516e+00,-7.514906586211131945e-01,1.362482453189779230e+00,-1.389425170986405167e+00,5.795739034753841779e-01,4.437703265786587803e-01,2.378900967391490262e+00,-4.740691856534449689e-01,7.804737719398989471e-02,-1.343565488964247434e+00,-2.755035489354860090e+00,7.730219917117555628e-01,1.726346616905793496e+00,9.935853386199590132e-01,-2.294561221375658544e+00
-3.319433521503027951e-01,9.825509115434493124e-01,-8.220915282964125215e-01,2.985237766966227113e+00,-3.116809827889670981e+00,-2.118283598527695766e+00,3.783432716715091182e+00,2.766060100546012812e+00,-1.608211436032733754e+00,5.316559591712476385e-01,1.324008530795283356e+00,-2.232516715513971350e-01,-1.420311790007457109e+00,-7.429209579266333741e-01,-8.210277715990219605e-01,-1.065906643117534802e+00,-3.080912285738472978e+00,-2.777115463254973715e+00,-1.741567792986449037e+00,2.576806570425002274e+00,2.055975243703316302e-01,4.994516452981239141e-01,-6.327289254207443259e-01,4.466535860052641693e-01,2.499206611245460508e+00,4.278554943106552821e-01,-1.214502636157086313e+00,-1.486545886434814445e+00,-3.439732191969727126e-01,3.776536892243698845e-02,-2.386449473284796952e+00,2.654855153886204189e+00
-4.185788245336476976e-01,2.280960194812705844e+00,-5.010377987341619876e-01,8.517590337109077758e-01,-1.652445343108794207e+00,-7.192347772136991058e-01,-2.990090827469766843e+00,-3.225562565860817243e-01,-3.433241061654815351e-01,2.471494512685591616e+00,6.599966725112381694e-01,-1.584300005934720090e+00,-3.264848783105253061e-01,2.826122300606410120e-01,4.411921355906052722e-01,-1.388823720683288188e-01,-1.260754219586912583e+00,1.860155182762236015e+00,-2.094699434615083788e-01,7.336123689080338295e-01,3.367773815158822681e-01,-3.204345031642363839e+00,1.766410402732413898e+00,-2.654319431913921418e-02,-8.869402351053706779e-01,-2.759244963096183945e+00,2.235184549811581878e+00,1.393287642035489604e+00,-1.797655006726244009e+00,-3.773864829753612593e-01,-6.950950245138229899e-01,-2.001273768317500590e+00
-4.565814542168260992e+00,-4.437817801780951643e-01,-2.428590135502620040e+00,1.908970247635670470e+00,-1.575423299927141807e+00,1.302961427578504638e+00,-9.450654843360830615e-01,1.897341364339067971e+00,1.225685391316770234e+00,-2.440011796954085987e+00,6.907016933650166335e-01,-4.712355918358412943e-01,-2.300025902016243240e+00,-1.786546817341096327e+00,-2.721736623738982175e+00,-3.270537335278854485e+00,2.190323545481057455e+00,1.663774578964219319e+00,2.124064599700410838e+00,-1.123686481017256433e+00,4.440384763061661078e-01,-2.630492535286437228e+00,-3.289805880654235459e-02,-2.496236083768970104e+00,8.633551574388244054e-01,-1.003593830457241154e+00,-2.019627639132794972e+00,-1.961498935766457508e-01,3.905429947815903802e-01,-1.590113530511498618e+00,1.384352994334205444e+00,1.094127061077512009e+00
2.711778747727065397e+00,9.141243596825259221e-01,-2.673591980118321221e+00,-1.380936323799944354e+00,-1.910425030847622718e+00,-2.532674649956527801e+00,-5.127887280367485756e-01,-2.232801170717233497e-01,1.148556578475995016e+00,-3.080306165123798845e+00,-3.892550703685787372e+00,6.977465157925771821e-01,-1.024155426210975994e+00,1.893186439211030470e+00,1.193232178225775320e+00,5.561860365770974202e-01,-1.771092705516130517e+00,-7.844671507115271725e-01,4.117289876873392318e-02,9.055138346438927899e-01,-6.222257775143738012e-01,-3.041093880631220880e+00,1.181861260133448832e+00,-1.901231279277008301e+00,9.231142682189563686e-01,2.328574825484297506e+00,-1.229989384464296620e+00,7.135816031176618335e-01,3.183562525463408399e-02,1.458480074808579330e+00,3.574831063303195999e-01,-8.734420660321483565e-01
-3.798590941118560327e+00,-1.557461705675706964e+00,-6.548653956312937563e-01,1.189322729131245593e+00,-1.196171158648628108e+00,-2.266196895182905457e+00,-2.860688181879099456e+00,-3.473093095845592337e+00,-9.963955945128761815e-01,8.467563937821400710e-01,2.134171840560339373e-01,-1.536183313466275457e+00,-1.371646597779201171e+00,-3.520152636112479971e+00,5.080749789773829628e-01,2.757664708326294178e+00,2.647178544055993066e-01,-3.470743905629692372e-01,4.405639751763291478e+00,6.233617204909399634e-01,-1.197587031489890874e+00,8.406410087289914457e-02,-1.271113872453423776e-01,5.536898745573991532e-01,-1.257803764254298295e-01,1.991804971864932661e+00,-3.663182794471179782e-01,-1.470220660611617047e+00,2.099582988574397457e-01,7.710206771497588596e-01,5.565089274910501455e-02,-3.700848379246477471e-01
-9.928568571911992047e-01,-2.585584777147897917e-01,5.660250964001464213e-01,-1.951708971570208284e+00,4.192722335165963710e-01,-9.676041481164679992e-01,4.127268879456117423e-01,1.795440077840416260e+00,1.278084088263333085e+00,1.453752571113575920e+00,-1.629667570562339574e+00,-1.831717738629635495e+00,-1.191343680686334450e+00,8.050318259260801357e-01,-2.156297764022039765e+00,1.410302650168120175e+00,-8.877375768706192716e-01,2.041957891824822902e+00,1.757284591640543958e+00,6.992548421962150318e-01,-3.019619007075823980e+00,1.578510566192631526e+00,-8.136786007548812982e-01,-8.005472893498583042e-01,-1.441392655240832488e+00,-1.129931253627757259e+00,-1.438411418400754371e+00,3.966057177312634074e-01,-1.845778694449522250e+00,9.297425821524021305e-01,-3.818216152369867111e-01,2.071028005710798148e+00
-2.349074140720115889e+00,3.764763239363015379e-01,4.015586009182063876e+00,-3.455678746798670486e-01,-4.597998602910207566e+00,8.743203944414814632e-01,9.615287542896557849e-01,-2.056780396358780794e-01,8.937365147542069010e-01,-2.622216224439359422e+00,-6.247107001549582428e+00,-1.209790755921478000e+00,-3.099484795003716986e+00,-2.684584826395177704e+00,-3.782138793447149094e+00,2.714283180275592677e+00,1.151860381826345536e+00,-2.060090878292768768e-01,-3.543417548861736766e+00,4.519022851205374280e-01,-1.771424658720426870e-01,-9.243340154219731319e-01,1.433667311423898472e+00,3.830811522789791534e-01,1.785027383171853943e+00,-2.659625998411365155e-01,4.106678412903203679e+00,-2.775151204744043532e-01,1.428412560930756747e+00,-5.035262607017394476e-01,2.147705422264665653e+00,2.727034841565242340e-01
-1.012283442718630022e+00,6.551160390672482459e-01,-1.490958206470163194e+00,-2.509873049569758763e+00,-1.403358459739127095e+00,-1.575636753540367030e+00,-2.455898395002228174e+00,-2.571436907038775033e+00,1.668225663210282983e+00,2.829915412931603758e+00,-3.708850842752535737e-01,7.091884592792325748e-01,-1.736772841750292340e+00,1.718713179087801191e+00,7.965469511269965830e-01,-3.346829827585856343e+00,-3.115922011365996003e+00,1.828176256023419377e+00,-2.094685759943772929e+00,-2.759344214837565201e-01,1.327805168833999128e+00,2.796509512390382035e+00,-2.209234049115897491e+00,5.452265508253330006e-01,1.159574430744592322e+00,-8.067596231789402328e-01,-8.050487455240129542e-01,-6.200329160197620704e-01,1.846974323191996836e+00,-1.917920372421939357e+00,2.001867842755097104e+00,1.039694642488968146e+00
-8.957906639380152081e-01,-3.426821227879872644e+00,-1.932046893626429007e+00,-1.722747069586320068e+00,3.276932209703040111e-01,-1.840802930363874212e+00,-3.093256245504017343e+00,-2.803199349023387937e-02,4.462384547043050653e-01,-3.100506419359580157e+00,3.189505803689955510e+00,-4.907965027895945243e-01,-3.082468597050973091e+00,1.295743737737987900e+00,5.126729105609379999e-01,-1.712738221922238679e+00,3.138692373066839902e+00,1.847426120004695971e+00,-3.828884454481824573e+00,7.450956228058212005e-01,1.223744242957338635e+00,1.367859519008583158e+00,2.503900025143587005e+00,1.578221581111641125e+00,2.423922275800346748e-01,-3.891354684516851736e-01,9.382644834141136148e-01,1.569497448307440313e-01,-1.583612729916476169e+00,-1.697920153698294854e+00,5.415001173215114871e-01,1.468379114130957008e+00
3.799925549321717666e-01,-3.329274256344352811e-01,2.827295118015847653e+00,1.394540408583615942e+00,-1.707524219083595085e+00,-1.790575902640412664e+00,-2.504440786952335962e+00,-3.685615111420226686e+00,1.040367989360946988e+00,-9.274887908896527200e-02,-1.317680243000358409e-01,1.795246314417347167e+00,9.346657614904821942e-01,4.225525761717636164e-01,-2.624011057974096950e+00,-1.305818065585077070e+00,1.056477582734465681e+00,3.508534746462701470e-01,-2.223412031113113141e+00,-1.665767682851013176e-02,5.315706646358366871e-01,-1.044472884847994276e+00,6.642546356444909428e-01,-1.204434037553858028e+00,-9.408382378309784189e-01,-5.794614657325151130e-01,-2.694071917955017437e+00,-2.988757764409817885e-01,1.180538071548922430e+00,1.901592055600581643e+00,-4.775263879016198310e+00,1.338044256589868031e+00
1.797421570132416324e+00,3.115817800636782042e+00,8.461288789369504626e-02,5.609555997157296137e-01,-1.256403416288916608e+00,3.997020304411559866e-01,5.790351240017345136e-01,-1.861165237017158303e+00,2.614566616961846002e+00,2.480519310905655583e+00,4.033732674909570881e-01,-2.876413695684511218e+00,8.609342739862330118e-01,-9.456854491382022943e-01,-1.294853131472036623e+00,9.981713300724840421e-01,-3.789919517748117639e-01,-1.873577639630924274e+00,-3.199981700830885067e-01,1.756520405940717566e+00,-1.053890881221696496e+00,1.894872590011696945e+00,-1.026324638518220533e+00,5.122005689035760145e-01,-3.475128640018469106e+00,1.208841201763732442e+00,-2.233473420674475296e+00,-1.738916285972694320e+00,6.115980709457494724e-01,-4.154236357349248898e+00,-6.317818774604730403e-02,-3.238513998092005686e+00
-2.154822396063146517e+00,1.632208613523593810e+00,-2.704056140398059860e+00,-2.391683007163586172e+00,-1.608458140827547567e+00,1.957909371539094279e+00,-3.536739324113599370e+00,-1.015359439900865857e+00,-1.240986048456309110e+00,9.844368077419718421e-01,9.278467886347412374e-01,1.123525991865122142e+00,2.044429838827652515e-02,1.530229336302138643e+00,-3.426805415427193413e+00,1.965092141664950276e+00,8.258104292703946081e-01,-2.202582906608431923e+00,-1.108308090316860062e+00,-6.025590440399936076e-01,-2.368729846170118503e+00,1.830449106285053917e-01,2.260169453706685427e+00,6.931520491952253282e-01,1.951538649777224688e+00,-5.612729465540343687e-01,-7.042606814219898315e-01,1.885739665554409195e+00,-7.875902658070347284e-01,-1.334406936080381856e+00,3.786089139068384291e-01,4.850319499901985520e-01
-1.498401575406751229e+00,4.788073366699155953e-01,-1.194329727273347075e+00,1.933508036475633407e+00,4.194848361779329737e-01,3.003544612609646003e-01,1.339875535040559562e+00,-2.366840528150672363e+00,6.842434246553878996e-01,-3.522620506557979869e+00,1.035345700167313643e+00,-1.863447113874834082e+00,1.418962834813786156e+00,1.952192214585656505e+00,-1.095568242076860654e+00,-1.033433545327823389e+00,-1.691880085470478301e+00,1.360012239150111713e+00,2.243942419792447907e-01,-3.889691968165622238e-01,-1.140890260169008963e+00,7.135205392614751840e-01,-2.924363889473265976e-01,-8.677256730668646556e-01,8.338060605645569723e-01,1.595312986449432868e+00,1.802440277421510251e+00,-2.406139194752926702e+00,-2.214948093688897224e+00,-6.009049627438634023e-01,1.165730240804399243e+00,-7.271750487524037965e-01
-1.324327048347255120e+00,3.071249489312100067e+00,1.652370153272716191e+00,-1.666834073990650866e+00,1.299982166675949236e+00,-6.459637266569344671e-01,-9.049019943573252123e-01,6.083553967857588951e-01,6.575031179920373114e-01,4.232956800421002197e-01,9.101506799685508131e-01,1.730559802036778283e+00,2.645455965585478797e+00,1.886400074593601595e-01,-1.735795668664048330e+00,-1.611040671919870548e-01,3.029154316270780689e-01,-2.811118802985111742e+00,-1.466214733547410276e+00,8.144179118961143715e-02,1.182587243222891910e-01,-1.835200800831333412e+00,-3.631259554764737718e+00,-2.954058035186052145e+00,1.801449405350362964e-01,-1.612800966619789778e+00,1.179048702456389153e+00,1.601044178031759024e+00,-1.251930892811677465e+00,-1.902873054725229940e+00,-1.033301839371423503e+00,4.800172459198111530e-01
1.589817006460617077e-01,5.102297515917405407e-02,-5.910717655446795504e-02,-1.207519604365069922e-02,-8.283141564332678619e-02,-6.800901808468748366e-02,-7.163531371110332113e-02,-1.268198915614512090e-01,8.690220641648946365e-02,-3.253942480747470251e-02,6.195334666729981205e-02,-7.492235304006533703e-02,-6.748732037635953723e-03,-7.949675545934717369e-02,8.046134752821924863e-02,-2.777412283579173968e-02,-8.171415105731670570e-02,-1.835480009249784161e-01,3.082045717243856939e-02,-7.919985656363769111e-02,-1.764170105713686520e-03,-5.497709740507809167e-02,1.066816383155836656e-01,6.083723279361474140e-02,4.999983139542920479e-02,-6.888443570624153134e-02,5.213281173047805417e-02,1.917240023482474909e-01,-9.304122711427499637e-02,1.926810152501334111e-02,-1.843880632221619464e-01,1.563639954373510221e-01
8.156981041627987539e-01,-8.524599397353097574e-01,7.146800627607657885e-02,-2.326566004360495654e+00,1.938639124212067300e+00,2.211107458381944280e-01,-2.589122845919373361e+00,-2.358887336064002582e+00,1.666523629245537652e+00,-1.124143305588832797e-01,-1.145933413813367885e+00,-5.745978729975040888e-01,6.079591563049558944e-01,-1.678294279809563694e+00,1.395676958214803198e-01,-1.128652797276980646e+00,1.759652360172454078e+00,2.145734613976191696e+00,9.402187896578262372e-01,-1.784740093292332075e+00,-1.379987693439772345e+00,-2.158800218338820187e+00,-3.947262560451387375e-02,7.210291656683424921e-02,-1.876727046022471201e+00,1.591448655831854131e-01,2.003512321496748072e+00,1.503302535651904304e+00,2.750400190141804591e-01,-1.646065376377858325e+00,6.249565440967733698e-01,-2.005257563468092474e+00
1.554664237699889817e-01,-1.835083532051502153e-01,-1.733353029495951145e-02,7.385761798301456425e-03,-5.543162143706070744e-02,1.360175233920247195e-01,-3.786581947120494507e-02,2.274933683250853766e-01,1.178606732383007116e-01,1.063064390898967038e-01,6.253152710682036153e-02,-1.189247824449970181e-01,-4.819803577626226299e-02,6.403554952493273333e-02,7.575317928676218726e-02,1.461475968345622711e-01,-5.226149364973300265e-02,-9.616807198840449100e-02,9.605076874117654540e-02,-9.051900302080471972e-02,9.763923155042972257e-02,1.341345822764852258e-01,5.099945981260963629e-02,-3.997855114051776515e-02,4.593132516236688584e-03,6.635150692811338236e-02,1.138775611314618574e-03,2.457770023978060325e-01,-1.107603772107641910e-01,-1.121017560131269686e-01,-1.092202245823066659e-01,-6.591703924900814415e-02
2.157366387000940300e+00,-2.933705903464661535e+00,8.513684401388904588e-01,8.956905348702144387e-01,-1.516279223035499779e+00,-1.836396368599904905e-01,-3.925192455648836454e+00,1.574764687060374646e+00,-7.887462926065094138e-01,-2.752992358814647211e+00,1.113299972766639945e+00,-2.945601319714079014e-01,2.445947722415016568e+00,-8.438161173628061507e-01,-3.434504442322454387e-02,3.613460582213073313e-01,-2.860031859433358470e+00,6.122277321887191759e-01,-3.814026829941334462e+00,4.047113940485352335e-01,-1.054881658092893471e+00,8.963682992784333114e-01,-3.550585843207300640e-01,1.189090235236193616e+00,2.593279187477342540e-01,-3.203832506348810227e+00,-1.562445390640413878e+00,-3.165882986902446850e-01,-2.354541789426298326e+00,-1.745027872549343995e-01,7.069649687618325684e-01,1.196826440336850039e+00
-8.425251497445231941e-01,-3.236637351862369449e+00,3.232097523675612649e+00,-1.036801509480646644e+00,7.454385088962105499e-01,-1.646373277145526393e+00,-3.174637541321048695e-01,1.176843723960482979e+00,1.208714393026018463e+00,-2.571570370269089079e+00,1.094872493433620475e+00,5.897178135998580872e-01,-1.266189892605031453e+00,3.313643779705751080e-01,6.378317312459161892e-01,-2.474484296015365403e-01,-1.840911483726366482e+00,-1.557608993568636135e+00,-6.020799308620905510e-01,8.115560324853983432e-02,-2.443289047531393976e+00,2.198189324081151419e+00,1.523824731267405808e+00,2.807569182007708442e+00,3.763113307037287414e-01,-1.455380509869502459e-01,1.548446576819609843e+00,8.452313143865822775e-01,3.396414617234292943e-01,-1.434213467327302816e+00,-3.621971015556982643e+00,-3.144796826666881540e+00
9.780986724356435236e-01,1.293137538898211814e+00,2.517901384527403835e-02,2.013346871448562503e+00,2.530947194178903459e+00,7.551080257704176901e-01,-1.800964142218900443e+00,-1.135598316091530835e+00,-1.670181241725817500e+00,4.076424463260484021e-01,-2.860364964305269098e+00,2.019866959032690534e+00,-2.378139438338807921e+00,-1.081566829945921793e+00,-2.792141938639067344e+00,-1.478824034767854512e+00,-1.028334014784557882e+00,1.073734591193993282e+00,1.628195289647533128e+00,4.400174019430573846e-01,8.094815616070795139e-01,1.332397770799271131e+00,7.705583482114873872e-01,-9.229071162804448614e-01,1.288914231292642709e+00,1.267970527388418311e+00,-2.991275022658845817e-01,5.962228407876553060e-01,-1.214007282010267863e+00,-2.892619763717532599e+00,-1.989513238368884496e+00,-2.902418394444306049e-01
9.898175465281849883e-01,-2.057261881403893877e+00,8.510832849954937107e-02,9.039880708449895552e-01,-2.159367540960399900e-01,1.130796888891519636e+00,-1.001461048691505151e-01,2.601474854201322184e+00,8.002662602744882170e-01,1.269787423394899140e+00,9.679444056164907551e-01,-1.834345536391553955e-01,-1.140747128175673364e+00,1.295945388926335262e+00,-3.377108413484418037e+00,3.534908768510011678e-01,-1.486113662232913857e+00,2.950141471145336869e+00,-3.696055866868298789e+00,-3.246050067650632531e+00,-1.410221372125741945e+00,-2.324682702141441570e+00,-1.996937638156758066e+00,-1.258437045472966087e+00,4.681259148078143473e-01,-1.014181926674907697e+00,2.120442345954259622e+00,-2.463022792158735097e+00,2.935764713209290555e+00,-1.764395857100767850e+00,-2.373327885969045425e+00,2.463696584092089081e-01
-2.177822701488657808e-01,-1.885089849259939720e+00,2.053619411814346929e+00,-2.931240009358518250e+00,-2.058077276162942892e-01,-2.385621042540071457e+00,2.942363663231169379e+00,4.523495922820211512e-01,-2.996934629606641920e+00,1.693606272307049521e+00,-2.905993403740225189e-01,3.582003401861683645e-01,2.976904491102055350e-01,-1.671859607589840868e+00,3.879808704994903157e-01,-1.674936478228051362e+00,-3.730345372801767923e+00,1.288805696764097064e+00,2.818054485292276201e+00,2.779851826284699956e-01,-9.241351472740413908e-02,-2.920908954032912508e+00,-1.290498247741108884e+00,1.798240253242031766e-02,4.991144522427935770e-02,1.315609133166457223e+00,3.227888369046807374e-03,1.024271150898982408e-01,6.836599159416062443e-01,-7.145940849100926862e-01,1.794036003286773262e+00,-2.549521115822384054e+00
8.205874622104720739e-01,-2.142924615742323180e+00,4.068397672333459725e-02,-2.663527123005143604e+00,-3.768759778168183416e+00,1.136007099588965064e+00,-1.958103255991417768e+00,1.617790746043167027e-01,-6.557729675113872503e-01,-1.415823524154891988e+00,4.555743424513471473e-01,-1.064485048820924679e-01,2.470877384136629384e+00,-9.529641548900958936e-01,-2.221674455729957032e+00,2.546240323197106914e+00,4.776308468359973247e-01,5.362494521143357229e-01,3.075997990155930228e+00,2.039347562532660252e+00,-3.966875008264960645e-01,7.739445480652028531e-01,-4.139130303042495740e+00,-2.633643971461406164e+00,1.914685346469426230e+00,1.065220911959628092e+00,-1.252958501051025131e+00,-9.375732505425602437e-01,2.995641237365435083e-01,-7.879376504397609393e-01,-1.077240255030625704e+00,-1.451771086697553059e+00
1.424933259868258473e+00,-1.256364243046755202e+00,1.164212182033823373e+00,-4.839019174610692531e+00,4.255540745219884569e-01,9.750205570784730158e-01,-1.875818598113364044e-01,1.708666880947355970e+00,-2.202416510413313766e+00,-3.565812677352210858e-01,1.023652959568879472e+00,-1.704095827088503601e+00,-3.530144951751800875e+00,-2.001425112353211855e+00,1.037540702072796917e+00,-3.063947717168945761e+00,9.161809551778482552e-01,-1.704332456173343058e+00,-2.429679153090947619e+00,1.410698610236686301e+00,-8.935201154889529374e-01,1.126192473020274143e+00,-3.038604367100443682e+00,-8.911129433646814979e-01,-9.683075658215264947e-02,1.985106058421616471e+00,-3.236680687218992380e-01,1.757933236323100390e+00,-4.348865758708047036e-01,-3.411270381858916068e+00,2.226096804307129862e+00,1.765580202074395144e+00
2.780340879866782355e+00,3.031533308270257243e-01,3.523943680142564538e+00,8.433838276784652033e-01,-3.312406424006405281e+00,-3.108729448859272271e+00,-1.953199915075254589e+00,1.428116977701702872e+00,-1.066167927835599327e+00,-1.987880432022880450e+00,3.456034572644402225e-02,5.912583849218876475e-01,-1.440434843771787765e+00,1.981598966943791951e-01,-3.513144291504596839e-01,8.633461504433913580e-01,5.472510765346849659e-01,-3.617706849838973060e-01,1.515391805073384335e+00,-1.174174897125295658e+00,8.341847982935265415e-01,9.905445866381281661e-01,-2.981639244150066759e+00,-3.912695988451282969e-01,-2.234925091368693550e+00,5.535433602833549349e-01,1.823434160581406616e+00,-1.612731985641653321e+00,-3.019894023849682974e+00,1.887572489017818711e+00,8.054478069441864951e-01,-2.166465588746998794e+00
-1.527344549205053692e+00,1.065026180185558502e+00,4.432792813963498668e-02,7.600365258122480927e-02,2.145881281485182424e+00,4.804725325493388044e-01,-1.322996608411665331e+00,1.354814661007593513e+00,1.030499764471225932e+00,1.581702680719095033e+00,2.744706756130274705e+00,2.864869303495478636e-01,-3.564569523922438865e+00,-2.735127233081674492e-01,4.479504004369483927e-01,-6.539185313756172846e-01,1.586473218238032556e+00,-3.058689552994625416e+00,-2.178891641516604860e+00,1.784337211339183771e+00,-2.163009086721359608e+00,-1.189503251594509203e+00,4.798272070871470452e-01,-2.856716691873665503e+00,9.424860410356122875e-01,1.053756883327030547e+00,-2.754034784626100407e-01,-2.816549052224969873e+00,-1.108371001645355403e+00,1.260553627004343591e+00,1.591541932522559488e+00,-1.345692259125260470e+00
-6.633619033307822654e-01,6.467043302155243145e-01,1.415161500398681715e+00,1.673516008814330380e+00,-5.507240559935284718e-01,2.296768645850432833e+00,3.122424696214113116e+00,-8.253538481342849176e-01,-3.536959331654686789e+00,1.438915616556583066e+00,-2.119047393366363607e+00,-3.691441624328473670e-01,-6.066512748674229849e-01,-3.691048463419212222e+00,-4.578994534384463577e+00,7.089689862094079587e-01,-3.595370120088240973e-01,-3.160742229526313452e+00,1.447431987208491977e+00,1.600889798071878367e+00,-3.813262267001223636e-03,-1.154777072017498574e+00,-2.767214705624751137e+00,1.218462628009481907e+00,-1.500098132879316148e+00,-6.714994185862518394e-01,-2.333912311991517274e+00,7.935325782137232498e-01,1.761129035773752183e-01,2.264383538559582298e+00,-1.841435037176579970e+00,-4.115719789780995619e+00
5.761008725294820554e-01,-2.822627890009783425e+00,1.627811901340789902e-01,1.931790395144264982e+00,1.234459650614104120e+00,-6.864587220197588824e-01,3.761548131873420964e+00,2.025812277455739441e+00,1.331595544243741935e+00,-2.006062167065264263e-03,-3.962080908359580711e+00,-1.140869867507402935e+00,-1.412214822954588778e+00,-2.390978890522149847e+00,2.810497041451729849e+00,-3.734573408116630411e+00,1.083430924967681425e-01,1.437041099254097842e+00,-1.278004725862726287e+00,4.752632341878491040e-01,1.035185386136382224e+00,3.540248551861346210e-02,-1.336727849721111028e+00,-1.361998382505712035e+00,-1.193317288078060034e+00,-2.649636508986293881e-01,-4.125379256229126379e-01,-1.146792044173222003e+00,1.524310637834554172e-01,2.730093401421285759e-01,5.434305625941064921e-01,-1.906762893936702730e+00
7.304375556860609464e-01,2.728126938215639452e+00,6.850389507233703434e-02,-1.396984622376490348e+00,2.210884510119052404e+00,-7.833255186685983418e-01,1.827380897498758275e-02,6.964180037512214261e-01,1.390082532085932465e+00,1.201527297548494300e+00,-1.807194989615647174e+00,8.490356967319316883e-01,6.738154975552576031e-01,-7.818495336547791608e-01,-4.128828063391615011e+00,1.455669985338410966e+00,-1.469031741345788733e+00,1.053340210839153412e+00,-2.679422691380582755e+00,-1.966755111471217621e+00,6.704377647536565732e-01,8.204170433078851188e-01,2.292055873300779645e+00,1.845213264183076962e+00,7.837206887491809937e-01,-9.033081902448516498e-01,-1.590338507300840032e+00,-2.100938196128775637e+00,-2.527507408662525989e+00,2.472428724890731289e+00,-1.379971547224021045e+00,-3.913447788100880231e+00
3.893611055216827377e-01,1.388766486857054006e-01,-2.343967390542394114e+00,-1.212348748991552316e+00,1.662292166750052314e+00,-5.798117479780331290e-02,-3.005778836557477351e+00,2.168352390468841762e+00,3.353420819749526882e-01,1.040491027313127148e+00,2.318538362750815818e+00,1.210157924729304835e+00,4.974434952632640905e-01,5.981174528825453640e-01,2.556391107458427125e+00,-4.405510006699507208e+00,-1.225589061034899396e+00,5.743258768669002867e-01,1.883786534310207594e+00,-1.539824535920254756e-01,-3.110957452447244975e-01,4.393135012304119624e-01,1.417236392539545087e-01,-1.514329967166676116e+00,-1.832722195632340734e+00,6.855946149504228426e-01,-3.192547847246042902e+00,-1.243755139082616257e+00,-8.565592158455560545e-01,-5.963578358428653914e-01,-2.194591569181778112e+00,-8.381713019164104272e-01
1.421662065512725226e+00,-2.849489959524363680e+00,-7.149734078833360762e-01,1.829363443670650957e+00,-8.786473598948069119e-01,1.149453400898830635e+00,1.768575221751846671e+00,-1.792226110642209047e+00,-2.524677856185513214e-01,2.692897999623611760e+00,1.263646789062817133e+00,1.747121013435833037e+00,3.598641987414734067e-01,-6.812228706636569431e-01,7.022548341184259302e-01,2.087212468875932370e+00,5.940557639870097661e-01,-9.480914361563568260e-01,-1.501575978338801187e+00,-1.777356837109409504e+00,-6.566167054625767774e-01,1.785275585137754639e+00,1.319079690531424376e+00,-2.771262513108615266e+00,-1.827208316954980871e+00,-1.758176887665832799e+00,2.259406403418992237e+00,-1.566875998015186122e-01,-3.258068838932168365e+00,-8.631004231234079560e-01,-3.656451306134271828e+00,-1.487184921004774729e+00
-1.165898249993867930e+00,-1.190445321033908765e+00,-1.720329830771323953e+00,6.529635400882304319e-01,2.001514940960918754e+00,5.364929276171643835e-01,-2.813685608438342367e+00,4.661801423683003542e-01,1.061911847902884842e+00,1.617979017898379279e+00,-1.069628523798977771e+00,-1.126323805653225874e+00,2.565167051602516568e-01,-1.461722917987387405e+00,-1.108270095187709137e+00,-3.624528034467123377e-02,-4.203353254688397378e+00,-3.682512660391118686e+00,2.375465877675370319e+00,-1.308752210639599678e+00,-1.048106712830150000e+00,1.060229547383815252e+00,-2.348901884673632701e+00,-4.863320576463184969e-02,1.699985805729958388e+00,-1.469337374528309814e+00,1.879899307327500990e+00,9.949232846920275097e-01,1.611122917085715811e-01,3.126322262489782400e+00,1.866246878654469921e+00,-3.077491782531661890e+00
-8.282459204525687291e-01,-1.570215829596467216e+00,-3.942123230739923656e+00,1.791209360503045467e+00,-1.461870006237365072e+00,-3.177872969862696184e+00,-6.653875516796371459e-01,1.925185169792010598e+00,-1.363801223678619445e+00,-3.215216794256919863e-01,-1.555655271289975827e+00,2.462037037979526666e+00,4.358804015915224706e-01,-1.488102922722525312e+00,-2.294078435403263505e+00,9.455767885727009991e-01,7.293523038761507982e-01,1.334727694224375538e+00,-2.945533458624526979e+00,7.758831822638869724e-01,-1.152162402144574438e+00,-1.005240021615126489e+00,-3.048269487410615763e+00,9.712045427438128486e-01,-1.672065786555009925e+00,1.153872049263826582e+00,-4.259067423515768280e-01,3.271846070594750522e+00,7.088493454544122496e-01,-2.737094201171410113e+00,3.052164246540520764e+00,-2.092373507368998187e+00
2.927398363635756340e+00,-3.113651319773428572e+00,1.088569346924276537e+00,9.464064448476815494e-01,-3.736624196963570288e+00,-6.618157327488162212e-01,-1.778741128567953744e+00,-2.281278595594539785e-02,2.093682233265222514e+00,-3.612252156837198580e+00,5.326435300308343113e-01,-1.563676719435291185e+00,-1.704354692530249515e+00,-1.483651748243359547e+00,2.198086059737200670e-01,2.057035756617090705e+00,3.035316166989211695e+00,-3.246464173457539015e+00,1.318339280790109015e-02,-2.768269122430541351e+00,-8.940182417249371571e-01,9.491360610512884488e-01,-2.857109344220197578e+00,-2.366522535136097005e+00,3.169566853989687072e-01,8.315865917336102697e-01,-8.129931269868300170e-01,2.085337316839867283e-01,-1.232349903843582561e+00,-2.903424291291957782e-01,-3.099907261492890864e+00,8.358875169152794882e-02
6.550011132409666592e-02,1.270520495099579650e-01,7.508901549438391776e-02,-1.089152303111368264e-01,-1.810862395140280245e-01,6.402164681117565592e-02,2.127191813391560993e-01,-8.672188365302543889e-02,-2.102907200745732924e-02,-1.158001161656667666e-01,1.316853419213382115e-01,-2.577254893678357917e-01,-2.530849155541852746e-01,4.192850168171916719e-02,-9.206299587034788220e-03,-5.362348326392188391e-02,-3.366342051685702885e-02,6.003707399101333025e-02,-4.626469244378148687e-02,-1.226399401506138576e-01,-1.036823273492200326e-01,9.931930412398723429e-02,-5.866793409708288137e-02,-1.548787422505057132e-01,1.142388424369584522e-02,5.646012630893492562e-02,1.485823285478972411e-01,2.436233930657520294e-02,-7.375795971409954133e-02,5.299569065505682630e-02,8.130062204476348753e-02,-4.349745519287373866e-03
-1.696714945292874033e+00,2.013006619401674246e+00,1.649173407161509175e+00,-7.472840593503891071e-01,1.668738463698527852e+00,3.520069270021938923e+00,1.366818535178977723e-01,8.346275664784563730e-01,7.740977775023332175e-01,-3.218505571323364567e+00,-3.510406161977599915e+00,-2.855458196729776965e+00,3.738402595629762182e+00,-2.210967632421544149e+00,-1.407411405880206967e+00,-2.312362235454390014e+00,-1.322068766073328350e+00,-1.288480262093842033e+00,-1.220707571349151310e+00,2.304443953706925452e+00,-1.075693266743252607e+00,-1.378472446916554128e+00,2.455184759470336431e+00,7.096319318576129742e-01,2.115997896729996608e+00,-4.757463580726017938e-01,-3.461076044548382580e+00,1.097813724150616954e+00,1.090671198498740946e+00,-1.292480929730334127e+00,-6.821362224448447309e-01,-1.713915934763996951e+00
