4.530144836163647604e-01,2.385780758382807509e-01,4.036035099827995909e-01,5.645944708620932451e-01,4.869260908245884312e-01,-8.793839745424403276e-01,3.750993767650748212e-01,-6.394917811775216454e-02,2.958082780359479469e-01,-8.729781696407397096e-01,9.843879165843194556e-02,-1.753489741389036849e-01,-1.573157495099317682e+00,-4.862661313708663835e-01,-2.159752417706208016e-01,1.425543610241436498e-01
-2.432057428018266632e-01,2.628266643937781089e-01,-1.204866265733305797e+00,1.168482344576309062e+00,-7.616840334287632297e-01,1.394674500471170031e+00,-8.322009871549321813e-01,1.063263782663166790e+00,-7.959168325213061834e-01,-1.229477984403234858e+00,-6.549670511924995386e-01,-4.212649607003337432e-02,-1.972361510131687701e-01,5.054661792722591196e-01,1.643674760723273343e+00,1.774855329205719867e+00
3.989620198790266858e-01,-1.501320180147030614e+00,1.031242250916491354e+00,-6.209364948975468756e-01,4.887702111025534757e-01,-8.554185634093613988e-01,-5.638631799187232563e-02,-3.918766234325854469e-02,1.719046097376087934e+00,-1.098434290604112684e+00,-2.121540118517450502e+00,4.598381906539412145e-01,1.353250563285633978e+00,7.755361462890161262e-01,4.516855161112571793e-01,1.101182724247611988e+00
8.484788655756457798e-01,-1.119421168668750743e+00,1.951526878880570082e-01,-1.438709891054152090e-01,-5.662912227558871692e-01,5.790422692549678230e-01,-4.447841510382044006e-01,1.191000709253864365e+00,1.812231671394290311e+00,-2.632706667386578436e-01,2.307813237418493701e-01,-3.747652227807666825e-01,-1.750806949973860230e-02,1.728216871157381151e-01,1.732066995129761589e+00,-1.632467749562450665e+00
-9.108111278521480170e-01,-1.775606805678751066e-01,1.656080962026520220e+00,1.181497884601239612e+00,-1.615457691022086362e+00,8.929710304917005681e-01,1.086444814231203038e-01,-2.352492361091524931e+00,-2.437964718471261338e-01,-2.663808119529759155e-01,-1.936426057598748113e-02,5.647904903495537532e-02,-7.551044515254307088e-01,4.978996268724953933e-01,2.074773435696918078e+00,-7.348538559281356242e-02
-3.802519480644529493e-01,-1.863449604784921110e-01,9.683788820760877991e-01,2.264481262615446744e-01,4.111280984207711375e-01,1.313418788209775867e+00,1.755125970017468839e+00,6.442014663649562323e-01,8.654895701217183435e-01,1.161910608796492272e-01,-8.475810691773326688e-01,-5.130396807199114839e+00,2.921355940777338178e-01,-4.679110051862424291e-02,5.179513033725966498e-01,-2.835802354558623062e-01
1.114975711447088180e+00,3.787185926397169250e-02,-1.341337456234891867e+00,4.338240107527203682e-01,-3.976872490895357742e-02,1.660092300446934510e-01,1.310393427713627990e+00,-7.717019623993707222e-01,-2.988776847762000255e-01,3.018753712450494286e-01,-8.965343620843901906e-01,-1.849475656016982938e+00,3.608269357021891555e-01,1.825231213280583020e+00,-4.211930748401665481e-01,8.548575709107444354e-01
6.810237469348046080e-01,-3.189102988060719568e+00,9.192762159453906623e-01,1.571783119974547338e+00,-1.719858287935558394e-01,-4.776045096999328998e-01,-1.222094782845064079e-02,-9.842969624468432821e-01,-2.488846461130079235e-01,1.139368948913350499e+00,3.971467782951390579e-01,-5.773737308607793661e-01,4.186866962934721048e-01,-1.695720118015351108e-01,1.017006476146989469e+00,5.517197835682235985e-01
1.034588696079171477e+00,5.153830545154828302e-01,5.186107567920229533e-01,-2.931847226683765406e+00,-4.004285443265366284e-01,5.191810438696722318e-01,-5.102787966580342172e-01,-7.738649533212208498e-01,1.230813542211664641e-01,-3.721753839383938889e-01,1.083693858050993608e+00,-1.594092883107588010e+00,-1.437504773914374812e-01,5.587477121522730350e-01,2.041991247932507747e+00,4.927685661826579078e-01
2.664436858409603426e-01,1.055960168132346749e-01,-1.020566273732888413e-01,1.248862176078408132e-01,-1.471229210999741299e-01,-5.160672768665329480e-02,-7.629643419979351832e-03,1.915575397181242256e-01,-8.326612043355353932e-02,-9.239863758335720156e-02,-1.100732685858625201e-02,-7.417912749503718928e-02,1.259617253861653741e-01,-1.207400131872248539e-01,-1.282908954420651504e-01,-4.894976909802770115e-02
3.876634129315742694e+00,-1.243065836235439647e+00,9.556966428820192760e-01,1.180256388470725337e+00,3.684705967400401683e+00,3.755827226742924907e+00,6.738490765054183651e-01,-1.845179785516034565e+00,3.025345378155595899e+00,1.601437971321231224e+00,-1.109348542505586011e+01,-1.633913065690292821e-01,7.238346924469373223e-01,5.312139581058720195e-01,-9.695199125805312734e-01,-8.214810930266999156e-01
1.303020823712249254e-01,1.939371185951197507e+00,3.738426610334326661e+00,-1.899911689644921686e-01,-2.505644142534469321e+00,3.439973001545989284e+00,6.224523740398640870e-01,-2.094875144625405916e+00,-1.178261265605940133e+00,2.489552016075873009e-01,4.631163226835910418e-01,-2.469616490782550411e+00,-1.135342564270207105e-01,1.271058912591161327e+00,-1.967349961491569044e+00,1.694004951401679504e+00
-4.391952595222398462e-03,-1.305968232512407234e-01,5.850410919940412374e-02,-1.917946289518206518e-02,8.628880684528965339e-02,9.207056340081781753e-02,2.418571316981454888e-01,1.494283674384087046e-01,-4.127578428488074685e-02,-2.676340567288823524e-02,1.229456804256766483e-01,7.326071225429230116e-02,7.156888034474481741e-02,-1.807811815854093729e-01,-2.719743389256814442e-03,-8.251436412399476561e-02
-8.289867574592879595e-01,5.562635094550877346e-01,-5.432359239902380121e-01,4.063284880118681053e-01,-2.471734635802947722e+00,-1.516571356209078791e-01,1.393497646429725290e+00,1.258882072095908189e+00,1.089514327359042190e+00,6.745804423211201328e-01,7.959280979985930982e-01,-6.608654970081864199e-01,-4.415898448909932883e-01,2.502764953021276439e-01,-4.520185746933716997e-01,6.503062515486012218e-01
6.451792613562986611e-01,-1.945249596230964162e+00,-8.154612787320970613e-01,-6.878766594848411131e-01,-2.628788712025686425e-01,2.693392156013022509e-01,-3.376325741731201480e-01,1.056506266309306774e+00,9.904185062038990406e-01,5.424545208443408706e-01,4.985893927682776283e-01,9.539499650481469972e-02,-1.790412176690445500e+00,1.413777166663436224e+00,-9.747500458569599013e-01,5.845845184154120355e-01
-3.845842670561947646e-02,1.138063393496183129e-01,-1.225533652796044093e+00,-2.792425303918666946e-01,-3.242318076207197919e-01,2.030141835170884701e-01,5.810162402338253651e-01,-1.027233117154727537e+00,6.039374562265726887e-01,4.992078602764603024e-01,-1.247503074650154531e+00,8.875776911209899422e-01,-6.681739830413430115e-01,-2.068983658576193374e-01,9.034119153882035347e-01,2.491859323686697880e-01
9.327934253970413536e-01,-1.338949397821189269e+00,-1.207945283940584424e+00,-1.386194678420582305e+00,-6.080628040623412001e-02,-7.354993036872106704e-02,1.007713829112188320e+00,9.669681539483736543e-01,-4.910505316323005576e-01,-1.843175143875677990e-01,2.935022513042434000e-01,-4.091939850734035988e-01,-4.068150653389179805e-02,-1.376025454898305522e+00,5.756737517702916751e-01,7.789516428244819268e-01
9.198857098695716328e-01,1.333361364519238812e+00,-3.692957239287526505e-01,1.179280816007580945e+00,3.817510643125561209e-01,-2.673670798644853241e-01,-5.494179977683461003e-01,9.316647056589011378e-01,5.576964936784256643e-01,1.181732446745285436e+00,-1.704404547969433192e+00,-1.739235396829511116e+00,6.712171323254283450e-01,-9.061250571968794132e-01,1.348948016441852138e+00,1.856928774272588734e-01
-1.591138034612547436e+00,7.768306617838088846e-01,1.745641165669442607e-01,1.176550817361605050e+00,7.498435052298701997e-01,7.588237542739953989e-01,-4.069806875431273285e-01,-7.193905345411745200e-01,2.095203116598512771e+00,3.900328809444654210e-01,1.542462722330089075e+00,-1.237340673403618529e+00,2.990672933051438109e-01,-3.397779663619610035e-01,2.945795716826060229e+00,2.428256653757061123e+00
1.901666704944180442e-01,-6.905210265912429257e-01,-1.339304103767542387e+00,6.149558743656126092e-01,1.436121948120585357e+00,-6.220711567801473496e-01,-2.197401266491068594e-01,1.716723567289589747e+00,9.613885517067635167e-01,3.723956070767150961e-01,2.569255840411055924e+00,-3.064886438826351700e+00,1.582437281051916278e+00,7.952074805192467233e-01,-2.624137762104315486e-01,5.203153834126975630e-01
1.444162098329064836e-01,6.778089310270962731e-01,1.575357026196967825e+00,1.086709720829353465e+00,-1.692648870128601546e+00,-1.063304451634764725e+00,-1.349321428600171346e+00,1.540527243030678672e+00,3.167046100536434761e-01,-8.529693322544638079e-01,7.799318203601453003e-01,-7.081695215440555469e-01,1.593753226252965449e+00,1.433629200003464943e+00,5.576034723223686207e-01,6.676083974482754924e-02
-5.476835204196243284e-02,-1.329063699211176841e+00,1.350647337099770473e+00,-9.577809582099970909e-01,-7.440659935700794092e-01,-1.065045095545983145e+00,8.130086639868278064e-01,-8.216917819149125446e-01,4.175580418045811149e-01,7.523316821121648346e-01,5.150206659225020633e-02,5.652270981988081339e-02,-3.162564295537886316e-01,-7.486950945660088008e-01,-1.547005855097985938e+00,-6.603099003239694120e-01
2.548138941299599391e+00,2.233303592429218831e+00,3.113637632450499959e-02,1.346462958936303744e+00,-8.186990270882086307e-01,9.079941770258465050e-01,-9.210426661231475576e-01,-1.544551217116160391e+00,8.961535970493123004e-01,1.594642407884316437e+00,1.220416832592235573e-01,3.738313472505001012e-01,-5.492525562949397422e-01,2.581225202680356823e+00,1.010183038485302554e+00,2.008526435248793596e-01
1.080895148567741160e+00,1.758699339644916870e+00,9.324843510540307134e-01,-6.503463655342116567e-01,2.680239110370174482e-01,-9.735563631425592224e-01,-2.211988401617638877e-01,-7.466352466622832029e-01,8.098972363246247141e+00,7.797955176610711359e-01,1.423151112774255767e-01,-7.436311764599472518e-01,1.127844946944438931e+00,5.369855497653374110e-01,1.761478615848131313e-01,-7.265559666980263565e-01
8.407128568841520933e-01,-6.251969737527632298e-02,9.981100991251947718e-01,-1.104231990570365252e+00,-1.461106875569073704e+00,3.975631594929318613e-01,8.500207959148943226e-01,1.352307752765959714e+00,-1.047368530690443889e+00,-3.709964137747222279e-02,-7.016335035045073720e-01,-2.377705745661157499e-01,-1.647920064796050799e+00,9.107445903242451513e-01,1.062522156067882584e+00,-4.545280864559861911e-01
-3.207635247693048086e-01,1.986746789017483639e-01,-1.989908382705064260e-01,-3.154735105468037260e-01,4.947836596776387097e-01,1.122738819306240199e+00,-3.349287896017248967e-01,-2.236757615860260895e+00,1.263539860555497940e+00,-2.495290008143165483e+00,6.526006787882809856e-02,-5.094556864026624776e-01,1.381053300168921805e-01,5.414757727878594107e-01,-9.718529720908182234e-01,9.317208103277237197e-02
7.799806963891251499e-01,2.584045621936136516e+00,-8.589319951097585948e-01,-1.581425897350776932e-01,1.251843904757925285e+00,1.303963469955037091e+00,2.951196370665638558e-01,1.416784761891279665e+00,1.088056205980423741e+00,-1.073947507055122985e+00,-2.201701581996790225e+00,2.844191565094541518e-01,5.410308904973063493e-01,1.559643848660454912e+00,1.772167368818056588e+00,-7.930872528749740580e-01
3.042161077707101202e-01,-2.260354863956906268e-01,-5.911246905865249479e-01,3.250218068917094527e-01,6.117298941417859126e-01,-4.876919185066066476e-01,1.078529909598048508e+00,-1.674326312535754147e+00,6.851043304328088279e-01,1.155691966815385552e+00,1.237150371827490325e+00,-1.139942349430793866e+00,-1.371495267966154508e+00,2.629041271705832572e-01,1.699036629365247686e+00,-1.043411418008671099e+00
1.241597971487949037e+00,1.234181161083464318e+00,6.884289057143422319e-01,-1.268179540879834366e-01,-1.513982469805920550e+00,-8.771008071278343365e-01,1.818483086448100972e+00,-1.042307109987343106e+00,6.539828970309368161e-01,-3.013630055126616247e-02,-4.309000479314319398e-01,-2.262859595063790585e-01,1.260335514507825661e+00,-4.433907723153806546e-01,1.790166355678992183e+00,-2.846299886919551603e-01
1.306215954573395621e-01,-4.054564000075820296e+00,5.159288161890056568e-01,-1.660636368441517977e-02,3.671898778289523602e+00,9.952815799094145710e-01,6.421228020435307826e-01,3.483592188137579759e-01,-6.230633089731402174e-01,-4.979908244708136644e-01,-1.238551398591970221e-01,1.560195370024780592e-01,-5.274847606209683848e-01,1.333841103233698977e+00,7.741027657475374468e-01,2.441335149014807748e-01
7.146521838400549109e-01,8.129560634812905695e-01,1.802428980192670949e+00,1.668445279577504881e+00,5.150023599360874504e-01,1.196833118741927465e-01,-3.882772824764428865e-01,8.711892470534401411e-01,-1.784859061062283869e+00,5.025249543223067050e-01,8.797909286269520734e-01,-5.042939220427730795e+00,4.863942922529861934e-01,6.901939619536658910e-01,1.489563706779479801e+00,7.093531103917003477e-01
-1.647742059161589057e-01,-7.021473422451529611e-01,7.799427270796256417e-01,1.627567785089051311e+00,-9.117761746034238612e-01,-1.764238463367163168e-01,-1.405376914312573555e-01,6.149653853367704759e-01,-4.384856554575499721e-01,8.380789184477644982e-01,-7.611559091821703538e-01,-2.841630068588111957e+00,-1.178024124763982439e+00,9.738078541270851485e-01,-3.123568415828053557e-01,-1.505378931489235628e+00
-1.489457910045387801e-01,-2.200989314272988606e-01,-7.379654003990862576e-02,1.965715656513896542e-02,5.575526772082160104e-02,1.171668489635789012e-01,3.178343342730971521e-02,1.948362927906330810e-01,-2.488807173890372065e-02,-1.020853600191904548e-01,-1.879659107428221787e-01,-9.939001933758669083e-02,2.706961096681884810e-02,-9.936194542119128337e-02,1.047309912937726406e-01,1.579030378603031304e-01
-4.528845994788466278e-02,4.383706244732250012e-01,1.074100136784461590e+00,-2.630822453809992800e-01,3.939209526817346041e-01,1.056309626686757097e+00,4.767968263078968261e-01,-1.597690368419401530e+01,-1.083333462420357773e-01,7.427101705120741082e-01,8.699036235269291817e-02,-9.906885527779857314e-01,1.929022498433070887e-01,-4.136340756637998939e-01,2.110755010662878350e-01,9.070181745557851505e-01
-4.300466566904202065e-02,-4.962238375814756464e-02,1.205461232131011112e-01,-2.861255440460259147e-01,1.320821429822113813e-01,-7.064898790685654462e-02,1.832777157292415568e-02,1.076905497623739834e-02,1.053711390601588249e-01,-2.991800215020216577e-02,-7.580558690377672826e-02,1.451035706103908918e-01,-2.643226682876417821e-01,2.273430627987824831e-03,-1.507026436799423219e-01,-8.514649329982529324e-02
2.248653329976107729e-01,-4.985920252044441330e-03,2.180945515903926976e-02,-1.991847825773175595e-01,-8.150967078490396756e-02,2.197578547551148898e-02,3.966311586710823123e-02,6.897001350144964238e-02,9.646284241348755846e-04,5.892086172665442212e-02,5.073436018066301151e-02,-2.045711970092268239e-01,4.137365487377385465e-03,8.585409918880428093e-02,6.595056888588878008e-02,-4.068065166534322319e-02
3.800164409005111210e-01,-7.108082939882480467e-02,8.996006651189522030e-01,9.831987528758352468e-01,4.237744915574317983e-01,-8.517287126745292092e-01,1.546171011553974239e-01,6.981642047467863099e-01,2.816058751920688663e-01,-8.222655134470499005e-01,1.633270303145772651e-01,7.024094896482531158e-01,-4.288446143023509904e+00,-9.711073205014604873e-03,-5.963179317778959099e-02,3.161936031514181455e-01
-7.509545096667128439e-01,-1.366922777487034502e+00,4.737882395860459894e+00,3.571244407629524109e-01,-3.588632524920588041e-01,-2.010597561859446547e-01,1.008179432779922058e+00,3.436319651292263910e-01,1.714310970718639360e-01,-1.050679706456841833e+00,1.512173176458163404e+00,-1.377382036124150666e+00,7.491954048266882271e-01,1.239394466109109416e+00,-1.904143372267757053e-02,1.776916132550241167e+00
1.287392359028841082e-02,-4.238998620514415616e-02,-1.948013449659754814e-01,-1.457069694689590855e-01,6.765448212790564630e-02,1.001262030674789916e-01,-1.474783426837696088e-02,4.525374632092726140e-02,2.502647119467231451e-02,3.685296974919102797e-02,1.437773828904553020e-01,-1.684875430195204860e-01,7.563060908349406031e-02,-4.270989963428517555e-02,-2.507291107741618438e-02,-3.379254717392624757e-02
1.237358580013916409e+00,3.245909012616492173e-02,5.513712139531935785e-02,1.709954147140492209e+00,-1.186430937196369273e+00,1.498770323670412408e+00,6.076122183658575621e-02,-1.211107878121117309e+00,-3.686452770047668470e-02,-2.916900187218721130e-01,9.096491184211898950e-01,1.350636965489208086e+00,8.265734747783543002e-01,-1.874490277047854203e+00,-1.136051010697973318e+00,9.692599799740161948e-02
3.519413051633354383e-01,-3.174634527641306270e-01,3.522762778162771724e+00,1.483213624223865379e+00,-2.415642623550794676e-01,-1.644190413449284072e-01,-3.937063539878291052e-01,-3.640383249611468530e-01,8.862854428620385860e-01,-3.253616942244613175e-01,3.338857195500278818e-01,3.455352667170234149e+00,7.426155399033258497e-01,1.384103191069676608e+00,-4.333518170788680735e+00,1.708983685488778548e-01
-4.058845118421019471e-01,2.975739424126588872e-01,-7.723735965277642723e-01,-5.087187284345963123e-01,2.406225044414764813e+00,-9.109970602647536886e-01,-4.665146458685787145e-01,-1.446077006668301967e+00,1.324856945716193612e+00,5.259728176727110904e-01,8.317532489419305897e-01,1.311008231151823189e+00,9.365857684701422992e-01,-1.368332773182534767e+00,7.722988056919592725e-02,2.781889024686199363e-01
-1.930878655469586924e+00,-1.070362831464187980e+00,2.705817770766043573e+00,-6.964797579042875109e-01,2.081516008540191254e-01,1.782294832600525014e+00,1.068270651776614955e+00,-3.044925786244329080e-01,4.940771641407508685e-01,-9.476249582971732477e-02,-6.790747176168497878e-01,5.962580450467686033e-01,8.714579480615167184e-02,-3.965365240853422346e-01,1.081994604047430003e-01,1.421494342686984824e+00
-7.894683905757433617e-01,3.328535703639228793e-01,1.063529191638063143e+00,2.091310511342126324e-02,8.662407236405557376e-02,1.412150934893146248e+00,-1.934732348011168890e+00,4.786101183929898917e-01,1.014472501220206047e+00,2.056402944522263132e-01,-4.840407117070020249e-01,-9.216705480412992202e-01,-1.973612710132706949e-01,-6.326064029731258420e-02,-8.243984941260217303e-01,-4.848309858074983936e-01
-4.774603724162184704e-01,-5.086703796102692854e-01,1.533903749913817061e+00,-1.203688896509693462e+00,1.185271358846080592e+00,-6.784868961797024811e-01,-7.929091514459543077e-01,2.092829004204114440e+00,6.487402859173730940e-01,-6.276586432520678827e-01,2.666873512210854891e+00,6.481077936081750535e-01,6.905069459682482425e-01,1.392849830420843094e-01,-5.237741216534197441e-01,2.039876560773887515e-01
-1.813205772757848777e+00,3.639827353209180716e-01,7.859435107377607532e-02,7.422698136737005958e-01,7.221656586190129401e-01,9.562841210574233308e-01,-8.465523936868281363e-02,4.032168648874494971e-02,-1.025938122251150331e+00,1.930612577910147398e-01,9.534601609304410585e-01,6.615840866540889653e-01,-9.563995262082811699e-01,5.434795416515856292e-01,-5.447276608583129232e-01,3.355106269076340575e-01
-2.425100195699727568e-01,1.420563439421567598e+00,1.892038416831148373e+00,-1.209500991973438078e+00,-1.836707901388866082e+00,-4.034801058101906146e-01,-1.592169659062625753e+00,-5.973433897009170490e-01,5.997822021604901632e-01,1.163256154885957544e-01,6.202100776067531740e-01,1.448056160429170180e+00,-4.632364432711033042e-01,7.678214075750781908e-02,9.242709690457674432e-01,6.274845404708133678e-01
2.857588360903547731e+00,7.815927926367374212e-01,8.098912572704484170e-01,-9.865395586609543299e-01,1.342304954199631473e+00,8.098775235638109304e-01,-6.034022175253314080e-01,2.140917015725429251e-01,-8.092406118043945495e-01,2.043828544534525449e+00,-8.825434346400595764e-02,3.292047537419779957e-01,-8.332969190074638322e-01,-4.252642379152904994e-01,-9.453203492390286344e-01,1.592646364114218560e+00
-6.964047227663594519e-01,1.106254114578146375e+00,1.538167998306003259e+00,-9.674991627202305100e-01,2.802288636050853099e-01,-7.100305479113545870e-02,-3.981014078001735568e-01,5.294025019450773056e-02,-1.084796834543783284e+00,-1.092025802746330321e+00,-5.903252159000912380e-01,-3.077618524586660520e-01,1.033438252611093455e+00,-1.488541886619568766e+00,5.830807922656409126e-01,7.297644907463440855e-01
-1.574135181707579045e+00,3.106959421529448262e-01,4.438811672315708390e-01,-1.172667922478310532e+00,6.275594592870836763e-01,-1.036520357118255742e+00,-3.404765209927432257e-01,3.585715006251985471e-01,-3.679954594816031710e-01,4.537307332593953357e-01,-9.399866921186956770e-01,-8.064052350846181438e-01,-4.403704626552417678e-01,7.240329828858020900e-01,7.126770191540549026e-01,-1.752951658435107293e-02
-2.695332643799195349e-01,2.906202143555105533e-01,1.171542248055801760e+00,7.397540591411718713e-01,6.405951908494186275e-01,1.004898347018278626e+00,-1.997230104186059396e+00,1.411760419399678002e+00,-6.134860018720699193e-01,4.878028088088618985e-01,-1.083952261609122836e+00,1.466252398978601823e+00,6.486861279864596375e-01,-9.160706929929805786e-02,2.725267368568077941e+00,-1.052123974640024828e+00
-2.682715764028255623e-01,-3.383218632589889974e-01,4.200740887809475965e-01,7.417179038812901082e-01,-5.574344743785294432e-01,-9.366233748908355805e-01,-8.227319234437248108e-01,1.001432325500088094e+00,-3.658829192345022241e-01,1.502905178905002970e+00,1.859019670477839670e+00,-4.851459382705096413e-02,1.747688584784355681e-02,-1.565608421585944710e+00,1.485999382270880576e+00,-2.381747061712266300e-01
-2.693225083445929258e-01,4.208729141307412380e-01,5.359242727769605169e-02,-2.786479210468921219e-01,1.043762981182303040e+00,1.082805089234678775e+00,7.250724231297632771e-01,9.005515820128857929e-02,1.101108958253555148e+00,8.338641570269025860e-02,6.375684773865305521e-01,-1.163506275228224363e+00,3.203801979967221825e-01,-3.655107258947527971e+00,-9.585744830924337601e-01,3.545749462098947702e-01
5.503639021310786222e-02,1.348619480286370687e+00,9.109726820246993872e-01,-3.107416815970622248e-01,3.682269070569252900e-01,7.140739116770821182e-01,1.454400079204821505e+00,2.721464290787764639e+00,9.352473223532757896e-01,3.646072951827104558e-01,-3.060419573497502044e-01,1.888081718160639522e+00,-3.584616154269912314e-01,-1.363514630877476153e+00,-9.358386069272953134e-02,-1.239445226738217665e+00
-3.125371166350253693e-01,1.166382292060412079e-01,-6.103962989668720862e-02,7.562326707639306644e-02,1.011394158770274831e+00,3.576202864120792690e-01,7.501770938677848610e-01,-3.216099778042816881e-01,7.843890613130060085e-01,-7.442966829361835623e-02,1.007321242154777946e-01,-7.456420031203436771e-01,4.444091154995321036e-01,-2.013971001842915498e-01,-1.249210173176433081e+01,9.196628661530092952e-01
-1.259329368897763812e+00,-1.258304575030027683e+00,-2.582914330478595644e-01,1.905198610995295638e+00,4.165956263346988764e-01,-9.000954517567574253e-01,2.245137469889220971e-01,1.027434283713597241e+00,-5.863924653352867722e-01,5.432386318844126816e-01,-1.177509880148672528e+00,3.253786912239591267e-01,8.350205931638168266e-01,-5.124639132701117594e-01,-1.103138833316220424e+00,4.869219840199476290e-01
-1.413489600730736262e+00,-3.533351247117965666e-01,-3.922410491508009356e-01,1.728700918678349463e-01,-3.636045026503766792e-02,-6.795631891939709623e-01,1.026475923214271502e+00,3.262090947754643921e-01,-4.201467059869614662e-01,-1.176034222135191154e+00,3.487350684268175072e-01,5.847376599956116694e-01,4.719193772066526127e-01,5.470546110967762499e-03,9.331686816917250660e-01,-8.962355832471964323e-01
2.847963356763418830e-01,-3.573484946816880004e-01,-6.695982916435515575e-01,-7.106931083979546593e-02,-3.990503234387950404e-01,-1.125493959278714540e+00,1.647537450746479060e-01,-1.561237108403920271e+00,-7.327076746398524243e-01,-1.727373724779195929e-01,1.288438696308138010e+00,9.519195591439696402e-01,-2.084683257321220118e-01,9.057541885815934002e-01,-5.107744679125098691e-02,1.063310380380466436e+00
4.075024249129070159e-02,1.644987955361116305e-01,1.780771839725558414e-01,-2.890929907751379688e-02,3.447248127761516623e-02,-1.540744155511934443e-01,-3.487998923282312203e-02,-9.394732225659556402e-02,-1.125672120022878919e-01,1.880059923477310491e-01,-8.858034167324631281e-02,-5.943534737770565790e-02,4.090313796339992841e-02,1.451012759934874885e-01,5.379030638044194484e-02,3.085052804506970281e-01
1.624657525649153111e+00,-9.681391608333585197e-02,-9.437101321243364094e-01,-2.529112686820720879e-01,6.203337851962739125e-01,-2.090627494067934578e+00,-3.678408714557875880e-01,6.090783888721578165e-01,-1.773403630838915335e-01,3.747205967660059978e-01,-4.109793934327939380e-01,6.543158545273921600e-01,1.125361655200152050e-01,5.884148376669215974e-01,5.534904944347524003e-01,-1.296121253499328940e+00
-4.086985432289610282e-02,1.048819345325262692e-01,3.317577724380041393e-02,9.279527360446505890e-02,-5.546592712906567302e-02,-8.363451316446852274e-03,1.367577345803045515e-03,1.754485586223699656e-01,7.719231160796787006e-02,8.907064950407420079e-02,-7.355837335415456313e-02,1.083243721023170320e-01,2.522079671086662270e-02,1.553111678240625126e-01,2.251787708585726022e-01,-3.429745641834287817e-02
8.434182922395692117e-01,-1.189048312433595767e+00,-8.753851816356867932e-01,4.204873548667067418e-01,1.584512120660045570e-02,8.919761770162624170e-01,-7.773174779179677085e-02,-7.208751606198492423e-01,-4.968712327293395070e+00,3.044915666910100183e-01,7.635226550654792277e-01,-1.916603092471045600e-01,-4.286796811096491022e-01,2.874349511658680356e-01,1.425505269534182551e+00,-6.039997451356559494e-02
1.445616069472705767e-01,6.574193083560667672e-01,1.146862273080347272e+00,5.582073650191705649e-01,-5.307824012048177886e-01,-3.985166355312523834e-01,1.625613702472607169e+00,3.573090939373758657e-01,-5.909599103459640901e+00,8.141728040055383753e-01,1.296252838470210444e-01,6.556140403522161542e-01,6.893424875319531520e-01,4.968878090380368651e-01,1.577235783822268922e-01,6.696831741631442680e-01
2.352718719802626424e-01,4.525123837693583728e-01,3.812552245068220325e-01,-3.535777823913122120e+00,6.448704243091796240e-01,2.260528535466230782e-01,1.424912355256404695e+00,-5.901032310224316874e-02,1.852393168857115469e-01,-4.959035461559658242e-01,2.821918995965694288e-01,9.638613783017891956e-01,-2.371608482517558458e-01,1.046355596696588508e+00,-9.398657109241158603e-01,2.364384082386840891e-01
-1.560163095017971790e-01,3.004063738849540033e-01,-1.182129783264443290e+00,-5.529103161653500242e-01,7.095227441378406663e-01,8.770531835752377603e-01,-1.143183408427719039e+00,8.959798852957422399e-01,2.136026691800563537e-01,-4.018008411182018569e-01,-1.138053217750972346e+00,1.455719043553036052e+00,1.352360727341768154e-01,4.891268264250562825e-01,-8.765810985242457054e-01,-3.285094305542123339e-01
8.142405624254475116e-01,6.729003233668127137e-01,-5.421342841787135658e-01,3.574718943031037766e-01,2.004602107526320065e+00,4.962617370972874364e-01,1.676434329454609573e+00,-1.346071091314342549e+00,-9.177737526105691490e-01,-5.777603901929111441e-01,-9.633130693921615473e-01,5.005706972189049031e-01,8.326875971118696818e-01,-3.678145455275531606e-01,1.116784194916090600e-01,2.047557353836105265e-01
6.791908953250455072e-01,2.362941775489566965e+00,-2.971010835898588165e-01,-2.556933026534066178e-01,7.138440555667825704e-02,-1.041174701776223621e+00,5.198323552999702946e-01,1.476587341248867036e+00,5.292489256217777216e-01,4.789517210173179218e-01,2.408095919649145752e-02,1.371757169372610718e+00,1.136034941636206774e+00,4.434086071961462067e-02,4.539910523657291548e-04,1.923782029563398499e+00
-2.452413484324965642e-01,1.416885540471354288e+00,1.445594240722226198e+00,4.797680511868959718e-01,-9.897400850303734732e-01,-3.858381710390799968e-02,3.252288403610052447e-01,-8.977348391682691275e-01,3.655479037985681079e-01,-3.804315803951058284e-01,-2.764191052905263568e+00,2.447617290769107945e-01,1.600066830990152511e-01,6.175838932321563446e-01,-1.559261465098234822e+00,1.846403753030334202e-02
-3.853484768370044056e-01,1.603244814125314388e+00,2.074895605663228171e+00,7.010869118650665532e-01,1.030369728671711949e+00,-1.212180373762534069e+00,5.497755202079224190e-01,-8.957579518185890821e-01,-4.265530878431494921e-01,2.637406682661772028e-01,1.736047216776641866e+00,-8.224293413176183565e-01,1.710996778303051080e+00,4.805517309985105623e-01,-9.495469401830120004e-01,-9.377809495241617999e-01
2.821434045561008186e-01,-5.336854100687198343e-01,-1.749572662166816728e-01,7.089885027953373164e-01,2.426370575990381528e+00,7.499884929433786596e-01,7.822245210501714840e-01,8.865088907849080213e-01,-1.143228633287439455e-01,8.136658966208508703e-01,2.342650601172286684e-01,-6.137790772926496885e-01,5.289129518159256804e-01,-9.691994123980741671e-01,5.999307647647230679e-01,-2.947645686671161780e+00
5.018604841612127332e-02,2.431573394487163975e-01,2.144421417134263042e+00,-7.122485441828704245e-01,1.229823083933387018e+00,-1.625870636056475915e-01,-1.271736779653733496e-01,7.382415314876989987e-01,2.924819138308926147e-01,-5.296963015259836816e-01,-1.418810732044467837e+00,8.962103067559618053e-01,1.516874236198641368e+00,3.803388405915955617e-01,-6.098764394366253949e-01,-2.629733416827983117e+00
5.780935072114752327e-01,-5.018436568128108871e-02,1.536552192167799369e+00,-1.000694262411766511e+00,8.649031709624284137e-01,4.637232237841427129e-01,-3.500957231405486536e-01,-2.602793291357222927e+00,-3.607223266089252811e-01,1.365963566128990392e-01,1.891243942506960207e-01,6.201984664308292095e-01,-6.711871907969918505e-01,2.824827212722507142e-01,7.482106727188401196e-01,-1.639869781277075278e+00
5.513000472782231265e-02,2.629264812293419587e-02,-7.256288652950746432e-01,9.548788837910466842e-01,-4.150793431152445256e-01,1.205338185437600185e+00,1.266329656349163946e+00,-3.203135348735986626e-02,6.844217195048635238e-01,3.374112843611093981e-01,-3.101925889511089607e-01,1.205885940629248948e-01,-4.034249784879511136e-01,1.385516515567774887e+00,-1.484799520660835759e+00,-3.328046491365442616e+00
7.227886009197094230e-01,2.025851047498118174e+00,-1.140538682668542858e+00,-8.430764597912986380e-01,-2.693120598090443796e-01,3.236204274790668856e-01,-3.707181876922959751e-01,5.887516413672266163e-02,-4.615050106177182587e-01,9.499830040308937518e-02,6.583726590708687265e-01,-3.380825459309244052e-01,-2.326385479790115951e-01,-2.426962514519115655e-01,1.606914561259397134e-01,-9.399947475767503891e-01
9.293369129408439733e-01,-1.074964481792609838e+00,4.243821290698558402e-01,7.960133038930947147e-02,-2.842222193607603017e-02,1.899204253919723751e-01,-3.914189042340896624e-02,1.248059983695015251e+00,-1.745906573718264188e+00,-1.416885347625109537e+00,3.921417360974056021e-01,-8.685812024225670891e-01,8.312753607706734327e-01,5.350668711081637552e-01,-2.977165324950838965e+00,-4.287162321051131708e-01
-4.861016017474206058e-02,2.004187838129060650e-01,1.875493341769499389e-01,6.813583322579112034e-01,5.180258463403685232e-01,-5.171519041585781462e-01,-3.456011930641424534e+00,-1.898711698503763756e+00,-8.016995104463220390e-01,1.030640447903202750e-01,-6.315509982937185240e-01,-1.840763167376085474e-01,7.644801975055031118e-01,6.581275780318109891e-01,2.854220082737360734e-02,1.193100281785645783e-01
-4.922693699122833166e-01,6.027326437583848673e-01,-9.152737978509840611e-01,8.875168081577953227e-01,-6.611138094439847901e-01,-3.425256535137768260e-02,-1.446630976038821403e+00,8.711521059640828790e-01,2.174784723249940210e+00,5.584237686316926297e-01,1.155884704864927004e+00,1.759434431427982615e+00,2.590681614571476166e-01,7.346773796114312027e-01,4.599366460120911104e-01,-1.040118432017752337e+00
9.139397157305135799e-01,2.960393319764189068e-01,9.494564828059529615e-01,-5.292368967133782576e-01,-4.882400499764685819e-02,-1.040659752697149365e+01,3.523600791829870071e-01,1.916045538287634853e-01,1.674063641441076444e-01,3.814277133841715295e-01,1.945253286289742256e+00,2.967356384058363883e-01,2.530123486031875604e-02,-1.690294787480501049e-01,3.098818049830225352e-01,3.503371863845822221e-01
-3.260656532878952046e-02,-1.946522674934046404e-01,-8.724068480400354320e-02,3.031133212124589513e-02,1.168371652850152265e-01,6.697465510932129606e-02,-3.809056201623933768e-02,-1.412270249379385112e-01,-3.105181923553232415e-01,1.287677729802947646e-01,-6.587780340750007402e-02,-5.013991197010707335e-02,1.471041681559087308e-02,-1.571463906213045880e-01,-3.910683660237357362e-02,2.262310415124850760e-01
1.190360209552677961e+00,9.247852167198205020e-01,1.261113583982925723e-02,-1.185625539048688060e+00,1.553910254883175135e+00,5.303066119430428493e-01,-5.179528330034705697e+00,4.938921204694132761e-01,2.667078542807376773e-01,-1.065901750482431076e+00,4.965098166301860072e-01,1.043524638679761640e+00,-3.524966004377016460e-01,5.013664339617280863e-01,1.886614070448249691e+00,8.169173887303171622e-02
