5.048192128282000368e+00,2.593458538946692649e+00,-4.399202651164399569e+00,-1.216329334628677740e-02,-2.482392389060180893e+00,-2.397585496630623147e+00,-1.789023551281549773e+00,3.253113023092772504e+00,2.110784727861215515e+00,-4.473611664112001618e-01,-1.509105245221698643e+00,-1.947148379605377344e-01,-3.971239577683070565e-01,-2.643847083474279991e+00,-1.867743780264040421e+00,-3.703872506116474561e+00,7.128831088117784098e-01,-4.156821522476222830e-01,-3.365641810701258230e+00,3.330791337035550193e+00,9.949355567488272767e-01,2.435777062813854477e-01,1.138416761658141763e+00,-3.029121332774399988e+00,-1.104843764612998408e-01,3.702709800782626903e+00,1.124181453513062978e+00,-2.571683430591610087e+00,2.996781982177938009e+00,1.604193473012932580e+00,3.552696321058082862e+00,3.106734083818015191e-01,-6.332672129275056516e-01,-3.447409606459950204e+00,-7.525397682118087905e-01,-6.236776941530990381e-01,-2.673450610705018882e+00,-1.410493912597241273e-01,-3.444817871449828428e-01,-5.077777607113096447e-01,-1.561555400384064818e+00,-2.042710594601408136e+00,1.932183811327445655e+00,2.116910452630404116e+00,-2.971386328969031432e+00,-1.405141406161877660e+00,-3.660105982202562780e-01,-2.810466909190696860e+00,1.483429895364496875e+00,-2.881000036607381798e+00,-1.508247242353515816e+00,-4.206839078191204173e+00,-3.901586257256235868e+00,2.975825032968748562e+00,2.997559384757495948e+00,-7.363911493364350136e-01,-3.023190993957871608e+00,-1.686069519035101605e+00,-4.492836889570269721e-01,4.996607378383450815e+00,-5.988323747387089835e-01,-2.264983655613424851e+00,-4.183589406432569824e+00,-2.570120988285500729e+00,-2.287086604053616412e+00,-2.723116215929062722e+00,-1.506913168235179290e+00,3.372831420381829926e+00,2.082419183168243482e+00,2.548637161409308405e+00,-2.559533865866411073e+00,-1.199597144060454701e+00,-2.358087565158792920e+00,-5.408079024255346035e+00,-3.727215354458289553e+00,-4.948766644834578621e+00,7.561379415395834691e-01,4.708341465934206549e-01,-5.862531730810210950e-01,-1.965286625301856605e+00
3.402938595694684487e+00,1.465956345495437851e+00,-4.817777919784172802e+00,-6.206507418816651356e-01,4.230018777102393379e+00,-3.290633543059953148e+00,-5.112243372122583729e+00,-2.987313168397252916e+00,-2.554925516298506505e+00,-2.803078807924876958e-01,-1.703189040812757016e+00,-7.069317421041603211e-01,-5.060368549847955588e-01,6.122779403974750734e-01,2.049195173078280252e+00,2.354070628722721714e-01,9.236520077666158235e-01,2.313248598440227788e+00,-4.826769136901230550e-01,-2.307297837312122013e+00,2.468961346667774670e+00,-2.674873655172242959e+00,2.263198622069442667e+00,-1.451942937079585105e+00,-1.404612759971683333e+00,-3.409850248354337143e+00,-2.794095089832022705e+00,5.422491029757902092e-01,-3.723857411944011542e+00,3.005866427829628318e+00,-3.426380189857360092e-02,-1.895601188817753302e+00,-4.442362105195963862e-01,-1.128071011035179705e+00,-6.586505875550198175e-01,-5.994130158531201236e-01,1.172190753193894874e+00,-2.766192856500255814e+00,-4.379345373642137274e-01,-2.440615833776270449e+00,-2.739027169152341568e+00,-4.527085049446307075e+00,-1.916878567722225757e+00,9.759343803498271575e-01,-4.715249732825909312e+00,4.204580517884028090e+00,2.942732829845413622e+00,-3.063541319918172690e+00,-2.813292709261249858e+00,3.910602537081808716e+00,-1.235389008007504452e-01,5.684167509335389390e-01,2.348549320224346815e+00,2.810892255281838281e+00,-1.158067777774769214e+00,-4.151139562900722169e+00,4.935702554869068059e+00,-2.560740257558981270e+00,-4.050366435872325144e-01,3.449195617126819435e+00,-4.185994666108681095e-01,4.712404621516093628e-01,-3.032089016535034265e+00,-2.490331627071844522e+00,3.573691823246989863e+00,-5.639781571502410218e-01,7.461207232893675156e-01,-3.123386968799141794e+00,-2.195266360144280782e+00,-2.701303655188744379e+00,-2.231705185933707813e+00,-5.717692107112581912e-01,-1.900207567049371216e+00,5.369079314926267221e-01,-8.075910531194779862e-01,-3.868601492765883609e+00,2.014116809719047829e+00,2.733082374122748348e-01,-2.910009231307961741e-01,-1.489223190001510155e-01
4.049801554196326592e+00,1.147361349448641876e+00,1.249477439735237949e+00,3.002122361063024769e+00,-3.640901176327788313e+00,3.264282276063782184e+00,-1.269925665962137629e+00,1.181871534587685568e+00,2.043523264328469757e+00,-8.294417647375045277e-01,-2.493115986954427044e+00,-6.220282130211585159e-01,-4.915757665981135838e-01,-2.989733907123393486e+00,-5.974761473777311371e-01,5.093685207295387762e+00,1.905658293432644035e+00,-4.701872783468713735e+00,1.510596680236145684e+00,2.242942698695668646e+00,-2.975194321828136257e+00,-2.585257561370156054e+00,-1.568099480465698914e+00,-1.402780650205363688e+00,1.968639663674758511e+00,4.281171043924042685e+00,-6.398505109491767762e-01,2.793663197750805960e+00,-2.008293118427554591e-01,-1.034791254669692462e+00,1.018076440771396252e+00,7.975421937358672109e-01,-3.750916592537480443e-01,8.657817143731015852e-01,-7.606656975239118879e-01,-5.044097473743844873e-01,-3.037519349749106201e+00,3.186749779342440192e+00,-4.207385255874204200e-01,-5.943730625704319870e-01,-2.382998562315122193e+00,-4.867333158073014587e+00,-1.836741514751001780e+00,-8.864298187108713423e-01,-4.559399434855240685e+00,-2.263974410237791002e+00,3.702046034219747678e-02,1.378672771547574172e+00,2.016803188796177704e+00,3.631167690469061071e+00,-4.197022110750606494e+00,-3.948885443110732307e+00,-4.399488872283288665e-01,-8.126044034948386452e-01,-2.353176977975226514e+00,-3.345545133665428938e+00,2.830737071887960976e+00,-4.174802116255438733e+00,-5.249116849424635411e-01,2.114279207866175625e+00,-5.051445141922976667e-01,-3.698770877268778179e+00,2.473896946886884329e+00,2.100619166303661967e+00,-1.900000563308961832e+00,3.133970867369903490e-01,1.118405542479884662e+00,-2.994432781870870919e+00,-1.708217636178030741e-01,-1.483211118955268137e+00,-8.354381377799077191e-01,-3.508493116874751294e+00,-4.040342799817560504e+00,2.256342291051020688e+00,-3.897058372387596226e+00,1.408124159426209721e+00,-1.820472088392544485e+00,-2.140735185762403958e+00,-6.101863401743897741e-01,-3.905448444584309176e+00
2.493410683437901287e+00,-2.074682537862026610e+00,-5.520428453101660082e+00,-3.296002575856693539e+00,-1.489778860918945513e+00,-1.547200321514942356e+00,-4.323404446021538838e+00,-2.132214316125241815e+00,1.454476551053615285e+00,-6.663239181546126710e-01,1.336103833084431036e-01,-5.827000232097775401e-01,-4.062088744934578277e-01,2.952865872127641733e+00,8.269605486324256294e-01,4.435583399118871561e+00,3.633008967050148641e+00,-1.107049841021547354e-01,-5.613437083082768453e-01,-3.522927141747503210e+00,-4.421526015400564447e+00,-4.153469110151847943e+00,-2.647543573025014307e+00,1.054631618157163331e+00,-3.815364932217003791e+00,-4.461733592057163911e+00,-3.269805283937599949e+00,3.629828054465500831e+00,2.126481591544774480e-02,-2.503048597586807755e+00,-2.028450772403086466e-01,1.470820992055299703e+00,-6.139169342764414505e-01,2.112024345315765217e+00,-6.032908671238523812e-01,-5.210298610669942265e-01,-4.410765438836753205e+00,-4.649753126242828216e+00,-3.833075925783435145e-01,-3.379801370702225860e+00,-2.878227679640526393e+00,-5.429120117860623651e+00,1.321862732161798615e+00,3.806573189143733771e+00,6.748178795498851468e-01,2.757465824033748181e+00,-4.377036525502480124e-01,2.086239976957736886e+00,3.102457443319158958e+00,-1.553234258955350222e-01,1.531980018920668485e+00,1.972143763374802461e+00,9.607599146176957206e-01,1.989863764468897012e+00,-6.176160493434788012e-01,3.644713899807232149e+00,-2.054605151266748031e+00,-6.991634308049081703e-01,-7.638152798469924898e-01,-4.884949179863888880e+00,-4.313536794283717168e-01,7.502053827671344433e-01,-7.191840653763668101e-01,-1.182550663650169698e+00,-5.155176742793440958e+00,-1.437569676051166034e+00,1.994449253315179638e+00,1.546468660506242321e+00,-2.501388738289598734e+00,8.036980973531429040e-01,1.278797634594317278e+00,2.144892947653143533e+00,-4.251004188626303026e+00,-9.042052752733662491e-01,5.852070416279565590e-01,-3.651327522821713689e+00,7.552322501832621215e-01,-3.610941774673313898e+00,-4.916796577404102808e-01,2.544919958777023705e+00
5.491255813612414549e+00,3.851957697042172057e+00,-7.066851734891657077e-01,1.481259968163975094e+00,-2.324486741403654355e-01,-3.719737339246926400e+00,-2.892745778931360423e-02,1.185498588533121511e+00,-9.684925423798932398e-01,-6.594219214920171712e-01,1.509895393126300167e+00,-6.997432056857035843e-01,-3.112341946834686346e-01,-3.794751741441549697e+00,6.661411460047931277e-01,1.939891603392909225e+00,4.238613833990676483e+00,6.531874334209184507e-01,2.070051112874403465e+00,-3.346514969569970521e+00,-1.291034556720936033e+00,6.497747060258515228e-01,1.446637242197370554e+00,-3.518244862347990942e+00,7.667628983953461708e-01,-2.228299303337005544e+00,7.069360449972897364e-02,-4.777302820848882803e+00,4.329542230230819522e-01,-1.234791488310752888e-01,7.254628673347741641e-01,9.390769249333829061e-01,-6.128478660941623080e-01,1.445114511264489199e+00,-5.898472845351271365e-01,-3.406463999772865181e-01,2.700719752808824481e+00,1.522238666941777285e-01,-7.048012714964000391e-01,1.998154245522979267e+00,-5.445064793023115524e-01,-2.471820297771961883e+00,-3.666989212851714530e+00,-3.947482020069204012e+00,4.484393418249759122e+00,1.740762121334799239e+00,-1.893043008938723570e+00,1.666214919550081719e+00,-2.595283697345379892e+00,-5.708038359123243310e+00,-2.748897396772619128e+00,-2.630897941282085206e+00,-2.052851283556386797e+00,-6.078716149607908958e-01,-4.448051295753050027e+00,-5.318324454905797083e+00,-6.001992896438193448e+00,1.285596208540830343e+00,-3.836578430534684503e-01,-2.574188663960115253e+00,-4.479959406454915860e-01,-3.151263095503585632e+00,4.915352439776579097e-01,7.933637714848400524e-01,3.119797597224104990e+00,-2.603925784143659161e+00,-3.068574301466727050e+00,-5.295693783888277828e-01,1.179213839002720476e+00,-4.518939983579138620e+00,-1.033027975546800675e-01,8.298098494356277444e-01,-1.806690499796275606e+00,-1.504751083374668008e+00,-9.877174637927904621e-01,-3.503787221116171136e+00,-4.622258959649169774e-01,-4.020679900544797292e+00,-7.565383042952531500e-01,1.526711371244320326e+00
2.016821710448920779e+00,4.753435592425424794e+00,-2.817310449831199826e+00,2.868836156090064371e+00,1.470115764716232176e+00,2.360345366561522162e+00,-2.236036964799935856e+00,-4.684425509540471322e-02,-3.359560655298108323e+00,-5.336634069548862325e-01,-2.294233773477402760e+00,-5.261381733933790938e-01,-6.269287713466638046e-01,4.985083581126343866e+00,-1.378693352152648766e+00,-5.048765223794193346e+00,-3.116681496208844937e+00,1.687381691536719686e+00,2.699796451017876020e+00,-7.740498476691977103e-01,-2.450237858964429805e+00,-2.866515354388717629e+00,-7.824749258414281927e-01,-1.464066298349230522e+00,-3.084300919351756765e+00,-4.409449136894224575e-01,1.531046103534184022e+00,-5.296839512260999028e-01,2.875090727106103916e+00,-1.694459045538625031e+00,2.582047953018593134e+00,1.689586716139831912e+00,-4.476017051979416794e-01,1.449400070399508855e-01,-4.216786818377966095e-01,-5.642487373920699323e-01,-2.738856175292363471e+00,-1.596334346958759420e+00,-4.879641963852090480e-01,2.501902575088324476e-01,-1.296882509706593023e+00,3.009968918140972338e+00,-3.239097554764427844e+00,2.971744185416576034e+00,-3.642079037864231594e+00,-7.287972368884677365e+00,-5.227130163804514673e+00,-3.615915649660215614e+00,7.566379262028220809e-02,3.668701756750333831e-01,-2.820685972562771315e+00,-2.949230428171845997e+00,-2.231472725886372022e+00,-2.484213721250583706e+00,9.884636327231577368e-01,6.690390106502686063e-01,2.845041183135737839e+00,-2.829856073343214984e+00,-4.758849564767113072e-01,-5.479413229493272475e+00,-5.004575151191934523e-01,1.752996226793710477e+00,2.663565211142721267e+00,1.976986688834041717e+00,1.624745542436770052e+00,-4.005737977281058626e+00,-2.888617486525226763e+00,-1.973527632122620501e+00,-3.536833219962604025e-01,-2.167699995193999030e+00,-9.180560708255262048e-01,1.017941653792449497e+00,-5.665543412113691613e-01,2.527502848766270738e+00,4.168887535839235214e-01,-3.683606012642853589e+00,-9.212786707570752576e-01,-1.831781184557076836e+00,-6.418241405130005184e-01,1.438139697509976944e+00
1.893261865821449952e+00,1.302655764662094651e+00,-2.181659998307563519e-01,-4.460640747986523102e+00,5.790606414531471180e-02,1.952974120522368295e+00,2.740625738119254695e+00,4.466835432506818471e+00,3.288149940677107530e+00,-5.460708401502996079e-01,-2.168332229835912006e+00,-3.539486679158113658e-01,-5.945130731934256119e-01,-8.160971380826439470e-01,1.585041032511917969e+00,1.272499656349266040e-01,-3.242766099655999490e+00,-4.531978949245676347e+00,-2.669358742993634515e+00,-3.614131348484601158e+00,1.748871046995228995e-01,-1.754257306202297917e+00,7.337792102222220336e-01,-3.939451621331854447e+00,-3.147780631971663023e+00,8.090410350237914328e-01,8.670062741235383674e-01,-2.411785812814749352e+00,-3.086759649509153380e+00,-3.423535597892494398e+00,-3.653588625682970825e+00,-3.469259379294165502e+00,-5.471663058546208935e-01,-3.559394241665377656e+00,-5.030979697686455143e-01,-4.516761939580152818e-01,-3.237891910646699234e+00,-1.812389083345133489e+00,-2.994734021584622985e-01,1.460378850178184473e+00,-5.707825674856698006e-01,3.507561912228669421e+00,4.100419022233741551e+00,2.532562600946523634e+00,2.933356180428690063e+00,3.240872971153791582e+00,2.440789251904190937e+00,4.156438832653363669e+00,-1.978515125232110927e+00,3.049686799953533201e-01,2.941502305648268756e+00,7.906672649602247693e-01,2.676109475776486502e+00,-1.246840719431510314e+00,-8.297476293713188511e-01,2.976631161584023300e+00,-1.324956886859384619e+00,-6.478269518931152327e+00,-4.396815288579694614e-01,-4.667877956385662469e-02,-4.719482487938116422e-01,-2.968835325444841633e+00,2.776619134288090152e+00,1.321975386677781916e+00,-4.183033052386617712e-01,-2.155890341462170845e+00,8.147199301365738444e-01,-6.172469314532324169e+00,-3.321433404313482995e+00,-2.282720429755192626e+00,-3.399292642170534506e+00,-1.613765604282586530e+00,4.097666924327810989e+00,-2.773643305618318955e+00,3.458671927436949733e+00,-4.409588555905352258e+00,-3.571487665362065300e+00,-2.308607889055898532e+00,-3.952195822001737802e-01,1.333547657213720372e+00
-1.088048528415826111e+00,6.340068492019576007e-01,3.749989683096617732e+00,-3.415445123419335705e+00,-4.151170270916133553e-01,6.393091730470549239e-01,-2.684974530047236352e-02,2.621265655281486140e+00,-9.976008059036127751e-01,-3.638816607727824448e-01,-4.661578541455729807e-02,-5.159869390276473622e-01,-6.615516785433482871e-01,-4.921048275815945061e+00,-1.519653968933609045e+00,-2.938178758939077095e+00,2.726765992227791369e+00,3.914050492603399878e+00,2.549564482400028975e+00,1.645797125875945621e+00,2.301954257082376998e+00,2.839668385228766301e+00,9.298711026962306336e-01,3.749161676135543075e+00,-3.423652561073589062e+00,-1.967680815908805503e+00,-2.872534667441144940e+00,1.602789438133451316e+00,6.117741862326979696e-01,-1.949441996174329894e+00,-1.932620851299618803e+00,2.052580756481806823e+00,-6.066474092761211523e-01,2.301491458382864397e-01,-3.160551418348501174e-01,-6.085525544906212891e-01,-1.815127027629102718e+00,3.408083183710522324e+00,-6.013229447014694085e-01,-1.046434112398687746e-03,-2.754994963419965526e+00,-4.481802651343716803e+00,-3.449898511850898686e+00,4.794382573641784440e+00,-2.120613981498595368e+00,-1.965980664529097366e+00,-4.201748284251070942e+00,-3.614715522064790854e+00,3.910222746056584708e-01,-3.257448375659532935e+00,-2.308554204924054623e-02,2.104251951264265674e+00,2.426906386405418115e+00,-3.253461184115495897e+00,-1.344180547403354131e+00,-3.206085055926580107e+00,-2.637527534200755586e+00,-3.450729055097623732e+00,-4.749115326021470240e-01,3.251998077354133265e+00,-5.522465947092660699e-01,1.475013086971000975e-01,4.131824154854528253e+00,-5.474755502603406931e+00,-4.945758960080013367e+00,-2.889935637062315266e+00,-2.372202225650491325e+00,-2.757086779369601892e+00,3.234766407101692942e-01,-2.907033340069130389e+00,-3.243516912766935878e+00,-2.651906184596815041e+00,2.919464897063001718e+00,-1.852814246789550090e+00,-4.703778337396649967e+00,-1.821267532366717123e+00,-1.682001923710367830e+00,1.294411731871219384e+00,-4.413258024785703393e-01,1.113330796311847282e+00
1.619928278108568653e+00,-4.173201950409468175e+00,-3.281064761731169899e+00,-3.412147928562497157e+00,-2.493270572244409955e+00,-4.266733422837461376e+00,-3.817986236994487470e+00,-4.397050421577344714e+00,-3.231752802762241750e+00,-5.905412570808907802e-01,-8.925106561264375613e-03,-5.535927073771306217e-01,-4.945506315322163449e-01,-2.281187559520451824e+00,1.833167336847674189e+00,-3.375463808943548472e+00,-2.031274742190542160e+00,-2.397248885112462702e+00,1.692626196125525118e+00,-2.310247255470566863e+00,1.936768383092750678e-01,-9.830629365201125625e-01,-1.848093734932634735e+00,1.339196115388425312e+00,1.949862941347252354e+00,3.536893792911157686e+00,-1.280849663412289230e+00,-2.963099997978816180e+00,-2.670379657635900461e+00,-8.975043931624879789e-01,5.016788293780792829e-01,1.704257468059225955e+00,-6.230911891834163274e-01,1.607238553938798775e+00,-5.387937285265398391e-01,-7.081844265025687424e-01,-2.985139844802355280e-01,1.621415645741282052e+00,-5.422378341113740507e-01,-2.340999013836981835e+00,1.132609447859917129e+00,-2.657531341234771194e+00,1.891119507307198688e+00,1.851775618282976765e+00,3.842016203940157304e+00,-5.697001768089539064e-01,1.907719943001736862e+00,2.111741315195034385e+00,-2.280088778267601146e+00,-6.538822784511457265e+00,2.866272898922654022e+00,-1.758164316979135000e+00,-3.097281407522646024e+00,2.168175285184855916e+00,-4.221960368610054637e+00,4.163345079854796182e+00,3.393875103728816178e+00,-1.865746828739265617e-01,-3.724746549857499978e-01,-2.448555900141611730e+00,-3.066071922572164987e-01,-3.468008506764382659e+00,2.581523192651730358e+00,1.924851132661621111e+00,9.519174872342848204e-01,4.081740759101063709e+00,-3.442067702837596777e+00,-2.364504340406736294e+00,-3.424497697643767324e+00,1.447275644595958033e+00,-2.725138135158951869e+00,-5.647288851597197734e+00,2.650914854958355438e+00,-1.961789889790834573e+00,-5.740622322831784530e+00,2.912331781443554313e+00,-2.057437086317108310e+00,2.172014738667123017e-03,-7.206076601274044036e-01,1.565281821713014887e+00
-7.031239119332338028e+00,-1.785528503988312310e-01,-4.323192921536770150e+00,-3.964239814738570900e+00,2.202252687963255795e+00,1.804063206552423804e+00,-2.250588548931345745e+00,4.364533044336795342e+00,-2.311610517335293657e+00,-6.640330381728654086e-01,-7.407010311000348235e-01,-5.827407132214803553e-01,-4.812720661397133504e-01,-2.515520566819477999e+00,-4.764685706987811797e-01,-3.876037575306193084e+00,1.263766064203952322e+00,-9.819727959540448525e-01,-4.651358413956595328e+00,2.139512993007513408e+00,-3.675789006432049977e+00,1.758620961811280026e+00,-3.960265446203605766e+00,-2.580183044334773079e+00,-2.504789218596747524e+00,-3.949044184086949461e+00,-3.129964715625262794e+00,-3.817518279374480183e+00,-2.867551007693649456e+00,-3.566643465435464400e+00,-3.643841562028008241e+00,2.306970677382119028e+00,-4.647720188571817790e-01,2.674708384477767265e+00,-6.330266794071662817e-01,-5.749595098844109131e-01,-2.675244721491938815e+00,-1.300466646907294743e+00,-5.636016958121068399e-01,-4.459748105868880153e+00,1.524812202894518354e+00,2.075359679277624936e-01,-6.247755857355875575e-01,1.311962790908414167e+00,-7.865125459865230928e-01,-2.059992860562219086e+00,-8.410443585914155751e-01,3.322962061239449483e+00,4.080911681648762723e+00,-7.386679538162869985e-02,2.512967237489466488e+00,2.816207480572019417e+00,-2.025076981880851612e+00,-3.206273091936917008e-01,-1.527490218098429553e+00,-3.192412948922854987e+00,-1.259606037960971037e+00,-2.486753180665511653e+00,-5.279565630216621619e-01,-2.926371116078833601e-01,-4.878828085629609013e-01,-3.219172401307473397e+00,-2.948308882278594556e+00,4.685240576791152911e+00,3.909376529079554352e+00,-1.036035238441244344e+00,1.902824017942756463e+00,3.286004111116964665e-01,-2.325096869020239598e+00,-5.268102532363138302e+00,8.462456542168357299e-01,1.570818573176105293e+00,2.115680946582094268e+00,1.823750526014672024e+00,-1.692025601406683677e+00,8.333974714340977030e-01,1.477469789521017374e+00,1.067253298249131843e+00,-3.753130926345225049e-01,-4.022143159515588984e+00
2.106633168039032000e+00,-2.145586416035877519e+00,-1.003599026155628682e+00,-4.981590154001809267e+00,-3.051594367621146109e+00,1.300472413609243150e+00,-3.234375837197460690e+00,3.211684538873467165e-01,1.978867964095540000e+00,-6.729605684795162412e-01,1.703681417334312220e+00,-6.474850839865907703e-01,-4.262764827427730774e-01,4.032208585667794942e+00,-4.416977037618427637e+00,1.480362074714541620e+00,3.477714177841445764e+00,3.523980552754487072e-01,-1.594812821174841355e+00,1.300429999497326072e+00,-2.647875133731157904e-01,-2.552497195200595481e+00,-7.297839482510958264e-01,2.749044516976406172e+00,-2.768336124709405155e+00,-3.219068574469153177e+00,8.701435633741811948e-01,-3.933675029523538313e+00,-3.348806421526697719e+00,-4.572388127715647954e+00,6.397254576433040185e-01,7.968916630984751448e-02,-5.949359680685247787e-01,-3.812403496660782043e+00,-7.661466015885487479e-01,-4.724445261493262493e-01,2.298958220309383904e+00,-9.904306707709797930e-02,-4.694240573052572141e-01,1.146147711600097763e+00,-2.056519952077296765e+00,-2.054914456626347086e+00,1.419694311349975147e+00,-8.666498777035233081e-01,-3.043471176549907398e+00,-3.930727621158457197e+00,-4.217721526998698067e+00,-3.570477805786224756e+00,-2.544777094450334953e+00,-1.429386002794844401e+00,5.722177643863597396e-01,-2.686145031395793525e-01,2.075626906643251779e+00,-2.834003251772005960e+00,6.757998819150211611e-01,1.056896731818300017e+00,3.203377162299327896e+00,3.825644171734739807e+00,-4.438513787264577459e-01,3.222373665478850402e+00,-7.869467952122312093e-01,-4.130409544067481953e+00,1.927650297337099472e+00,-1.586622435359102135e-01,1.797003077532521642e+00,1.695583480123553644e+00,-4.387190980962828668e+00,-6.581114271170852570e-01,-3.889897011188619413e-01,-1.217785573345609995e+00,-3.209727061894878553e+00,1.818308482597071063e-01,-1.346996949764311724e+00,-6.154453420313285683e+00,1.108343253537273920e+00,3.000825758770854446e+00,2.572452756955684539e+00,-2.454948870146197226e+00,-4.515323380693770372e-01,-4.981598613985465662e-01
2.818007758357952142e+00,-4.260660709355631320e-02,-2.565996516251275228e+00,2.974170321161243802e+00,1.555585375952135196e+00,2.070938787500707257e+00,-2.441916432898033396e+00,-5.312720628357510577e+00,1.900874395145019990e+00,-5.526150540353612639e-01,6.386067990253708748e-01,-2.776821648474304127e-01,-7.064549450756899551e-01,1.236136040573403670e-02,-1.681246129604731632e+00,-2.712572348460856375e+00,-2.713513722588225985e+00,-2.954341786562126426e+00,5.213088661669482704e-01,2.664775701653609552e+00,-3.342114079740629684e+00,3.271367453677394455e+00,2.197829133168843985e+00,4.846946867881997689e-01,-2.778696771302554769e+00,-7.015697913992895440e-01,2.089953078082229521e+00,-7.273254704224200173e-01,1.606061467682184496e+00,2.670224718416935317e-01,-3.469111930100246433e+00,-3.948098126027816540e-02,-3.118986715105648289e-01,2.366141026916505741e+00,-3.233328291913439845e-01,-4.865676312280424742e-01,1.442241804672603323e+00,1.679143242755896548e+00,-5.771194672170433249e-01,-5.058938117596043504e+00,-2.476038756249184569e+00,2.820140113483142308e+00,-6.758350126992597184e-01,-3.356007762213200518e+00,-3.594658744072730006e+00,2.358581613335747562e+00,1.689454813895819620e-03,-1.964405107327873157e-01,-2.394038099145109566e+00,-4.491878513635544579e+00,-1.936710883213964118e+00,-1.790578144974865449e+00,-2.489564544437178117e+00,-3.067605351651252032e+00,-4.187156043183493104e+00,8.189116260448562334e-01,2.312337890782978800e+00,-1.717198873179790253e+00,-4.019057197610961807e-01,1.755772343638391242e-01,-3.284032773369570668e-01,1.645689655642173843e+00,-9.841192111888147354e-01,-2.059479481004753421e+00,-3.151011812625593045e+00,1.621699436729156396e+00,-1.006292593608394820e-01,3.798098022638391136e+00,-3.494554026853688544e+00,-2.552484753292718622e+00,-2.492761653813742484e+00,-4.285613959988652688e+00,-1.643726152092448878e+00,-4.987576881993673439e+00,2.461425804089298897e+00,-3.697392808250821172e+00,2.672037164965010092e+00,7.025184735925533719e-01,-6.099149480457695116e-01,-2.067295379821288304e+00
3.996483295912689915e+00,-1.731549220341591200e+00,4.329365428383825432e+00,2.422131503265365637e+00,1.944693807649911843e+00,-2.004180283178403632e-01,-2.762328596032484374e+00,3.619413479776535603e+00,-2.402783420087095223e+00,-5.260415761522516664e-01,1.538744152002995635e+00,-4.823877899937328295e-01,-4.229990397957567039e-01,2.592387962048602112e+00,1.459226158888003999e+00,-1.291312047295453569e+00,-4.095030076950249232e+00,2.910982694151799111e-01,1.807464985504470434e+00,2.424962399861571305e-01,-3.067045823416119088e-01,-3.255737136099149609e+00,-5.767480349901215053e-01,-4.009512216246405303e-01,2.303938202632464627e+00,5.398296408776217525e-01,1.628720183870750571e+00,2.884800848679741403e+00,-2.836875473954648008e+00,-9.184496726178521531e-01,-4.489086372655865631e+00,-6.914730261770116737e-01,-5.381284265456178773e-01,-4.472772919598889452e+00,-3.517108375590609626e-01,-6.299792255134903929e-01,-1.572504782293457026e+00,-1.413616340586091535e+00,-3.894242899636064514e-01,-6.540105894310481283e+00,1.665183973474083645e-01,1.333987744309943491e+00,1.700669873839357749e+00,-2.605150688815991877e+00,1.259828267828765780e+00,-2.983155388531393726e+00,-5.157987989609599033e+00,-3.483875362225959282e+00,-8.027219081675395218e-01,-5.000588388694952258e+00,2.873247523761212285e+00,7.742468779500345510e-01,-3.577077967609850973e+00,1.998641628313837293e+00,1.499885140404480399e+00,-1.542562212468566063e+00,-3.562443213753069493e+00,-2.793548426260511697e+00,-5.214675389236339553e-01,2.784870095732253414e+00,-4.733831580687864471e-01,-3.152101188226193340e+00,4.290191430680669882e-01,-3.678897887385887966e+00,3.684622280682765094e+00,-1.574550604154421052e+00,1.180083906248497794e+00,2.935005223597465740e+00,-3.638131938532815912e+00,-4.579997782841740417e+00,4.290518375941397844e-01,-2.948037027521718922e+00,-5.076060933370429851e+00,1.124390398047668826e+00,-2.400941798060365784e+00,-6.486300705225525043e-01,1.004975524603660686e+00,-1.602507353116567224e+00,-4.994835231913466456e-01,2.250511103633712651e+00
-5.980557643477251162e+00,-3.810100669384191896e+00,-2.553592463334496632e+00,-1.290554194368357166e+00,-4.260190384553410148e+00,-2.194656216279604166e+00,2.589489809937739917e+00,1.752936038593088997e+00,-2.634121045294357533e+00,-6.005852598103368356e-01,-1.993621192007264398e+00,-4.018649032779292862e-01,-3.136713041483087383e-01,1.688063086786042444e+00,-1.259968291051414724e+00,-1.675687724908202503e+00,-1.934705051564825862e+00,3.546708678782280799e+00,-2.649294730410875487e-01,3.251383360758254071e+00,3.087530615382383825e+00,4.572294062407156190e-01,1.910636242677872465e+00,2.250564561091108917e+00,-2.816465512180454489e+00,3.141987981481614955e+00,3.148903803466667206e-01,-2.365829825879164350e+00,-1.523707391293231961e+00,1.886113378017638897e+00,-3.657929557341350613e+00,-1.208796477515035939e+00,-5.913256668196033017e-01,-1.751236490247233268e-01,-4.025293180112431979e-01,-6.813982617070192260e-01,-4.326981581041340341e+00,-3.095726930783746056e+00,-5.602254700687930855e-01,-5.592596990458134520e+00,7.569490731363792690e-02,-9.513861456915535530e-01,-3.721869576768626953e+00,-6.876802796611204416e-01,-3.217357854367153713e+00,1.194872648799486958e+00,3.673570734020054629e-01,1.481237031821414085e+00,-4.903068256801478952e+00,3.990551161738436381e+00,-1.502483137285852921e+00,-4.465943033145533647e+00,-1.928939511910776616e-01,2.233459789469502965e+00,-2.715291401990445053e+00,-1.165668760370604184e+00,-2.363076255946222837e+00,-3.647189880208866253e+00,-6.590436339138318056e-01,-4.824191973128017508e-01,-6.029098871311378005e-01,1.520268703587352777e+00,2.372546049976555771e-01,-4.564987067225856343e+00,-1.215386291307828603e+00,2.786952951434936487e+00,-2.151875891086651116e+00,7.162250892390726875e-01,3.747763638979653589e+00,1.912857395804034022e+00,1.327621019659419588e+00,3.991250071595129789e+00,2.210354340966356190e+00,-4.509999778994561836e+00,-2.910376357068303332e-01,1.662726409840776576e+00,-3.349777273480688322e+00,-2.203400737287150246e+00,-3.428330358380896059e-01,2.610296123893192544e+00
1.409415851558604826e+00,-1.394198589417599221e+00,1.898440833452650134e+00,-6.817064100101430935e-01,-4.959536428926378804e+00,2.654442944294014506e+00,2.198617914246277394e+00,2.185812228961018899e+00,-1.733857987514508148e+00,-6.179597639587193214e-01,-2.105484181226163098e+00,-3.582251442948093390e-01,-5.028805657941970431e-01,4.178988167242184026e+00,-1.482399001170150221e+00,3.332445604006027295e+00,-5.267563638855602193e+00,2.734482922063230959e+00,-1.171393863132473623e+00,5.581539586635645422e-01,-3.050089296975244668e+00,-4.056919324595819276e+00,1.361846900910836933e+00,-2.173056508743699045e+00,1.111910119585354462e+00,-3.496618472627955221e+00,1.697244436530296996e+00,-4.465059221689194335e-01,2.932726757572146514e+00,1.744414866756185400e+00,-2.498572806842889626e+00,1.122383270392292687e+00,-5.784385275150766281e-01,-7.361163208706839045e-01,-7.036522508131859421e-01,-5.252512300037008863e-01,2.774917668209676780e+00,9.175270784427075332e-01,-5.225880947031991131e-01,1.602060621012420416e+00,-2.758172301679456151e+00,-3.101030651377144398e+00,-2.391530579730014150e+00,-1.801703912616891001e+00,-3.212016441724085514e+00,2.537029172292481483e-01,3.184046625598659475e+00,6.468350019966928599e-01,1.683458638355211923e+00,4.534313932247871493e-01,2.810242791485469294e+00,2.048822389043178926e+00,-3.818290045237912711e+00,-5.180211243273959099e+00,-4.647965618357254414e+00,-1.878604260119008273e+00,-2.956438646882043830e+00,1.023131008875672432e+00,-4.720235010514596818e-01,2.109263701638340940e-02,-3.076185401746217574e-01,-3.495197344954710794e-01,-5.945991216540374324e+00,-3.845620233264427590e+00,3.159232915551381526e-01,1.876445720509116288e+00,-2.136335594431164164e+00,-1.233425438595367324e-01,-1.396860119066000383e+00,-3.382727672888373505e+00,-4.450989662615050690e+00,3.437470926993307696e+00,6.300966998788337659e-01,-2.920653456560981631e+00,-4.205409615922925504e+00,2.122030161308273932e+00,-3.040271905711414480e+00,-2.278492176001472025e+00,-3.455107965690183414e-01,-1.444005205850578566e+00
-2.254787529089887332e+00,3.621342448318074503e+00,3.170342333040907068e+00,-4.588370800735422916e-01,1.682347288080344061e+00,2.848825380119754502e+00,3.051446615022983089e+00,-1.699112683471571295e+00,1.588687116748154216e+00,-4.115232590959976844e-01,-1.473052019966241355e+00,-6.572642393818370898e-01,-3.835875847203384370e-01,5.730272702178223376e+00,1.097314442316224214e+00,-2.894876100017583109e+00,5.916439725065328892e-01,-4.366113697453712028e+00,2.080716282001261241e+00,4.570466969867659768e-01,2.973641289017458167e+00,-4.139334766821650469e+00,-2.464520894807855633e+00,1.034596458703225030e+00,-2.369789985915092156e+00,-1.729025288562368701e+00,-3.042931358845148093e+00,-4.242452362079597528e+00,-3.753195731871676433e+00,2.645671321089215322e+00,2.498872564152824438e+00,-7.687907607698610257e-02,-6.180629764456112563e-01,3.654400859373884702e-01,-5.788111619483550241e-01,-6.407409754472438435e-01,-9.833313183862489870e-01,3.109324114293958274e+00,-5.641663003767379836e-01,-2.709474976024770942e+00,5.958710499513030223e-01,1.810687953907299808e-01,-1.942545732686373983e+00,-3.616452062038389315e+00,3.141204288191203897e+00,-5.329753046802866656e+00,2.482015021458714887e+00,-1.333846868673738362e+00,1.004584364855072992e-01,1.186272440570056874e+00,-6.071285290412415936e-01,2.350986665134038756e+00,3.716257989213602286e+00,2.778471737048037404e+00,-9.328096709308720813e-01,-4.202785927709749569e-01,-3.883326945663248431e+00,2.097893556407163018e+00,-3.639638627538489546e-01,-2.105611593734492804e+00,-5.286992308458814405e-01,-3.052515025753491873e+00,-3.238169007030128110e+00,-5.000994359130218392e+00,-4.162905952758602091e+00,-2.958897792205380739e+00,-6.206234040248526096e-01,8.846032883892688270e-01,-2.128521897695273335e+00,-3.542370178790909208e+00,-3.698432909073703811e+00,-4.478700600205518079e+00,-1.417818306881043489e-01,-1.824099313050752347e+00,-2.209845419104804254e+00,-3.197895703010341872e+00,-2.601821499597028797e+00,-2.266996174251049823e+00,-4.850928527072379537e-01,-3.821693174947589089e+00
5.502994771306068067e+00,-1.142443284814228299e+00,-3.745219101388737037e+00,-2.619005501493740784e+00,-2.033423447066006473e-01,-3.999127195727227413e+00,2.324920017692154062e+00,3.608859532676733650e+00,1.140225622547369477e+00,-5.996468645621916282e-01,-4.264179666361612164e-01,-3.525005940829838980e-01,-5.734023489823413255e-01,-3.974832085717643348e-01,3.922238346342132864e+00,3.501588508007916545e+00,2.837543081252007937e+00,4.743966670752071679e-01,-2.227936773310477570e+00,8.592359268486958745e-01,-3.494668914148885364e+00,3.643999120702710925e+00,-9.599581659988495538e-03,8.779853145641785747e-03,-1.393633375374979888e+00,1.335096190783814585e+00,1.663193437715593470e+00,2.018277802277836930e+00,-3.937237936513064529e+00,2.214483304668802166e+00,2.247988069730216809e-01,-2.252311572331032963e+00,-5.729568247634040379e-01,2.281420738598995523e+00,-3.353381291762610461e-01,-7.273772099862158003e-01,-8.483991626570760447e-01,1.701527776393742197e+00,-4.438127287884522376e-01,-3.448072179276773674e+00,-3.757682122333543939e-03,2.700663955144925854e+00,-5.000085041756165138e-02,-3.219750715352635240e+00,-2.436423066885994526e+00,-5.790629596188839656e+00,1.558308631694404589e+00,-4.565945268787654499e+00,1.363765667268062920e+00,7.460604963935891787e-01,-1.714448528958801843e+00,3.360754203020164810e-01,-3.295972260704770340e-01,-4.634043171497720159e+00,-1.697993825258498513e+00,1.885299496100587779e+00,-2.414198487945054428e+00,3.845408277454365198e+00,-6.168933449556240900e-01,-2.293572976955124521e+00,-5.724497905068315351e-01,8.681250992143457745e-01,1.008948425250556946e+00,-3.254505897021721772e+00,-2.705786644326139800e+00,1.129417520501312611e+00,-4.153293144894273148e+00,-4.129813307598961813e+00,-3.240965242090810605e+00,-1.705701385883904575e-01,-3.533016495501407839e+00,-2.947286319269749377e+00,-1.623955300907526267e+00,4.375500270096396527e+00,-7.052900893236982438e-02,1.351956443038414335e+00,-1.575718088234186576e+00,1.628639509762670246e+00,-4.870320903334054430e-01,-3.985468764080047244e+00
-6.635368642795684835e+00,4.479172928036837531e-01,1.246194039922927654e+00,-4.852013636705344801e+00,-2.833941721460506713e+00,-1.136955649308152738e+00,-3.824704463854264880e+00,-5.473599285986904261e-01,-4.387533611094698749e+00,-6.136310783972772631e-01,1.464898167951946606e+00,-6.762919829132089111e-01,-3.584348511229693557e-01,-4.261841925851894253e+00,-1.075932445698978696e-02,4.775305971547788353e+00,-2.448558936043799150e+00,-1.773208884234667160e+00,-6.377133174878147903e-01,7.615495309415940550e-01,2.178032833625688003e+00,-5.005706676092724905e+00,2.030205748173997460e+00,-1.262282845396626829e+00,-1.266103290766153355e+00,1.341255445734230944e+00,2.531683251480181696e+00,-1.636141701712001684e+00,-1.884444441404257597e+00,-3.427782231434048477e+00,-1.238745298007396967e+00,-3.096386885566706493e+00,-6.314495805314533916e-01,2.372345450450647153e+00,-5.740500843962800248e-01,-5.725470283026292684e-01,-2.923523303819612895e+00,3.198235969002857892e+00,-3.263326458321927359e-01,4.723216639228324798e-01,-4.861568709079185369e-01,7.883789485770045236e-01,-2.322768486530008669e+00,1.584187967426650800e+00,-2.302991657408772319e+00,2.782369322716879978e+00,3.358620297414363520e+00,1.657850179659141887e-01,-9.892119578287023041e-01,-2.924735383157555102e+00,-4.328422039720121184e+00,-3.036736439367950346e+00,2.579986665384035760e+00,-4.124703480355246477e+00,4.030458952424567087e+00,3.608481926802113549e+00,-2.305765840025036262e+00,-2.151717353404155819e+00,-5.750603738711976831e-01,-4.720014589727295373e+00,-4.314584323864458781e-01,2.407244741307821734e+00,-5.454464204102373870e+00,2.680829452216738074e-01,3.184914781684065499e+00,-2.898642483967191819e+00,-2.521271749554899189e-01,3.046562170078649157e+00,-1.335135090860065876e+00,-5.594102923500529068e-01,-6.500446000937918356e-01,-4.392541305499122473e+00,-2.264105759433371112e+00,1.202056923149953382e+00,-2.151841617362819647e+00,-8.160410170197874846e-01,2.701834558473767967e+00,7.367396921032048906e-01,-6.101050796487681449e-01,2.067994982272857385e+00
3.120469348531015097e+00,-4.098087315545344111e+00,1.271518933112234517e+00,3.065853732566887757e+00,-1.009807773910011752e+00,-1.879400057807331326e+00,-4.701956525740637716e+00,7.598602074838537446e-01,-2.511643532342441532e+00,-6.123392016563475870e-01,-3.700257032525695045e-01,-4.421395470154848018e-01,-5.965264173202929898e-01,-1.655248059119386772e+00,-3.419596659083202095e+00,-2.330703064295779559e+00,-9.072553040439390593e-01,6.855113336885148012e-01,-2.007883322625013012e+00,-5.055131695220820731e+00,2.939806654628446925e+00,-3.173680174618090266e+00,7.030382900182873263e-01,1.174980169085380277e+00,-2.732945688224943215e+00,-2.079980853372414451e+00,2.295490219828977718e+00,-3.873557507586051774e+00,1.001190630046520980e+00,8.381038035924452956e-01,-4.508645302626934637e+00,-2.199501377916301958e+00,-3.826143663033672593e-01,-4.270120292963008879e-01,-4.729807790053591754e-01,-2.756702895512891938e-01,-1.797688518273991454e+00,2.043736236578649113e+00,-3.335789201433734252e-01,-2.235438636194943207e+00,-2.071348716649193289e+00,-1.430212206180066614e+00,-5.655042615855625510e-01,4.096356045369053511e+00,3.320005790656996414e+00,-5.515326924878674042e+00,1.756992190423428468e+00,1.904287745668255871e+00,-4.494362344933032105e+00,2.972028858666528883e+00,-2.581959692976838916e+00,9.029105747541225080e-01,-2.994870650527556855e+00,-3.737789372182628522e+00,4.487879409506898565e-01,-2.276047080451459426e+00,-4.524539024510905172e+00,2.803679494649183312e-01,-6.768267138738841560e-01,1.934518261054076982e+00,-6.843263379933004487e-01,-2.147527476193006546e+00,1.958594265771354648e+00,3.056587643507328256e+00,-5.656843911305204031e+00,2.761863463800385166e+00,2.252883084227608745e-01,-1.567254467241604221e+00,-2.495549945647405621e-01,1.924822026505009775e+00,1.894919501515666127e+00,-1.512982792545034094e+00,-1.769147196704736080e+00,3.331503595536979390e+00,8.262870657735810198e-01,-3.450551535795874369e-01,3.391817981477665889e+00,-1.446406935673543614e+00,-6.854223943260656648e-01,-1.277717635728095491e+00
-2.286545243105981395e+00,-2.506099040311293269e+00,-2.630805157928048033e+00,-2.098329579779192766e+00,-1.130660613696933714e+00,-5.110679514002165746e-02,-2.063779930715935684e+00,-4.934025585101660560e+00,-1.658139264148992043e+00,-5.670413506392113501e-01,-2.566280997993930502e+00,-4.099563780243314359e-01,-6.149611032145050338e-01,-5.941819917601579348e+00,-3.081270662900708057e+00,1.266684836307513606e+00,-4.947385245989257552e-01,-3.795157677059771473e+00,2.195516084013921176e+00,3.078758942520585240e+00,-3.295361053937027052e+00,-4.112820302970635389e+00,-3.759522277589359973e+00,-2.632721552553582089e+00,-5.532690375869418808e+00,-3.322371061401066417e+00,2.830811762846925816e+00,-1.288710973581649544e+00,-3.770354454753957363e+00,2.669569319793449136e+00,-2.492444085269446497e+00,-3.087131858629407866e+00,-5.566035373760124250e-01,-3.159209057408260968e+00,-5.319419633806812264e-01,-4.925113387601606219e-01,2.533138600198983958e+00,-3.424483724467451307e+00,-6.198262794202908932e-01,-6.377692744860286034e-01,-2.032432179841809461e+00,1.360091160398358145e-01,2.184743567586700519e-01,3.176217190869059515e+00,1.270558611782297564e+00,7.193609870788439054e+00,-1.009460888235081510e+00,-6.125327822285629997e-01,4.486100057204718716e+00,-2.424109495679804827e+00,-1.013735491044937653e+00,1.825445689837983831e+00,-2.446280917897825979e+00,2.608488696677965901e+00,6.973995103947846497e-01,-4.982439480163901813e+00,-1.882785941703806865e+00,1.379581111369782231e+00,-5.301374938704798145e-01,-3.344765837044249679e+00,-3.844373395126455817e-01,1.485755937801599202e+00,3.706144405748172943e+00,-2.800523576995336050e+00,3.251724631458234871e-01,1.452313607065800205e-01,-4.293991995910874770e+00,-4.759339868900322124e+00,3.868112968994639633e+00,3.255105564885892200e+00,2.882773410628274746e+00,2.334160438621323497e+00,3.508551128146123244e+00,-1.042739806514500156e+00,2.066551928929377002e+00,-3.352296331602353519e-01,-5.314092602129478760e-01,-3.189647091837513937e+00,-4.254965563209175405e-01,-4.512975845158606170e+00
-4.344749786860092833e+00,6.967174879043269708e-01,-6.645012547400355185e-01,1.016069427355669776e-02,-3.531886768042406199e+00,-4.950192458166806198e+00,-4.022130968321867783e+00,-5.379395712481041869e+00,-4.138292319558839694e+00,-6.488222420852778338e-01,-2.843569725722477237e+00,-5.052456919577203998e-01,-6.078226387907771366e-01,-1.399630224269575507e+00,-3.931201104943927938e+00,2.582577053987668680e+00,-2.849021779168954716e+00,-6.552910758382685330e+00,-1.831013188857813168e+00,-2.649055017056911598e+00,-3.821392797600397628e+00,4.378856653994754211e+00,1.732626280091656312e+00,-3.536650261797476880e+00,-1.465466592806527579e+00,-4.408707192085565829e+00,-4.615285200192319692e+00,2.105611444723002545e+00,-3.360105664986575036e+00,2.509624966030319926e-01,2.125332197348870356e+00,-6.809773003223826837e-01,-6.897785622526807492e-01,-3.818796884865625962e+00,-4.729826912214911694e-01,-2.938442426438039878e-01,-2.877344462867438502e+00,-4.926002325814373695e-01,-6.341662121731072022e-01,1.137705719009971306e+00,4.600232306187205245e-01,2.059467516147231780e+00,3.415314238463035501e+00,2.853119221687304918e+00,-1.087513981214480452e-01,-5.671701270135024231e+00,-3.606619731935937767e-01,1.316227265704733029e-01,7.302608420606628847e-01,-4.090676239221223143e-01,-9.278889833716765789e-01,2.255228180014696715e+00,1.944736732344883867e+00,1.484896538295655821e+00,-1.094886014023278564e+00,1.960113227372096922e+00,-6.617203653462485846e+00,-5.652599558764674903e+00,-4.525297813822788950e-01,1.038042358979698987e+00,-6.738947182392887036e-01,1.855675287099387782e+00,1.720004643771435360e+00,-1.034013629677296986e-01,3.227666327323245099e+00,-1.493544868425178862e+00,3.041936780301401466e+00,-2.234798113774765671e+00,-3.375077986484888992e-01,1.221351667498610460e+00,-2.087519100608840272e+00,3.312475057090163322e+00,-1.675117402560067914e-01,-4.116917585645516020e+00,-5.501517436547072037e-01,2.270984456260069173e+00,2.749620009487723671e+00,2.838698607877706004e-01,-5.784078773575649368e-01,5.844803167046279668e-01
-6.889484760823968434e-01,-1.581168996030842822e+00,-1.175999886889592450e+00,-1.251050158962637937e+00,1.114772788926023495e+00,-3.059373690126832912e+00,2.404079769640800279e+00,1.338853205857483797e+00,3.733425444099067736e+00,-6.298891567468992703e-01,-2.606121026612009395e+00,-5.918778474094186226e-01,-4.889978428353803364e-01,-1.532874114039133318e+00,-2.936904737316402336e+00,-2.436863721710972097e+00,-2.069117680499489520e+00,1.147276947413950143e+00,3.023397037611039284e+00,-7.399845666501060348e-01,-1.657028452057164980e+00,-2.466644207894569174e+00,2.131865274499546992e+00,3.898565538355563742e+00,-1.237047769129136165e+00,-2.528266119795041789e+00,-2.663802606526370909e+00,-1.586510463468700394e+00,-3.102748929642277886e+00,7.859066514602953690e-01,2.938563364887433416e+00,2.233328818561999718e+00,-2.863984371559499809e-01,-2.846727825306371695e+00,-3.888946515616768518e-01,-4.524084380154425045e-01,2.562291484007402254e+00,3.136156381577049235e+00,-5.973274353292626904e-01,-4.396306441050497504e+00,-2.803875514899501376e+00,2.708424465370488310e+00,-2.031367793118581122e-01,-2.485810472815787264e+00,-1.725071786355079961e+00,3.636704329070446384e+00,-2.202803932846423951e+00,3.928937449999315934e+00,1.984662815682354475e+00,1.229553458387082632e+00,-2.291066523640777675e+00,3.854518338282859058e-01,1.802513630521596424e-02,-3.570198992983657948e+00,3.537980257369194081e+00,1.410127945867474475e+00,-3.915010905848009815e-01,-3.087693200582427799e+00,-5.847472115928319392e-01,7.934665646586855914e-01,-6.290090229055500526e-01,3.300891775874875034e+00,-4.578005633200458391e+00,3.365786680050605550e+00,-2.540131005607064729e+00,-4.231583514029624737e+00,-3.744930428219283680e+00,-1.583228398057877184e+00,-2.460514395924038755e+00,-9.487790809098306521e-01,4.114145418042771674e-01,2.617715020879859189e+00,-3.408759953719705749e+00,-3.646620264192229399e+00,-5.511137994732531631e+00,1.641686724966350930e+00,-2.464733907710503491e+00,1.448571267325420964e+00,-6.581947526336450194e-01,-1.791214588321515588e+00
3.543349522580656163e+00,-3.387573467129970872e+00,3.067578357254524324e+00,-3.364281229677366536e+00,-4.545042360351289057e-01,2.134115540010602108e-01,4.062815923701717402e+00,6.889345096261390022e-02,-3.946272231090763860e+00,-5.302404733726043817e-01,-4.319198620329679772e-02,-5.304612624562025092e-01,-4.050513105752355236e-01,2.221202336155390533e+00,-3.859916972514333633e+00,4.777267786872520183e+00,-3.556224954348461420e+00,1.965536116826146040e+00,-1.586290213197020238e+00,-2.232511143031189249e+00,-7.237116524032508602e-01,3.704072912340077739e+00,-7.214215438350856102e-01,-2.724621941243679846e+00,-4.659929360856065905e+00,2.205391103422067900e+00,-2.584177753129200283e+00,-1.576704846785378367e+00,6.701404726921952326e-01,-2.967275103296729721e+00,2.066392257616394001e+00,1.301362943815489670e+00,-4.804936177057034796e-01,-1.177860667360305508e-01,-5.109122117489065529e-01,-4.490772564525225552e-01,3.308219951472818110e+00,-4.021402017178621890e-01,-6.660281738822377839e-01,4.749433898833060885e-01,3.495373590359249771e-01,-1.970795891772358255e+00,-2.997180762771627816e+00,-1.498510263580175916e+00,7.960510015035510145e-01,-3.101289768503099786e+00,-3.325948110535314139e+00,-7.909640708358840477e-01,3.809538301421626194e+00,-1.907478984397290800e+00,-2.349819982370639160e+00,2.007087875468079596e-01,-4.393354349889833782e-02,3.487633895955630337e+00,2.300642447769531085e+00,-4.720477531695076223e+00,5.143080173534650967e+00,-2.018502087635020370e+00,-6.284330211198487781e-01,-2.877939939829463167e+00,-3.750683830616272640e-01,-1.767656188879948242e+00,-1.552868304542903033e+00,2.859778851074099570e+00,-5.333312542009867041e-01,2.905304783141917202e+00,-1.553938053385655937e+00,2.827491236958176390e+00,-1.569535886717436712e+00,5.806513487773761195e-01,1.396375846291138811e-01,-5.599608995225946906e+00,-3.412868047645025715e+00,-1.735380127890156832e+00,2.663494063794356048e+00,-4.350517898451276899e+00,-3.393665996752384562e+00,1.385282552871959449e+00,-4.130092124266614428e-01,-1.447252989081842856e+00
6.710763868972433599e-01,3.618914251734822951e+00,-3.641816843755230071e-01,-3.749307857323877169e+00,2.488926602174288849e+00,-2.352772633152534265e+00,-1.209615367536399422e+00,-1.175053605481735319e+00,2.723056016376229849e+00,-5.445178065884832552e-01,-2.629084814796679215e+00,-5.219265902681835545e-01,-6.694848024703791145e-01,4.771485578025567165e+00,-3.850308598206506172e+00,2.499932089216188036e+00,-2.638164223225709204e+00,1.345872548035412786e+00,9.279950359909294733e-01,1.307347917291805883e+00,-1.293697586456944215e+00,-1.874160738323038311e+00,-4.092845576327628798e+00,-2.763740501945863848e+00,9.435089735804946809e-01,2.952417228542586258e+00,-3.157694005419245720e+00,-1.302884424507224193e+00,2.552526762251599024e+00,-1.698554611046472207e+00,-1.731478657753634520e+00,-4.364528391269119290e+00,-5.720383232715039457e-01,2.305078782679317762e+00,-6.057694979948169411e-01,-6.163794487502333164e-01,-3.361622238433327747e-01,-1.165148417438798711e+00,-5.978680566984407863e-01,1.741650894881488221e-01,-3.244784674257188861e+00,-2.811567247047000340e+00,-3.614437996211141257e+00,-3.294167423455319099e+00,-4.735562397523565004e+00,-1.339055646167073954e+00,-3.105162408672039742e+00,-6.476547437564310616e-01,-2.442660490856916500e+00,-3.405340022042058656e+00,-3.222883797081183221e+00,-3.656666140296234158e+00,-1.293591380596812002e+00,2.483069797986553251e+00,-4.927118996686025376e+00,-3.859471412709309379e-01,-3.605241724548373661e+00,3.426336878609200109e+00,-3.602966258701504332e-01,2.637721616900660759e+00,-6.687137128358559002e-01,2.546950440879386157e+00,-1.833480305238544827e-01,3.892713187872674840e+00,-7.584659619359140903e-01,-4.494132984812360121e+00,3.225548174758944509e+00,-2.541300066650496792e+00,-2.038380050035799584e+00,2.588738642393976441e+00,3.312875247292243142e+00,-1.997975363893880418e+00,4.611011370639627849e+00,2.839504343955851162e+00,1.760012267187216262e+00,1.928056355449091930e+00,-2.160244172521908479e-01,8.970460714592458640e-01,-5.977614820555802178e-01,-1.349247520893964714e+00
7.245933642557701226e+00,-1.948555811099338619e+00,2.764146809141481587e+00,3.102574883421043705e-01,-2.729215136074489845e+00,-4.495811331104426323e+00,2.961902937739063102e+00,1.646070513374041644e+00,7.274779874698591442e-01,-5.533987368967135945e-01,1.548781860738978500e+00,-3.377786801009201589e-01,-5.866294388473392019e-01,-3.168619670157766688e+00,-1.011821236781812239e+00,-5.864286653006041128e+00,-5.350253443912546203e+00,-2.388587087614728155e+00,-2.308050771888942254e+00,-7.063292340160647331e-01,-3.192512377569847182e-01,-4.503841281751799208e+00,-3.878173055960595583e+00,-2.171559898000314515e-01,-1.515254612355559249e+00,-5.032291450497693219e+00,-1.878510030012952026e+00,1.959861475574975698e+00,-3.621289923132864352e+00,-1.383125404512842715e+00,2.825357799782071133e+00,4.997393774763652652e-01,-6.525879638603058197e-01,9.477553224836763324e-01,-3.609799394465839084e-01,-6.339820454115374648e-01,-1.330069003221098445e+00,-3.926387886070241251e+00,-4.675736229739321237e-01,3.939236815561987903e+00,6.116124453237445913e-01,2.351295558964939802e-01,-6.244282656649552399e-01,-2.275358809093450230e+00,-5.491279654871651594e+00,-5.126689367061048053e-01,1.241133268024376957e+00,1.086058082631636834e+00,-3.173211050044075776e+00,-1.228565100705156787e+00,-3.067603256027970016e+00,1.725348125387530240e+00,-2.412528256327175047e+00,2.364451077096288323e+00,-5.248180230449643879e-01,-1.831315775391152867e+00,7.231173098329410909e-01,-2.431485790614560383e+00,-6.580768848015722261e-01,5.989092788178742577e-01,-5.049381094636853362e-01,3.664332986747242504e+00,1.380128162015193505e+00,1.371019723847245464e+00,-1.151736013425895155e+00,6.628694228555670476e-01,-1.424909181796465640e+00,2.860486249848489759e+00,2.050318239580235513e+00,-2.543514587151069595e+00,-1.213135565556163309e+00,-8.155348344194781607e-01,-4.712314275617814907e-01,2.613181432846428454e+00,9.969858136770844981e-01,3.060658392438018627e+00,-9.226833254685521402e-01,-2.657829719745999242e+00,-4.411211661052432120e-01,-1.868313814544687146e+00
-4.184803444650071924e+00,1.401182503087733178e+00,-5.502059624681591821e+00,3.443351056529982746e+00,6.083366345819830601e-01,5.802686350386984104e-01,3.977126336406212825e+00,9.088251185292202106e-01,-2.426987342627779487e+00,-3.878105204500292280e-01,-1.860082218632913342e+00,-2.633083746894212540e-01,-5.482041071721702741e-01,-9.229864302754446914e-01,2.080771978244723819e+00,3.990283940139093044e+00,-5.104861783949002918e-01,-5.530239569534403543e+00,1.846265353022459310e-01,-3.291498128790159683e+00,1.535511947541941202e+00,-1.217903216686571310e+00,-2.885661494205135735e+00,-1.201805099567507112e-01,6.963226170452126995e-01,1.678838511420494228e+00,2.131525018412970596e+00,2.609829694228563035e+00,1.739139588966978733e+00,-3.237770839911598308e+00,-3.204506764104727345e+00,2.294882092429124665e+00,-5.068933700581440549e-01,-4.023853484553071347e+00,-5.426911743119590126e-01,-6.190668138099951756e-01,2.292501530724729619e+00,-6.757059041286563039e-02,-6.189317006800311161e-01,-1.295080190655715224e+00,-3.081952854550956467e+00,-4.766962182174347973e+00,-1.301615186891609932e+00,-3.822101301611530388e+00,2.494039784861079134e+00,-3.942023215695245497e+00,1.167343205439467235e+00,-3.163229881403224919e+00,-4.597229817349630210e+00,4.634978047599306317e-01,-3.773618922241580353e+00,-3.651438097509922542e+00,-4.175593695771067537e+00,-3.516938442542984600e+00,1.822301966916108906e+00,-3.442563206043879109e+00,2.876993789378498256e+00,7.742039117351064981e-01,-5.273776458417869240e-01,4.942030959231717979e+00,-6.319280226268377820e-01,1.379492665645863259e+00,6.050452178131002223e-02,2.261871339371944511e+00,-4.051426077670952641e-01,-2.567130669272653432e+00,-3.279213788021877019e+00,1.507895713954000572e+00,-3.744497934156953978e+00,-2.174567994400493198e+00,-1.570505849965047052e+00,2.043103730981270960e+00,2.636024608759265586e+00,-4.241294872792200632e-01,2.218072699554504368e+00,2.050833668195710668e+00,-3.311052050444990513e+00,-3.100987335359103536e+00,-4.498246882110514822e-01,1.267347532348502837e+00
1.780940830081273463e+00,-3.294866039890351317e+00,-1.224668201067729445e+00,7.770133433350184804e-01,3.416283484848851693e+00,-1.954855257931189971e+00,-5.119256778307117450e+00,3.787989706727705186e-01,2.298334952014855048e+00,-5.793178198271549117e-01,-2.122906449166843235e+00,-4.935220261513519335e-01,-7.006186549620831983e-01,3.420820338657240001e+00,-1.198496365611090075e+00,-1.324872799264464218e+00,-1.184920488173091924e+00,-3.061121991607291370e+00,-3.553131891278534127e+00,-1.638725770375604629e+00,2.647885223878926997e+00,1.200222289675707987e+00,-1.929493370901449234e+00,1.700156811299396109e+00,2.764348148470758826e+00,3.985452007155423360e+00,2.072908365419174892e+00,4.254234485258506226e-01,-4.421939475053030755e+00,1.328812733217006992e+00,-1.613321667057142417e+00,1.457625861676871803e+00,-5.556054045043710143e-01,3.350043347628736790e+00,-6.438218688538508427e-01,-5.068509724369332226e-01,2.484366246163413283e+00,-9.310135680901274746e-01,-3.471780012280621386e-01,4.573555239603052769e+00,1.697452922229171435e+00,-2.783504246621829381e+00,-3.289043311770296185e+00,-4.273574441858549733e+00,-1.334509339633779046e+00,-1.439788348152372999e+00,-4.394177941194548964e+00,-8.519246746592868957e-01,-3.484424596443788769e+00,1.060588873289518785e+00,3.571404819472362657e+00,-3.870110447426994060e+00,-1.050623885998457629e-01,-1.987010652178998305e+00,-3.388285101913482755e+00,-2.909322214223696967e+00,-1.602997011871639399e-01,-5.588914658152176251e+00,-5.382212787384572650e-01,-5.242710296446211338e+00,-6.703982810428223971e-01,1.152028051871959891e+00,-3.003223711812989638e+00,-4.327637252217318320e+00,-3.502322814537075057e+00,-2.075958214077443742e+00,-4.249588267472255154e+00,-5.493846238670100357e-01,1.157129810994949493e+00,3.391440257570391914e+00,-1.447731969166587973e-01,-3.065828629490853219e-01,3.234516435058466310e+00,-3.060833781397772846e+00,-3.465142861088678305e+00,-2.508719054071408383e+00,2.746717449965971447e+00,-1.450315547023436791e+00,-4.487806726100109778e-01,-1.446625830221025089e+00
5.302213063654593661e+00,-3.326934187023538936e+00,3.156318700842229763e+00,-6.559417428168613506e-01,2.991784396635082999e+00,-3.263863595630243086e+00,-3.132669072569217672e+00,-3.928043307805403117e+00,4.088004454877972593e-01,-3.679863628676176002e-01,-1.788790746218195560e+00,-4.253838489637922216e-01,-5.253181783034666097e-01,-5.113890150311845240e+00,4.178128202891832288e+00,-5.105533049557191561e+00,-4.595350637505365654e+00,1.603697984768783780e+00,-2.905412637743168158e+00,2.123530947426698123e+00,-1.418874472064751424e-01,-4.350682824409686233e-01,-2.290004948959518671e+00,-3.264336975404542152e+00,-2.534578364669008543e+00,-1.246919658055985813e+00,-2.696806709484467213e+00,-1.190418838284571068e+00,2.648594796883276370e+00,-3.283816298450934479e+00,6.487716924514750350e-01,-4.366451502662496154e-01,-2.568355929179283459e-01,-4.893997517331762359e-01,-4.867969854419573750e-01,-5.910435596082357357e-01,2.136750375904978849e+00,2.485125517366246761e+00,-6.186316033949524895e-01,-1.951257542907253617e+00,7.096449752637002950e-01,-2.775331560897184247e+00,-4.272825606426474465e+00,-3.379214746074956199e+00,1.243153845813712577e+00,-1.564989614825401665e+00,-5.218149390958630729e-01,-2.163028216568827933e+00,3.695947679581126355e+00,3.446498606772118833e+00,-2.637141182978208764e+00,-2.592656765085233239e+00,2.733676160928872889e-01,-1.865056990408469062e+00,2.108036922216326658e+00,2.699897987851340275e+00,-1.864045937540016240e+00,-1.566363388418793301e+00,-5.287999667369158718e-01,-4.064361703154187211e+00,-8.196164896593016724e-01,-1.686841435790764177e+00,-1.963208248244571408e+00,-2.728217684323547831e-01,-1.604220877223838659e+00,1.394882040685907043e+00,1.500381708315283280e+00,-2.780068674978042775e+00,-2.198294602267842457e+00,2.212672902888320969e+00,-2.276255728742962336e+00,3.818128298998286319e+00,2.004835552278431798e+00,-2.065493938785567973e+00,7.293059882005411554e-01,-1.345603608395330220e+00,2.038348965674848579e+00,-5.436013471677862696e-02,-5.831582761055378317e-01,1.565846676550128214e+00
7.835176935072466264e+00,-1.092826001249686652e+00,-4.672149620876269616e+00,1.879496586144438763e-01,-3.613764842196676597e+00,7.824886440516011510e-02,2.177827375321869763e+00,-3.847010472479505783e+00,-3.540812124613077927e+00,-4.135242606202594873e-01,-1.053353408015065051e+00,-4.331462219132246050e-01,-3.325342543643778348e-01,3.879296113873426322e+00,-4.006800434040930448e+00,-3.161930585241695901e+00,1.811750492261997580e+00,-2.661743897153051375e+00,-4.064938175326980208e+00,-1.621498729042755382e+00,-9.574619218913124064e-01,-1.551057025624167141e+00,-2.016285949673883415e+00,-1.897666679050373784e+00,2.552203721099157718e+00,-2.547612860506959898e+00,-3.206558890580817778e+00,-2.476081508613779292e+00,-1.243007913145941057e+00,-1.440246509633226424e+00,-1.772809448221946305e+00,-2.595024162927821898e+00,-5.078335705097295483e-01,-1.197309421530406981e+00,-7.622404934309990887e-01,-5.151821036918471375e-01,-2.642823000451624438e+00,3.015476974306547042e+00,-4.499156736784284405e-01,-1.523678533105504496e+00,2.141151791882309308e+00,7.754996651288560416e-01,3.415839466029489735e+00,-3.727888861816793131e+00,2.627541019048180715e+00,3.484802044736760696e+00,5.239278499828532443e-01,-5.405265093384653774e+00,-2.308317620678456361e+00,-4.459120521574275742e+00,-2.232323807648180836e+00,1.292993050500028884e+00,2.388685860602483668e+00,-3.527031289330152752e+00,-1.621264982195445847e-01,-4.422846990285380642e+00,2.916477032646847434e+00,-1.331900346501659893e+00,-6.369376395931845014e-01,-4.886488302635653369e+00,-4.811066949359178446e-01,-1.561388103530479521e+00,-2.699292639043090469e-01,1.595591670503275328e+00,-1.889936630226243697e+00,-1.172635368835973857e+00,4.711345630682095553e+00,-1.705507228028845801e-01,3.942837112735432026e+00,3.748749789549418399e+00,8.949029041217378133e-02,2.886688706706301399e+00,1.990615176367023009e+00,2.676181687184570723e+00,-3.514576801192309752e+00,-4.068703270226021185e-01,-3.410630477338066679e+00,1.032323799150535848e+00,-4.599558451488670041e-01,3.778296027282618819e-01
-5.711825499754888291e+00,-1.835581393449818854e+00,4.943516746396018569e+00,3.431564582884026660e+00,-3.657103916167133040e+00,2.397802674214519203e-02,6.584456874974080609e-01,-4.642383430467132754e+00,2.559818547891183904e+00,-5.976308424150945653e-01,6.797943054453839951e-01,-5.627820088966458689e-01,-5.427329382843152361e-01,3.327222849121555193e+00,2.748955706407182120e+00,-1.801481264726462861e+00,3.670716235287556195e+00,3.430426202836515781e+00,-5.978033254836702115e-01,-3.061249378755979578e+00,-1.459632766656979497e+00,1.729492209483083798e+00,-2.825143755817073554e+00,-3.465404558810599056e+00,-2.719544583928706682e+00,1.821572040586092900e+00,2.349807065154567998e-01,-2.764018962794580148e+00,-2.063049624065320664e+00,-1.035876609735496778e+00,8.450564548406189203e-02,1.471080056723381491e+00,-4.014460687496680391e-01,-1.944784434063788092e+00,-8.363599586728062141e-01,-3.145983982944294821e-01,-2.536812007485735432e+00,-1.143944347783390381e+00,-6.210141151722488040e-01,-2.454289251134132765e+00,-1.224310576661080674e+00,-3.645182701134789038e+00,1.588860284528439637e+00,-1.709715049478501836e-01,-1.321888758305412193e+00,-1.147449294961237154e+00,-6.345885214865877311e-01,1.669919720463545476e-01,-2.699662754023997024e+00,-4.716459672386823065e+00,-3.135085187908270843e+00,-4.083321463073405155e+00,-1.334862788076809581e+00,-1.740615917442801530e+00,2.433013449905021552e+00,-2.465148651264267521e+00,-1.104873980322349736e+00,-5.014921048830678352e+00,-4.048514179614567388e-01,-2.798634649072073266e+00,-4.699344330826982774e-01,2.628265566163063394e+00,-3.935179540238815665e+00,-2.067031929417938230e+00,2.424653798873955601e+00,8.946755438766327284e-01,3.617641419332270125e+00,-3.756983011182295940e+00,3.124116484153145912e+00,-2.666277864197421188e+00,-2.382342833534042192e+00,-2.085096721738832759e+00,-2.555202796077745475e+00,2.458379407987131060e+00,2.617867830339793311e+00,2.385742956640336754e+00,-2.738490024239541132e+00,-3.587094542144487752e-01,-5.196143841199567515e-01,-3.490347035004369047e+00
-4.682066040715746169e+00,2.870267290278703864e+00,2.863996187799421111e+00,2.863963075532922620e+00,2.375086269863672661e-01,-2.356804681855534156e+00,7.746932148049748279e-02,-3.070584381182675848e+00,3.249174703670335784e+00,-7.099492239380296166e-01,1.487495184649527458e+00,-6.412509488443044470e-01,-2.725561240685864806e-01,-3.456730795134293377e+00,-1.719660726224462755e+00,2.485710686071923359e+00,-3.471016570754082764e+00,1.296352911408074515e+00,-4.871099648565778928e+00,1.306717489576596058e+00,2.626551413507695276e+00,-1.298402344772250916e-01,5.158063073265044540e-01,1.223190284551202347e-03,-4.460247208899213334e+00,-1.047055414262607842e+00,-1.316925297804415029e+00,2.141920372939509321e+00,-2.766788778143119298e+00,-4.310976340244812022e+00,-4.064931187541962032e+00,-2.582099989800238582e+00,-4.950724623694440218e-01,8.320621605570316381e-01,-5.728185049948260055e-01,-6.149188760792664299e-01,-2.621589927189051927e+00,-3.697297774143247118e+00,-6.241441738685173934e-01,-4.528274780068326510e-01,-7.190523225373700589e-01,3.676818289977413556e+00,-1.130605771941522786e+00,3.195216596314524260e+00,-5.733527321191640436e-01,-3.507340785319727594e+00,2.655262190368572028e+00,-3.442564308778548021e+00,-4.376042125509902903e+00,-3.009757137424565965e+00,2.919001505061955992e+00,-2.760639544342314178e+00,-2.774923679683033662e+00,8.142719871752142069e-01,-2.728344647395196443e+00,-3.432030584928544847e+00,3.368065222257850877e+00,3.725999562725951453e+00,-4.990239518872122693e-01,-4.425751753651504750e+00,-5.444744245894712620e-01,-2.002085049583465448e+00,-1.736609935969003038e+00,3.813996757123891523e+00,-2.929709198033708439e+00,-9.150091936178267327e-01,7.272236710828648976e-01,-4.508775763138570980e+00,4.582531304836360425e-02,1.036525352286184365e+00,1.587116653885194184e+00,4.382346346953776006e+00,-3.967713285323350991e+00,-3.129790871440839339e+00,-3.721504256661624765e+00,-1.609152802129440341e+00,-1.118422150649405200e+00,-2.880081154677450517e+00,-7.685375047286777672e-01,-1.100424026437376801e+00
7.323282536985746827e-01,-8.549076047442101256e-01,-6.727062950902256144e-01,-4.283062244342803027e+00,-2.078811567170310237e+00,-4.586626912811680334e+00,2.348512916214326562e+00,-6.332270132742902291e+00,-6.902241350605761161e-01,-4.862005765604345275e-01,-2.750612285686880210e+00,-5.351163205158123715e-01,-4.829239231163656165e-01,-1.540660151706799263e+00,-7.888992183643679379e-01,-3.293154530768393151e+00,2.183467422800355884e+00,-5.853415950417919511e-01,-2.075516819471912910e+00,-4.120463899957176324e+00,-1.591862234856924019e+00,-4.593425217998604038e-01,-3.986469121426636786e+00,-4.738632913444392081e+00,-4.867598365016029938e+00,1.634702875427022084e+00,5.953223043376743018e-01,3.364041539915495704e+00,-5.126526740859765896e-01,2.649132405475993490e+00,-3.426123780228243820e+00,-2.820836752261230984e+00,-4.317728703748426877e-01,3.241956081110842214e-01,-3.748035570634858371e-01,-7.949510681678934043e-01,-4.267887668325328399e+00,-1.194016865405411076e+00,-4.370168027104932018e-01,1.491728616988601042e+00,-2.559490348372984059e+00,3.546506591650032014e+00,-3.565893926797254920e+00,2.794955494688755149e+00,4.063678627249045938e+00,9.499138547343262129e-01,-2.974352617168906754e+00,1.958329036009179847e+00,3.659064642111970578e+00,5.882418754833704799e-01,1.542379397458518930e+00,-2.064666082834288208e+00,1.882741209359539702e+00,-3.013031158296479273e+00,-2.934004097797846544e+00,2.010060194697832703e+00,3.369278454162416558e+00,2.700558336416593708e+00,-5.292932793276767800e-01,4.798270982357099257e+00,-8.569296093380345258e-01,-4.274209116078845128e+00,-3.746429964697900239e+00,1.319469259760396085e+00,3.765377171896996167e+00,-5.965672354196177585e-01,3.528950532633527093e+00,3.911622520259651736e+00,1.610826268037557796e+00,2.254110410759865069e+00,-2.717848509172331006e+00,-2.821008482112434823e+00,5.807656218941178450e-01,1.086704253080409854e+00,-4.656813965473297068e-01,1.061026761619055181e+00,-2.537614414727845435e+00,-2.603718064005385635e+00,-5.256004410248141800e-01,-2.446031044547006594e+00
-4.003522853358813194e+00,-5.557495613047021443e+00,-1.873975851691749961e+00,1.611515795046681410e+00,2.776212857190747840e+00,-1.157763856875664299e-01,9.576023726053302099e-01,-1.989358332100872762e+00,-4.990988151409497142e+00,-6.804967044136901455e-01,1.501096402070741576e+00,-6.678885860569588884e-01,-7.625477061236691778e-01,2.424378908446336300e+00,2.704248718731587786e+00,-2.997821255593856371e+00,3.481004066839385125e+00,-2.227767264843438788e+00,-3.368140742545045363e+00,2.182871309382133251e+00,-3.481574808650962360e+00,-2.963956298585688653e+00,1.655201665457862292e+00,2.311821305380474367e+00,-2.207155289532945819e+00,-5.889628510201003753e-01,-2.381156225724232911e+00,2.217326015366026581e+00,2.698163669461392522e-01,-3.533875257583608764e+00,8.134109417177091128e-01,-2.258101385793805260e+00,-7.011950584232560235e-01,-1.984097825789143954e+00,-3.938424254436999061e-01,-5.775648677498365080e-01,-2.175613308443638885e-02,-4.502973185064124806e+00,-3.370744540606451234e-01,4.667049406065664208e+00,8.809918499616481435e-01,1.072750968141342964e+00,-3.141747860301309814e+00,-4.208927824790333894e+00,-6.155644465140547972e+00,2.628519043081833928e-01,2.354323274676504152e+00,-1.324751590202802864e+00,2.686138359349985016e+00,-2.897256619662241572e+00,-3.482676106181126219e-01,-1.284504258670865928e+00,-2.704964410989619594e+00,-3.165978669738426010e+00,2.346497932643955675e+00,-1.737264121225301272e+00,-5.993545255015620299e+00,8.660787671987250080e-01,-7.040584946316530424e-01,2.992432693466447802e+00,-5.037699993918801633e-01,7.259395877058681945e-01,2.292728173628157062e+00,2.950167138506301967e+00,-2.180580124040396583e+00,4.006993395548574810e+00,1.257486678897365096e+00,-1.262069680175669673e+00,-1.882055282337470770e+00,1.161829041998068357e+00,7.638941494519871922e-01,-3.397281204665698162e+00,-2.296082125056911227e+00,-5.065189768010519344e+00,-2.420053897277850474e+00,-3.909495141767808768e+00,-3.787266881804485674e+00,-1.619391252219956723e+00,-5.329690779005523682e-01,1.321974803231720008e+00
-3.788487767283047702e+00,-3.190326321165245282e+00,-2.047054637167975866e+00,-3.841704597491916839e+00,3.281941337845924789e+00,2.522588578198799780e+00,3.885121303026633388e+00,-3.451951941361061316e+00,4.537420807093433400e-02,-5.740347113247580291e-01,-3.071640494388462539e+00,-5.339965460623358195e-01,-7.992456579916682458e-01,-3.727337288630044654e+00,-7.916018368444815989e-01,1.694444392994062909e+00,-2.757757512799284161e+00,1.018902724679167537e+00,-3.489966934018703171e+00,-2.354570370144383862e+00,-1.630442810009352428e+00,-1.303002493949759533e+00,3.872320210522380846e-01,3.129084651309370635e+00,1.474265133894390845e+00,-2.219655659582086660e+00,-1.546090000627643735e-01,-3.567672682567441633e+00,8.935199644269362640e-01,2.083753937110226051e+00,-3.981845082677393233e+00,-2.792786525848276469e+00,-4.235784107021279277e-01,-1.770889546070443243e+00,-7.472896847386814034e-01,-6.649892947492378470e-01,-4.317225241223177967e+00,-1.023958984793494897e+00,-6.003625010654078942e-01,3.814915796053440111e+00,1.535515666313837180e+00,-2.758358019678848194e+00,4.346799874285748877e-01,-3.226395039559765365e+00,-1.678597459462242591e+00,-4.216312063098114571e+00,-3.233998469880903226e+00,2.786115260184582443e+00,1.017182582642033761e+00,-4.205890962157812218e+00,-3.161815656857675627e+00,-1.601875231540861977e+00,-1.232430697174507594e+00,1.716651104037263398e+00,1.645548968003584633e+00,3.532075632485179195e+00,3.145806996947917433e+00,2.295751097883612868e+00,-3.848452894689204373e-01,1.205480638313533470e+00,-4.966449298650197908e-01,1.903180554308371297e+00,3.930395004505315981e+00,-6.205589983701655932e+00,-2.169741723243400755e-01,2.398453320831712254e+00,2.628614873357729476e+00,-1.773899466079288167e+00,-2.795209136541705330e+00,-2.405267342568708333e+00,-3.666640496679726358e+00,3.367053597267922083e+00,-1.813080243019121296e+00,2.893453475696192712e+00,-4.070302304364560975e+00,-3.180449168872129917e+00,-2.303594734774173869e+00,-2.904954677403303265e+00,-7.591834070355805153e-01,-3.068328983898997553e+00
-6.617406692862599193e+00,-1.619896164411938067e+00,-1.580578989958226099e+00,-3.538701188948943255e+00,-2.882280187534433935e+00,-2.113365326901229579e+00,-1.415836145405388047e+00,-1.368512465224942742e+00,1.745874734643448667e+00,-2.260217739273768511e-01,-6.291856068111143507e-01,-5.996684336096055334e-01,-6.874732332817008462e-01,-1.258501070820673196e+00,9.836701109899780304e-01,-2.927918395374005556e+00,3.164486079957536113e-02,-2.407370896452999176e+00,1.499605521710331013e+00,1.365855929967722426e+00,2.121396241585865816e+00,-3.481556759318066518e+00,3.172027466838439391e+00,-3.486125754046555780e+00,4.175184301393188413e+00,-9.799929728036933518e-01,-8.185042260367234590e-01,3.486343962845189104e+00,3.249055185355805619e+00,1.578875844610773349e+00,2.957253466208777049e+00,-3.556365851022183500e-01,-6.511248808764986684e-01,2.765703715731548940e-01,-4.844736792891198851e-01,-4.862711230323425449e-01,2.262639929451051302e+00,-1.370395371628167380e+00,-4.400990672537803960e-01,-5.783704302752262549e+00,1.161888316885058448e+00,-2.171872284787241369e+00,-4.168719987468419319e+00,-5.049960249114673339e+00,-4.681931506519969588e+00,-5.931052653522162821e+00,-4.062407243269130497e+00,1.917671997546677831e+00,-4.621117784087045877e+00,-1.547889097670919201e+00,-4.176867776849140235e-01,1.555595819602570318e+00,-5.545411235005306416e-01,-3.294419968343815786e+00,-3.240607574531614521e+00,-4.739446521301017512e+00,3.616472602148485205e+00,4.212222148041177228e+00,-7.168434427004036769e-01,-3.270262149463953882e+00,-5.675955245173681663e-01,-1.201423698612013924e+00,3.306955992397039079e+00,-4.772025375721885565e-01,1.448955079607519014e+00,-1.414525881858509582e+00,2.258245813521811307e+00,-8.326038673628413100e-01,1.823902184060600229e+00,-1.584299121494088469e+00,9.643814585854714183e-01,-1.592403071605342557e+00,-1.354485728939039679e-01,-3.856368570222473036e+00,3.843884379706857257e-01,-2.530434823472035966e+00,1.135553198320415902e+00,-1.713209206427325215e+00,-4.819022338250036341e-01,-2.931711852795070516e+00
-5.784213223874684395e+00,-4.223639658660037099e+00,-3.083985902642574217e+00,-3.548023366399465583e+00,-9.934931117223824715e-02,-2.665119194801123470e+00,-9.085089434819744181e-01,-4.016753617923449760e+00,3.636261139078631022e+00,-2.305520585633111241e-01,-1.289768202521991702e-01,-3.567824050680463155e-01,-3.189984472336979127e-01,-2.223960723589128108e+00,-1.867726596348709522e+00,9.725477395127800628e-01,2.168201883615856196e-01,-2.696266914076690391e+00,-9.655023483911099325e-01,-2.996783570720916057e+00,-4.867731621098909223e+00,-3.656072202604686350e+00,6.817933237624809184e-01,9.758989610978251461e-01,6.930303506949289094e-01,2.094035422643945932e+00,-2.536780748862934143e+00,-2.332156214559399476e+00,4.563151686883776037e+00,-1.991752476847370668e+00,-2.101798293050515021e+00,2.433353018667692158e+00,-4.064592519613632327e-01,-1.349424683876602860e+00,-5.525399412297826718e-01,-4.295904272669317514e-01,7.777309469923563423e-01,1.003317908256128321e+00,-5.171076351186718600e-01,2.671201618413785894e+00,-2.157155948814449609e+00,5.516647642984607636e+00,3.227589722139890593e+00,1.201931346220072472e+00,8.477513501730149503e-01,3.924467674352452029e-01,-8.008516968854708651e-01,-4.044626734184718408e+00,9.495254529336295546e-01,5.687389762805786120e+00,1.347396254717996067e+00,-2.931589791218200958e+00,-1.945663613623915378e+00,2.004735084399020817e+00,-7.672380659530816382e-01,-4.521567353490845598e+00,-4.914129115861519459e+00,-3.033181610728059141e+00,-2.839446394002363983e-01,-3.407187030401218841e+00,-4.979332261307388707e-01,-1.844485708046272876e+00,-1.501296151642626420e+00,-1.852022947027082367e+00,7.141549886958649118e-01,3.554225518807943462e+00,-1.054511105127328152e+00,3.456253683663869092e-01,4.273565438725358545e-01,-4.941325620475096048e-01,-3.920798889357698602e+00,-2.574417290727715635e+00,-8.060114509983880016e-01,4.156137233660048835e+00,1.464477356612704728e+00,8.356350354291691707e-01,-1.016034651959034418e+00,-1.112146507656315508e+00,-5.663610426253241625e-01,3.846506899471521246e-01
2.354836858591948801e+00,-2.623212236738972969e+00,1.808212674097466610e-01,-9.596958854683187434e-01,-3.482690384583624343e+00,3.301680614241431666e+00,-3.012103735344109801e+00,-3.190050183828906150e+00,-2.776069728069135323e+00,-5.116359002535761924e-01,-2.489609285374264847e+00,-7.356888076677882138e-01,-7.593051342704827400e-01,-5.158377597555201532e+00,4.166576512921817965e+00,4.043585648786569564e+00,-3.304889991197766719e+00,-1.688853400244355041e-01,-2.029949742730257078e+00,-2.874473473703349047e+00,-1.199416205926187029e+00,-2.229460592371344252e-01,1.630782946841169867e+00,2.460445322966652526e+00,1.745148750634646140e+00,5.425875369828226935e-01,-2.926261706285358422e+00,-3.936318914601673491e+00,-3.354802156986177231e+00,-2.733693834479355989e+00,1.233205895175025990e+00,2.317502999731143376e+00,-6.272039245467422308e-01,-1.454449446769862542e+00,-4.283176377739542073e-01,-4.031446609391698410e-01,-2.801057147751559118e+00,-4.120729858068266971e+00,-5.453700082708143881e-01,-3.291085712327832091e+00,-2.546507436497981391e+00,1.252032858059749287e+00,3.838107794464011291e-01,-2.086261209946458806e+00,-2.784006563927952538e+00,-1.052192634176656982e+00,-4.632699743629173028e+00,-7.639885036658462525e-01,1.090390652605756516e+00,6.780909750035217787e-01,1.790928522297700942e+00,-1.940637531735529775e+00,2.396041073195205318e+00,-9.840451290904351778e-01,-4.021489257449414545e+00,-3.509685201282975342e+00,-1.289349740808029665e+00,5.653623339184702168e+00,-5.397677298606516905e-01,3.227552837483527171e+00,-4.131243292436822534e-01,1.739713694039818126e+00,-3.492340378245679222e+00,2.669525325046029796e+00,-3.101075497381841739e+00,-1.132202314657045461e+00,9.441771124911262358e-01,8.398423769102060232e-01,4.670115153310851142e+00,-1.850686827210913155e+00,-6.874115508399762930e-01,1.314981936712787292e+00,1.363911014372497732e+00,-3.994613617321041699e-01,2.207366096696551594e+00,-2.434345581960597471e+00,-1.613581811135955890e+00,3.204126939459813750e-01,-5.670438736409099123e-01,2.179780174144216431e+00
-4.787530724271863214e+00,-3.808084828017404888e+00,-3.258116978067287839e+00,5.997026358052456319e-01,-6.992488298024979176e-01,3.482142279627300052e+00,-1.393858741604099061e+00,1.796295994751462066e+00,1.462951649033002566e+00,-4.971870175914635537e-01,-3.476496575627298080e-01,-6.449630990173922385e-01,-4.048402588063777507e-01,-2.143151181051819343e+00,-3.622525975341684412e-01,-2.585911395901789422e+00,-3.825811466612761613e+00,-2.440345112357344276e-02,3.152929792488762956e-02,-1.930053142669925226e+00,2.629869729515032173e+00,4.016623946619295893e+00,-2.866651503481092877e+00,-3.375720515784099707e+00,-1.503065535813295828e+00,-1.866268368352849816e+00,-8.937446444462294748e-01,-3.455269360438439474e-03,-2.592426687684923792e+00,-1.601807043554832166e+00,3.728294626872703077e+00,-3.932530997435518927e+00,-5.221757625897366362e-01,-1.886810607123492245e+00,-4.478329918151364719e-01,-3.675000689650926300e-01,-2.747840833942596817e+00,3.139529461676053845e+00,-4.473211392431811761e-01,3.996945854183437064e+00,-5.556232507833914758e-01,-3.378489513910248210e+00,2.929027201227760280e+00,6.881655746800283691e-01,-6.907358721380386646e-01,3.490001742437029097e+00,-3.742510880505130366e+00,-1.141143795784381076e+00,-3.747100822811515020e+00,3.377054256854655101e+00,-1.675847121809465490e+00,1.708950828923153198e+00,-3.432603930536882952e+00,-1.820162092781024921e+00,-2.806821544887124098e+00,6.065288893687573735e-01,-3.344143980047423526e+00,4.967329498684471822e+00,-5.515780893924394634e-01,-2.322564166839308442e+00,-5.902659474453041399e-01,-1.166484246801019059e-01,-2.090232475620865116e-01,2.225942115310393543e+00,2.136631175326085597e+00,3.875905434083966039e+00,1.799875619514820002e+00,2.695443018370668131e+00,-4.282765201951223233e+00,-4.204999313364219837e+00,-1.088406090375409807e+00,-1.647003368403962442e+00,-1.871751722092876324e+00,2.628301093547125600e+00,-4.314199351755790168e+00,-3.162957053717307954e+00,-9.773159189506705480e-02,-1.994316388495373626e+00,-4.599251691126765018e-01,1.207072975190712105e+00
-7.990269220224754498e+00,3.729758002000672423e+00,-3.469862344122524034e-01,-1.428609085602681184e+00,-5.238747910451614587e+00,-4.388437638042687716e+00,-4.293349995363816340e+00,-1.345130560130645359e+00,-2.558748335483566283e+00,-4.221710240598390840e-01,-8.780405041128102051e-01,-6.188116494932911493e-01,-6.225949459264533692e-01,2.445727002790744287e+00,2.431038238951600317e+00,2.212751250388165669e+00,-3.823814682151335909e+00,-1.159933066119671841e+00,-4.016059595729122300e+00,-3.274734878264128568e+00,-2.385436925155423715e+00,3.228134577427522967e+00,-4.366004351089416424e+00,-2.206599198759163105e+00,-7.174559245329507895e-02,-4.608791780487050183e+00,-2.321509241537965951e-01,-3.306397861425548257e+00,1.140306529572174599e+00,-1.773148790556729582e+00,-1.414192239897987591e+00,-2.994367209404515950e-01,-5.707217311809026361e-01,-2.155671069527597794e+00,-6.736931513077938360e-01,-4.893837373965440052e-01,4.262658526057091501e-01,2.108872152342288475e-01,-6.067711079620081716e-01,-7.915445659427100544e-01,-2.591339921454106854e+00,3.820686433872098497e+00,8.236895041021625730e-01,-4.855873599601005175e+00,1.984216923035017066e+00,4.516301626371673983e+00,-1.891972882350314578e-01,1.889114557559246510e+00,-1.052979787069046269e+00,4.957050590940674795e+00,-1.163835145344263688e+00,2.503253816916075181e+00,-4.248511326302292446e+00,-5.068608276010899694e-01,2.505621872758550861e+00,-2.375001892369624557e+00,2.969485859032036323e+00,2.305372580040585817e-01,-7.490768223926097535e-01,3.151632779322676825e+00,-6.250375923836075653e-01,-3.259181243921598803e+00,3.291537508939979872e+00,-4.038008345434360713e+00,-3.158319617230606724e+00,-3.570129600581324336e+00,-3.724239413483431793e+00,-3.007191801581817536e+00,3.379354352152631247e+00,3.507275739201525244e+00,5.096038853370511434e-01,-2.340131769505238601e+00,-5.551572927315463479e-01,3.397943578713065627e+00,-3.866196704914820259e+00,-3.961460609466135874e-01,1.304543286657808610e+00,1.203170845013773027e+00,-4.294537757449711224e-01,2.292919502826708200e+00
2.708738166042320650e+00,-3.100049230533080902e+00,3.519442581292878014e+00,-1.319245645551064605e+00,-2.830023435613264818e-02,4.082932467397046850e+00,1.571589102311191199e+00,-8.163487329745518217e-02,-1.188183113311146455e+00,-4.775135175151042355e-01,2.007035124132205695e-01,-6.684922616451047794e-01,-5.068767694481770558e-01,5.286505743087933640e-01,-3.174592539764696131e+00,-1.638003681348433327e+00,4.259321782157706515e+00,-3.486571792517467738e+00,-3.992176780370319644e+00,-2.177382989341051456e+00,2.278247967770079541e+00,2.993599438154629588e+00,-3.170087960199975630e+00,-3.524830087734581063e+00,4.550533044174261299e+00,-2.457952939668312631e+00,-3.099751263391073777e-02,1.132812821753263588e+00,2.451879267790989303e+00,3.332845194736115402e-01,1.055230958462997304e+00,7.994176084930861848e-01,-6.730593466417091886e-01,2.031706288975671626e+00,-5.999139515677338608e-01,-3.731842776783815818e-01,2.587349087462896158e+00,-2.448881272937591280e+00,-6.628180481867986806e-01,-4.505766411416236572e+00,-1.329530982067373746e+00,3.919724417170737940e+00,-4.410993580250842427e+00,-2.299705459963071963e+00,-1.486771152059632062e+00,2.368105394322416402e+00,-2.992529358419250052e+00,-1.500201256868295419e+00,-4.682930569834226731e+00,-9.094958259737835338e-01,-3.646975677561135942e+00,-1.949367784763606171e+00,1.036406563779609158e+00,2.017535935019338034e+00,-1.034705514399852644e-01,2.602231404796711445e+00,-2.562905136047985533e+00,-6.941695110440257999e-01,-5.292869229979187962e-01,2.196238956256418184e+00,-5.272190779231696878e-01,1.229470419532853853e+00,-1.315557027168748672e+00,-1.086468173201379089e-01,2.186762824258400573e-01,2.302646424625599764e+00,-5.773901349713305819e+00,-3.366379490324396873e+00,-5.049271882514924314e+00,-2.454954610487913413e+00,-2.346877004170145220e+00,2.737785748718409184e+00,-2.456684584766598345e+00,1.460431456525919991e+00,-1.880357410118861594e+00,-2.178075618050844930e+00,-1.662211619603482626e+00,-3.269545927622383719e-01,-6.305408742612483852e-01,1.036171381867593833e-01
-5.030420100606891154e+00,-2.404493458157113572e+00,2.399105574411947384e+00,-1.373010527267622516e+00,1.958642942301698220e+00,-2.927757178159544615e+00,1.403877241963858769e+00,-5.117984968088393760e-01,8.793770609416237116e-01,-3.674723382649728309e-01,1.013710285024810753e+00,-6.779953856255575007e-01,-5.963590331712205206e-01,-7.296454067666484633e-01,-3.332417164905443929e+00,1.361328658310956286e+00,-2.277419734547418972e+00,-2.797509772565855535e+00,2.875872513805112884e+00,-9.791377524541834410e-01,-6.231786018627641921e-01,3.564265268273568932e+00,-6.936361100744149466e-01,1.034903137849142674e+00,3.918252843820889897e+00,-5.486036604553610196e+00,1.439401753286192909e+00,-1.418164557740122067e+00,1.693325652071674403e+00,-6.814188441069657376e-01,-1.039669543038229949e-01,-3.166953837590300580e+00,-5.263595465823259767e-01,-3.121657603909794521e+00,-3.295087533931501667e-01,-5.613895260800111364e-01,-5.084777645005392088e+00,-4.255719835029848852e+00,-5.950614357084600403e-01,-2.440040921784032424e+00,-2.794809024458046576e+00,-4.445649907052285243e+00,-2.226763840895831237e+00,5.628711919222071369e-01,-1.700164835922408857e+00,-1.017923312931690916e+00,2.396167966573091057e+00,-4.079457130382972530e+00,-1.783127872412980430e+00,-1.662312073842903803e+00,1.738117680498644457e+00,3.282900017391144232e+00,-2.937101216240105561e+00,-3.332169637640655324e+00,-3.026055148575725440e+00,3.746329382652173301e+00,-5.656759401879181137e-01,-2.973139206915913046e+00,-5.282480780397259545e-01,2.676241760025858674e-01,-5.966394070040010877e-01,-4.612444657775475854e+00,-4.273176616423196350e+00,9.248151644808075833e-01,-1.252870743180370283e+00,-1.943429624725533378e+00,-1.491695682566394732e+00,1.323245730298261702e-01,1.781987043652626612e+00,1.996907988313367799e+00,1.925659257768572719e+00,4.841135282129559458e-01,1.838770986468383439e+00,3.390818699962783178e+00,2.730615210553426486e+00,-5.382093198650164112e+00,-2.882129085985490669e+00,1.173853423867763812e+00,-5.099662187067117713e-01,-1.619294685899811181e+00
-3.080273030854025151e+00,2.419596376790922321e+00,3.888956929040776611e+00,1.397670493533926361e+00,-4.118686241246408142e-02,-2.058448140691119033e+00,2.029086061915155614e+00,-2.218313313261777608e+00,-3.780167369798696164e+00,-5.027386219124683198e-01,-1.835907559744482498e+00,-5.423626175491208512e-01,-6.387797541389900191e-01,-1.742223355367832793e+00,-2.775875445125749685e+00,-1.053766677762874249e+00,5.238787713873472640e+00,3.386780141014128276e+00,-9.730777959760466000e-01,1.660258243126205180e+00,-3.773079285923986781e+00,-2.123215885958280591e+00,-7.241560765453396442e-01,-3.791396918383517889e+00,5.469726739264076265e+00,3.119582535942415080e-01,1.152242214380490459e+00,-2.902691241949711287e+00,-3.040858903263831348e+00,-1.248085022403747857e+00,-3.489709570442546926e+00,-2.797636333469415870e+00,-5.610162475211714073e-01,-1.654622672035277242e+00,-7.211731433467909458e-01,-4.471405316735006519e-01,-7.421495333105150305e-01,-3.355994506575620262e-01,-6.231477735441439680e-01,-3.117666348896267481e-01,-2.136993230265615829e+00,-3.760196507260727738e+00,2.249443960448726187e+00,-6.315466617256346282e+00,-6.192744051455738585e-01,4.550065754512191418e-01,-1.393220930585103989e+00,-3.076090252531831659e+00,-9.536986178689688121e-01,5.825221063205585637e+00,2.538374856730563511e+00,-1.110577178890686384e-01,-1.331425175869179189e-01,1.219376303917322657e+00,-1.521950892572479841e+00,3.284720751753352985e+00,8.016995643360076418e-01,-1.107180449747815043e+00,-5.296351776924207444e-01,-1.614810407272648574e+00,-7.224588900960290383e-01,1.335144791889413041e+00,1.970774831693815177e+00,5.332226962974597306e+00,-1.285759518438548854e+00,-2.640203775731724711e+00,-3.622538793882807973e-01,1.556988903607239516e+00,-2.191298034808357720e+00,-1.057837421760091434e+00,-1.654830379358634307e+00,-3.360748330203255030e+00,-2.212871701423013704e+00,-4.811591962238428444e+00,6.808160732110599689e-01,-1.886239672870019701e+00,-1.098564866908340987e+00,-3.053921090601940058e+00,-5.271014147445778342e-01,-3.272867166250619686e+00
-3.457469299890639558e+00,4.090240859740510437e+00,1.622236672787458867e+00,1.273458211259743456e+00,2.281031883276019301e-01,2.889659272233538800e+00,1.938650793600729783e+00,2.299125103650772939e+00,-2.146051628480152740e+00,-4.351318617501230279e-01,1.599233377803525702e+00,-6.532848677802963744e-01,-6.423394804502398081e-01,-1.706367142072022558e+00,1.934097389380763587e+00,-5.926158280300781733e+00,-4.413578178301572841e+00,-3.789544551723328603e+00,-4.372225450740529595e+00,-4.121423476576706157e+00,-3.397915879338165190e+00,-3.056504304109250114e+00,3.321792885045467880e+00,-9.704308252642017685e-01,-1.048377197809499117e+00,6.391209175372305484e-01,-2.506207455266840078e+00,-8.168034379109174736e-01,-1.245305434832539720e-01,1.589226176519712652e+00,1.124242121964992069e+00,-3.829661302358115194e+00,-4.173696767813295239e-01,3.208991682223834463e+00,-5.973823659289292376e-01,-5.076994555174815238e-01,1.121088722510402258e+00,-2.229260313245365221e+00,-4.615573339336491165e-01,-1.665484104192122894e+00,1.727694587328558518e+00,-4.138308384123751793e+00,4.618149838198880808e+00,1.902001785968485681e+00,3.778623174839509935e-01,2.457479148927803614e+00,-4.012856351331960170e+00,-3.292597059060296871e+00,1.290448723316728552e+00,-1.938571852740727852e+00,-2.215997325549315278e+00,-2.418615108392595303e+00,-2.007609225414656695e+00,-1.830727707898854639e+00,-2.966443568023633848e+00,-5.386495864584517346e-01,-9.691997055962585650e-01,-1.862341324372438933e+00,-5.613094830911502520e-01,-4.219799801696170860e+00,-6.318396671635438944e-01,-2.172815156733970632e+00,-1.182463828432146702e+00,-7.320623986086787660e+00,-2.564673105917073315e+00,-3.874496371993202626e+00,-3.525360668667146591e+00,-1.078402461465453932e+00,-2.961746342893349482e+00,3.601483711122052789e+00,1.723714571648877980e+00,-2.193189975122890878e-01,-3.122212852147829842e+00,-2.833375159975314528e+00,3.642814233543610669e+00,3.719685703568339274e+00,-1.658101442898308742e+00,1.565679294291886681e+00,-5.618812751250323867e-01,-4.143397299672407996e+00
5.740369088895572958e+00,1.213428712448610503e+00,4.620255896813241669e+00,-2.691236837610369914e+00,2.419354128377418089e-01,9.480590856886952356e-01,-2.378128200416305127e+00,6.021419629436191023e-01,-2.931507626919910958e+00,-4.361858322108546071e-01,-1.915318494482673550e+00,-6.488225153027127323e-01,-6.102578453379576828e-01,-2.840750122218398399e+00,-3.855844538368631724e+00,-2.337098732970487536e+00,3.975927799362663606e+00,-3.415690885062619309e+00,1.467931273029024597e+00,-1.463977483132500534e+00,-4.174908602252837220e+00,2.069974253267234054e+00,-9.810094339076108616e-01,2.036056190611297279e+00,-2.339265847600619175e+00,2.704553246230038344e+00,-1.345971335675761216e+00,1.836429503243973027e+00,-2.028774315331264289e-01,5.489773217950755235e-01,-2.922765667400465617e+00,-2.389593668377029356e+00,-5.933267196397509213e-01,-3.675073777471856484e+00,-3.026486177874748162e-01,-5.873539861749349500e-01,2.739207418745204237e+00,-2.582064574982421146e+00,-4.216691412879761125e-01,-5.408195538835013361e-01,1.102152681211752583e+00,2.408033309136395350e-01,4.294498334055426803e+00,1.344836146286490619e+00,-2.184632925853014385e+00,-4.774048988285776396e+00,2.388873302971916246e+00,2.341234862408144934e+00,-9.601956188195914788e-01,3.782054705170391440e+00,-2.966075383391284070e+00,-3.337706866277750262e+00,-1.153450654887359983e+00,-1.267737276532789670e+00,1.632508531198062496e-01,-1.227405754210510347e+00,1.254199904107269559e+00,3.036854219757271878e+00,-5.503734378734306265e-01,-3.539093850175631495e+00,-4.602555152590659393e-01,2.844626375986838429e-01,-5.110488803855650630e+00,-5.294259848802764346e+00,1.178173663652861469e+00,-3.339759950112144882e+00,-2.749969385734800209e+00,4.492116993351121246e-01,-2.719607204120873534e-01,-4.088578896147283537e+00,3.418844931809069454e+00,-2.590423855665861197e+00,1.080008093208262299e+00,-8.316371544858696119e-01,-2.031754521656958357e+00,-4.054258837418465156e+00,-2.260946918886570955e+00,1.712174850616939192e+00,-5.779110518475243374e-01,2.864667779069754783e+00
1.496210044417332075e+00,2.631130622363703431e+00,-5.520966063423896841e+00,-2.663858268504676996e+00,-4.031858703817269074e+00,2.452276105655843974e+00,-7.955926195983263616e-02,-5.533954921296842855e+00,-3.681700229403275793e-01,-6.908236883212789392e-01,-2.988331697974796475e-01,-6.670544181710573728e-01,-5.949104594990940464e-01,-2.771277614344736406e+00,1.283399683490044518e+00,-6.227929383206260106e+00,-3.053671451191122266e-01,3.506538282931163764e+00,2.011950784309457507e+00,-5.084449525529566305e-01,1.544687773956370691e+00,1.150609562838032618e+00,-8.681218740967124869e-01,2.194791789573091290e+00,2.023125528102773352e+00,-2.113911336439930011e+00,8.806640523559432499e-01,2.483683175450577263e+00,-2.767121137769692041e+00,-4.010684086640431190e+00,-2.791888879100073773e+00,-2.436287209505224371e+00,-4.352077229660906155e-01,-3.543487980891461220e+00,-6.272294434015524001e-01,-5.178524418957106690e-01,2.873577311942998591e+00,-1.257762535790227787e+00,-8.111243178739582227e-01,2.375196291259962678e+00,1.467698295317168000e+00,-6.824486150715292077e-01,-2.444990042508226491e+00,-1.287772149771503338e+00,-2.528792234431608943e+00,-1.235830258504420298e+00,3.847093677837679637e-01,3.614027663898722764e+00,-2.815095008025093826e+00,-2.775256423510866544e+00,2.113753942828348720e+00,2.281109872174644781e+00,2.496297343777810873e+00,2.216393656975635729e+00,1.432718066565543236e+00,-5.148315934885020484e-01,-4.687652316569935529e+00,-3.254281775023020185e+00,-6.010538574371147025e-01,-1.976037653849894493e+00,-4.490310264326758949e-01,-4.339926444302943054e+00,-6.609493851353412275e+00,3.562338819564188075e-01,-3.884346686160187634e+00,-3.333581294905092474e+00,-4.947458536533651419e+00,9.496284716740956977e-01,-9.124223102236585226e-02,2.188042853729343928e+00,-2.355147327966512771e-01,5.686021643993157682e-01,-3.345937212442755104e+00,2.008840978948709388e+00,1.596098171186919545e+00,1.425382895022161645e+00,-9.617368807743945647e-01,-2.063500075348395413e+00,-6.085426871114985037e-01,-2.220209952880513260e+00
-4.259508980364806519e+00,-2.375856019558834298e+00,-2.476180552243319788e+00,6.684984274971863538e-01,-7.180291830129247321e-01,-3.162388990149288315e+00,-4.198909829833577412e+00,3.658261081860067598e+00,-1.381630328846954248e+00,-5.889036733400414558e-01,-1.903159371529326294e-01,-2.911856492996574008e-01,-4.462349475472292548e-01,-3.884397679367380674e-01,-5.911729871420055460e+00,-6.650896671097513924e+00,2.197262088021068593e-01,-1.615564613403970951e+00,3.204388714690682427e+00,-2.099217853557744817e+00,-2.814176711791208430e+00,1.206889719235716418e+00,-1.670550300404012312e+00,-3.725377674230069047e+00,-4.257394203149778011e-01,3.345538332674783621e+00,-2.002645481974333563e+00,-2.176985704380812514e+00,-1.421807565590698763e+00,-4.581992143358383229e-01,-1.628184951719834794e+00,-1.722921625277787916e+00,-6.726306637686687573e-01,-4.032275240184968190e+00,-5.244678452144914127e-01,-4.040800563924500377e-01,-2.732224465954574910e+00,-4.065617232226535371e+00,-6.855037895901657796e-01,2.667510353011418367e+00,8.953508100458130725e-01,-1.240291056262487146e+00,-7.925983488313432801e-01,-2.211334588567303694e+00,2.647740193425208943e+00,1.676852512696491937e+00,5.380452395900208629e+00,-1.168732343511034388e+00,4.802264737051992860e+00,-3.258803171354417216e+00,1.893880470604326405e+00,-4.022704159007827407e+00,3.153292636691346740e+00,-7.003609856933196154e-01,-1.194368988169433710e+00,3.116720570090589781e-01,2.934502390530401517e+00,3.950098840050635385e+00,-4.952672050828861861e-01,7.624861950639307828e-01,-5.744862400678150127e-01,1.209539411673656417e+00,6.627838977289739475e-01,-2.826202604713336619e+00,-2.617064540418761354e+00,-1.817388314942649075e+00,-7.227420784836603440e-01,-3.176916682379211210e+00,-2.120283517356111869e-01,-4.610037371970105546e+00,-2.237505550154116118e+00,9.467915583740933450e-01,-4.273293674612291149e+00,3.346937763800591270e+00,3.092824618909448819e+00,1.746079935658036542e+00,3.367355460916226839e+00,2.638350797809083104e-01,-6.514446184590694244e-01,1.829291843637820492e+00
-3.198979110543054727e+00,-3.295334078375457221e+00,-5.895213266538253949e-01,2.998894616064410101e+00,-2.248246155282500602e+00,-8.416999354957787061e-01,-4.385176951372096177e+00,4.434839978192748333e+00,-6.146205527729131646e-01,-6.313720821403977501e-01,-2.147591408133886492e+00,-4.729149597924844906e-01,-4.835095244925737834e-01,-4.304478682616276863e+00,3.207684039882722438e+00,3.360433789454214004e+00,4.522662927407875344e+00,1.566874455616890760e+00,3.100420149140555807e-03,1.098802253720190525e-01,-1.235242408585126128e+00,-2.999559826235207005e+00,-3.060453313940713738e+00,1.409968750016620032e+00,-2.983783042033550714e+00,-4.672849842650720120e+00,-3.382405895351765501e+00,-2.624818027569162826e+00,1.766922843184422165e+00,2.085766998346225698e+00,-1.921375578477740653e+00,-3.457602314379716990e+00,-6.301099881660595647e-01,-6.460624849099853018e-01,-4.731485186274606569e-01,-5.736746951214799495e-01,-1.465322222056612222e+00,-8.053706127319865127e-01,-6.354596689471910809e-01,3.198388881674534723e+00,9.708312772915438371e-01,4.678569279760396604e+00,-1.064307814358901760e+00,1.113547323272427170e-01,1.237052973440393222e+00,-5.304615360596856011e-01,-2.440301080138718159e+00,-4.838565294319478127e+00,-1.324879498257915122e-01,-3.370510720544397820e+00,-4.139044475309998639e+00,2.527281730474276511e+00,9.332492280957624745e-03,1.712474727365580041e+00,-7.002014494255976995e-01,2.030900722534005887e+00,3.209734755394643813e+00,-4.537872659919388596e+00,-5.134744700039292065e-01,-1.871300919539102159e+00,-2.122744984476671315e-01,-1.941523491187388650e+00,-5.215990018531830863e+00,-4.009724618588423439e+00,-3.914928059470152988e+00,-2.216697092852197570e-01,-8.022229312407078705e-01,2.943635867822006480e-01,-3.412929639675642335e+00,-7.402945082159829715e-01,2.314091541338135993e+00,-1.082214997392944911e+00,1.294737961208678900e+00,-4.286318504432474086e+00,2.551347964103596877e-01,2.425307495889702736e+00,8.126667911613798534e-01,-1.325585330427445419e+00,-5.271421968902875177e-01,-2.365308890357533222e+00
5.623656684588453025e+00,-9.455858289050360632e-01,-3.548187401424167220e+00,2.111289933367968441e+00,-2.795327430424828230e-01,1.014090146449324381e+00,1.904393666287222953e+00,-3.562033957621260960e+00,-2.185373905833192243e+00,-3.509450056600218470e-01,5.202147866856621228e-01,-5.640378277281932196e-01,-5.548153968391950075e-01,-2.747104377484926196e+00,-3.706656548397748718e+00,1.014403407071978513e+00,-3.457152954365705799e+00,1.574556383410542715e+00,1.269016680125982344e+00,1.519651758961116705e+00,3.279362425371575629e+00,2.419161729212122136e+00,-5.317581836077449609e-01,-8.930098928345984177e-01,8.576762232866942393e-01,-3.950405110525342933e-01,-3.057584488045950621e+00,-3.156935294039054374e-01,8.845369915195887556e-01,-8.187630474831421035e-01,1.114154047152863036e+00,7.492039474179892355e-01,-3.851977029482934745e-01,1.975511385669836140e-01,-4.568591459979649549e-01,-7.759791979589757416e-01,-3.098908195592778192e+00,-4.559471188950958265e+00,-7.012470995444729516e-01,-7.262915127486685267e-03,7.097072246169866538e-02,-1.194018089616559197e-01,-4.433476804670047677e+00,6.141626588586309721e-01,2.706078558348015584e+00,2.330538557989985105e+00,-1.162246693720548896e+00,-1.171480657553660709e+00,-4.441577900012628533e+00,3.407560010817668683e+00,-9.806417738999949341e-02,6.832168235480344520e-02,-4.163538700850239138e+00,-1.381688423940481414e+00,2.791783453121736258e+00,1.992866349598070519e+00,-2.178019255707550617e+00,9.524986756542361266e-02,-6.665294451686173405e-01,-3.634997258570162870e+00,-5.225799439281121339e-01,-3.020453716397493604e+00,2.380336454783078981e+00,-5.054227629430795510e+00,1.457522576111814017e+00,-3.067230637544617444e+00,3.459560787535123971e+00,-2.918249805459408375e+00,-7.913385873897661460e-01,-4.174872456214775873e+00,2.184921926839087813e+00,-5.684766020692848087e+00,-4.025734245483223894e+00,-4.572968718977683977e+00,1.317919777956056415e-01,3.507557745025224882e+00,-1.938242361257932700e+00,1.179818046779910423e+00,-4.800379613005898993e-01,-3.392755281320021243e+00
