1.389951000240768675e+00,1.289224405585506439e+00,9.376799361826138046e-01,7.467393074317490997e-01,1.631025035162920966e+00,1.923520990993776159e-01,1.208790043732056008e+00,-5.900301077363199198e-01,3.052643541417830453e-01,-1.855088741468084113e+00,8.510170156103732397e-01,5.170667818655770853e-01,1.210844156648337222e+00,-1.809719050860197020e+00,7.514639974044187154e-01,-1.395263046579461319e+00,1.919333314625194742e+00,-1.893663684868343244e+00,1.097353029382821310e+00,-2.217104030377078094e-01,-1.068974000795750223e+00,-2.891228682597825617e-01,8.637767364801204328e-01,3.130836114604866327e-01,2.164720152113035034e+00,-1.577003124919014176e+00,2.588981421010502215e-01,1.769445922506701852e+00,2.428267364659002947e+00,-2.078231875977992082e+00,-1.184842428110813417e+00,2.906534570033619813e-01,-1.336215105984391416e+00,-1.051686434173778384e+00,-2.277595007033943464e+00,-1.414471614097468688e+00,1.022533528612922016e+00,-1.770676733444168649e+00,-2.004864459549516642e+00,4.212740155338403625e-01,-1.354546337913982601e+00,-1.175843383722239954e+00,-1.235880304596066681e+00,1.988195515282905612e+00,5.035176577086600824e-01,-1.263500160729743360e+00,-9.473302065820199402e-01,1.979254503236115292e+00
1.733227817047011232e+00,1.311041647230254181e+00,3.436482196839230618e-01,-9.439655693459111374e-01,2.647744479772357273e+00,2.896588401980348060e+00,9.060261665848901025e-01,1.056475729453085100e+00,-2.949494673278255430e+00,3.979360949932357339e-01,-1.529443355802297067e+00,8.013059628065029305e-02,-1.639763688695570876e+00,-2.854642126166757610e+00,-1.558813347152927742e+00,2.888850444085205194e+00,-1.000709255593212443e+00,9.567519852866721575e-01,-3.633074559206913356e+00,-1.611722414508344192e+00,1.029089026849833832e+00,-7.238224166303593998e-01,-2.863341090880885176e+00,3.259294018324757847e+00,-1.144551721070777184e+00,1.243341167529359970e+00,-2.574619021615585979e+00,-2.700509209021151769e+00,-8.719798376909352333e-01,-1.896889973975442567e+00,2.464354597681185588e+00,-3.970907375779621495e-01,-3.514198912015943588e+00,-2.039971621569715676e+00,-1.289715874239463655e+00,-2.507191759250844143e+00,-1.793261682359819753e+00,-2.861909847175684085e+00,3.219589944451652030e+00,-2.574960728754635220e+00,-1.867029762814260474e+00,1.705325894511274143e+00,2.368157486756518715e+00,6.243295447177988899e-01,2.402663136187015880e+00,-2.297622603009898068e+00,-2.337819498885754577e+00,-5.956048097452003587e-01
-3.017827308821243282e+00,-2.925338936554168878e+00,5.779428489933033930e-01,-2.339030277054904960e+00,-5.331994217847834117e-01,-2.217915077402014656e+00,-4.972107047331708052e-01,2.097681792373996768e+00,-1.328996356002347001e+00,-2.762828918198835471e+00,-5.717744487578521051e-01,-1.566839542665834140e+00,2.318361232715604014e+00,-2.058741726756037949e+00,6.656895527171641236e-01,1.167323022172521707e+00,-3.076679955430040803e+00,7.442533284774224267e-01,8.117900264482886818e-01,-9.247303567334428376e-01,2.832414162432450588e-01,-1.083247296228302625e+00,1.632174846728692508e+00,5.664074128293317134e-02,1.379360659319762705e+00,-3.690057693381079584e+00,-3.762307244885823021e-01,2.389180043532977304e+00,-2.644312245327760547e+00,2.494040079105861007e+00,1.747352500392275187e+00,2.584835984488140226e-01,-1.037389446927014625e+00,-1.483974109270829622e+00,-6.484126280850076585e-01,-1.540484992636137918e+00,4.208348844601497163e-01,-2.222576957034867462e+00,2.402470636288740191e-01,1.599745184505288798e+00,1.163573668922411652e+00,1.911427204152522874e+00,4.606587320348256021e-01,2.841888612035317063e+00,-3.268869366162866275e+00,-1.021671940614918395e+00,-3.499979608650283236e-01,-2.857566436509103802e+00
-3.399295425885284216e-01,-5.929110067006856388e-01,2.057037291374109067e+00,-2.327188019868161373e+00,8.933482383758507561e-01,1.961803904179149738e+00,-4.050748823050543734e+00,-2.894261409238730653e+00,-2.522298042846589983e+00,-2.681451241943441310e+00,-4.052124142724334632e+00,2.627925629924261042e+00,9.096863163941789621e-01,-7.743975894721654152e-01,-8.798819561507723597e-01,-3.206111368444806708e-01,-2.682166530612383415e+00,-3.888839893023842809e+00,2.625144253128883776e+00,-1.157974537278921634e+00,4.276422186717117602e-01,-3.974259785654364330e-01,-2.620869373357433307e+00,-4.034656299315511063e+00,7.139719209439204795e-01,3.265700150360026921e+00,9.450648860684532915e-01,-1.261665337292761091e+00,2.251340215301067191e-02,2.320515782876938715e+00,2.122998037333208021e+00,-2.218334149952647216e+00,1.471158576523010186e+00,-2.717594094232082202e+00,-2.420024448067702671e+00,-2.564837868925576192e+00,-5.702984914978461717e-01,6.865633392569279181e-01,-9.288742791545835376e-01,-1.480143473117914388e+00,-8.552660047091983353e-01,1.131660470318265999e+00,-1.762814928533570913e-01,-2.884490261411828183e+00,-1.859608805761448602e+00,9.743054652091438506e-01,2.930361020536786043e+00,1.566337649213210392e+00
-2.126871563658268016e+00,3.853857435499118633e+00,-3.896572260580902558e+00,-2.087796417000268967e+00,4.961835942447578862e-01,1.303984960260661019e+00,2.994157894058155911e-01,-7.151833842526041929e-01,-2.588700910692997681e+00,2.679710770843816814e+00,-3.084827161703159959e+00,1.379773864212922474e+00,2.158946679336517072e+00,-3.629604310828863145e+00,-4.405498584426625008e+00,1.337488759387492898e+00,-1.160342009502502852e-01,-2.085596322251734858e+00,-5.307102309885520786e-01,-4.406085531152799106e-01,-3.060635656067494104e+00,9.839080254040812878e-01,-4.044294329160529888e-01,2.758111456852492260e+00,-2.870498137130764071e+00,9.357507440728103365e-01,3.013429768297932299e+00,2.379556616832686267e+00,-3.320381880561919630e+00,-3.622981283511137462e+00,5.839392604941433529e-01,-1.176967914599793774e+00,2.903953929258737965e+00,2.455212915535633478e+00,-2.447169797798146806e+00,1.124348464573063033e+00,-2.853981772036504605e+00,-9.854661411055265496e-01,-3.984291209817526269e+00,1.765524145204998285e-02,1.890339066809833435e+00,7.982701240452509950e-01,4.333091422118824920e-01,2.683870102942459979e-01,-3.076505438244762303e+00,-5.505477836010348458e-01,-1.731381629955476953e+00,-1.334050325672781756e-01
-1.767273669938363323e+00,-2.888435742783352911e+00,2.420591046658004064e+00,-5.798600645535250120e-01,-3.041954386800922450e+00,1.558678568265303266e+00,1.736127284830715212e+00,6.933941689094437200e-01,-2.521498221337750589e+00,1.606086874781109008e+00,1.386238599641958169e+00,2.431886257384059391e+00,-7.989246602085798843e-01,-2.202771045499233971e+00,1.886202927659101247e+00,1.426768804407461788e+00,-3.618866607070747587e+00,-1.372496818568597196e-03,-1.346837796163137480e+00,2.246588456632866992e-01,-3.287498442527943876e+00,-2.615822885333540793e+00,-5.630197069387988806e-01,-2.155660552381986506e+00,-3.780879036438642427e+00,-5.327501796068964332e-03,-1.297833446635272336e+00,-2.399839074103140124e+00,-6.527133624733920392e-02,2.735922472558558471e-01,-1.677883511112697956e+00,-3.034809745555896665e+00,-2.989881502680725722e-01,1.692242792202553359e+00,-1.603531944577687884e+00,-1.475528268251929731e+00,3.043376157951617866e+00,2.888949143395333596e+00,-2.199346007017005888e+00,2.964320145822389563e+00,-2.798419960288692554e+00,-1.604723370913167413e+00,1.876160714890701353e+00,7.517366756245478232e-01,2.715113128387741437e+00,-1.786261067223893662e+00,-2.528532678221647179e-01,7.495703206289322518e-01
-8.775748222117301101e-01,-2.429236228530267550e+00,-1.315988575269233518e+00,-2.638742193585146723e+00,3.531941522052209348e-01,-1.580790344595580876e+00,1.930055831408684863e+00,-2.812477026614286779e-01,-1.691323921376917117e+00,-9.137002028498788508e-01,-2.901192959661998749e+00,-2.556879069867898480e+00,-2.073802711858871106e+00,2.271846261437171499e+00,9.446779568060429400e-01,1.384793442080401338e+00,2.521561688824625502e+00,-2.288197818211054280e+00,-3.488950746710087092e+00,-8.899058892520607111e-01,-2.070157807517754467e+00,2.471243120075198085e+00,2.303691570952050682e+00,-1.544596133515623082e+00,2.611848066350648701e+00,2.640890962050450153e+00,-2.748334634774504348e+00,-2.715312796901423908e+00,1.820290945819486694e+00,5.650782898385006137e-01,-1.615665096527190980e-01,2.348000719180205476e+00,1.228888571544703101e+00,2.622524693710044374e+00,-9.133468151774709609e-01,-1.844350457233393803e-01,-2.044358259534735822e+00,-1.468755011821516021e+00,-2.477377184930579013e+00,2.217785013728650612e-01,1.030439477910090051e+00,1.596067182877374924e+00,8.884810315458298025e-01,-2.694066285133046801e+00,3.232243786046130885e-02,-2.580189036164613370e+00,-2.170422878758398788e+00,2.123691949019036240e+00
1.703291051949453294e+00,-2.349079648774600848e+00,-4.257679341995570521e-01,-1.046528361538656249e+00,1.262075953786739202e+00,6.131538259807705060e-01,2.821235637580368216e+00,6.601865340052434084e-01,-1.920673342665605299e+00,2.719784919637071585e+00,-1.892429157253808503e-01,-3.625838470253249568e+00,1.735746414349757183e+00,1.475014540764329807e+00,1.568857158215754000e+00,-1.767745157536512846e+00,2.600407334247962776e+00,-8.758378235597637229e-02,3.606569000700443617e-01,-3.280907544917271768e+00,-3.277480188870656175e+00,1.133039214070764134e+00,5.373151530020843225e-01,-8.416855203192262769e-01,1.047014697729490518e+00,1.283219635070283360e+00,5.192086761982114274e-01,-2.311915468180270494e+00,-1.983873482213768469e+00,-2.927841381206014670e+00,-1.941347655394376259e+00,-3.325557028670216297e+00,-1.249399909043642065e+00,-2.179319599380093120e+00,1.489176550718800951e-01,-2.049030647481056011e+00,-2.102443075738355205e+00,1.144703798193053457e+00,-4.921582008564595601e-01,-5.501309309276336545e-01,-4.474369695430938099e-01,-1.473204495345928233e+00,6.724921074025201895e-01,9.386148933695599716e-02,-2.881954831626400537e+00,2.681884909480352963e+00,2.997039153921204679e+00,-1.610677624376357198e+00
1.774783020373847719e+00,-2.389767786183333520e+00,1.700749578203999191e+00,1.884905859262085093e+00,-7.317732237512085680e-01,-3.604339299006836139e+00,2.739119393547975179e+00,-6.255998598105684261e-01,-3.004711990567280999e+00,-1.552580487830510059e+00,1.990287295176697668e+00,2.494233274907455389e+00,-1.506724967573614071e+00,-2.785947439208657173e+00,-1.883593986466561399e+00,7.618273377382350775e-01,1.799782709704223493e-01,-3.474166444723192804e+00,-2.247395779488670087e+00,-8.535002861528343532e-01,-2.785618893579897559e+00,2.771975946837121008e+00,-2.878615005465698928e+00,2.563901837075604817e+00,1.189010290789177748e+00,-2.260007316289811108e+00,1.306582644724073150e+00,-1.617169941164568747e-01,-3.111720329421018949e+00,2.112333968730185418e+00,3.037935204435620928e+00,-6.942004902299281355e-01,-3.855157974647487773e+00,2.138824562054478795e-01,1.157382067442803031e+00,3.081874782699387083e+00,-2.516432559389934376e+00,1.556149417621460529e+00,-1.199495805774272839e+00,-8.801761963089843599e-01,8.951340773507737714e-01,-2.763273673485258097e+00,-1.723236710833051966e+00,-2.432889785662099680e+00,9.050631523708276005e-02,-1.037251053371098131e+00,1.502984496976576302e-02,-1.735417741736519082e+00
9.715307133332411194e-02,3.095522012659318589e-02,-1.085727916387300290e-01,3.519763348919179025e-02,9.185607507429557894e-02,5.917358453116785362e-04,8.950586604327327722e-02,8.749753579625768260e-03,-4.418794359466107768e-02,-1.296271544589057412e-01,-9.607351815360988881e-03,2.172261085092502819e-02,9.792107959153192875e-02,-1.286940621276769052e-02,5.114061947397055552e-02,-1.078469017310788730e-01,-8.750059968018109036e-02,-1.234189883063361963e-02,-1.179110468238339787e-01,9.170649613275881629e-02,5.177954493991346330e-02,3.120385507068955747e-02,3.789063309189762835e-02,2.259595394484141540e-01,-5.242060982544969466e-02,-2.461286181426884656e-01,2.228243940947943758e-02,-5.657647874624000851e-03,-5.786038793519325540e-02,-1.094365051966384034e-01,-4.910288128776143374e-02,2.027425273320411850e-02,-5.621661614294388293e-02,2.697205210014657628e-01,-1.073876545009059685e-01,-8.867321685748552618e-02,-2.558754992070387257e-01,2.811681236349630048e-02,-2.254411145020690233e-01,-6.031286155013058925e-02,-3.082090273355552260e-02,-7.934999885831456323e-02,1.944118755502676210e-01,1.111766727712990982e-01,1.474839863518527250e-01,-9.865742314513351041e-02,1.261806523628679066e-01,5.545459164646625999e-02
-2.759808375781802603e+00,-3.535367566398582184e+00,-4.579638926297313617e+00,-5.036514183484450680e-01,1.905495042041987830e+00,-3.243482502728548322e+00,-3.928205451925624203e+00,-7.470352444476373588e-01,-7.664581002893479100e-01,-1.732130121628383534e+00,2.449238830955532631e+00,6.626575505598267801e-01,2.579949068939451973e+00,-3.857013985075560925e+00,-4.062317455589243842e+00,-2.574404382998205953e+00,-1.127677562436366188e+00,1.230062487095676449e+00,-2.647718267813294890e+00,-4.476182673684593105e+00,-4.310144651082729261e+00,-4.515239482579701757e+00,-1.345720485118051757e+00,-3.776391962280118086e+00,1.636412196522305740e+00,-2.329693726696181688e+00,-3.878724097765395395e+00,-3.375170788101259589e+00,-2.153206162807561608e+00,3.249713366195899344e-01,2.078873011823489048e+00,-4.691734190069179355e+00,2.836430959930473783e+00,-4.574359709840646993e+00,-1.305711751726875702e+00,-3.949973723441346229e-01,-4.830925184602849143e+00,-9.284165001306436960e-01,-6.145313716638561852e-01,-9.651606231681535419e-01,1.645968613201984176e+00,-3.403772743927962363e+00,1.892276565744599237e+00,-4.125147155588858361e+00,4.176545338267887431e-01,-4.716296284952072315e-01,-3.986937222676897985e+00,5.683389810254884100e-01
-1.327242217985691031e-01,-3.392514661218458405e-02,-3.785227593342788688e-01,-1.749755102499675197e-01,4.273744973184569890e-02,1.271469656418117433e-01,2.257466298230594026e-01,1.151189453694590782e-02,1.630513397130821662e-01,-3.674864537294451894e-02,-3.175280481960779388e-01,2.171308259897845316e-01,1.357812622600809427e-01,-4.494996550414312453e-02,2.472277679832884378e-01,1.198012517907691421e-02,2.772135035221366672e-02,-1.357437830036892501e-01,2.421141558524084747e-01,2.014337595705056605e-01,2.258333709553155821e-01,-1.666646997183136858e-01,-7.596520129114746334e-02,1.865153983480501987e-01,1.552806575165037450e-01,1.842751766165690308e-01,1.062816335260725054e-01,1.942990430675216595e-01,-2.471981478250684650e-01,-3.694460888252357189e-02,-1.941798252363818589e-01,-7.840831334302743316e-02,1.480589520231951894e-01,2.928631137158138956e-02,6.607439795321441711e-02,-5.030116651637418085e-02,-4.096868927329901933e-01,-1.044116647782371288e-01,-8.848014227530058345e-04,-9.756651307733439638e-02,-6.438790231238823714e-02,-3.392704590322992170e-03,2.266985785685956753e-02,-3.861070171368611303e-01,-5.831752273545316029e-02,2.823884898840287594e-01,1.769524532088870283e-01,-2.234985635093677831e-03
-9.007178176668866054e-02,-1.250310741415884830e-01,-1.465228392653199728e-02,1.266821817316406418e-01,-2.182183324837879967e-01,-7.377813827325381546e-02,-1.274337885627720435e-01,8.776091884717465708e-02,-6.197370027979762219e-02,-5.261888982027108919e-02,-2.425569930338459385e-02,4.979647928601928925e-02,-4.387042367428134471e-02,-3.405691469860751552e-01,6.074411610632382552e-02,4.908649491986249308e-02,-2.454543315994000066e-02,-1.211989786960799564e-01,3.933021203079584832e-02,4.239982162344865801e-02,-5.255127386896704667e-02,-2.423131505351999032e-02,-1.039946584678918540e-01,-1.996686749736188704e-02,-1.733432704958571269e-01,4.665766260586265424e-02,-1.055836070646003766e-01,2.662074121048657940e-02,-1.571914327309433812e-01,-6.597045034038943878e-02,-1.235309102604621213e-02,-1.856718834780392291e-01,1.287392359028841082e-02,-4.238998620514415616e-02,-1.948013449659754814e-01,-1.457069694689590855e-01,6.765448212790564630e-02,1.001262030674789916e-01,-1.474783426837696088e-02,4.525374632092726140e-02,2.502647119467231451e-02,3.685296974919102797e-02,1.437773828904553020e-01,-1.684875430195204860e-01,7.563060908349406031e-02,-4.270989963428517555e-02,-2.507291107741618438e-02,-3.379254717392624757e-02
-1.815457938013309125e+00,-1.063145666578830251e-01,-2.251575668909377548e+00,1.983037515745620816e+00,-1.623669505844845373e+00,2.542832391079689724e+00,-4.316938353769012582e-01,-3.316362315736909316e+00,-1.376923124005583032e+00,-1.330731547227209211e+00,3.039856061751393224e+00,3.107187385511335220e-01,1.266663468025454264e+00,1.611815092023105800e+00,2.888685052672295139e+00,3.772000705143540245e+00,-2.426998127743295042e-01,-2.403049507067098745e+00,-4.531135128872906259e-01,-3.294946022577799116e+00,1.161674968108412087e-01,-1.044310693920736055e+00,1.462379937099647531e+00,3.178146894968233660e+00,-1.554191639378466050e+00,-1.095280161467189650e+00,2.086039272359878627e+00,-3.247184402146213955e+00,1.530362604992673070e+00,1.935124078828446503e+00,-2.088630726056688314e+00,-8.277956537096524681e-01,1.562149933208848207e+00,-1.778388752525388306e+00,-7.707222397255271140e-01,-1.201219615431265320e+00,-3.381625192481601871e+00,-9.314951981790200453e-01,1.789638321881023453e+00,3.057179367757649757e-01,-2.753037062622312181e-01,-1.235733540733559899e+00,-9.228592972657809756e-01,-1.815248020418168018e+00,-1.764976511623457256e+00,-5.955199928134804477e-01,-2.367093341772320336e+00,-1.502235023126446078e+00
-1.502432178985244615e+00,1.245731025330910846e+00,-6.704979552325687209e-01,6.706965631504211434e-01,6.804002259333846725e-01,-1.005114833707689392e+00,1.345924223113097673e+00,-1.675731120499952320e+00,1.483470828642731831e+00,-1.084812387463338634e+00,-3.592657153248978830e+00,-2.001812752192017708e+00,1.516255824799956242e+00,-1.260769995098023122e+00,-1.227958393222485789e+00,1.060913084346093438e+00,3.146303762501055701e+00,-2.870769565898019793e-01,-3.477540612901727890e+00,-2.373567723627297621e+00,-3.081835367993539521e+00,-2.100183750553083595e+00,-2.622708810034528604e+00,-3.686943315258924603e+00,-7.845578209313246454e-01,2.178868603480335508e+00,-1.203820086029592451e+00,3.424463887012169749e+00,-2.680920591163172162e+00,1.838492644005794263e+00,-1.599353086293777482e+00,-5.559612762635022243e-01,1.603460491580138259e+00,-6.552081704540368978e-01,5.457879997908546832e-01,-2.084082532404309518e+00,3.506774729721277239e+00,-7.642084281865690887e-01,1.984501292800488148e+00,-3.297319632763448638e+00,-3.047391568670736905e+00,-1.603146066828420313e+00,1.359291943161997862e+00,-3.329434250581283283e+00,1.637434560462769362e+00,-4.265027810837234590e+00,1.984757703529077100e+00,-3.200685791383479639e+00
-1.588930290964223779e+00,1.035227357425860945e-01,1.821295494895076139e+00,2.358623542908831361e+00,1.498230895499853554e+00,-2.689464613665216053e+00,5.275461038360513832e-01,-1.392003138352593483e+00,-1.723923984574603940e+00,-1.943043276857460810e+00,8.398687670657183357e-01,-1.372728888667568592e+00,-7.360572314510459568e-01,-5.673185852624453851e-01,1.977927097338922247e+00,-1.657285693808795424e+00,1.920492540065245946e+00,2.801585695323599356e+00,-1.264773901010543211e+00,7.590716561932703277e-01,1.659256058819803092e+00,-1.092288932868884510e+00,2.893502532526959659e+00,1.539164616604963953e+00,-2.778148352897610973e+00,1.704893568104665080e+00,-1.229071328664080170e-01,-2.940373159434564787e+00,-8.835514046803344401e-01,-1.075795987814808008e+00,1.696835601493963397e+00,-1.737895186141423576e+00,-1.836125840204289705e+00,9.319639333810487702e-01,-2.096798001311531934e+00,-1.190880470357512239e-01,1.841546799897986642e+00,-1.857189742255074938e+00,7.210791261081683778e-01,-9.920789419438601486e-01,8.718159630355157841e-01,-8.431715237512493744e-01,-2.756271077557091775e+00,-1.275502496769267635e+00,-2.720175448915040928e+00,-3.286771751882568093e+00,1.856869444933273439e+00,5.618854986120823680e-01
7.883074516412817978e-01,-1.687907457459943417e-01,1.268765918437304352e+00,2.145965254491136065e+00,2.697356772508379574e+00,-1.507588475169303610e+00,-2.345441775430615383e+00,1.021729932217995573e+00,-8.614971774380730807e-01,1.092377663387970266e+00,1.702224473679900596e+00,-2.058587597965084282e+00,-2.488973962185292876e+00,-9.117076213861120548e-01,-3.183295304223331623e+00,-4.642596240739500779e-02,1.638320894511990256e+00,-1.558075192805171705e+00,-1.016156384309936239e-01,-1.980725526060612193e-03,-1.537735720663653716e+00,-1.122047987452333473e+00,-2.428254104685078296e+00,-1.914560626907689578e+00,-2.498704891122160543e+00,-1.380936712651531506e-01,-9.067107548534575345e-01,-2.723249852992434494e+00,1.164944312542748550e+00,2.647457985101654199e+00,-1.910763421747776025e+00,9.107412497765503545e-01,2.257405524198441427e+00,-1.417251801322559457e+00,-1.491738739187412240e-02,4.918988449966144039e-01,-2.698399313099247632e+00,-1.921150631030139611e+00,-1.512503538763421140e+00,2.312053043898571136e+00,-1.194202736351003491e+00,3.050208963661213968e+00,-2.554892005219964179e+00,2.332674890962633807e+00,-5.602282889274444733e-01,-7.803571069539922966e-01,2.721203163191591834e+00,-1.916994219722427228e+00
-8.862398313302992658e-01,1.847347308751716044e+00,-4.180695825984427572e+00,2.958964120988811231e-01,5.409216886084458054e-01,1.951349469235834633e+00,-3.316289122259539646e+00,2.728656353748970975e+00,-1.323584080559361942e+00,-4.962874182912906940e-01,4.141185290138071906e-01,-2.395783385705499757e+00,-3.173772027958989272e-01,2.511616398926440841e+00,1.848858300887898265e+00,-4.192446041857476935e+00,2.169092088778259431e-01,-1.228078988871116772e+00,7.775445077670437022e-02,-3.425384595645874164e+00,-4.293784840641555078e+00,1.081626843791587911e+00,1.782737169422494716e+00,1.153113317502917123e+00,-2.160157570909801095e+00,-4.193610655812511467e+00,-2.614851231921703434e+00,6.668124583559945640e-01,-2.221808170759368206e+00,2.497204187087318061e+00,1.399582572550261972e+00,4.367584408474753932e-01,-2.044959852038773285e+00,7.888391769886929916e-01,-1.745818945714698200e+00,-5.206722304639893606e-01,1.380373326606925410e-01,3.523196358100236791e-01,-3.332939582090472808e-01,-2.809101763599485935e+00,-2.103493198805761910e+00,2.488556993497547776e+00,-2.470380663822998368e+00,-2.787627686717420339e+00,2.437319852103282614e+00,-6.663407000889706167e-01,1.397481599906716276e+00,1.481165824042313561e+00
-3.303486187569453225e+00,-4.686486663973086220e-01,9.663274907335288599e-01,-2.678277362613962209e-01,1.841151044201471576e+00,2.311098005401779343e+00,-2.498844431667841981e+00,2.532116316065106343e+00,1.084197976366104044e+00,-4.238278620921825279e+00,-1.244397773052575040e+00,4.559022308435580761e-01,1.913947220077919731e+00,-4.086803468002304096e-01,-6.627233126062009871e-01,1.840040324487343781e+00,-2.353466039491012740e+00,-3.645808298576622697e-01,-1.611740443831020553e+00,2.113289781745945284e+00,-8.762263453654322021e-01,3.066633225631152815e+00,-5.399781025193497452e-01,9.534795255808702352e-01,-1.598104807656087978e+00,8.164586697904433477e-01,-3.627275166907795168e+00,-2.976149520807675142e+00,-3.166913455646716002e+00,-2.839288295472309348e-02,-3.904639137613898914e+00,-2.108311895367199096e+00,-3.776862438070422989e+00,-3.471678244686705828e+00,1.544698308136427167e+00,-3.055914575175158743e-01,-1.827150404004945106e+00,1.961902566990217089e-01,-2.498579155394217821e+00,-3.670502006624788649e+00,2.894955505798805895e+00,-8.880252220225113291e-01,-3.993195348294128699e+00,1.806097039489720002e+00,1.350598436540397573e+00,3.254128767361992303e+00,-9.212729959859326800e-02,1.462898166155087276e+00
3.450648449791742234e+00,-1.798827964760805864e+00,2.053709699676576683e+00,-3.700251576215917826e+00,-3.583818143406887202e+00,-1.295432141628453993e+00,-3.006864844012691051e+00,7.178762902585059669e-01,-1.694925907547688793e+00,2.031680888773815141e+00,1.166737084199623631e+00,3.801604632929446392e+00,-1.753990798615618907e-01,2.711199640846782000e+00,4.286537273535755976e-01,5.149319908138219049e-01,3.515960073296860444e-01,7.766772932285118669e-01,-6.222529927102971925e+00,2.933867132006590328e+00,-2.219537298009439663e+00,-1.430712758248261052e+00,-1.953118028010677687e+00,1.155258617615472438e+00,-5.459521051770725025e-02,-2.814880748666389820e+00,-1.535905735085579371e+00,1.806880300146732399e+00,-7.094554865399552712e-01,-3.830448270097600361e+00,1.097450744834521208e+00,-3.652868556300238989e+00,2.812979265924040018e+00,-2.339506703555529921e+00,4.663943084330881561e-01,-2.140647371804313082e+00,-3.695316945319593316e+00,-1.700877646227531237e+00,-2.162354287871653735e+00,-1.427181325120440158e+00,-3.362749655777373392e-01,1.848327222643144419e+00,-4.113421803997618476e+00,-1.376026703915532945e+00,-1.021384598782889785e+00,-2.216153171825173462e+00,2.183010217209818693e-01,1.857003295375823537e+00
1.029874453032749271e+00,3.263542474681703442e+00,-2.915539387625284640e+00,-3.550562223114260174e+00,-9.329489146171902059e-01,-2.403741065047775294e+00,4.373334711884289683e-01,1.974322038366824517e+00,-5.138762239487397465e-02,-3.504551638153829085e+00,6.011042407860375802e-02,-3.240684297187759633e+00,-1.178829612694516582e+00,2.906862295302855781e+00,-2.476666024032751157e+00,3.191102404958883643e+00,-3.280675134018142813e+00,2.764765718885042745e+00,1.773105239496693075e+00,-1.898869285727909695e+00,-2.749314683694302097e+00,-1.540413823125911463e+00,-7.375297447471245160e-01,-1.306704532651118189e+00,1.965481878816447703e-01,1.774876475769734174e+00,2.497185791243778485e+00,-2.414546052054769854e-01,-2.403469067700710893e-01,-1.740681389072572305e+00,2.058253623160249735e+00,-9.063581165244614102e-01,-2.186268141289384737e+00,-1.769806103988469381e+00,2.083396844775265322e+00,-2.848133386230347952e+00,-1.584967660508385334e+00,2.520013209538893406e+00,-1.551116830992610440e+00,3.105975063075788967e+00,-1.158669312917645078e+00,-3.129763916404452395e+00,-2.837538807987403988e+00,-3.543915129276908882e+00,1.261192513397224824e+00,-2.090440273115002245e+00,-9.114931220444493221e-01,3.205748519682421360e+00
-3.769729194588851418e-02,-2.270239995996650606e+00,-2.197996900126735209e+00,-2.494484455350028718e+00,1.151111854439780924e+00,-2.076943111341073234e+00,-1.299962958140356228e+00,2.060144032833979288e+00,-6.457807009701891365e-01,1.289299444451107668e+00,-1.942712265500332824e+00,2.664761985080389639e+00,-2.190676383471965138e+00,1.968145329012446765e-01,-2.259749045381739041e+00,-3.092395480057017032e+00,1.940834826190344531e+00,-3.333793421560079295e+00,-2.780460630162327806e+00,-2.493012426773600243e+00,2.351972427015348366e+00,-2.348289595912147920e+00,2.734828348940337328e+00,-1.635226812342933211e+00,-3.202703238242798900e+00,-7.434601231034861923e-01,1.506908692000323180e+00,-4.031741180529428981e-01,-1.500029109437412744e+00,9.982322919104789083e-01,1.717671182221865434e-01,-8.266095299804574470e-01,-1.966484984645079148e+00,-1.112337279851603800e+00,-2.466696364116276463e+00,-2.295860367515175859e+00,-2.757203847823689324e-01,2.672038300018948487e+00,1.653672868082432634e+00,1.699292366286362377e+00,2.400613793539473573e+00,-1.396689350452775535e+00,-2.028891154770270155e+00,9.586101769237599379e-01,1.410560150653709544e+00,5.525177448794873492e-01,-1.878716241459246650e+00,1.905035645105233488e+00
2.118510143244586086e+00,2.992565791678919229e+00,-1.385631287235083109e+00,-4.119096609040594714e+00,2.777621689717483910e+00,-1.186566699483405207e+00,1.021388083234738842e+00,3.069928542801566018e-01,-2.446075378732703420e+00,-3.587020596827007246e+00,-1.116288199364915190e+00,2.511809165494657936e+00,-9.716661535090845847e-01,9.413369565987234067e-01,2.143844163938342984e+00,-3.286732919799254304e+00,1.391199968620962513e-01,1.711538793410246173e+00,5.317032137947470538e-01,-4.046129177588030146e+00,2.674351209496538484e+00,2.078427303655949743e+00,-7.441989841234745162e-01,-4.814520990668755829e+00,-3.962206193048441349e+00,-3.576450339772807130e+00,-2.292399529926347768e+00,-2.134329400809551025e+00,-1.199437443637541234e+00,-2.965762573000298996e+00,-1.597993369368953531e-01,-3.088112766574368617e+00,1.143893003401007746e+00,7.354046489163862388e-02,3.431898560180261626e+00,6.000703579144507360e-01,1.335324301523825863e+00,-1.989484800875193082e+00,-4.087853844163444883e+00,-3.721456742175870414e+00,-1.024336519743518137e+00,-2.150482198971414571e-01,3.513728441350847831e+00,-1.866535700461684932e+00,-1.303110120752171586e+00,-1.428790640484877139e+00,-2.876620621605750827e+00,-4.910283205574920706e-01
-4.189917455240886213e+00,-2.235016217055008525e+00,-9.203172439610362021e-01,8.182630072310628222e-01,-3.010537360949836927e+00,-1.804863510293898354e+00,-3.432821115199447437e+00,2.988329119661724320e+00,1.386437351343875468e+00,-2.269014334671739963e+00,3.357315268220839588e+00,3.009722470859893528e-01,-7.189677509760378227e-01,1.761784726177334504e+00,-2.699432329447873702e+00,8.464245966219916539e-01,6.819562955110342051e-02,-1.481845479763020723e+00,6.016173807322889866e-01,-9.912187085087722505e-01,-2.559161372506683296e+00,2.622252120332403624e+00,-2.888138809768052262e+00,-2.294997673279679073e+00,7.478303408847885025e-01,3.243316950604365201e-01,1.487044836739248588e+00,-3.422194169700858435e+00,-1.050557983196036993e+00,-2.919763774242499554e+00,6.027412615136278351e-01,-4.684733985978281723e+00,2.389306601451090639e+00,2.189326383402920406e+00,-3.949097083700793043e+00,4.307822400282531050e-01,2.262733476785560249e+00,-2.962133165849543559e+00,-6.752062329463827117e-01,-3.804762404712169310e+00,1.297040283131617233e+00,-2.608983267481451485e+00,-1.082151854698315097e+00,3.196326830529063745e+00,1.988638738433238906e+00,-2.824174177763393523e+00,1.663694432995830530e+00,-1.066504935943147103e+00
-7.438619125662914167e-01,-3.735902992239180653e-01,1.300819046439332771e+00,-3.328606425406861025e+00,2.775345798111832907e-01,-3.094983859566289741e+00,-2.136996439065399045e+00,-2.355492215794038557e+00,2.005966262863808858e+00,-1.441960870248363058e+00,-2.040354331980699598e+00,-2.748861836709197259e+00,1.963409703003909046e+00,-1.813875742940490365e+00,8.558520635261857024e-01,-1.803239874294784606e+00,-1.124506984325677195e+00,-5.650029269470221438e-01,-3.187843242243918684e+00,-3.704267658601587687e+00,-5.967918022041321935e-01,-6.677589069834400926e-01,-3.883530849818791708e+00,6.293628415679256571e-01,-9.444620585953671377e-01,2.169903345780171133e-01,2.387477225679148773e+00,-1.781190310111124830e+00,1.979401699492417732e+00,-1.806447542999308320e+00,-2.852897262652159149e+00,-3.960909906452975360e+00,-1.257632478636269147e+00,1.581759443069568727e+00,3.497846208594874273e+00,4.519811469742161109e-02,1.742125599713487016e+00,-8.088535414826072412e-01,-2.632823869901994573e-01,3.230540483498626436e+00,2.737805825704943796e+00,3.999420095251113416e+00,-2.500895772644884385e-01,-1.583168930635735938e+00,1.878871569423342436e+00,-2.340142887746537725e-01,-1.573216375693460956e+00,8.445439081491135092e-01
3.087037037628311165e+00,-3.076857838779549326e+00,2.144581803326537806e+00,-2.737531505878829652e+00,-1.661774455416438645e+00,-5.748680560388812477e-01,1.192555879636877592e+00,-1.094726166626889929e+00,2.250262610758730020e+00,-2.561943174010052893e+00,-3.120830104167562347e+00,-5.938596502387212261e-01,8.742690986510730511e-01,2.163380723250677651e+00,-2.320440660459039073e+00,-9.256103770784915863e-01,9.262680842552531990e-01,1.505621662738725997e+00,-1.746512514161369767e+00,-2.095210974827184547e+00,-2.472270175498722189e+00,-1.357008599713928954e+00,2.469912094610129838e+00,2.775715566970529569e+00,-3.729415405071674794e+00,1.436807428260105546e+00,2.186218597449862244e+00,-3.119551976214962052e-01,-2.030319014450962189e+00,1.810408239955118903e+00,-6.257819206755025343e-01,1.461990385314692498e+00,1.352892540610477201e-01,-1.187081354721126081e+00,-8.543042892942659394e-01,2.082281814791274055e+00,7.578399333909291435e-01,-8.640301862857917570e-01,-2.493321734467889517e+00,-1.969541091804065891e+00,-4.367670364021962293e+00,-1.622312962830712024e-01,2.121884268761588532e-01,2.109437745795577079e+00,-1.198877021305844170e+00,2.902013636857716516e+00,-2.899405779681706097e+00,-1.273145837797297342e-01
1.653943031118809026e+00,-2.742823964145048254e+00,-1.750480942730535006e+00,-3.602009077097921175e+00,2.586401113116770789e-01,1.735572387548857343e+00,1.504498674427651173e+00,-3.670586389231408120e+00,-1.852087419370747945e+00,-3.393335652441203276e+00,8.725135568755625348e-01,3.024385382901848995e+00,1.763628042399893125e+00,6.068980788695595985e-01,1.660121575121634052e+00,-2.924947667780085414e+00,2.097305802362622984e+00,2.216410393503898124e+00,2.709229502299031811e+00,4.525011442163368258e+00,-4.471311653489315141e+00,-3.374061681183703421e+00,-2.679623532629713978e+00,-4.609419232983914760e+00,-2.116521096699988558e+00,1.592615025958646680e+00,2.529421633582872975e+00,-3.356906325690435011e+00,-3.465189178884600985e+00,8.632446536859579300e-01,-1.154607374799649477e+00,9.133639790390756241e-01,-2.668038847420695969e+00,9.401565397433288285e-02,-8.878777977417818823e-01,-2.824038615651251138e+00,-3.872215176846576234e+00,-2.784328614761823195e-02,6.436505743221432319e-01,3.543419833959455256e-01,1.317672501157254539e+00,1.918496381666887185e+00,-2.576085900230064230e+00,-1.253741085243875286e+00,1.112446895879031672e+00,-2.999262635863711779e+00,-3.307564187421481616e+00,-3.429230719177142728e+00
-3.466807990733509648e+00,-1.071895013424102767e-02,2.640265429667470798e+00,3.129297406821555327e+00,-3.589893589405478203e+00,-1.246111697534684648e+00,-2.063604409938063267e+00,1.170959920358213724e+00,-1.644801763331760203e+00,-2.654604403883145558e+00,-4.339188169506599912e+00,-1.067540757783219219e+00,2.626863890333856144e+00,-1.812803802035362066e+00,-2.078963947365569942e-01,-3.037527489405724701e+00,8.903160855512491922e-01,-1.241228209892524248e+00,-3.886062692094031323e+00,-1.040301015526289286e+00,2.551429596136107758e+00,-9.389496201804539144e-01,-1.778782946690641076e+00,-8.918423380456542704e-01,1.498853659297067820e+00,2.271375741595688780e+00,6.226428276610453949e-01,-1.241809730819868784e+00,-2.247072287006041780e+00,-2.390716461501273482e+00,2.303849867868307033e+00,3.232514705549202283e+00,2.526154828363743832e+00,-2.692187755835632856e+00,2.998763989901988669e+00,-1.927542550429458768e+00,-4.110911541698119009e+00,7.136965624027520327e-01,-1.872664846506853831e+00,1.231025006413334788e+00,-1.361873658559012989e+00,-2.573350333759797159e+00,-5.185138717373070083e-01,7.610984019344226859e-01,2.755970944261296296e+00,-1.513897190142473814e+00,-1.868900842470933021e+00,-8.615760100984275471e-01
3.205780398627975369e+00,-3.497749390445841655e+00,-6.683389095130303215e-01,7.268734093908810756e-01,7.061326786147611445e-01,2.937118289302024010e+00,-2.463816706655104216e+00,8.893137937005387572e-01,-2.353167091579988490e+00,-1.941306785597867623e+00,-2.792839228366191584e+00,1.864111662874773589e+00,-2.786620842069701620e+00,-9.848764638492842893e-01,2.092862115821880753e+00,-2.530276967376764663e+00,-3.450697471233710623e+00,-1.075250119266419890e+00,9.822419925098209159e-01,-2.785630257123771880e+00,-2.349775634059795060e+00,-2.320482793507707697e+00,9.083966658714314191e-01,2.463785574738287298e+00,-3.299189120463598801e+00,1.248190645920106867e+00,-3.969010401267131005e+00,3.296784717776644946e+00,-1.028900850456003768e+00,-2.072387897806795998e+00,-2.169262744368336548e+00,1.970295796689516474e-02,2.679809648461700319e-02,2.740508205194043256e-01,2.844537195058883583e+00,3.891764661773707612e+00,-3.812352396878416538e+00,-1.914785104157448625e+00,8.644332388061667372e-01,2.689707922716229493e+00,1.027112348083849991e+00,-2.617529811362162118e+00,-7.275524371972188487e-01,4.055099508681309639e-01,-2.081595620391893942e+00,-1.149593527753996369e+00,2.139592397972892357e+00,9.349528202225093620e-01
1.049825521729416566e+00,2.209978988076836348e+00,-1.231110771399586357e+00,-3.172323305888510525e+00,-2.813213328543901492e-01,-2.134283720659178485e+00,-3.827785863937980704e+00,-2.497179970695689200e+00,-5.812450668547376464e-01,-3.256082362716492984e+00,-5.190615897996891270e+00,8.124226294990061215e-02,-1.191893503025433843e+00,2.263109869770804750e+00,2.828821266963021941e+00,2.733655093575113604e+00,2.368992496084634691e+00,-3.231773502609607718e+00,1.192058400034748278e+00,2.754139542511707450e+00,8.405763459036660334e-01,1.222787141129156208e+00,-2.811586556291539196e+00,-1.871138266126598282e+00,-1.292484825208636723e+00,-2.639847079572145816e+00,1.115945673124036253e+00,-3.887137849846247217e+00,-1.871726012834873609e+00,-1.400415606455412298e+00,-4.143398894995431014e+00,3.317782358984662228e+00,-3.888474455017503661e+00,2.642634461775892785e+00,1.623929223489152918e+00,-2.441351452229727492e+00,-3.585357319019362610e+00,-1.329295608668702000e+00,-1.485441657200175847e+00,9.357677549588996890e-02,-7.984607265295379230e-01,-1.344457362562138769e+00,1.333419368636511226e+00,-1.887171097777526618e-01,-3.935550187024741131e+00,-6.150291779464061026e-01,2.380432650885924595e+00,-1.528448304159536697e+00
3.209272182161748699e+00,3.075792089698647924e-01,1.421231557163294079e+00,-8.310857417032840866e-01,-3.401932155923975687e-01,1.484764183704918139e+00,-3.869031042971290635e+00,-2.285101738799022453e+00,-1.884199549871202195e-01,-3.192888470322979622e+00,4.385229444846444613e-02,-3.847359637513405151e+00,-4.475456756301315231e+00,-2.553741295301415359e+00,-2.684133184705260522e+00,2.745386976687188341e+00,6.258116332281481176e-02,-2.469487885921977099e-01,-4.201820214401311482e+00,-1.061351313700782617e+00,2.388487931115813367e+00,2.270284382443441107e+00,1.733246200286753025e+00,-1.448834568787429777e+00,3.379994619497561636e+00,-2.992849127278070842e+00,-2.014497462647503401e+00,-3.690590939970644357e-01,-9.984801755030144887e-01,-3.276509027430978827e-01,-2.993944318855988218e+00,-2.717269160551254448e+00,1.493883899791627723e+00,-3.568591421639330186e+00,2.394655064556029611e+00,-2.181972837676196431e+00,-7.761518716337251211e-02,4.230696875035142135e+00,-4.354892481758959599e-01,5.449351232153499813e-01,1.377123658739309198e+00,-3.010003261856871060e+00,1.445422041856528006e+00,-2.659720018427718546e+00,-1.626323270888268668e+00,-7.340723750706513728e-01,-7.009999721114729132e-01,4.462048701366907455e-01
-4.031902983276262065e-01,-2.323690806150515265e+00,-1.859971510761811442e-01,1.349377384419947479e+00,1.546895214680515496e+00,2.576982148250265059e+00,-3.132782643042979487e+00,3.547044441919020130e+00,1.909913444726899945e+00,3.878705635862997880e+00,1.046177543909253549e-01,6.095211312796804393e-01,1.023135766714961953e-01,-2.062455020180550477e-02,1.948225668799648425e+00,-6.205475736393114561e-01,-2.681896904330931530e+00,-2.724983228565072135e+00,-2.102991508441919954e+00,-2.818682581775898033e+00,-5.719938359804881411e-01,3.498606146728197253e+00,5.013432664649721815e-01,-4.907416040637983201e+00,9.552773334449662368e-01,4.295135310977570064e+00,1.086925601158896582e+00,-1.101020702320798517e+00,-3.081010242605325189e+00,1.587800415617226069e+00,-5.556694379887840984e-01,-3.182971284937733181e+00,-2.741583752350258418e+00,-3.084747282687811953e+00,-1.244011878388152859e+00,2.748589945509961829e+00,3.509465833552354752e+00,-4.308854177802619034e+00,1.921589507595820867e-02,5.335155504675159754e-01,-3.336518526241017302e+00,-2.265413221628241658e+00,-3.025261191128249205e+00,-3.111630540416419066e+00,-2.793397692627023865e+00,-6.473106404630311062e-01,-2.996097629848534449e+00,9.691726502327796533e-01
-1.810499500900900893e-01,-5.713606079090655099e-02,1.946082882329875918e-01,-3.281262665564525088e-02,1.025484859299120172e-01,-6.377586486208860692e-03,9.802103318329627446e-02,-2.042549015378367916e-01,-4.507782309243003188e-02,1.061467644707715513e-01,-1.825245816271188135e-02,-9.665994457793184239e-03,-4.812710483505788783e-02,1.285045216572840154e-01,3.326311598625962540e-02,4.921840102617375777e-03,7.189568383094395443e-02,6.576554637838508133e-02,2.376795434851181402e-02,1.729633795302394916e-01,-6.740351170643772011e-03,3.109040632553512415e-02,-7.188428078020617229e-02,1.678339260217585546e-02,1.775171349576644131e-01,-7.191838623215551785e-02,-1.267395308466830184e-01,1.114411159286758796e-01,-1.663256145727944751e-02,1.073359642191144478e-02,-5.043820687394448728e-03,8.846077660170609952e-03,9.509222126538841025e-02,-9.381693658722328744e-02,-1.131197814966230925e-01,9.499726516891597236e-03,-1.796054173681738697e-01,-1.535120521668104643e-01,2.087015206061420547e-01,8.468753384102732651e-02,-1.124347735646543398e-03,1.384133832709650014e-01,-1.163425307902164196e-01,-3.528550189010162819e-02,6.970423257452612598e-02,9.958012126573179135e-02,5.734584681558776986e-02,-2.841191360525692766e-01
-3.274929472382893891e+00,-1.588170540385867469e+00,5.209895050714994369e-01,2.361608565744947708e+00,1.193251560958848545e+00,2.938679909341608276e-01,-3.487864489692923620e+00,4.944300973420210910e-01,1.304688153402798756e+00,2.472000004658432726e+00,-4.756300528529715521e+00,3.108510232137054352e+00,-4.084024067116104995e+00,3.851345069674662613e-01,-8.051552770219536637e-01,2.306838695316376087e-01,1.519175442553126087e+00,3.020356198958672689e+00,-3.885473497727953140e-01,-2.238710595801483905e+00,-2.940161790029192090e+00,-3.527091822815167532e+00,4.655376158854945823e-02,2.658113123164171476e+00,1.206853706748816757e+00,-3.961644475372109842e+00,3.541166181431719018e+00,-1.646855950987194950e+00,-1.460718995064188341e+00,-1.860043601613329711e+00,1.625948578567340652e+00,7.225349785375011491e-01,-1.661920797658458460e+00,-1.431426283873195482e+00,6.257519409683593992e-01,-1.094543077660153907e+00,-1.272729520461220343e+00,-1.187431630270938454e+00,-1.523356191453612896e+00,2.556958615737304985e+00,-3.049363676366430020e+00,-5.240881885794983486e-01,3.240184683444731650e+00,-5.051985281232445502e+00,-3.931145730616307343e+00,-3.444995961334155865e+00,1.510575623562270264e-01,4.845177334617847831e-01
4.951170069546562136e-02,2.441753508027659850e-02,-3.848233371378057682e-02,-2.825391206623440593e-02,-9.714178589479330328e-02,7.338671693617643266e-02,-5.947871607262125715e-02,-1.069129418307647045e-01,1.854410558204428600e-02,1.486025129960162616e-01,-5.405093255916474347e-03,-6.798778738735225535e-02,4.515694792154544002e-02,2.165310359401556028e-01,-1.623279730358604400e-01,4.273157073389213800e-02,2.292938176472243336e-02,1.298634271461036604e-01,1.107870135943729850e-01,-2.087471330126375660e-02,-1.883347546200707101e-01,9.017657066021994572e-02,-9.337738147895389973e-02,-1.058487957973181237e-01,1.283894980213357850e-01,-1.018361680865690622e-01,1.568428100371084544e-01,3.754858134733792679e-02,3.567852177319510987e-02,3.435324681510268374e-02,-1.831813301550160589e-01,-1.986062850303868810e-01,2.409956405145839003e-02,6.350515334752088181e-02,9.236194179634324430e-03,-9.185035129590607417e-02,2.115555527895004919e-03,-9.171697145496537917e-03,-1.070135286479120817e-01,1.133655331943342753e-01,-1.934507446733300939e-01,6.582340214292096980e-02,4.296866296982707056e-02,1.128892172523195681e-01,-1.123972842579819692e-01,1.133766366772055549e-02,2.427436208520152294e-01,7.402215581790923260e-02
1.124532099885284554e-02,6.028006298773706112e-02,9.634863882411656352e-03,2.449498444686758203e-01,1.099738699456948854e-01,-9.572042877496234753e-03,2.821151167178066743e-02,-4.369254423539213616e-02,1.352653562620077798e-01,-1.572072926158550876e-01,-1.794152219441121632e-01,1.630892670028555314e-01,2.407261109944034694e-01,5.235808038953455174e-02,1.260448501232425654e-02,7.348476174678807149e-02,-7.234278350364016508e-02,1.914561038342008428e-02,4.350125560552048180e-03,7.005201284689246966e-02,-1.741895308931347974e-01,-5.668821060756248226e-02,9.447338044991486494e-02,-7.553368618800482270e-02,-1.110611780834409867e-01,2.283106070986102298e-01,4.261721978374419240e-03,-6.472501571603744841e-02,-1.892127670651581883e-01,8.154340047120668677e-02,7.816579826213708448e-02,-3.340233879025308189e-02,-1.232330816860412598e-01,-2.744709003640000318e-03,-9.345154931472783588e-02,-1.053292652943513263e-01,-1.153953642065844686e-02,-1.175490201147253999e-01,2.757619152618867239e-02,6.797562904216922219e-02,-9.387376139968785227e-02,-1.529744521528660917e-01,1.745563657574397132e-01,-1.051254082410038454e-01,-7.378383749319621099e-02,2.381604333738411572e-02,6.701153302956253111e-02,-2.865709990358140599e-02
-2.146700211575931938e+00,8.914039379006473141e-01,-2.755944872254255440e+00,-3.447116123515147290e+00,2.804941403136489875e+00,-2.844861954631999090e+00,-2.284866779649088908e+00,-1.794906917679668146e+00,-6.268016558532201188e-01,-1.791189720311895606e+00,1.789732145428085452e+00,9.586507904386164514e-01,-1.367558318377875892e+00,-2.809753138632695713e+00,2.509418475130667403e+00,-1.263114686549193566e+00,-7.073421193532782869e-01,-2.020787834933945870e+00,-1.826891865518770919e+00,3.118229470937699421e+00,-1.342537953142260321e+00,2.616838139009317832e+00,2.600514788351014239e+00,3.991391021685856133e-01,-1.207903425548972232e+00,2.750918155770023965e+00,1.801812556583023639e+00,2.970938718466101580e+00,-2.847824023203417987e+00,-1.575825150956711385e+00,-2.183784605051450001e+00,-3.481281525902548246e+00,5.889921528160148023e-01,-2.883030040269122463e+00,2.532265363072133013e+00,7.621963982179946751e-01,-3.147001654865103415e+00,-1.705693680821813496e+00,9.636103603324405187e-01,1.731632918212245631e+00,-3.073580445599550348e+00,-4.372061922833898606e-01,6.598797079843123914e-01,2.504768055694596818e+00,3.056594505085923341e+00,-1.873649740563224642e+00,-9.885194095654322721e-01,-3.384416119063328843e+00
-1.298669763529587962e-01,-1.708279951732897928e+00,2.166056410293809353e+00,-3.843283155059360912e+00,-9.974042505390794122e-02,-1.555074900935389692e+00,-1.956217191138978517e+00,3.408526968774121091e+00,1.887826420450336107e+00,-1.247253562916708969e+00,-2.583419413537323822e-02,2.819594830563042720e+00,-7.826596544979887993e-01,-2.393378643836199693e+00,1.300652063683917614e+00,2.845177461452232048e+00,1.967469026507384422e+00,3.990166944743983368e+00,1.446084213599647006e+00,-2.485327248707383863e+00,4.934035285300585882e-01,3.683272370211430946e+00,-1.706290006497217238e-01,-1.009094533012315109e+00,-3.699363442086931020e+00,6.106940569494437865e-01,-4.727816477233807158e-01,2.592721080769636810e+00,3.555245411194771332e+00,-5.957951630856720415e-01,-3.074481920425123693e+00,-7.786525797968751883e-01,-3.770999157595763318e+00,1.647884230867344701e-01,-1.132869510134966395e+00,8.221025409426868658e-01,-3.173093840592734693e+00,2.763214406296987224e+00,1.099338869866827606e+00,-2.665685491360592074e+00,-3.144879664660347185e+00,2.356151802800018624e-01,-2.188958421584791481e+00,-2.882583664006938662e+00,-6.888884555211677307e-01,-3.746700818355087836e+00,-9.643568442042817213e-03,-3.676970208492888581e+00
-1.031747831777304197e-01,-1.622645770158793743e-01,2.443726939409808854e-03,4.756013061525398398e-03,1.711634402927010856e-01,1.033597104382052295e-02,-1.106946571843282420e-02,-1.174666699715291168e-01,-3.420653779055568555e-02,-4.902293472813789438e-02,-4.138561173435271329e-02,-1.072480132863803393e-01,6.018707936130124336e-02,-1.592588183171443628e-02,-2.240020004098983511e-02,-1.916361816027524478e-01,5.519108681982257819e-02,5.444996874881739141e-02,-9.381751933369975038e-02,1.106989360165020753e-01,-1.525846087658308536e-01,-2.445130135705135283e-03,-3.032190239956483735e-02,-1.472646183009342635e-01,2.120939680600716221e-02,1.903531298437405594e-01,7.561736801774637459e-03,-5.176740586245152237e-02,4.997882011904536403e-02,1.181985482227640265e-02,3.103900675745902959e-03,-4.757706575263184745e-02,1.589817006460617077e-01,5.102297515917405407e-02,-5.910717655446795504e-02,-1.207519604365069922e-02,-8.283141564332678619e-02,-6.800901808468748366e-02,-7.163531371110332113e-02,-1.268198915614512090e-01,8.690220641648946365e-02,-3.253942480747470251e-02,6.195334666729981205e-02,-7.492235304006533703e-02,-6.748732037635953723e-03,-7.949675545934717369e-02,8.046134752821924863e-02,-2.777412283579173968e-02
-4.740617693676568156e-01,-1.383689798016167094e+00,-6.222417098156394211e-01,-2.538119886083941790e+00,1.624944667875054316e+00,5.194999698538140809e-01,8.920075569127912107e-01,2.942549637377936955e-01,-1.887372610988318877e+00,-2.819337290767161885e+00,7.768748348259643111e-01,-3.110541833067446582e+00,-3.877850082934581888e+00,-3.879181627670472032e+00,1.569039076455441162e+00,-1.753442426337592952e+00,-2.575427097166768320e+00,2.368143645899457583e-01,-1.745004888061395087e+00,-8.686273668094697253e-01,5.619803342431792803e-01,-2.969817995263432042e+00,-7.427675266488362182e-02,2.829908047291933570e-01,2.706943261205951412e+00,-5.737360752332824054e-01,2.732967849252538439e+00,-1.513784424110223625e+00,-1.228811431115577113e+00,-2.007869821935389876e+00,-5.454070360460958056e-02,8.377227183635601593e-01,2.691260504771526563e+00,1.957387715150918028e+00,-4.069863306790300506e+00,1.299162092760822507e+00,-2.255086333068392790e+00,2.571649064398592976e+00,-6.249677267108533218e-01,-3.131499808152030440e+00,-2.045043093727428651e+00,1.343397579104415041e-01,-1.490855252469391878e+00,-1.606089796538792691e-01,2.336287366485563233e+00,1.262183003093696687e+00,2.654432459254711496e+00,-2.955008752922433368e-01
-2.887186815673310036e+00,-3.656648324348790169e+00,-4.835160228736514298e+00,-5.432280474942967174e+00,-8.415112363624760450e-01,-2.398120206288361533e+00,-1.580115255595451407e+00,-4.246406625632348941e+00,9.957828800657599899e-01,3.220733469542200300e+00,-2.015502720891176214e+00,-4.691665332097754160e+00,4.617659708817702380e-01,7.380519992198412149e-01,-3.945874991289430866e+00,5.824311104456700861e-01,2.748835082536999191e-03,-2.386108199129125806e-01,-2.913140759897474119e+00,-2.699884455785241943e+00,1.192055386993519761e+00,-4.727515373875076143e+00,6.328699762165555798e-02,-4.088663902067587230e+00,2.799583504766833819e-01,-3.956306690372566770e+00,2.748231129083251290e+00,6.450168443704572541e-01,3.721804170101597364e+00,-8.601805005565418272e-01,-6.935195888323406610e-01,-4.976106134255869229e+00,1.420594093367790745e+00,1.658845472372932894e+00,4.098642523983421881e+00,-4.474947514653099034e+00,-4.678893769054046636e+00,-1.505347712428918294e+00,-3.251888792300624331e+00,-1.804722853781494996e+00,-2.769630064456910734e+00,-4.329629933065072045e+00,2.848022048020903974e+00,2.516133293103615554e+00,2.331966401137129274e+00,9.103653635287418666e-01,-4.194647689449289008e-01,-4.174580467801217720e-01
-1.212121108481049037e+00,-2.858973525908743873e+00,-2.782729472256296077e+00,-3.316230919757892970e+00,-7.611059283253800434e-01,2.071175632525009913e+00,1.744956957594928193e+00,-2.639845303780666619e+00,-2.031866282685674818e+00,3.193655869412005410e-01,-1.124859091961958324e+00,2.704114561761291835e+00,3.590409271604024788e-01,-2.066072296501349215e-01,-1.878041198781187804e+00,3.917624941119782211e-01,1.872581447415864186e+00,5.947721268312991527e-02,-8.204488295985238322e-01,2.276251818838621530e-02,8.556782672939791112e-01,1.318517207387102541e+00,-1.627220516897801783e+00,-1.776863796165838894e+00,2.583704196095517602e-01,-2.604213990041644777e+00,-8.691500950227825095e-01,-2.303198004719563041e+00,2.106094464824717349e-01,-2.584266997434510937e+00,2.449642193236551968e+00,1.969510629717251993e+00,7.369764617837473164e-01,-1.539421582297437974e+00,-2.530847203949235236e-01,2.861392309163674152e+00,1.120949573327118420e+00,-2.473355606361649972e+00,1.615266541462565320e+00,2.442003506885161546e+00,-3.100466294123523259e+00,-2.273445920666282927e+00,-2.837197600532869846e+00,3.502507747771886337e-01,-6.629867641582107840e-01,-1.424395974392448583e+00,2.757564735428269742e+00,-1.767191791892225583e-01
9.981930548972665074e-01,-1.785164818508692131e+00,-1.279115740447100746e+00,7.016119241677170049e-01,-2.628289400020885846e+00,-3.195262882717311737e+00,3.419029442933621876e+00,-2.741696477509314889e+00,1.119398928984068897e+00,-4.442681320043277982e-01,2.296067318617912356e+00,7.026382832151688573e-01,1.507963711466983936e+00,-2.699503496043495154e+00,-1.700757827922946497e+00,-1.603939761011302201e+00,8.433978217130327915e-01,-1.801657607290322982e+00,-7.532634398399924436e-01,-5.398732492768567592e-01,2.367438706640135226e+00,2.420163963225736570e-01,-1.716611187493319424e+00,-1.829507641806543683e+00,2.261863627152402301e-01,-2.103210025340472578e-01,-1.983020993554065026e+00,-2.620145191782010663e+00,2.434089435614062769e+00,1.712089625860250042e+00,-7.689959953558872519e-01,-3.986210421885633348e+00,-1.644742553432998022e+00,3.600757807115790299e-01,-2.259475277950164784e+00,2.372853871725848496e+00,1.578459496680281404e+00,2.302243443366223552e+00,9.369121995532337932e-01,-3.958705480073565486e+00,-1.635179666610457438e+00,2.279028046209668368e+00,3.626059721382463685e+00,4.221509721233299040e+00,-1.779326603881398183e+00,-1.410843776687913165e+00,-1.104035485086059420e+00,-3.678814235345484462e+00
1.335181367001128994e+00,1.395708335388970767e+00,-1.214359056307575124e-01,1.912388160035330742e+00,-2.422496345506165216e+00,2.681973490805471094e+00,1.837604805665236540e+00,4.164819380534384941e+00,5.490959944976552265e-01,4.542468064346801837e-01,-2.822077006906837382e-01,-2.277870556041451167e+00,-3.019796976451085690e+00,6.299308437600994494e-03,-1.458562361395276064e+00,-2.463148114398253430e+00,-1.922154921508160141e+00,2.063573756284650784e+00,2.282662743490029289e+00,1.698019123770331262e+00,1.461580856201064371e+00,-1.343443575556282132e+00,-4.060227042260736718e-01,-1.881762819609298587e+00,-9.454477732087044339e-01,-1.251856152060565996e+00,-2.756698873581514775e+00,-2.455187247980556098e+00,-2.087703647331069945e+00,-4.626497506527450093e-02,2.270274855146279247e+00,1.879004039265242509e+00,-2.201983364971717094e+00,-2.606636409556218670e+00,-2.826635824900823213e+00,2.131570723757586772e-01,-1.167348746865263021e+00,2.951932699131161741e-01,-3.263789242599345997e+00,-6.557442146758609702e-01,3.536761360656039410e-01,-3.908568699375174038e+00,1.286189427933257967e+00,2.880247978229693029e-01,-1.154253396428903233e+00,-2.013961454484925806e+00,-1.489827862325211749e-01,9.466842466283539315e-01
-1.564946088814877179e+00,-3.625938121150919180e+00,-3.501507291868815042e+00,7.224924384854912451e-02,3.712306501683970250e+00,-2.512408715093113809e+00,1.340913978578497145e+00,-1.273673886133446675e+00,2.903477246508999077e+00,-6.912356829282372273e-01,-2.170493073697306041e+00,-2.178265611955898962e+00,1.751421907108049680e+00,-1.656386207696829427e+00,-1.028751423414219657e+00,2.786486815779311232e+00,-1.574073670300018879e+00,-1.628886543326526715e+00,3.517685010564101322e+00,6.186616081639635389e-01,-7.702664311446741907e-01,-1.140498266537944394e+00,1.019877248084218646e+00,-2.745598838838984257e+00,-4.037454416044431227e+00,3.250884266125223299e+00,-5.445608753079553971e-02,1.736161136311395570e+00,8.975760041747632423e-01,-7.633094086639864440e-01,1.624171335707367825e-01,2.414592679891938598e+00,-3.491537290264961069e+00,-6.910190178107001868e-01,-2.433653916704070941e+00,-3.107948932704990841e-01,-2.072498377277531389e+00,-9.218745194613758853e-01,6.331549529054493197e-01,-9.635169284610993756e-01,-1.036758218005737753e+00,-6.466296455858721280e-03,-2.667518120655724689e-01,-2.358568203673755193e+00,-1.915133730675151691e+00,1.662936392825511422e+00,1.046863430003976303e+00,1.882343999468725215e+00
1.548929384440941304e-01,2.568610766919078969e+00,-4.620177241352106945e-01,1.352504625255853687e+00,1.172088805533360034e+00,-3.602977196134642845e+00,1.587160343025291853e+00,-1.216314489334596877e-01,-1.352555033622064862e+00,-1.141935504751421915e+00,-1.823986490586096521e+00,1.668522844918471915e+00,-1.450420144355657470e+00,3.690563286163477952e-01,1.956900986747237003e-01,-3.192072443343752841e+00,-2.848640278304503504e+00,1.880786804325402128e+00,-3.479171731774428178e+00,2.698275166749338982e+00,-3.314345606399633937e+00,1.711728675736208238e+00,-1.099104646795926010e+00,-4.851350673170827521e-02,-7.255966415701031735e-01,-1.663473239396524361e+00,-9.728832069046268183e-01,-1.226571487701331842e+00,1.722869705842517085e+00,-3.213612675299091226e-01,-1.811308368925757639e+00,4.560357923575399930e-01,7.668379077003839583e-02,-2.840696177203336337e+00,-2.571955710569389986e+00,1.552434630379839753e-01,-4.370259499056846075e-01,2.130547312209334798e+00,1.746585724226011438e+00,1.945913945053285854e+00,-4.738798994481881466e-01,4.588271323519149125e-01,1.477556801482045268e+00,-2.607165460681687197e+00,-6.201773669911158082e-01,6.674086838936896804e-01,-3.101810752147255434e-01,1.454277872483744183e+00
3.227588249018663591e-01,2.390006556135015892e+00,-3.227805846392150513e-01,-9.682602938943325466e-01,-1.651555300411057470e+00,-4.519310349876198174e+00,1.370884101295808177e+00,-2.575448436922412210e+00,1.667481423723068623e+00,-9.450753835398130187e-01,-3.128363097722491215e+00,2.775330256737107426e-01,-3.702475598878892882e+00,-2.170715510250967872e-01,2.302607522945906204e+00,2.296514532044628965e+00,1.788880524754787427e+00,2.002082609155565684e+00,1.026700614426740987e+00,-9.727921881887349187e-01,3.947538144544860406e-01,-2.327313624191241104e+00,-1.718294658280347775e+00,-2.863317963060504567e+00,1.300611853314287192e+00,1.451691263429081058e+00,-3.108570308775309599e+00,-2.324134000581375148e-01,5.723118264572027991e-01,-5.329157531599109099e-01,2.634030950451422548e+00,-2.582129413596396805e+00,1.776620205896592752e+00,-2.644123913242551360e+00,-2.446631852711027566e+00,-2.019495349881451407e+00,-3.195007947127485703e+00,-3.392224100362795092e+00,-6.424017847437264450e-01,-2.522127184776129294e+00,2.014227758649917543e+00,-1.171713077833814509e+00,-3.024794699393567043e+00,1.508022048628521850e+00,5.290603630300970417e-02,3.758480206162300608e+00,-1.623925919333102819e+00,-1.032151135266783148e+00
-1.808808313236021315e+00,-3.201206237371096552e+00,1.159386201467397015e+00,1.475216489010168441e+00,1.587934522819998362e+00,-2.728375389797446537e+00,3.086541029737585262e+00,-2.253222999327817888e+00,9.402647451214460883e-01,2.595509368907707337e+00,-2.966050902518817534e+00,2.172613664326263072e-01,-2.151167325865590563e+00,1.040886592432040514e+00,1.685060224241282933e-01,-7.745087911044186146e-01,-3.438050518768976715e+00,-4.887840361592116906e-02,1.380820599265406567e+00,-8.457838956687789844e-01,6.861904529564975472e-03,2.804719538223738429e+00,2.148951725879925667e-01,-7.473437621890256788e-02,3.067432596538505751e-01,-2.255370058837202318e+00,2.214697833526520221e-01,-1.519841514741228528e+00,-4.083901148940230819e+00,4.305110484175247443e-01,-2.804489846122530494e+00,1.787868310322804355e+00,-1.191750571461127173e+00,2.783665124247599820e+00,2.256969307225557664e+00,-3.449321577098774405e+00,-5.966929604286748123e-01,-9.160693457283680674e-01,1.390929214369761358e+00,-1.617958685617252756e+00,-4.345230572058330409e+00,-2.443454711108669297e+00,-2.324126065783504558e+00,2.698207501981039425e+00,3.807954537830364750e+00,-1.285539658771954086e+00,-3.562218737059573037e+00,-1.668680179957602983e+00
1.060092762150127044e+00,-1.928899982794172185e+00,2.081212446443982067e+00,1.745447895344918399e+00,-1.745418467857412059e+00,-2.344938117637957453e-01,-2.224775315032109457e+00,5.871758264405871341e-02,-1.344131508058598712e+00,2.532107229974838614e+00,-1.885287806463460392e+00,-1.062545013637539837e+00,-5.711440877004975158e-01,-2.975679914865767994e+00,2.106982877153681599e+00,-1.691807028817169933e-01,1.748188912160178354e+00,-1.216101179049684733e+00,-3.091024356130137374e+00,2.631486387581920106e+00,1.575799867423954281e-01,1.471905696695164023e+00,3.046764120928949104e+00,-9.210851700070464831e-01,-1.523834842734165695e+00,-2.490004959320152089e+00,-1.992297398020940635e+00,2.883122683550960907e+00,-1.673181212510931992e+00,-1.913551318709270976e+00,-2.843616688843155771e+00,2.415187507763605801e+00,1.559715275685690461e+00,1.309172170150392445e+00,-2.810636347847289773e+00,1.701215719697358186e-01,1.515708742407258836e+00,-2.574351602682678486e+00,-3.742204698442289645e-01,-3.847569550010491390e+00,-9.894289971581368137e-01,-5.556674888255229705e-01,1.377158673910889419e+00,-2.176469239869522621e-01,-1.965573495220526823e+00,2.997386543780360846e+00,-4.481650421616110158e-01,-2.878673586019599551e+00
-1.430836604004490198e+00,2.138016233412523004e+00,2.308894371157167669e+00,-4.453547276889865403e-01,-2.965464085357362833e+00,4.884016703969832340e-01,-3.933966536026734656e-02,-1.773526137398725888e+00,-3.264093572379998420e+00,6.807976762211595534e-02,-4.411310055394587759e-01,-2.651217153990254705e+00,-2.547693168126218488e+00,2.349082050386457343e+00,-2.132738058636484135e-01,1.046339369489245330e+00,-6.862824640143304344e-02,-2.205067421828990071e+00,1.954026161566162045e+00,-1.219569771116434609e+00,-3.623371792421197224e-01,4.566816314370600316e-01,-9.376691893716495585e-01,-2.421435473955869000e+00,-4.412708211881809506e-01,2.019947999017308871e-01,7.715122741117785843e-01,2.017668299122719944e+00,-2.171358161953608423e+00,-2.795545632590630269e+00,-1.485909744961039225e+00,6.741865297517847244e-01,-1.495265012249320291e+00,-2.174739294599861150e+00,-6.845070407871904905e-01,2.975219433531302915e+00,5.067521237356505948e-01,1.872587100189287312e+00,2.043343845387136426e+00,-3.581348660433461006e-01,-1.321055082717454532e+00,3.368732109051853829e+00,-5.048170219920364854e-01,2.002878482496771806e+00,-1.502149802748909968e+00,-2.147033257641467241e+00,-1.756507903908509860e+00,1.724402996720901360e+00
-1.146953078205380061e+00,1.678951547905644937e-01,-3.828913924370702659e+00,3.178225777173495636e-01,-1.971351473249430830e+00,-1.841154373063635941e+00,2.732829505004438442e+00,-1.168279541665270815e-01,2.865801080034176884e+00,1.465393286873778678e+00,1.135669715654684442e+00,-7.973218408777467126e-01,3.475132341623969889e+00,-9.135838501752211460e-01,2.950884224215691631e+00,-8.962568756709676787e-01,-1.419562963345160522e+00,-4.011187815727446981e+00,-2.167480437798968929e+00,-1.733746402578844492e+00,-1.352945794587219197e+00,-1.969582394895453392e+00,-2.008823224471438795e+00,-2.421756689951557462e+00,-2.276288826672988819e+00,-2.953263586920928052e+00,4.547468003793605718e+00,-2.039428997894233042e+00,-2.278199666469877815e+00,-2.456962411429048476e+00,3.224061342433835353e+00,1.421464198161612513e+00,1.155441210393389345e-01,-2.299983666996833875e+00,-5.608499680794604147e-01,1.225993861981006017e+00,2.659931611505516713e+00,-1.820884270116060577e+00,-1.836548344283874590e+00,-3.633294031134561397e+00,1.124494634431403517e+00,2.257461215304881197e+00,-2.292750215574099304e+00,-1.673336341152744433e+00,1.451134640874776283e+00,1.764137842951279733e+00,-3.705860511043425731e+00,4.370573793199009072e-01
-3.626232891966311378e+00,6.119836319930763713e-01,-3.488239016938529335e+00,1.628666962652392192e+00,-1.344118166282391780e+00,-2.287151949266417184e+00,-8.019350605789494768e-01,1.986121737871103132e+00,-2.425800029884207287e+00,2.084538939424926962e+00,1.481583553764547756e-01,-1.499443821184787584e+00,1.925536696841155249e-01,-3.922974452223413788e+00,2.035251461444900212e+00,2.006011201305260006e+00,1.264325586774265542e+00,-1.610126590729621832e+00,9.921296107536177189e-01,2.086408131757594653e+00,1.628837697509380344e+00,3.664146500944618495e-02,9.653165255147140300e-01,-3.474769010868839381e+00,2.348562043393277232e+00,-2.586105404707343514e+00,-3.502119773977291128e+00,-1.795334053494370030e+00,1.490212306061824199e+00,-2.914664107563497364e+00,-2.665588520981073462e+00,-2.083690817738645951e+00,-9.471090763406543322e-01,-1.535758779393592288e+00,2.196336461477768953e+00,-2.686633218598102335e+00,-2.546751600563804008e+00,1.460674070912097999e+00,1.795254714781422845e+00,-1.173732590228494743e+00,3.005880665151704711e+00,-4.930208255295757125e-01,-1.790811135043260727e+00,-2.386538130016830461e+00,2.820711117923154099e+00,-3.901322200364246040e+00,3.056049117707056784e+00,-2.113681654734877735e-01
-4.056044820298680520e+00,2.417903806852391035e+00,-1.350447698438463906e+00,-1.485383024901446025e-01,-1.767320125304540079e+00,-1.713271692747849739e+00,2.862881270292175540e+00,2.439974546158019564e+00,-2.224332391801019604e+00,-2.490736124738483159e+00,1.859640911318969136e+00,-1.792139729346867494e+00,-1.703056814099840999e+00,1.007786294253089743e+00,-3.052887126290487085e+00,3.613121064573788122e+00,-1.494663465962734916e+00,3.220202324947773587e+00,-2.586073662651748428e+00,-3.059383773114833893e+00,2.238033329139991423e+00,-5.093038864378691272e-02,6.034018030540035937e-01,-9.330728190048031001e-01,-1.003613687281606381e+00,-2.899896642151076787e+00,1.050153545001987626e-01,2.560633456016127019e-01,1.143011962119848235e+00,-1.921382654251384992e+00,-1.568292423948413505e+00,1.048616809156368568e+00,-3.374348358024465533e+00,-1.114369092705440156e+00,2.409296566727716360e-01,-1.919695174567432883e+00,3.718623682539128339e+00,-1.952339948616540255e+00,-2.876243827564217703e+00,1.738108154117006532e-01,-2.713881805940146386e+00,-1.089977810909180223e+00,-9.174305512003720908e-01,-1.633735150478680787e+00,2.921522222218042142e+00,3.364194994202321265e+00,-1.257181745283283636e+00,-4.346380413072524540e+00
1.737132522090049980e+00,2.048631176422930800e+00,1.444660601356647922e-01,9.764531782326584253e-01,-1.006036628932579086e-01,-1.788414671023145219e+00,-1.713614459474323892e+00,-2.244303703874355627e+00,1.161734411740790840e+00,-5.114850293371042689e-01,-2.648415264530301627e+00,-2.759044416353928053e+00,1.519107105437512262e+00,2.847545423184445479e+00,-4.565140746912903502e+00,2.445452327091033329e+00,-3.887287824036752770e+00,-3.016391814694832973e+00,-3.346439106077228498e+00,1.448413332306894841e+00,4.230906750206446798e-01,-3.233192667668529197e+00,2.908176730989251002e+00,1.959064788043682226e+00,2.251698590078810902e+00,-2.680591392906960024e+00,-1.763325806124214745e+00,-1.871159022223968904e+00,-2.767251735031905913e+00,-1.227442327542503264e+00,4.805564239434081952e-01,-2.756126373371475147e+00,-2.702695107601812197e+00,1.544484491945186111e+00,-1.935537556086450284e+00,1.808415206289156307e+00,-1.112036564320006971e+00,-1.828210426176857695e+00,-4.033581079066050346e-01,1.940442195514902712e+00,-2.462804092521909904e+00,1.271047626230647154e+00,-1.732294802871504391e+00,-1.132397631599764809e+00,2.229863687754670476e+00,-4.307173737216332676e-01,1.789109482160154529e+00,-1.483350865704674115e+00
2.643061993200536364e+00,-4.336904013034701966e-01,-2.084219178720348786e+00,-9.706323805532646176e-01,-3.449922664884946144e+00,9.198891680310186114e-01,-1.229772361672621717e+00,-1.180975099997510158e+00,-3.078716753300587250e+00,-1.931776988575782728e+00,1.690402374742178804e+00,-3.676336837208903585e+00,1.445657263225551104e+00,-1.990530259320303363e+00,-4.184554475302467935e+00,-1.050590899534652900e+00,-2.921912169333971132e+00,3.576610764361483508e+00,8.167438790276327909e-01,7.602834678477142782e-01,-5.856619448160657049e-01,2.165963591341146355e+00,2.708008210577450559e+00,-5.173308174025775585e+00,-9.262591657178631532e-01,2.249965875131553883e+00,-2.199799733448749794e+00,1.917140898134701343e+00,5.515663213739209481e-02,2.379088185177899550e+00,-2.237509852057890214e+00,-3.321627052877290431e+00,2.247890694483232199e+00,1.540472539047788247e+00,-2.305888029800098327e+00,-1.298446251409311136e+00,-3.867547303242007128e+00,-1.910802291371675787e+00,2.183115256631013246e+00,-3.332624997452626192e-01,-1.830341969417360826e+00,-1.237382509866041813e+00,-2.347253622706721554e+00,1.734453307759948049e-01,1.484792126052061789e+00,-1.143006256947624255e+00,-1.621689724437232583e+00,2.616629068297803506e+00
-5.674437115520923891e-01,-2.871163594665636865e+00,-2.041874035152419609e+00,2.554051121878424091e+00,-2.840248817292038819e+00,9.559737958161460547e-01,1.649379308213171358e+00,-2.137070996322233629e+00,2.483686337864193572e+00,-2.213815344978159683e+00,7.309263972647603858e-01,7.818916619268901913e-01,-6.610709731562071090e-01,-8.220047243701346096e-01,-1.047439680470822809e+00,-5.225499303488070346e-01,9.798498623863404200e-01,2.466430112356782001e+00,-1.980070910154395625e+00,-2.823708987863028153e+00,6.705465593254342771e-01,7.217026795042406073e-01,-3.142340533654361501e+00,8.517061601992337305e-01,-1.402977620706335360e+00,-1.740695150047425921e+00,-2.005860174769554582e+00,2.267994968181527238e+00,-3.237758946088824530e+00,-1.991581907488621850e+00,-2.507078845232189046e+00,1.339943741114081543e+00,-1.056252482447970653e+00,2.758802909277755067e+00,-2.326987981106137138e+00,-2.980210889021733145e+00,-2.097916661546572303e+00,3.083988177477611226e-01,-1.830227438737088264e+00,1.973626931053151345e+00,2.574410134677880713e+00,3.000049162006023007e+00,-5.174768126011484171e-01,-6.326648045624848615e-01,-5.195304361305504992e-01,2.337268655476065493e-01,1.361334125780116810e+00,1.323913535489686044e+00
-1.713229936019366351e+00,2.673286799257181379e+00,1.440757403365350520e+00,-1.119536149095570199e+00,-3.828986502013242088e+00,1.321851474617629751e+00,-1.139928541081076219e+00,-1.362628782687387075e+00,1.481118982714728638e+00,-5.131557243473218177e-01,1.768508791143724945e+00,1.323042326690857085e+00,-1.851910393295654211e+00,-1.349813900046558324e+00,-1.604855481689010155e+00,-2.378758965428922068e+00,-1.467314795302431030e+00,-9.998045210399690852e-01,-2.603246107543511823e+00,-1.285860854505246564e+00,-2.984802513734897467e+00,3.686658920014688756e-01,2.480702514060103336e+00,-2.817344802900451306e+00,5.813934380645670030e-01,1.047542507081809626e+00,-6.704116213431617066e-02,-6.997378716323667813e-01,1.114475666358383021e+00,-7.251706635709620485e-01,1.608728454512812656e+00,1.431031149985843465e+00,-3.284605303910128615e+00,1.341980368738524554e+00,1.695505250464648617e+00,-2.690661800045386798e+00,-1.361341418444236284e+00,-1.694422599682415154e+00,1.234123826318571648e+00,-1.690305156439135148e+00,6.790965499899986879e-02,4.164810932484120376e-01,-4.822920994333347866e-01,7.442730954187524173e-01,-2.424770994869896779e+00,1.316400979887738965e+00,2.433593634094479707e+00,-1.336067772578841684e+00
-4.123370393663777778e-01,-2.005738811548619882e+00,-3.358523427426009622e+00,-1.694507782601483922e-02,8.973133758382471070e-01,-2.083873008535966687e+00,-3.274275835843706961e+00,-2.106937039735247374e+00,-4.998053139543780499e-01,-1.257197811160197798e+00,1.652660231367312216e+00,-1.069837257753421644e+00,-1.372684136057958249e+00,-1.841059553530685511e+00,1.035730444360942526e+00,1.944977036946147875e+00,1.660340685309195097e+00,-9.275408680134805683e-01,-6.945731265294794454e-01,1.098324371683365719e+00,-3.441188986329045463e+00,-1.406344489743905024e+00,-1.931194789328175343e+00,2.343366177151031238e+00,-1.286021581837758054e+00,-3.005789934123676566e-01,-2.665107591029768130e+00,-1.479830119801887611e-01,-8.463814202826130950e-01,-2.826024825502777560e+00,2.274760187394690991e+00,1.825280320003803469e+00,5.237683583355385863e-01,1.417378791744980104e-01,2.247244971244369172e+00,-1.626108007223991292e+00,3.895410992395646588e+00,3.181268257136785849e+00,-1.689202339197941605e-01,-2.994441316850705581e-01,-1.506611388956256681e+00,-1.029804511190205440e+00,-1.521557617853209199e-01,2.311209633585605161e+00,-1.365319768139278800e+00,2.437984768097057664e+00,-2.744483499733347820e+00,2.585058579664490930e-01
-8.329612787987782097e-02,1.131741655722350304e-01,-1.707944440364087269e-01,1.038365038711159677e-01,1.208657289229453785e-01,1.757918736546296157e-01,-3.829179095813905337e-02,-1.117396727892650266e-01,8.875852280618498624e-02,-7.817464474724808432e-02,4.918847714681442128e-03,-3.549335489288605455e-02,-1.008547124338452367e-01,3.588883135652813638e-02,-1.556321107592721353e-01,6.621060804088357843e-02,-1.081061821673560408e-01,-1.936134504734761674e-01,-5.602184201743208580e-03,4.825813181380169542e-02,6.450324887912296801e-02,9.149472858850489498e-02,-2.631449964148769860e-01,-1.123785637412230698e-01,1.192408902325534960e-02,1.698297295991181843e-01,8.762529824239226328e-02,2.125762802137677043e-01,-5.869001168526061935e-02,3.068075278159051664e-02,-1.229804749495155419e-01,-4.520795249660939513e-02,-8.220856048226318769e-02,-7.088208695980721674e-02,-4.398894903293478625e-02,3.038301963564909590e-04,2.483451391012795727e-03,6.075994167565244852e-02,1.565118645715149470e-02,-3.846547067347125259e-02,-5.842605712240648425e-02,-3.433837021606300083e-02,-5.020387863488016272e-02,5.489223271858534314e-02,9.676865812897048058e-02,1.424425096605995700e-01,-8.918587985329845536e-02,5.247741013038971503e-02
3.272532829437137636e+00,2.621185782911087614e+00,1.299810106922522968e+00,-2.862031821492402983e+00,-2.125988557161321957e+00,-3.286905590301092417e+00,1.148080953362341436e-02,2.494132506217646483e+00,-1.690404207134739156e+00,-7.370234139135602991e-01,1.680660585697635101e+00,8.484191926909383508e-01,1.762948045442930489e+00,-6.078888026058760358e-02,-4.380133445280923882e-02,-7.190883447745780588e-01,-2.250247988929133580e+00,-1.922418920478203841e+00,9.427920265848107606e-01,-1.469720486380218238e+00,9.854897428350064548e-01,9.524003463153282167e-01,-2.265241325128734218e+00,2.067338196335366973e+00,1.646463285669873544e-01,2.716301030677268358e+00,-2.887837470079458235e+00,-1.773856297730508569e+00,-2.471980606805692648e+00,-1.170820767862896572e+00,-2.084945285030391560e+00,3.265876959480681130e+00,1.513256572981542147e+00,8.159949430801229919e-01,-2.269043614487308069e+00,-1.857591496880528492e+00,1.883011767865518271e+00,-1.702862715582954767e+00,1.532110457386733682e+00,6.451348778340767476e-01,-3.035003087375529041e-01,-1.056131815015031838e+00,-1.836753324877975269e+00,-2.021451519390269347e+00,-9.796430249206763419e-01,4.468676542527835194e-01,-1.047498236788246162e+00,-1.862324197949207116e+00
-7.725836380296643990e-02,-2.465829949282064559e-01,5.007335070063793220e-02,-8.449550371957981199e-02,1.482186557680910399e-01,-3.823478100008750880e-02,-6.052584200017589733e-02,1.023246472153435324e-02,1.177781444068986411e-01,-6.299089168882643364e-02,1.134511232485408971e-01,1.610308424777929237e-01,1.107214562147673664e-01,1.818405687302512008e-01,1.445222186914250917e-01,1.693689893527787760e-01,1.793691354152707196e-01,2.326288061495028481e-02,-4.798869085054891653e-02,-2.529265275035694205e-01,-1.478860585670544736e-01,-5.011954060314762621e-02,-4.267928022333590532e-02,-1.708294033763347111e-02,-1.118884242696110282e-01,-1.784133608077512201e-01,-1.455939262324354617e-02,-2.117756824901898677e-02,-9.028728662050949927e-02,-8.297513415493361355e-02,-1.051127024460613846e-01,-4.433270175664360407e-02,-9.573756652433118575e-02,1.408583442223564908e-01,2.694425376040962897e-02,-1.087084480224180388e-01,-3.135501517501165791e-02,-1.319599424332909832e-01,1.131638556340449075e-01,1.547567804857746532e-01,1.399780770700148613e-01,-1.279805268400773799e-01,-1.020396301057717968e-02,-4.489696641086950851e-02,6.283497545349496505e-02,-1.126877417665618358e-01,-7.556698866068799203e-02,-4.619906824275503421e-02
-2.073925946084639982e+00,4.943278367847744881e-02,-3.920354728334207284e+00,3.776743447040726287e-01,-2.679818535093859033e+00,1.560025689071169230e+00,-2.687392565632038988e+00,6.181262275258613270e-01,-2.464860244204137185e+00,-2.034819731653339847e+00,-3.648193472791000591e+00,2.499843753382323897e+00,-3.022309519951722923e+00,3.878295221948305782e-01,-8.625796599965984690e-01,-2.381981727183732467e+00,1.729222826036979077e+00,2.892679616447560331e+00,-1.750622230993711170e+00,6.461937876319483465e-01,1.506055141324449176e+00,3.616736111307651491e+00,-4.261557251698238069e-01,2.967112444444576891e+00,3.653739870086442743e+00,4.732583263391547113e-01,7.279924120548061373e-01,-2.326597123833788583e+00,-1.329524116709408954e+00,2.187471128290379152e+00,-2.862339907819261509e+00,-3.294394400922173283e+00,1.159510738252597095e+00,1.933770365630194332e+00,-1.071740186314745547e+00,-1.952411724675836346e+00,1.581231830761889556e+00,-4.494475484391410314e-01,-2.137976869348851228e+00,-4.903382221559932086e-02,-4.749519560474057656e+00,1.684217576420549589e+00,-1.943831875463743142e+00,1.509552811973240427e+00,-4.162572779853811689e+00,3.557213448814262047e-01,-1.473320455721606637e+00,-1.873146442559829206e+00
-2.456832327836654173e+00,-2.596870653599305800e+00,1.019778759601561502e+00,3.334598812786297439e-01,7.425063962472546741e-01,2.306977386670800545e+00,1.831239548045338505e+00,3.418575098450999938e+00,1.319157267253439514e+00,-1.558097005124388534e+00,5.778300247099388276e-01,-6.709173161388539697e-01,1.314483522897442469e-01,2.982063789949747079e-01,-4.243591346763485816e+00,-1.952549667958796586e+00,4.301546616666992451e-01,-2.789659851460954521e+00,1.166785607793004553e+00,1.874043630296173157e+00,1.144541245119745865e+00,-2.650454165480836011e+00,-9.079764635458649202e-01,-2.678466162806613093e-01,5.024496557743194369e-01,-1.643572360759422424e-01,-2.000424521638352715e+00,-1.224002863068230251e+00,-5.802219350717622293e-01,-1.960076407572770352e+00,-1.149759925701694385e+00,-3.154647410126355300e+00,1.158651146087344541e+00,1.341622316470311160e+00,2.316450092888608037e+00,-8.785039722517234972e-01,-3.203756457121702095e+00,-6.334570536086149284e-01,2.200387307921162883e+00,-8.640627346031916067e-01,-2.713127894211226465e+00,1.414373595606615241e+00,1.051164421790518749e-01,-3.094376083295467872e+00,-3.982558953466793117e+00,8.466885639505250527e-02,-3.558412521906492820e+00,1.564220685348383100e+00
-1.164089781884636743e+00,-1.933166663849398947e+00,7.491544572413361136e-01,-7.766102725669337126e-01,9.179438464326967750e-01,1.835839540056578345e+00,1.300673338364085607e+00,-2.304866777368060671e+00,1.639636120385057128e+00,2.561850307783038350e+00,-1.702626261288978371e-01,-1.198882945463754846e+00,-2.449410589759106749e+00,-2.217964903674169097e+00,-1.640384283901505258e+00,-2.748004270427497620e+00,-1.450854789874334472e+00,2.770540959108064860e-01,1.579611940506824519e+00,-9.294820943736836760e-01,-2.208222273049771089e-01,2.129675462235498529e+00,2.037337383016996295e+00,1.900255873805245743e+00,6.169844208531136687e-01,1.308005746044075046e+00,-1.985548405336965638e+00,8.293924299216219598e-02,3.093632936548392776e-01,-1.551492799804766953e+00,2.025536325674178517e+00,-3.791489014308289107e-01,1.529142248895648537e+00,-4.186387879323020478e+00,-3.335837145768058565e-01,-9.745474969656552355e-01,1.307270859182680711e+00,1.440530671160972442e+00,-2.060273957360329700e+00,5.753939081746404227e-01,6.052060198448678818e-01,3.310792036535838090e+00,-2.943744995044681012e+00,-2.858813041298136515e+00,2.327904758341348412e-01,-1.229687377883881272e+00,-1.638676320301730716e+00,-2.788895231880191172e+00
-1.887412895570657501e+00,3.171849546150337762e+00,-2.462459120076122776e+00,-4.170575155377733267e+00,3.816949917368164247e+00,2.252542472539097673e+00,-4.187807771509408084e-01,-3.223140520988141855e+00,4.963499604261186748e-01,2.483566913738939341e+00,2.906854491210978608e+00,-3.802575828436545180e+00,2.484217750362995414e+00,-4.535287118594907851e-01,1.152377680550878303e+00,-3.090926637331042670e+00,-1.706458493216128858e+00,1.948509020393520252e+00,-4.230232457003024749e+00,6.114307956765162588e-01,2.426993614398222032e+00,-1.355233046646904915e+00,-6.398578714949524349e-01,-1.079148395950704220e+00,-6.873775759114552075e-01,-4.245124124535684662e-01,-1.860359459237812541e+00,-1.044571387399613860e+00,-1.323382787707129582e+00,1.007726082598224160e+00,-2.917740604841159602e+00,3.383893686107164900e+00,-1.888560790432627146e+00,-3.657601414093250569e-01,7.039981474674910089e-01,5.115538176814035110e-01,-3.072092413210645745e+00,2.286786021295245774e+00,-2.033539223662538031e+00,4.947348795981643121e-01,-8.352757499182577039e-01,-1.026456644267919938e+00,-9.392917111884337977e-01,2.020025507484717320e+00,-2.517412097549343475e+00,-2.240321506286373054e+00,-2.631911748589203182e+00,1.198438987427735247e+00
-2.333256493674276122e+00,-2.763400936585393985e-01,7.311046908648020926e-02,-1.082266861198905472e+00,-2.324878756145921876e+00,-3.311296834532499123e+00,-1.559508836410198329e+00,-2.552302159825555083e+00,3.260281791402992457e+00,-8.112039888855451242e-01,2.911899165304696613e+00,1.719743628905200383e+00,-1.020105345027023214e+00,2.594273547051931583e+00,1.901017912141454547e+00,-2.170637520119945041e+00,7.087916427587710455e-01,-2.242240861639857474e+00,2.687427624248862390e+00,-1.461792906054862617e-01,-1.138031417898137665e+00,-3.800408961705044053e+00,2.577129442725944575e+00,-4.354499549821351678e+00,4.011737813610707915e-01,-1.963358009799589743e+00,-7.757107079208461764e-01,1.522952770663286604e+00,-6.669545207358453798e-01,1.609775819742355951e+00,-1.147667563822528658e+00,-5.789534187461076176e-01,2.446192622571996989e+00,1.778753370906235087e+00,-1.509295618025564778e+00,3.433759424243190139e+00,-1.047677101004514499e+00,2.776295874674970410e+00,-2.583353106875710736e+00,2.366672473998322701e+00,-7.915175158276372969e-01,-1.899664023242801258e+00,-2.793046453466402124e+00,-2.882568293344535792e+00,-1.892858980578258077e+00,-1.841968865548626599e+00,5.644918900942086371e-01,-2.777791452904879943e+00
6.348940115357160074e-01,7.502481681430914762e-01,8.061728589315284577e-01,2.190085129933686314e+00,-3.018516260585586863e+00,-3.243157051618820841e+00,6.020576166262490148e-01,-5.903409011902752690e-01,-2.833626748319209909e+00,3.770373214804741413e-01,-3.954462405851898232e+00,8.721988877678714669e-01,1.667360522487130403e+00,-7.580284977341279484e-01,-1.114084152167741593e+00,5.386318293093393939e-01,-2.735814590678850688e+00,-1.061369365057103664e+00,1.319513047280405083e-01,-3.426165116381005848e+00,1.653135347054255577e+00,-2.678789969178824393e+00,-1.041320494043379341e+00,2.547867917199575949e+00,-1.138408819678240258e+00,-2.380537408992544179e+00,-1.970448573714929541e+00,1.559551875505246654e+00,3.468989423110991233e+00,2.789879057165499443e+00,1.227474858901434374e+00,2.989739402540690261e+00,1.017276623513879930e+00,1.822807948385921861e+00,1.673506346266092182e+00,-6.889715119137500565e-01,7.964496766543790462e-01,6.797119183731563374e-02,-1.748448886335137287e+00,-3.926224610346966681e+00,-1.440082191420029023e+00,-7.785199458724406663e-01,-1.759249326643500311e+00,-1.910217029744144979e+00,-3.900394187415731739e+00,1.200229251185782331e-01,6.022263547611506063e-02,2.617567628903799459e+00
2.815935083271634110e+00,-3.273700236299228461e+00,-3.123663419941932862e+00,1.722784491058110268e+00,-5.004896438894141930e-01,-1.796215102728917490e+00,-4.678977659316251092e+00,-2.186512064426161306e+00,-2.353177288428366154e+00,3.117612785696798339e-01,-1.752867671472166711e+00,4.181874243136300962e+00,1.864197519377368328e+00,8.181670314145194078e-01,-1.791247760845463555e-01,4.174227434740706566e-01,-3.487733407401513830e+00,3.090262250076039940e+00,-1.869075933910565590e+00,-3.950722474642433646e+00,-1.643264336141017079e+00,-1.127532047505533930e+00,2.352883899207201424e+00,-2.283830874325222915e+00,2.838338380672832173e+00,1.550346620703902056e+00,-6.242688195307377619e-01,-2.325112058273805626e+00,-2.983969731684070759e-01,-3.175543243281612416e+00,-3.275444824633584329e+00,3.645890994017568332e+00,-1.855215129456891709e+00,-1.490790397708956494e+00,-6.719976254355266576e-01,-2.244801029035509432e-01,7.793530739189330481e-01,2.760200299946944824e+00,-1.663141266754453396e+00,-3.744329582684915003e+00,3.336751058796950109e-01,1.665712611004925625e+00,-4.930115817687933943e-01,6.087897955009762274e-01,1.364773033138469760e+00,-2.340446220206691130e+00,9.738710623705093550e-01,-2.555064118635542059e+00
1.754644353956271052e+00,-1.912650923107043655e+00,5.128998177646116874e-01,-2.214996715850087838e+00,2.737016346651740761e+00,-2.921394416895279483e-02,-3.231702667038080179e+00,7.678609084972222165e-01,-3.543317643716557885e+00,-1.866380695737317463e+00,7.619901106466084534e-04,-2.232323664902533977e+00,-2.922977464701507877e+00,2.269905294047756428e+00,-1.113898517552114109e+00,-4.284246225934961738e-01,-2.804080388624169640e+00,-5.268435988032466044e-01,-6.183876816265635457e-01,3.571870772480593370e+00,1.065840900601867508e-01,-2.081983227325525654e+00,-1.698774032420010016e+00,-3.099248769909825896e+00,2.847613079032887740e+00,-3.199565144337986666e+00,-4.049474804351191337e-01,-2.590634957509438063e+00,2.237663580272696517e+00,3.311105904353431661e+00,-3.601995272812438809e-01,9.000606854831318948e-01,-1.283325903452859462e+00,-2.205388378387198589e+00,1.636220846937684215e+00,7.807646979976118340e-01,4.019157030010195975e+00,-2.471655336867869757e+00,2.742872140876960074e+00,-3.613855515997812073e+00,7.681051843277717506e-01,-1.261062441934373668e+00,-3.174257192541548367e+00,2.156897559229470351e-01,-1.432194595842965490e-01,1.892896518681515816e-01,-3.243080854987806738e+00,4.171294095086972714e-02
2.109312225419673670e+00,-1.120103819540263057e+00,-1.252844040627683897e-01,4.782914143091965831e-01,-3.448939909446582686e+00,-1.218708949417967480e+00,-1.477063981583767172e+00,-2.015047986111345946e+00,2.114978113624591316e+00,-3.923561319511079226e+00,-2.710393845509186939e-01,-1.432915205685793225e+00,-3.061806814690783085e+00,6.289453276178317287e-01,-1.637115964531563161e+00,-1.996514659108673539e+00,1.529089006892434544e+00,-1.566710543993368732e-01,1.755280426740826405e+00,1.806951573758876384e+00,1.494944215916313990e+00,-2.959770897219610175e-01,1.454964995053038335e+00,1.821436427629405497e+00,-2.493736609920701230e+00,-8.156825831889200629e-01,2.173024329163742330e+00,2.344521431262849731e+00,1.918595778392201190e+00,-1.734779164109711003e+00,8.056677409361088227e-01,1.506939104097188009e+00,1.631446940241249033e+00,-2.064814751567500828e+00,-1.500411740464368426e+00,-7.002485651128746991e-01,-3.131601120022693419e+00,-2.816883002617583287e+00,2.790691092138144924e+00,-1.192767289164123001e+00,1.202465856836477887e+00,3.070830618581013582e-01,3.403568760767638146e+00,-3.280911849682098147e+00,2.070866326655291356e+00,-3.477808536224126890e+00,-4.384423373756367592e-01,-2.958424019591478160e+00
-3.244556132750617383e+00,-2.408586392768005346e+00,-1.083351574768072867e+00,1.859648156427328169e+00,2.483628947689540678e-01,-8.209190748449570751e-01,-2.675460422470021360e+00,-2.517180694994975099e+00,-2.967162083422260288e+00,1.400188003635750578e+00,-2.739675589485406793e+00,-1.130965783976713546e+00,1.967175823734046647e+00,1.957608245782104517e-01,-4.004400500608452873e+00,-3.706175350943178071e+00,-3.624498224256786472e+00,-4.915747042744315620e-01,1.216842149459593792e+00,4.034027699675267975e+00,-2.272656505148806794e+00,8.249812999088556031e-01,4.480270422854615298e-01,3.435408066778104175e+00,-7.525957402335916591e-01,-1.206301856500963554e+00,-9.279610552771889731e-01,-2.618389069195568020e+00,-5.666613911122629910e-01,-2.658004473553955638e+00,9.603150734269716438e-01,-3.085857710101664875e+00,9.789254613522579973e-01,-4.987949498712452190e+00,1.254593848273737100e+00,-4.343748221916355234e+00,-8.091289446097792437e-01,-4.560745651331002959e-01,-4.536346423797977256e-01,-1.728516101431675223e+00,1.235010965910655178e+00,-1.386522467962360228e+00,1.507586867015696663e+00,5.492973590384261584e+00,-3.717176309468141482e-01,-2.320647302047645688e+00,3.386488112199736111e+00,4.245900443762894660e+00
-3.110344071964092350e-01,1.920821639663027325e-01,-1.694387442698356283e+00,1.733493451971886756e+00,1.112087944613146639e+00,4.243756438059501646e-01,-8.510995136690386875e-01,-2.101924122753918045e+00,-3.544892426694017828e+00,1.140814404575487551e+00,9.679090530164050632e-01,-3.217135228380264778e+00,-1.402995283276170957e+00,2.015080561961628103e+00,2.503962069852434968e+00,-1.949612517993902783e+00,-1.700685961764770715e+00,-3.632400446691142815e+00,-9.291687801301570238e-01,1.055485341329298166e+00,1.303440398075221607e+00,1.446044284295213700e+00,-3.132178974754692202e+00,-2.770675992983727465e+00,-8.880293096547373644e-01,9.935705647168893151e-01,-7.034681918392082789e-01,2.541588551010108610e+00,1.451142520180638718e+00,-1.427110348519510241e+00,3.578617279507965154e+00,-1.592383609760288588e+00,-2.625956623627743181e+00,3.040093509759428603e+00,-5.706855376906314614e-01,-1.830468326187486561e+00,4.235080741857186748e-01,-8.605737979878856914e-01,-1.946010155945419706e+00,2.803178685243405077e+00,-5.779930077331762311e-02,-2.031080813517635253e+00,2.883526744615086956e-01,-1.478241180565201596e+00,1.305218721427319872e+00,4.407257905857270841e-01,-3.180280529915175403e-01,-3.467685582537459066e+00
-1.635553406347408201e+00,-1.365395216490647989e+00,-3.912993992720417591e+00,-3.565314963508335211e+00,-1.437636447734750522e+00,-1.923492110213256556e-01,4.677247849676734681e+00,2.890226725598850965e+00,2.093665243648917595e+00,2.049178392017579675e+00,-1.601019838776387205e+00,-3.816720599931660018e-01,-4.178474842456973093e+00,6.824660880563249155e-01,1.044230715342669757e+00,4.914017010050474865e-01,-1.083913328747167365e-01,-1.312091794948408996e+00,-1.339660548858711664e+00,2.147944115408433774e+00,-1.017522824562140604e+00,-2.054224902102827155e+00,-2.528167520712313543e+00,4.983750861335681570e+00,-1.394946991495821520e-01,2.417650665764628837e+00,2.134274498341641291e+00,1.161734146203167173e+00,9.257591213560810717e-01,-2.024130966479960048e+00,-3.275605910104880003e+00,2.729984746899200010e-02,-1.651561763923242276e+00,-1.479587443827968141e+00,3.686947606199490746e-02,-5.347571119120606564e-01,9.261917372590362518e-01,-1.131614189781428248e+00,-1.120939746327947573e+00,-1.931539283285930830e+00,1.742758277167131276e+00,-1.750915655477031097e+00,-2.987313135749422699e+00,1.793718003515080150e+00,-3.793177642278749317e+00,-3.487206385681854481e+00,1.556605429232876814e+00,-2.101622450574750278e+00
-3.281650943488573891e+00,4.033839411639174588e-01,1.776872720031802633e+00,2.239675236296711502e-01,-6.997651626990225582e-01,1.636525055969325182e+00,-1.669187549744406862e+00,-2.654446560115947817e-01,-1.434494318646790889e+00,4.883074793863333429e-01,-3.867299156787247227e+00,-3.039893076920484827e+00,1.197023344827051750e+00,-2.115531182218041373e+00,-1.605481223216390640e+00,-8.046013584489233317e-01,2.428060965201342736e+00,1.096135382002136449e+00,1.582398311476507891e+00,-3.666537790230767202e-01,-2.630227414683423692e+00,-2.140948515778886119e+00,-7.191455173341558815e-01,1.669085917996894652e+00,2.131407657358856955e+00,-8.113810753867475301e-01,-1.596611479754534768e+00,-1.105197774144372591e+00,1.193989838088384881e+00,1.511272893965891040e+00,-1.919536752291808535e+00,5.419000194441174756e-01,-2.779299821623839151e+00,2.008197792337477861e+00,-2.424476372826980697e+00,2.187736759485334304e+00,-6.900719699013166952e-01,1.289787984757649442e+00,1.835493284768439093e+00,9.623860680309120896e-01,1.866276077205122341e+00,-2.620080554427180797e+00,-1.001016913461095115e+00,-2.739256990803006220e-01,1.631889846949175826e+00,2.003921225235245629e+00,-1.692602891644595209e+00,-3.143782662281278117e+00
-3.503610474319528656e+00,-1.016154513153362471e+00,-3.454177123192557985e+00,5.610629592373621577e-01,-4.451722479733896121e-01,-1.382059432666629673e-01,2.896313792179507463e+00,-3.168554320872990715e+00,-4.554134992265788107e+00,-7.657684649470622995e-01,1.900335203874375045e+00,2.298841830305348388e+00,-1.579460471651026987e+00,-3.463462352249757070e-01,-3.373335032390955668e+00,-1.880178714243834648e+00,3.364450841122850755e-01,-1.776150434182996340e+00,2.656370126690033584e-01,8.071126066107738861e-01,-3.485232454186562578e-01,-4.409314830778208183e+00,2.277269861630010439e+00,1.369865540690395678e+00,8.688219825245433459e-01,1.505963740950389873e+00,-2.957947141842953265e+00,1.287877657959372701e+00,-2.924855586648040795e+00,1.210346243192658822e+00,-3.153236675149725610e+00,-6.460496949967702296e-01,-1.563710245770278506e+00,-2.921159252029149833e+00,3.819304063586967946e-01,9.682265630704705028e-01,1.987907827817162465e+00,-2.741628579544219235e+00,-2.820612528951727871e+00,-1.645769896401028554e+00,2.108997438210026942e+00,4.334217214940300766e-01,2.593501372662339932e+00,-9.821913448287936665e-01,1.268936195022235758e+00,2.602230280103836169e+00,4.217889008526645722e-01,-4.089037977064857721e-02
-3.792649186555342666e+00,-2.617982828828758546e+00,1.550144147634689329e+00,-2.735615649041666764e+00,-2.516782546301576495e+00,-2.705057022731187644e+00,-3.738490835838758741e+00,-9.558369074485922878e-01,1.698286673918191880e+00,1.032578902388931796e+00,2.994111705860209138e+00,-2.751948113117482553e+00,-9.365187824291021368e-02,5.303547679992952624e-01,2.347335406863199747e+00,-2.180173143626061627e+00,1.324831842011726435e+00,-6.581180666067483198e-01,-4.400729644420919295e-01,-1.084243318498052222e+00,1.254212526355971358e+00,1.229518923246521345e+00,-3.085302638436734135e+00,2.050244433339833972e+00,2.329515048731540361e+00,1.149379841692925508e+00,-1.753546254876260369e+00,-9.108304198424221898e-01,6.684932515540230324e-02,1.164281466692356659e+00,-1.029656657700814382e+00,5.708747378036070907e-01,-2.914507655049941359e+00,-2.804489055517137341e+00,-2.243215658609503116e+00,-4.061248799297610956e-01,-1.372667965619771779e+00,-2.076951949653673246e+00,-1.036438068135563384e+00,-2.079602495041942056e+00,-4.461400818919632805e+00,-1.247075450795732232e+00,2.722298024207622458e+00,-2.525955528865974742e+00,1.386394509057764513e+00,8.878560470998513310e-01,2.327832779746275893e+00,2.675558735301585056e+00
2.228711631497660162e-01,2.464923282762989665e+00,-2.113182830986572114e+00,9.473496089887782912e-01,3.380487690478987672e-01,-1.200187549348505467e+00,-3.644183110869071651e+00,-1.775273949603457524e+00,-2.679749986261165340e+00,1.101568130117235755e+00,3.012755487827489365e+00,4.380512966732503344e+00,1.436918669802473847e+00,-3.486466096697014461e+00,-3.496347036779958728e+00,-2.378370981175324417e+00,-1.617699331810070529e+00,3.395000814806228284e+00,3.538901160152340353e+00,-1.438594480350749993e+00,2.998522522105120380e+00,-2.349633688045674518e+00,-2.948816321818435782e+00,-1.109439531341839036e+00,-8.085933843849034686e-01,-3.323524311335699366e+00,3.454367957978798476e+00,2.565430132282180420e+00,-3.296705841967931594e+00,-2.432030565701611913e+00,-1.109949634445651201e+00,-3.046345437904156128e+00,-3.893343859352444980e+00,-1.898929970567905690e+00,1.152483230644649748e+00,-9.287938718173853747e-01,-1.903686673025367648e+00,-4.017715827055619582e-01,1.340659070397322017e+00,-1.411698418187335102e+00,-3.998447100761486350e+00,-9.590081704694740639e-01,-1.993825827141854079e+00,-2.130539828249685463e+00,-8.243587846115910667e-01,3.273034808865743273e+00,7.969095087450215331e-01,-2.052518780365046425e+00
-4.529670703472150617e-01,1.575665996946452374e+00,-2.853093152027511348e+00,-3.579097209446579164e+00,-4.657021597810826030e+00,-2.596832419491075683e+00,-3.194432488478625043e+00,1.911845155725341749e+00,7.305072128821789301e-02,1.273796565676778902e+00,-1.928763062565954645e+00,-5.229126924536300208e-02,-1.130661435823522520e+00,-2.393261005583859902e+00,-7.724273987164725908e-01,-2.352605693573103895e+00,2.534125243422472806e+00,1.411208264252656441e+00,-1.444312498808327794e+00,-2.862547623300024657e+00,-4.114301523602386518e-02,2.625999699641281993e+00,1.397968368285401830e+00,2.500477481830241544e+00,-3.010841903581743750e+00,-2.330583063157714463e+00,-2.653078989326073334e+00,-1.376774105106397750e+00,1.647241499245858609e+00,-5.349683663507724951e-01,-3.195075694027627922e+00,-4.139302614392733837e+00,-1.417427306350803162e+00,-3.553718990125016575e+00,-1.797402601951889334e-01,-1.689776422640385967e+00,1.139556397472993421e+00,-4.158931379347209578e+00,1.562676638647421345e+00,-2.051927768364186555e+00,9.524219006535981080e-01,-2.918801206497168899e+00,2.744919186319240811e+00,1.944153598919808434e+00,-2.671852868894343036e+00,-5.443008308018721514e-02,-1.959280110014808507e+00,1.537678059021773347e+00
-1.373051764272285591e-01,1.690316797621193023e-01,3.602362341143340585e-02,-1.537066853895219798e-01,9.167354439941907684e-02,1.186720361862007578e-01,-4.863828311987587749e-02,7.353109375527107361e-02,-4.181559634575253703e-01,1.088491947678555116e-01,1.313863670229123981e-01,-1.257455862345131792e-01,3.153810643882035136e-02,-3.780302594216086026e-02,-1.146314443506637158e-02,-4.750307781453707440e-02,-1.489551615001098728e-01,2.113535592503955340e-01,-3.469380769074200538e-02,1.171196999781730537e-02,-1.128544156984966490e-01,-1.159252727955633194e-01,4.612990517587457762e-02,5.885242370177031640e-02,9.815490608500822278e-02,1.234056850686454515e-01,-2.350191749713719316e-02,-4.966341234509614316e-02,8.349632483936901550e-02,-7.126786951968845651e-02,9.746556283952588495e-02,4.187040499334777899e-02,1.291358811768957282e-01,7.495206939073187358e-02,-1.178906270405703227e-01,-9.678078330985219468e-02,8.189434583138215096e-02,2.132153250267134204e-01,-1.478948442191470314e-01,2.595136256906921575e-03,3.149217290292750937e-02,-1.705871117535927295e-01,5.345599968047686640e-02,-1.041144466363240137e-02,-2.344022523366963706e-01,1.813147000189697655e-01,-9.650961282897244087e-02,-1.433882407869644660e-01
-1.935316347788437197e+00,1.287071342728587364e-01,-4.252727565383628949e+00,2.072444494024813011e+00,2.362993543419186437e+00,1.568948008058411281e+00,1.572054384005876937e+00,1.473348981184918083e+00,2.400424775226649210e+00,-3.969297871787732745e+00,1.779102857490150458e-01,-1.679352702606718761e+00,3.133311377107730333e+00,2.215089529996568274e+00,-1.009366293027644135e+00,-3.941977245557640508e+00,-4.222583496250432056e+00,2.722213556500784559e+00,-1.236278473960822799e+00,-4.707703236675126135e+00,1.104382487586585970e-01,-2.035376248120424947e+00,-4.274679653822892611e-01,-1.518431715610770283e+00,-2.252700914284190947e+00,1.630790690479178018e+00,-1.305184484113033561e+00,2.322882463753495941e+00,-3.989900496538108521e-01,-2.238545016519629449e+00,-1.336773024781759522e+00,-2.069381763367517557e+00,1.405094208136268064e+00,-2.435246483010760521e+00,-2.000623730970186642e+00,5.538747008694990814e-01,2.170086086930906877e+00,1.478336687915669412e+00,1.988794083358630171e+00,-1.528003654824499069e-01,-1.282084162420120910e+00,-2.575671976210600622e+00,-3.892751836426869616e+00,3.573171987161313901e+00,-1.569737178326428673e+00,2.349683467424969585e+00,-1.433426709533649701e+00,-3.737777498536773102e+00
