1.832571314810504726e+00,-1.616413751334321969e+00,2.583063857828091781e+00,2.474344966668854617e+00,1.484052280526632295e+00,-1.341789772636332145e+00,5.848100616060639689e-01,4.288556904350784293e-01,1.519831138201538590e+00,-6.022253980308176491e-01,6.814682578213151487e-01,2.078671376623729028e+00,2.427800276159197246e+00,-2.779476809511530089e+00,-1.814299406914577251e+00,7.911845448911122292e-01,3.434953337049879152e-01,3.354844662589708260e-01,-1.872486145386972334e+00,-1.002807420215488854e+00,-7.559905522703560532e-01,-2.500475482538734529e+00,-2.529787500940714473e+00,3.262192366985092185e-01,-1.865583906245875667e-01,-5.251591512673189355e-01,-5.201524500823815345e-01,-7.621789903326186000e-01,1.424561835623550543e+00,6.918615282407061251e-01,2.352702877355377642e-01,1.321323366017840506e+00,-1.736378417440279875e+00,-6.628992671203653986e-01,-8.776743802063180500e-02,-7.938448969781436437e-01,1.662862998182809360e+00,1.433763811082100270e+00,1.295277149020522378e+00,-2.395834409890655436e+00,-2.063397732988338618e+00,1.948558065893455371e-01,-1.734254430070743203e+00,1.437793306006874605e+00,-1.100863010518951191e+00,2.063560275472949568e-01,-5.742438614708561540e-01,-2.155076289197727313e+00,-8.239480320543616232e-01,1.576258430973694447e+00,4.265792247157993988e-01,1.209624901222913218e+00,-2.479000843771776541e+00,-2.408365655927119597e+00,2.114786280313632805e+00,9.904173964449686229e-01,8.857100601996423794e-01,3.966847290941360460e-01,5.838718497870124535e-01,-6.779635081666989249e-01,4.221509560055832777e-01,-1.083235584608613467e+00,6.276812096347260672e-01,4.761406677067988036e-01
1.451064045281720727e+00,2.853964892879453652e-01,-1.244180953504196552e+00,-2.384991876415839318e+00,1.207727254217077828e+00,-1.639039917751511810e+00,-3.518505638324938900e+00,2.594864728843494284e+00,-1.925613760713519529e+00,8.110770700844722736e-01,-3.282493959609964485e+00,-1.389794894100198741e+00,-2.129786807270426685e+00,-2.688981714948363688e+00,2.439218442402144138e+00,-8.285460273472433634e-01,-4.539463298023978410e+00,-1.134841587308684785e+00,-3.931475756206854744e-01,-1.003921676220859149e+00,-1.199735990929481577e+00,-2.138531094896415130e+00,3.283013557371913027e+00,2.842907995655774567e-01,-8.438369992634130456e-01,3.260978178474619238e+00,2.324564542084788243e+00,2.609635893054376155e+00,2.846995024897009507e+00,1.175360921886169363e+00,-1.664639326134042197e+00,-1.947307657198805275e+00,-7.124221871740348266e-01,7.173271404274522700e-01,2.387864930205773617e-01,-2.700540782978831267e+00,4.491465998699397666e-01,9.779880983762466728e-01,-1.028479249754900238e+00,-8.133501051778271318e-01,4.769204289896952220e-01,8.821150747369137235e-02,-5.696575733648311379e-01,-2.769801950649023681e+00,-2.753489431787470743e+00,-4.014062761963286263e-01,-2.730747933503399505e+00,-1.895235443254572161e+00,-1.738007434992820510e+00,-1.429061090922858046e+00,1.143392329490683812e+00,2.742706124802736678e+00,1.623300981920811958e+00,-2.572022991290462635e+00,-2.097543676970601734e+00,1.752062246227479525e+00,1.079887140707335380e+00,4.419431407116847232e-01,2.104000311593511974e+00,9.572165009058043461e-01,1.656510284692199075e+00,-3.253127712157287021e+00,-3.045793456242103403e+00,1.310326808778517593e+00
-1.361665074321708468e+00,-1.401322790693790565e-01,1.034894763875066737e+00,-5.952426140926148079e-01,2.334976387663335873e-01,-3.353766448663666466e-01,2.124438171928723307e+00,-1.707585934713231612e-01,1.014393706476280244e+00,-3.445429997299500613e+00,-6.755275799958533334e-01,1.702995961562362437e+00,-2.254180233838563474e+00,3.027739452235617801e+00,1.999611532390010993e+00,-1.195035791365331446e-01,2.117304038290594992e+00,-1.951617955547946925e+00,-1.842180738265261297e+00,8.877266029055767005e-01,-1.908576582165489866e+00,-1.897048948606253616e+00,-1.642408835010253088e-01,2.281438424818849953e+00,1.852220034021193840e+00,4.544474066091014897e-01,1.516457634812281352e+00,2.337143995908860905e+00,-2.350294393875542731e+00,-1.844854860171853739e+00,-1.652719447985453727e-01,-3.994529501838681718e+00,2.115129954165419157e+00,5.717091008889496617e-01,-1.550327637342841847e+00,-2.807136321397138534e+00,2.240911945230459335e+00,-2.625756053094959075e+00,-2.803882735527554182e+00,-2.554505397292813118e+00,5.250065727311434838e-01,-7.352154636086636330e-01,-5.862058482567372719e-01,-1.010891413725630850e+00,-2.178096645591850233e+00,-3.015791016754510334e+00,-2.907948720836930900e-01,1.647015378099238037e+00,1.274105950717758562e+00,-5.794539415841831742e-01,-2.196432017010771176e+00,3.030925908836062277e+00,-2.025049220418937868e+00,-1.878968646252574981e+00,8.357581304153197665e-01,2.903284509136660474e-01,5.928898062373977318e-01,7.234995187658749272e-01,-2.235290489171267936e+00,-1.889461155020458083e+00,1.357353268236271671e+00,2.286630820540970888e+00,-2.913728073660263318e-01,-3.301810407116991808e+00
-2.704955491637618170e+00,-3.536093057049028765e+00,1.251501946478200455e+00,-2.453399504353558136e+00,1.046133002676765233e+00,-1.582974648084463087e+00,-2.858577916468967306e+00,-3.863391264972235728e+00,1.429892386891996603e+00,2.560630916540505453e+00,-2.357921901274488530e+00,-7.180693408144314116e-01,2.586484660378763678e+00,1.462798505116668091e+00,2.511060108075801267e+00,-2.210281534466389974e+00,-1.148183582791003632e+00,-3.449581660933248362e+00,-2.757340514760522332e+00,-1.125195344035676781e+00,-2.386996227095690593e+00,6.214365240344389418e-01,-2.120776444353023926e+00,-3.919083747364309644e+00,-4.247040033765018485e+00,1.556140822989350081e+00,-7.416243735163259576e-02,-3.415532294172062056e+00,-2.502925277552067396e+00,-1.297732222246847922e+00,1.516522251308335845e+00,2.532745380213885067e+00,-2.232005616703486961e+00,-2.315368112127777156e+00,1.430394884122599297e+00,2.036230126317519762e+00,2.680355870106279959e+00,-3.570376403145086197e+00,1.406774648739297584e+00,-2.006774254606123353e+00,1.152728807607703354e+00,-2.209454502157666589e+00,-1.761197777068512105e+00,-2.015629482671045025e+00,-2.226830077673629393e+00,-8.941978378811058503e-01,1.698712593660044901e+00,1.021319943263129942e-01,3.534541523990891942e+00,-9.583560010929998985e-01,-2.337410749314119407e+00,-1.098323348258276461e-01,1.984287529217158452e+00,1.282323380872823604e+00,-9.824498280865248123e-01,4.767812830912138700e-01,-4.041255203032814158e+00,2.365606344968393948e+00,2.646149015208989486e-01,2.329673309047556984e+00,3.695813173350745107e+00,-2.307738564870254638e+00,-4.791251991352322714e-01,-2.698997146108292000e+00
-6.030147464249560052e-01,-2.409404877445015636e+00,-9.044431657584944828e-02,-3.116061667305859206e+00,-1.469662636756747576e+00,1.206189803067438948e+00,-2.300039959186952920e+00,1.932011450476648351e+00,-3.434228608802578186e+00,2.408249734585448110e+00,2.450967913393944375e+00,3.245524397363234836e+00,-1.752777090807281057e+00,-2.739846203306107952e+00,5.631338267852551427e-01,8.197854613464006235e-01,3.141634730779146345e+00,2.884941572356335193e+00,-2.706776869997671753e+00,-3.244251117733503720e-01,-2.349818033034407616e+00,9.350298050117202830e-01,-2.967640111740474929e+00,-2.463722613460885391e+00,3.131167391558309365e+00,2.916912382425908223e+00,-3.112469477232580051e-01,6.100602954110525555e-01,-1.597115895385079920e+00,-8.877848438646956941e-01,-3.194929434431406090e+00,3.555070262300892736e+00,5.389434668578692647e-03,-1.672591374062113445e+00,-4.853171598451178625e-01,1.899431677249234562e+00,-3.193783578366291120e+00,-2.173844249887200153e+00,-5.808909582482204570e-01,-1.688301747869905611e+00,-2.470437099297293493e+00,6.229379537445701720e-01,-8.399642725703657664e-01,-5.204366270593800969e-01,-3.531157371806187051e+00,-2.646174294960646378e+00,-3.496596410377613040e+00,1.946937310675482369e+00,1.735807858229827083e+00,1.026704899921547787e+00,-3.922406670150411223e+00,-1.679552417707705025e+00,-4.162526749819994154e-01,-1.583958845820736983e+00,-3.658285684936274151e+00,3.224268103867059754e+00,2.518657079017574851e+00,2.336925560354276232e+00,-2.685719521140670363e+00,1.212250187898651799e+00,-3.958408872829717318e+00,-1.347147529841921321e+00,-3.544729662391408187e+00,1.116552997609171483e+00
-4.385879895342363888e+00,1.892313020736644091e+00,3.559606965886176755e-01,2.401952791788900310e+00,-1.637954397874406887e+00,-9.954482871387930754e-01,-2.052643844587611177e+00,-3.220786321510306305e+00,-4.041953507231212939e+00,5.368260166489758900e-01,-3.367864162666468264e+00,-3.191630295967855524e+00,2.387379419507383638e+00,-1.379498274851818529e+00,-2.898165569164727007e+00,-2.101621508838973806e+00,1.285551662829657271e+00,-5.705038863338920407e-01,-2.147300262937950066e+00,1.953121350000512971e-02,1.817683915664754624e+00,3.577350005600943295e+00,-2.187262390409961288e+00,2.311215970874508141e+00,-4.787671408901192915e-01,-4.075724852718439983e+00,1.656293653722032744e+00,9.667748981921209239e-01,2.499893935270307121e+00,-1.230951027808776521e+00,7.388190742876193928e-02,-4.453315560169615606e-01,-2.671843261799245361e+00,1.733994614149275248e+00,-7.235465242652310280e-01,2.887182089976213728e+00,-3.016654039394577325e+00,-3.429640518365979940e+00,-4.038525805761397081e+00,-1.301304936361158404e+00,1.696087288168634188e+00,4.351123467881531370e-01,1.106683244301657876e+00,-1.788698951962698347e+00,-2.342769602630576209e+00,-1.900641552582249316e+00,-2.962056943770388640e-01,-6.168333488781887336e-02,-8.533959128503859626e-01,1.813756669477176953e+00,-4.200914389294490570e-01,1.441808452914148608e+00,7.445181928848643160e-01,-1.262780823560637034e+00,6.569421944331453878e-01,2.551658590476088229e+00,1.705677613683285188e+00,-2.174826631359549622e-01,1.826537284748627865e+00,-2.227176869284877014e+00,-1.344767706254946349e+00,-1.961427271411774864e+00,-1.033806179841884054e+00,3.056508561542199964e-01
6.968451608279354614e-01,-2.794053333161841568e+00,-3.127302465214236271e+00,-1.410909313935718723e+00,-2.552156186009281846e+00,2.261183931272891523e-01,1.738883615543683758e+00,-2.212451533079587307e+00,1.726722502776365298e+00,2.106585564356060480e+00,-2.572594515166250151e+00,-2.959963640034184440e+00,1.458488287236701542e+00,-1.667042008871639780e+00,-1.549233800787600090e+00,2.213334538873434454e+00,-1.826574641190371162e+00,2.593547929465965129e+00,-4.611823541936829751e-02,-5.074286726803940439e-01,-1.229344774318805955e+00,-6.795590531356117125e-01,-2.263719979946571925e+00,-3.202078723587423070e+00,2.505689467955340977e-01,2.253283392921439532e+00,2.546729290459241457e-01,-1.825882987496715737e+00,-1.455721403158652283e+00,-3.523724807617551136e+00,-2.727270080613252823e+00,6.890807268827151000e-02,2.092462720608398108e+00,2.026740017585178411e+00,1.370262588033909879e+00,-2.038242790568562501e+00,-2.230844368799193678e+00,-4.282797234338591164e-01,-1.823934465318499232e+00,1.493984147479106461e+00,-2.129887902306774272e+00,2.953047923850965262e+00,-2.060383219366650032e+00,-1.553235532819956966e+00,1.079716065403497405e+00,-2.705909178731937370e+00,6.606212858344205907e-01,-7.024417224996819531e-01,-2.182469009078801925e+00,-1.879594964921413203e+00,1.995545808048921677e+00,-1.766041324343177621e+00,1.394539308868940841e+00,-1.538484915995521618e+00,2.085376137609773917e+00,2.853019366460784134e+00,-2.380806244373792901e-01,7.092084787106245347e-02,5.457921663392989453e-01,-1.871162594326080564e+00,3.108655742946564882e+00,1.790654334614405041e+00,2.463588737312758958e+00,-3.633934487747244368e+00
5.193530056247044335e-01,-1.526187877861345132e+00,-5.430080889201933658e-01,-9.072593100837242908e-01,-7.695388868768676671e-01,2.442768758579491883e-01,-1.420973041948480065e+00,7.480199940369529343e-02,8.963841042049782715e-01,-4.232189552833313106e-01,-9.250291516470005027e-01,-3.257198494008821665e+00,-6.880750074327690591e-01,-1.776899154671004233e+00,-2.610844140551694004e+00,-3.390062487136365377e+00,-2.661925692375071595e+00,-2.912396672892892946e-01,-1.606040229511219275e+00,-2.954332111034429609e+00,-3.956346295788493173e+00,-1.756893215930573016e+00,-2.363130201260062346e+00,1.543044448816287106e+00,1.641030646629445533e+00,1.054920543687023204e-01,2.756089067000092041e-01,2.637864961396545027e+00,-2.338270636411572401e+00,1.626145976794048265e+00,2.606621549773528113e+00,-2.763721563990268137e+00,1.711373191742152189e+00,-1.826340648575930370e+00,2.512876138787493385e+00,6.736318129650901154e-01,-2.361847431123745622e+00,1.375741574880994245e-01,-8.450372403659197618e-01,8.358109429837390358e-02,2.256944586923856910e+00,1.245539014531359401e+00,-5.216445438273398238e-01,3.820654578140311730e-02,3.356164403476408764e-01,3.124714642163226141e+00,4.796152202808941500e-01,-3.271813031065012645e+00,1.440250365295562496e+00,2.546340720809027285e-03,-1.579874067017493555e+00,-3.022560242839472888e+00,-2.439700649964596124e+00,2.458272707692427783e+00,5.034218353224698683e-01,3.323021145570060675e+00,-1.830526796258540978e+00,-1.395786755990251038e+00,-3.569212337960510517e+00,-4.446308346565392422e-01,-4.048501660405500607e-02,1.812274957187977265e+00,6.210148892227870809e-02,3.974065540493065374e+00
2.556181665137985393e-02,-1.744559418044641541e+00,-3.134252728788951892e+00,-2.824040775773856704e-01,-1.234584325041871766e+00,2.046741983212799099e+00,-3.187765315180618231e+00,3.005416095982405444e+00,1.566099498747032248e+00,-2.193121840617493046e+00,7.704886550489662422e-01,-1.286782003744376901e+00,-6.898250267545331660e-01,2.164379202309693717e+00,1.014365570116968929e+00,5.603005822930715585e-01,-2.789958467639284123e+00,-6.807221854557394813e-01,-1.710485773001356513e+00,4.296013479232832388e+00,-2.672533396928347127e+00,2.839633417305535090e+00,-1.801674878621577713e+00,-2.786936919663474121e+00,1.959355444627814413e-01,-3.123937394342878981e+00,-2.264639523978937419e+00,-1.185225589628285725e+00,1.549136957434656514e+00,-1.209427825608842433e+00,-5.822147487018418666e-01,-1.820463797138346163e+00,-2.448277881582036297e+00,-3.874138681636394743e+00,6.385350418385602467e-01,-2.927432528209441998e+00,-2.678857592728336900e+00,-2.165300289710688553e+00,9.410380616611720983e-01,-2.959413344479106200e+00,3.119067280948750187e-01,3.196929031591092318e+00,2.668906000989765381e+00,-3.634265263945668512e+00,-1.369504076482027433e+00,2.250689472756666643e+00,3.464957798786199916e+00,1.943340676318145999e+00,-3.407399516150086516e+00,-1.801236584611027869e+00,2.495274786084912044e+00,1.244980683753083683e+00,-2.742183094260281173e+00,1.823310505316016461e-01,-2.034202486256663889e+00,2.762149953345483411e+00,5.613897314010611872e-01,-5.638478930366280784e-01,-2.828608954247499252e+00,-8.049132529661413571e-01,-1.623159980416863379e-02,-3.982044990339447033e+00,6.706939411657943939e-01,-1.106354757184889515e+00
-9.007178176668866054e-02,-1.250310741415884830e-01,-1.465228392653199728e-02,1.266821817316406418e-01,-2.182183324837879967e-01,-7.377813827325381546e-02,-1.274337885627720435e-01,8.776091884717465708e-02,-6.197370027979762219e-02,-5.261888982027108919e-02,-2.425569930338459385e-02,4.979647928601928925e-02,-4.387042367428134471e-02,-3.405691469860751552e-01,6.074411610632382552e-02,4.908649491986249308e-02,-2.454543315994000066e-02,-1.211989786960799564e-01,3.933021203079584832e-02,4.239982162344865801e-02,-5.255127386896704667e-02,-2.423131505351999032e-02,-1.039946584678918540e-01,-1.996686749736188704e-02,-1.733432704958571269e-01,4.665766260586265424e-02,-1.055836070646003766e-01,2.662074121048657940e-02,-1.571914327309433812e-01,-6.597045034038943878e-02,-1.235309102604621213e-02,-1.856718834780392291e-01,1.287392359028841082e-02,-4.238998620514415616e-02,-1.948013449659754814e-01,-1.457069694689590855e-01,6.765448212790564630e-02,1.001262030674789916e-01,-1.474783426837696088e-02,4.525374632092726140e-02,2.502647119467231451e-02,3.685296974919102797e-02,1.437773828904553020e-01,-1.684875430195204860e-01,7.563060908349406031e-02,-4.270989963428517555e-02,-2.507291107741618438e-02,-3.379254717392624757e-02,-4.194272272088372944e-02,-1.370929019289099937e-01,2.049794562401876727e-02,1.868171103922772469e-01,-6.275862475290332372e-03,-1.548524853708138540e-04,-7.684236839762266513e-02,-1.313405357084258471e-02,5.211899087201102287e-02,-4.139436327851729602e-02,-5.073683421281897921e-02,4.508634623601069646e-02,-1.026360534492216370e-01,2.822998111166503607e-02,9.171476510506698654e-02,1.520468692548516410e-01
-1.424372454317146985e+00,-1.340916402883099434e-01,-7.729833347763787055e-01,-4.193349831854013665e+00,-4.530049055522607837e+00,-4.055569146362379307e+00,-3.389027807645434431e-01,-4.296431774491439093e+00,1.530814911571207970e+00,-2.801430677603083730e+00,-3.376644976846840507e+00,-2.527019772591569957e+00,-2.429402941077666078e+00,-2.881220785129362305e+00,1.445790565298936237e+00,-3.819661712209392324e+00,2.891697654826617114e+00,-2.934020375278454384e+00,2.366196153756177978e+00,-2.370698924366384741e+00,-3.471469122188443723e+00,-2.050409035710649697e+00,-2.315006071569390311e+00,7.704214243063115530e-01,2.286207519315385017e+00,-2.218998583698043037e-01,1.244681540996251279e+00,-3.233383008050198182e+00,-8.879381650089975819e-01,-3.242183304051244885e+00,-1.532424014712500782e+00,1.522773148200372351e+00,-3.817380587899867006e+00,-3.958142470950106961e+00,-3.329963469460478276e+00,-2.841092098113453979e+00,-9.701996395782033211e-01,-2.304669000554577352e+00,-4.328062950616453630e-01,-2.883539395481945711e+00,1.242148870150113549e+00,-3.272262086560504990e+00,2.194499990502443598e+00,-8.870748741837505280e-01,2.617491901763876250e+00,-3.426511901884396583e+00,-3.568819805577219562e+00,-2.774836448074363915e+00,1.248742437462208477e+00,-2.386761289396714059e+00,-3.196082353862570002e+00,1.612279079687913841e+00,-2.827216872207373832e+00,1.353745166359376473e+00,-4.108008718798539682e+00,-3.619801529762331160e+00,-3.511470909530248541e+00,-2.987137834957634297e+00,-3.828326807995866776e+00,2.684903130790250003e+00,-3.991314170326452970e+00,-2.940079628866538286e+00,-1.027191478967763583e-01,2.142464428922671082e+00
5.738286564326455091e-02,3.391246292154030950e-01,1.601755758865075208e-01,4.404813357416018788e-02,1.103079796164659898e-01,5.981263784613787687e-02,-5.854251569212911427e-02,1.888340382549139329e-01,2.738620980023889068e-02,2.621110549728021821e-01,3.143200426495889044e-01,-8.351255667816690972e-03,-8.481057801164487708e-02,-1.145251489752690567e-02,2.128146963081992415e-01,3.614236163624538062e-02,-8.178054243520339883e-02,1.151719771344578702e-01,1.921953561061869320e-01,9.756193747156721718e-02,-1.589022787965931882e-01,-6.603162366564377384e-02,-2.904989224515860946e-02,9.518479506620892983e-02,2.528368671591906258e-01,1.718683056017354382e-01,1.280395265116143488e-01,3.034909187222558768e-03,-5.805376097572834126e-02,1.552588473262334345e-01,4.383078111386060072e-01,-1.744503363231354465e-01,2.133716766652678787e-01,-1.652277672027747599e-02,2.090552847886419929e-01,1.039387855740817601e-01,-6.178703883835112015e-02,-2.056499679288758542e-01,2.814827557459572138e-01,6.863026286032797296e-02,-9.641030379414582130e-02,2.464693898682658868e-01,4.787231130485485875e-01,8.838794303994111645e-02,-6.648254497053160406e-02,2.139180752196766511e-01,2.049532280022551001e-01,-1.251333444175884435e-01,2.074083951302169854e-03,2.648848748626787541e-01,2.484971670515222775e-01,8.645282143225248295e-02,2.010103790781279098e-01,-7.971305620124371702e-03,-2.473874604126314464e-02,-2.547871970546096709e-01,-8.788282922857239277e-02,2.215617156320262016e-01,9.956104977645825749e-02,2.256906227522531283e-01,3.024809717702036521e-02,-9.039170610118538174e-02,1.242303206814121957e-01,3.426020811096431307e-01
2.067905879082124754e-01,-2.394456008886075571e-02,-5.579175622291986103e-02,2.387139395849451236e-03,-1.027600070881599797e-01,2.155053547172788159e-02,-4.081441398691690314e-02,-2.002765083694053316e-01,-6.550175545129011470e-03,-3.550239719067631999e-02,-1.825104735739341844e-01,-7.505826666502592864e-03,1.665150586946568256e-01,5.828353090349672888e-02,6.841554001137420404e-02,-1.499838934998532214e-01,5.331885856344312224e-02,1.659716775986208245e-02,5.914905580441833649e-02,4.725131636889887132e-02,-1.520281068360254673e-01,-4.628751448363707666e-03,-8.473253810384631657e-02,-5.599571970618545842e-03,-1.003324737811906314e-01,1.467386479690686862e-01,-9.603603256784520870e-02,-1.005047884848595252e-01,8.339013761441041450e-03,-1.204233368844548069e-01,-4.747880058947197279e-02,-9.279286295065687640e-02,1.577738331402923910e-01,8.785553868869874772e-02,-6.425287496140090829e-03,-4.373939613090910977e-02,1.051977873708450223e-01,4.530319341811313294e-02,5.568395166140510666e-02,-2.928381159227631814e-03,-1.887498551876639896e-01,-1.257407910797328325e-02,-5.953418283424232599e-02,7.211937203505003335e-02,1.131274231346891396e-01,-7.356116309764899885e-02,5.236706117503259900e-02,1.940771719769727455e-01,-7.465255163185459397e-02,1.880445671819133968e-01,-9.532199554639067540e-02,2.566978714308072035e-03,-1.246117286459183559e-03,1.285616088796148445e-03,-9.365525224825416162e-02,-6.609628035832883219e-02,-7.465339751276213465e-02,3.655552947120634805e-02,3.689904755034920103e-02,2.488681419948544637e-01,1.532812307235917049e-01,-5.700220736452622089e-02,3.632152723722557180e-02,1.114811793318851857e-01
-6.747739994467006897e-01,-2.832677272998245233e+00,-3.416741313871450192e+00,-2.074064764872134425e+00,1.790635088836845634e+00,-7.971329433508543838e-01,-1.171594293576383672e+00,2.479780943183586661e+00,-3.242858662063397457e+00,-3.836951266300476227e-01,2.201192636196634300e+00,-1.150886196031961628e+00,2.671465200576677468e+00,5.804182996152361662e-01,-1.033975032960659401e+00,-1.622794352314505861e+00,2.629771988066675004e+00,-1.103118815701754629e+00,-1.752898223226825092e+00,-1.884286122203886915e+00,-1.010727645254739793e+00,-3.261290517673024469e-01,2.721537218793011803e+00,-1.956959612615549293e+00,2.082682180537844263e-01,1.481801627041983149e+00,-2.651735457980207045e+00,-2.642421044387707862e+00,-1.732099093963022085e+00,-1.343777528003769373e+00,-5.957748744819707509e-01,-3.965200317277586817e-01,-2.125404320933454549e+00,2.256288886261329729e+00,3.092615250312535924e+00,-2.072548796594341436e+00,-2.743989142097134626e-01,-2.919248825000583025e+00,-2.042163477985588393e+00,-1.693844490055248286e+00,2.599706293023382742e+00,2.253833845187918961e+00,1.880984529521378068e+00,-1.596341967823822428e+00,2.195192233070831556e+00,4.769517354053386948e-01,-2.779473744650008182e+00,-8.424789618130690272e-01,-1.058363964230352616e+00,3.651270578221770813e-01,-1.931975066717670275e+00,1.143454431652634051e+00,-1.886329021772747749e+00,-1.891544610050207131e+00,2.395734542943392498e+00,-3.012515190738245252e+00,-4.129637095326634255e-01,-3.828392508420724649e+00,9.708197762291226329e-01,2.967576827309918563e+00,-1.245159832611821837e+00,-2.285631963359510410e-01,2.155397082869564329e+00,8.605391765522300840e-02
2.026201643303230604e+00,-1.215746488870344866e+00,-1.194083076347846051e+00,-1.337657489142984435e+00,-3.387986882863599281e+00,-5.424434525501491411e-01,-3.825774478007085033e+00,-2.089913379028007778e+00,-2.397288296938766550e+00,1.933554054440695058e+00,9.819522494651105049e-01,2.827214441108641285e+00,1.798476167447394802e+00,2.128155503867251497e+00,-2.138213741475150531e+00,-1.522887901454033965e+00,1.125994972676836126e+00,-2.658261311136936200e+00,-1.749334717626299662e+00,-9.178493761244357341e-01,2.135359364739636501e+00,-1.297991788744288222e+00,1.032915505762428632e+00,-2.656654143446270044e+00,-4.377763571848477753e+00,-1.042203642061450442e+00,2.393956843788407785e+00,-3.753987921750551404e+00,1.764726218040341577e+00,-3.445922219033007661e+00,2.492386277981345266e+00,-1.882077397343541847e+00,3.422025934715527296e+00,-2.177438582367756670e+00,-3.538585015498976638e+00,-9.917519418581083324e-01,6.276019126082855726e-01,-3.135782536847880664e+00,-2.316597728554723012e+00,1.241230087657937409e+00,-2.877551532187929695e+00,2.239923768419727068e+00,-3.232644667162148711e+00,-1.359892676938472933e+00,-1.619301883375834361e+00,8.881991076258075601e-01,-1.325736982019341204e+00,2.376716975467573878e+00,1.100856171043331111e+00,1.750258527033399902e+00,3.031746677244865129e+00,-1.586208810275422820e+00,-3.580713091120041103e+00,-1.894400861417872284e-01,3.867149169190138847e-01,-8.783912132612005097e-01,1.165936082989986522e+00,-2.878391008611718593e+00,-2.434062428256086541e+00,-1.930373056226663220e+00,1.644841807172835901e+00,4.334815335024604366e-01,-2.330810910165914240e+00,2.318459848406436485e+00
-4.447112321859384987e-01,2.941958157763051585e+00,-1.303224291272061963e+00,2.560590546947555612e+00,2.101159914345345214e+00,-1.815651933464388801e+00,2.775514193625084225e+00,1.797382066234038067e+00,-1.186680789102580458e-01,1.585073722663559170e+00,-1.919236213824540460e+00,-3.145870641024894887e+00,-5.242717013634042855e-01,-1.555760670144773705e+00,4.304533500889048403e-01,-1.581644299078477811e+00,-1.241635728060574095e+00,-6.203769624565667051e-01,-2.459015274217163149e+00,-3.623757042123683658e-01,1.717858938513879608e+00,-1.251726190789733906e+00,8.349852666324776296e-01,-1.733958333903528271e+00,1.748489959607142374e-01,-2.175760810578863502e+00,-2.610977326298441703e+00,-1.934458158969279307e+00,-1.633011530789400645e+00,-3.137833447749320381e+00,-2.958916576246241048e-01,1.343924256143169238e+00,-1.707804799758016578e+00,6.404771711383604460e-01,1.204988505815036248e+00,2.163196461634893375e-02,2.846470842267956325e+00,2.586952736903346928e+00,-2.665222726052731250e+00,5.153701960719743180e-01,1.375738364196961383e+00,-8.352519649235415899e-01,-1.617892451299243195e+00,-1.409096959117478010e+00,-1.416492944132074383e+00,3.013815298424088684e+00,2.009677758081009458e+00,1.401266090766976502e+00,1.602389272850072599e+00,-1.185551643046760750e+00,-4.452770974835504846e-03,-2.195859149020798373e+00,-2.655254727280938365e+00,-1.730802355466929621e+00,-1.564476591955550777e+00,-1.307015640323774486e+00,1.695747451158414743e+00,-2.585457954790882362e-01,9.005475054759310982e-01,-2.414908184622416965e+00,1.992684382074445759e+00,1.572688457631973291e+00,-1.774195943665625608e+00,-7.254714226527760879e-01
1.369247932385450062e+00,-2.533500770249458856e-01,-3.350764456946226932e-01,-1.746315060710033285e+00,5.799544130578339063e-01,-1.646580456297762618e+00,-6.610315399771329314e-01,-2.457753299063953012e+00,-2.055552932533458499e+00,5.215013754169355309e-01,-6.249752195733133675e-01,-1.433721438855809716e+00,6.678904203103859238e-01,2.603672860601306649e+00,-1.713570183525230606e+00,2.022748351785726761e+00,2.728651097216719723e+00,-9.023551976980400680e-01,1.445290908286807730e+00,2.624598970198435688e-01,-7.568368810695205173e-01,1.275447269761441182e+00,-1.114667968174175128e+00,7.902868316564835016e-01,-5.242220691681023226e-01,2.709387739084176072e+00,-2.098727051905128427e+00,1.387795607600361913e+00,-7.705520638087167695e-01,1.653952731367421380e+00,2.700289878338697491e+00,-9.024358253756162851e-01,-1.052921075940744133e+00,2.275889196128597192e+00,1.812013830284394666e+00,-1.715865724140391180e+00,-1.528323602789375180e+00,5.393056257252263341e-01,-2.272357063828555290e+00,-1.652813024580819468e+00,-2.902631629029603477e+00,-1.056251158843642735e+00,-8.996868679720336770e-01,2.730816902415427183e+00,-1.343000204229830796e+00,3.103760014780741816e+00,1.913542156632176638e+00,-2.160193091128576715e+00,2.400210057737002689e+00,-2.342647812710652033e+00,1.946178304547727222e+00,-1.467775954019068685e+00,-2.307273399476427178e-01,-1.121762813328178066e+00,-1.263640010901299071e+00,-1.375724829924687143e+00,2.105103988582598173e+00,-1.363111407812691134e+00,-1.637631777978987735e+00,7.928886147894395608e-02,-1.530569141562600211e-01,-2.909580488298841416e+00,-2.192195400918463655e+00,-2.902336104201375999e+00
1.726196682124346571e-01,-1.857295615329898952e+00,-3.367706474427033303e+00,-1.837266802704683011e+00,-3.655477548216521821e+00,9.615779512136589657e-01,1.509282622463399948e+00,6.309903148184688171e-02,-2.142924520373929553e+00,-1.493083553109418427e+00,-3.767473390931126431e+00,2.779499958522958503e-01,-1.783394451024125305e+00,3.121976713930696423e+00,-2.342447130011072076e+00,1.412506085875980144e+00,-1.049953519036944893e+00,-2.068373233873994188e+00,-2.410026615144486239e+00,-1.912162152323670927e+00,-1.264887603871936994e+00,-2.269661130152900608e+00,-8.784747339691557633e-01,7.148799689494536036e-01,-2.637899630085100977e+00,2.174470748996985225e+00,-2.479580511208302696e+00,-1.892547115738340224e+00,3.509176181827232899e+00,-3.138885333902762920e+00,1.397390720830339994e+00,1.352809831126020601e+00,1.664060158478566143e+00,-3.734707655480186350e+00,-2.678920083132606766e+00,-1.940442000040490278e+00,-2.030897904024998812e+00,3.096955278053440175e+00,-4.399609317248174833e-01,1.531674762219715102e+00,1.679446277198633153e+00,-3.425135000257896856e+00,3.261079862897875437e+00,-3.561570860664129867e+00,-1.112658132422668089e+00,1.135234467734293373e+00,1.814726207844579831e+00,-3.358311284202759595e+00,1.561176931970146953e+00,9.078883871032471520e-01,-1.276563343979122855e+00,2.781354732278303210e+00,1.010313152047295437e+00,-8.434794284088390492e-01,1.822469191946118450e+00,-2.527974936666521177e+00,-1.124102715453503043e+00,2.214960057923477166e+00,2.206562108741677353e+00,-3.493245818014436122e+00,-2.421131713152584464e+00,-2.730130227292604683e+00,1.466507718968965479e+00,1.296564014494194117e+00
-3.317897574257982374e+00,1.955344190988171291e-02,1.940447252229756947e-01,-1.648477968063983418e-02,-4.267070022507690186e-01,1.943978273058087902e+00,-1.803069417290758869e+00,-3.774568038101068002e+00,4.439412479759063390e-01,1.826486680988564260e+00,1.229191758974069071e+00,-3.251232118535259286e+00,-1.173161691787570238e+00,-4.929404900635967479e-01,-1.637269532453090370e+00,-1.562702737214758830e+00,-1.242735089572549079e+00,-1.829586515560392534e+00,2.831413232325461049e+00,-2.720845051218006017e+00,-1.324095982068641320e+00,-6.471087029626566567e-01,-6.615296130585256451e-01,-2.153120302132895958e+00,1.792980638626299195e+00,2.522832653871958652e-01,-2.133456621595791969e+00,2.841732673576051305e+00,2.516393262334048142e+00,3.424237163847744014e+00,1.776732695436018972e+00,2.080864712635360769e-01,-5.234969746818122216e-01,-4.059232978579920825e+00,-5.646553788994950196e-01,-3.307772860471713816e+00,-2.136849365786886779e+00,-5.982255034487702350e-01,2.758068869312725990e+00,3.131123340281055434e+00,1.159199958457640234e+00,3.240166970099652155e-01,-3.028274014468441688e+00,-1.994611052193432821e+00,-1.476147180404448811e+00,-2.094577245763627360e+00,-3.378249022520006584e+00,2.467241054564009772e+00,1.888754745446230343e+00,-6.141081050987741152e-01,2.299910793037128087e+00,7.367439293786224308e-01,-3.660156493523109678e+00,-2.352759994035193980e+00,-1.579127617862925437e+00,-4.346742208661566131e+00,3.915515888624815921e-01,1.649412203763267248e+00,6.074450917789447901e-01,-3.079715125070874304e+00,3.173498691209112987e+00,-5.153947427430802808e-01,1.199561040870052775e+00,-2.903115246749159439e+00
1.323193787569745927e+00,-1.395692206421381143e-01,-2.003054611731617918e+00,3.205218041259805251e+00,-3.699887145755765161e+00,2.758789544863124110e+00,-2.087100033726897230e+00,2.740112194907192045e+00,-6.975768702055680226e-01,-4.246222440540092791e+00,-5.376403309199347946e-01,1.979854313688713674e+00,3.318964134888823664e-02,-1.541516224994311512e+00,3.264723390364783207e+00,-3.695200886325394229e+00,2.465970924223658489e+00,-2.624557920802003341e+00,1.093894652099745013e+00,-2.702345555163964796e+00,-3.908189395320999182e+00,-1.215983120699204223e+00,-2.265532778278512627e+00,-3.134332138987911520e+00,2.465135015457197820e+00,1.004111300652344330e+00,-1.939904750157225966e+00,-2.724440218015440340e+00,-2.065178217941265534e-02,2.284919032006278883e+00,-3.801692173608047787e-01,3.841715864624105636e-01,-3.140575150986923969e+00,-2.157414776825329616e-01,7.383543261875366026e-01,1.682846667453149037e+00,-2.839782483611344333e+00,4.578690546111912063e-01,-2.383666931719373050e+00,-8.895553439532304374e-01,2.309287685307639837e+00,-1.338924045893061132e+00,-3.382778552317573961e+00,-2.494038468040006062e+00,-1.837910027001403712e+00,-2.878783603916937217e+00,1.485725211054365946e+00,-1.392962560551859408e+00,-5.808224567666361304e-01,1.327620264891962609e+00,1.647872497371996703e+00,-2.318981233132513697e+00,2.870915238925913826e+00,4.176733895636718930e-01,-4.338871811720785843e-01,-2.387425146180636837e+00,2.615345276782245598e+00,-2.886954057990472222e+00,-5.625700946408305203e-01,-1.203158507595059712e+00,1.205355218626246866e-01,1.933684675313462220e+00,-3.046991261140401086e+00,-3.448362797259532542e+00
-3.953053990680391649e+00,1.852953684814084179e+00,2.323948095086735943e+00,-2.737621701833967247e+00,-4.019823598046968094e+00,2.363050633409722323e+00,-2.413319295404350306e+00,-3.006751702589043340e+00,-4.072275427678374027e-01,-5.032478128443387266e-01,2.159432427664409015e+00,3.152979994214470949e+00,-3.517066223545902925e+00,-2.490597729098367630e+00,1.612892670509836757e+00,-1.487370281957348217e+00,-4.452630145910842607e+00,-2.162651205567615698e+00,2.286214259827115569e+00,-2.840259432065630918e+00,-1.571565926900356347e+00,2.192919826183330922e+00,-1.667080933848258617e+00,7.263916909963854529e-01,-3.138567710759016194e+00,-1.876197773863151674e+00,-2.344414714526357635e+00,-3.800238687860785891e+00,-6.919993616941635395e-01,-1.656843107072946408e-01,-1.772833208222474699e+00,1.934569042982590137e+00,-1.112578168300979220e+00,2.878681973447072995e+00,1.732047586308897436e-01,-2.782278033264711237e+00,1.222819254413463730e+00,-7.034990069355211428e-01,1.397855839010721413e+00,-1.151175999694365737e-01,-2.589231869428599619e+00,2.753871256241300358e-01,4.162403750212651410e+00,-3.437185016954336536e+00,-3.500372974901804657e+00,-3.718145704054159895e-01,-4.905900585608619635e-01,-3.479457618732145541e+00,1.675594909081522532e-01,-1.443402858695217894e+00,-1.347897588784405354e+00,2.440400223852913886e+00,3.039174515602975912e-01,-7.404301662529213512e-01,2.783885907976885399e+00,-3.767485432148024449e-01,2.463088564708168171e+00,-2.911279978617865805e+00,-3.888027091159242055e+00,-1.827146394973496513e+00,3.415326815462498278e+00,1.969125376801120542e+00,7.048271523983403730e-01,1.960784491680815922e+00
1.562239499815577082e+00,-2.261731235647737481e+00,-2.432906762693228142e+00,-1.661573078094289890e+00,1.902380344928500666e-01,-2.061515667781263605e+00,2.250636469764018432e+00,-2.890278542015188190e+00,-3.569285383406829215e+00,-1.809811414171450084e+00,-8.895168493291435441e-01,-2.435046592811881627e+00,-1.596392046746527571e+00,2.110686415559239304e+00,-1.176483766663954489e+00,-1.088828548643576255e+00,-1.733816125871091351e+00,-1.527186350652989244e+00,-4.001505685331369300e+00,-1.368832015334061403e+00,1.890748628387016739e+00,1.437543839372777743e+00,4.927337108262253573e-01,2.783976186911223394e+00,1.425496057205273503e+00,-2.467321826658172679e+00,-2.581947890987332794e+00,-1.625883915680851055e-01,-4.117324558228511178e-01,-1.544970518177780083e-01,-2.165452152583950518e+00,2.050327008047114319e+00,-5.958288336574945054e-01,-3.982651239734618098e+00,1.359292035752979411e+00,1.390630521101521855e-01,-6.897508079122575131e-01,1.228652029311419147e+00,2.084762610582837183e+00,-1.983947005062104196e+00,-3.263617963729572136e+00,-1.320760412728046118e+00,-1.986156865604915556e+00,-1.943801305537896429e+00,2.991209659386235398e+00,-2.627832421973034904e+00,-1.889235861667208471e+00,1.893429734903941508e+00,2.591208728774015757e+00,-9.559442690764555772e-01,1.673832043499368316e+00,1.147371977082364936e+00,1.087464043047989382e+00,-2.160326834904423343e+00,2.478183304264912845e+00,2.375577489798369690e+00,-6.808149451141123354e-01,-1.722711770791713448e+00,-2.541193490173405678e+00,2.436585876842673137e+00,3.139119777750315476e-01,6.323270082450953566e-01,-2.782599916962048781e+00,1.273828797095816645e+00
3.825972940708150666e-02,2.496782990541154490e+00,1.240114055808870797e+00,-3.350058215169930520e+00,2.751696003947286417e+00,2.136046897270708733e+00,-1.304622958289811230e+00,-3.959939991012965343e+00,-4.479939798991066979e+00,-7.592709304304563478e-01,-2.492700868834111461e+00,3.114762157894769845e-01,-1.840285340378815970e+00,-2.498762383233466444e+00,2.225142137700449663e+00,-3.798574372451759551e+00,3.155370656759253656e+00,2.831141381808166102e+00,2.427908412094689439e+00,3.125991273889591859e+00,-1.318516591306773678e-01,-2.796271623462788014e+00,-2.090198119955353651e+00,-1.370708640330545292e+00,-1.736270847966314701e+00,-3.251765772010493244e-02,3.847331223679334222e+00,-3.580720221691422456e+00,-1.960703200179795491e+00,-9.369046703403183241e-01,-2.741947354808969894e+00,-7.804726822002346909e-01,-8.139333913147024646e-02,-1.054317744378959754e+00,1.931300960491601382e+00,-1.239689631536851966e+00,-3.021940087246222983e+00,1.962641429450279862e+00,-3.686161208422674029e+00,-2.296381385779379336e+00,-3.188785958350666583e+00,-2.790482492212269072e+00,-1.655740057898641426e+00,-3.007730057293724002e+00,-4.003435397998494238e+00,2.479164844521962063e+00,-2.055229079633531075e+00,-1.928155859590030330e+00,-3.052579329680581210e+00,1.332355579396956147e+00,-9.260571404725421729e-01,-2.357912468215321855e+00,-2.815726586915541230e+00,8.607698320019951943e-01,2.434949906314637591e+00,-1.685099945018070366e+00,-4.112196467927021537e+00,-7.287985127230138527e-02,1.939979854412446691e+00,2.363476520849177476e+00,-2.221611447587135135e+00,2.700248639961018604e+00,1.871156184191318017e+00,5.529710296135367242e-01
2.013652047999369810e+00,-4.032958030238693148e+00,2.642908732592347265e-01,-1.104678158195520510e+00,-3.363885387864501642e+00,2.092841839600563247e+00,-1.187710141750443205e+00,-3.151340605686092200e+00,-3.829517675943783228e-01,-1.405459096374569450e+00,2.505628809627245879e+00,-2.198839598018986763e+00,-2.510568371199812354e+00,-3.024300130035742828e+00,-7.254178836413952558e-01,-3.629393003860653444e+00,1.527350236149105367e+00,-4.561155903593622912e-02,-4.579813991323678835e+00,-1.260890599326567996e+00,1.023911486256835701e+00,-1.376471207748481529e+00,-4.679373051065261357e+00,7.460064767460990176e-02,-2.401852738062583370e+00,-2.668087022010627418e+00,-3.958225927044498604e+00,2.884202726666552419e+00,-1.565246590410172667e+00,-3.179696497632949814e+00,2.166377727417566845e+00,-2.549493827188174855e+00,-2.217481245091333708e+00,1.968504861469561495e+00,-1.817739550395232606e-01,-3.312692199682043537e+00,2.367469958123293416e+00,-1.684029774674999258e+00,9.401953603079867827e-01,2.714329180845355793e+00,-2.861582963835397897e-01,-1.141229306257626863e+00,-2.193215669115864852e+00,1.977207987844559200e-01,-1.177460773191354004e+00,9.616148437801236293e-01,2.469946894469914334e+00,2.192757758266248788e-02,-1.739815120585005648e+00,-3.980541562792348387e+00,1.956639661712161971e+00,2.886300292300641335e+00,8.118194967009114693e-01,2.225336119909200772e+00,-1.624696850919374658e+00,-2.911485881721989522e+00,5.688052434057061513e-01,1.574895603798190713e+00,2.355977625693201460e+00,3.301569457517429473e+00,-4.526400195626129275e+00,9.806994327692245550e-01,6.381327477568609075e-01,-1.163474483047436170e+00
2.743970743816641078e-01,-1.984843387522346569e+00,-2.966244547927213926e+00,-5.078046590292916579e-02,-2.612898647350685999e-01,3.128670641950596076e-01,-2.540869663594354844e+00,-1.358882564537602811e+00,2.735275052124592321e+00,-3.469592210045618685e+00,2.992421068254984551e-01,-1.056111206607883934e+00,-3.886849470891876046e-01,4.314275582857231561e-01,-1.465265026340035470e-01,-3.803460386720296960e+00,-1.098852187994429075e+00,2.581022907476294037e+00,1.524855830149695501e+00,-1.781593894033910219e+00,-1.475509809126862359e+00,-7.600352454306581462e-01,-1.364564879683885401e+00,2.748641959922275557e+00,9.874756988527804147e-01,2.831708809370939495e+00,1.851496209247063929e+00,-1.225757627518867077e+00,1.795121436088634281e+00,-2.839387833004699768e+00,-2.715911814639636379e+00,1.381250977259420365e+00,2.450453953876388091e+00,-8.494314207076881784e-01,2.177206915191858272e+00,2.067501256985996072e+00,3.050636282019782985e+00,-2.086158734294087935e+00,2.070381941199598508e+00,8.858344841764272948e-01,-2.557767981390945966e+00,-2.803401476928286229e+00,3.007308769294299022e+00,-1.679468067027372946e+00,-3.452578586087513113e+00,7.404865464959017318e-01,7.972536129505366498e-01,1.837145271539756486e+00,7.938588838231600553e-01,1.030376129062454016e+00,1.053578525797553178e+00,-3.579944781028221001e+00,-3.188150792993487137e+00,-2.885286282772513644e+00,-1.550346050944068250e-02,-1.414396446303053390e+00,6.229530991617349134e-01,-3.129240634913997621e+00,1.049123440117992301e+00,1.172401970643695890e+00,-3.284449129630916953e-01,-2.730028041717690979e+00,-1.894597806577455135e+00,-3.317824462972649435e+00
-1.083206528060726148e+00,-1.962135118221797869e+00,-1.396920005846738588e+00,-1.535775753476957384e+00,-2.350001980697750958e-01,-2.562213567016242255e+00,2.127145329793805217e+00,1.286299028086666629e+00,-2.008163094011332639e+00,2.443663519947338880e+00,1.824803360499596794e+00,1.821569669688815729e+00,-2.465545323794909649e+00,-2.243478491788562845e+00,-2.084482033357270003e-01,-4.110968209194673095e-01,-1.685670744086945338e-01,-3.057887434728352449e+00,-4.849025112350488498e-01,1.674352031721329626e+00,2.747484761804886433e-01,-1.879863443366981857e+00,-2.086619915842090833e+00,-1.221232775307493856e+00,-4.403167894425913609e+00,-1.685595564188359763e+00,3.832087947734994948e+00,1.807280629156285956e-01,-2.999851046795879217e+00,2.712394651413297719e+00,-3.474427068016689990e+00,-1.942638570527212671e+00,-1.166635853649557131e+00,-1.953122256122287848e+00,-5.356578691874305242e-01,-2.495365972713531333e-01,-4.496346959781801766e-01,-2.690348244844029679e+00,2.643708721637457515e+00,2.401559338330631288e+00,1.738110518666098336e+00,-6.902002911096695170e-01,1.569978376907873452e+00,1.451868109566980536e+00,-8.841281114497832050e-01,-5.283593898012509810e-02,4.118097416966920443e-01,-1.008505456405730305e+00,2.931301367884317166e+00,-4.365090791695792838e+00,1.982132968337404932e+00,-3.057347459980712667e+00,-1.131875671401998851e+00,-3.251451901188505467e+00,1.330844276299650644e-02,9.606349700032198458e-01,1.665304464448984056e+00,-3.358610609313074313e+00,1.402294323120230723e+00,-1.571445707616666354e+00,-1.962930952696868570e+00,-5.794993544426834120e-01,3.370992684179624721e+00,-1.683020266024188860e+00
1.923720150811520258e+00,3.054955833338490745e+00,1.445186339220576155e+00,3.112375058630218572e+00,-4.089192537240760927e+00,-2.587044171524630176e+00,-1.777213425569828864e+00,-3.289966499012801915e+00,-4.826981754598076435e-01,2.192787070064019961e+00,4.947356661625758600e-01,-2.083987465385608751e+00,-3.387565695160396295e+00,2.024219382859154537e-01,-2.773970870451479609e+00,-6.933208076475642079e-01,-3.864809353557349336e+00,-3.662937852801882777e+00,-3.563992798475092094e+00,-3.129619699134425392e+00,-2.597707087507747481e+00,-3.107645286586259825e+00,7.889761550050855554e-02,1.579900986630997650e+00,2.179645677333660991e+00,9.768192213476176167e-02,-2.291482136701371353e+00,-8.166858785207995464e-01,7.565100828613860462e-02,-2.926576129459112607e+00,-3.458862348703539702e+00,-4.774858343147245776e+00,-2.883956993212265729e+00,-2.265035631383365722e+00,2.772265256568069436e+00,1.731515121982792671e+00,1.818826952611717340e+00,-1.243234685226880298e+00,2.746746523975484688e+00,-5.561288458773439025e-01,1.709529069474373664e+00,-2.283987315861626843e+00,2.407163840588959047e+00,8.004351508808135174e-01,3.462911008398029900e+00,-1.949865991377583985e+00,-2.557050142645288737e+00,3.227459184686913840e-01,-2.558209235758577282e+00,1.675194535489782643e-01,-3.093108937977071982e+00,-2.072574348735504390e+00,2.035421288549997154e+00,2.696767203219322617e+00,2.362034096590635901e+00,-4.186222514082288626e+00,1.381410612948447802e+00,-2.051045466035784859e+00,1.596337341902989815e+00,-2.499631872358289986e+00,3.352340685850943025e-01,-1.868179661265367386e+00,1.889200195568636609e+00,-3.835889984435519207e+00
1.601071416751507437e+00,-1.910252232111981030e+00,-5.118390108950035433e+00,-1.948872739019045230e+00,2.034619206007537873e+00,1.218968664963149928e+00,-2.979214859737880250e+00,-2.018108149567680698e+00,-6.843369213699858344e-02,1.736477744815144275e+00,-9.102369304258606242e-01,-6.158858956903844328e-01,-3.273823471218029191e+00,-1.932822861653400892e+00,5.518353966940501287e-01,9.725743813604762478e-01,2.192281339513950211e+00,-1.299802735391801356e+00,7.949025138756548037e-01,-2.824941672964944583e+00,-3.900397008794087128e+00,1.978812606345272007e+00,-2.667739008162995251e+00,7.399012783789162828e-01,-1.121085138932544245e+00,-3.328333187723413022e+00,-2.503477956193264631e-01,6.306254751711021234e-01,3.737832048468787693e+00,-3.608891454244171015e+00,-6.916732160067683433e-01,7.684357495647451408e-01,-1.330838548497390361e+00,-9.266736065311464987e-01,-4.752933848959964180e+00,2.391523158777763669e+00,-8.030613981867207318e-02,1.743855525206409407e+00,-1.276302211285382349e+00,-1.265169644576575658e+00,3.335911183858063289e+00,9.257639854385254496e-01,6.830154586416168350e-01,4.526273191775559646e+00,-1.836728877357739764e-01,1.884674230778177195e+00,-1.700473672631244826e+00,-1.519744849958282185e+00,-1.852820727819098456e+00,-5.362427664708240727e+00,-3.270372660247931940e+00,-3.581331738333091153e-01,-1.567623877014455935e+00,-2.555650997959339588e+00,1.456979517957990078e+00,-2.025152227204299216e+00,-4.257457071726896025e+00,2.417615993517429285e+00,-1.761651472381901229e+00,1.096543334251073309e+00,2.129350718237935425e+00,3.348842725048730262e+00,-2.252932351005218159e+00,-2.547210027947313105e+00
-4.488944893419040127e+00,-2.610533947155299295e+00,3.941072533653837695e-01,-1.723422976856514355e+00,-3.267786184311820108e+00,-3.769146919623021397e+00,1.668597042771120753e+00,2.704997148641409943e+00,-7.165655478227622721e-01,-3.689821020510553606e-01,-3.242614239963375944e+00,1.826240166387740116e+00,-6.064509243267846017e-01,-2.760682223024143678e+00,-3.290847203554790656e+00,4.126464107760137723e-01,-1.761861868737939041e+00,-8.931217486868010536e-01,1.010678976661384620e+00,3.114271592934732436e+00,-3.344165569515291203e+00,-1.581022829390282824e+00,-1.010927682511302717e+00,-1.347291457049669683e+00,-9.789024988217847056e-01,-3.430612028253368084e+00,-2.132976987259305623e+00,2.475475440963549101e+00,-2.485177053401490088e+00,-3.608680525631570379e+00,3.124499919082346810e+00,5.760844542090657328e-01,-5.606145264972050013e-01,9.243627614097631451e-01,3.302363711196266927e+00,1.351179010873197806e+00,1.323866590031880008e+00,3.298911353053690654e+00,-2.240767639295705660e+00,9.650891005564085079e-01,1.485851982552384709e-01,1.167043507344429409e+00,3.587485134319277069e+00,-1.090582869825565293e+00,-3.166027496999111346e+00,5.294897375678218054e-01,-2.688999978705736815e+00,1.507243447254379420e+00,-1.000096538350866426e-01,6.695697835621118310e-01,1.366500153854505628e+00,-2.618749883097988840e-01,1.980549946062809541e+00,-2.585686040420261733e+00,2.159696876635774920e+00,-1.020317505180864615e+00,-3.836203563290489171e+00,-1.124253681955365236e+00,-3.848800359403155458e+00,2.864502021902269213e+00,-2.557365729523483733e+00,-7.247978698509586204e-01,-2.241640924615071473e+00,-1.885905654976834489e+00
-5.515064061410841489e-01,-3.762016412180156699e+00,-8.255896706452464651e-02,1.841286043988519028e+00,1.200409571478413095e+00,2.176800776750900113e+00,-3.075695081273677189e+00,-2.098295176311653965e+00,-2.976277122327859459e+00,-6.580757370643995907e-01,2.659928365985375076e-01,-4.660422363470716256e+00,-3.652356893983984776e+00,-2.005296263101433940e+00,-1.809578637347254659e+00,2.071910908748407998e+00,-2.925109159205273812e+00,2.852760410645686306e+00,2.059044818463932724e+00,1.155051435524584225e+00,-3.026512476812762031e+00,-2.650055442617314849e+00,2.674550935212831604e+00,1.117332782632106225e+00,-1.298741924534466241e+00,-1.309153602588323473e+00,-1.555015296992174223e+00,-3.821363802587188996e+00,-3.533299935669227843e+00,-2.075701829727395253e+00,1.761852697609109120e+00,-3.888133080529087238e+00,-2.050839698180018988e+00,-5.739046495132085202e-01,-4.507717826366593350e+00,-9.391278850920499188e-01,-3.364723544747808326e+00,2.141107887965664203e-01,5.934980783298274831e-01,-1.896356194204645629e+00,-3.495645532797801991e+00,4.544252036964649966e-01,2.691907483319127437e+00,-1.572832057798111638e+00,-1.584345167165847723e+00,1.261271246647249766e+00,-2.511537694188547221e+00,2.133088595443984659e+00,3.015853186735729885e+00,1.444120952525302926e+00,-4.305922133938219765e-01,-2.860392512927881548e+00,-8.988651330741328493e-01,-1.901662553461242355e+00,3.272506912558430070e+00,2.699822781066928190e+00,2.585554368206613329e+00,1.095677414464218291e+00,3.545677758981415018e+00,-3.913564182381836343e+00,-3.756661093534531037e+00,3.852663347757274703e+00,-2.663842019336081890e+00,-2.087048240138065225e+00
9.629376132081101103e-01,-2.715315102798270264e-01,-4.171301989918497100e+00,1.336248894356678596e+00,-1.942671207588701765e-01,1.635847132254995229e+00,2.117767755563376486e+00,-1.070953459969627319e+00,2.406953634834426481e+00,-2.647965658302067649e+00,-4.008654627673935877e+00,-1.147451731799735281e-01,-1.598656402511136720e+00,5.304225759914777960e-01,-1.988451677743482859e+00,-3.427797642817707047e+00,2.215359727535575196e+00,-4.106362418863928276e+00,4.254615367234930723e+00,-6.103995670523996164e-01,-1.523841524823362770e+00,4.001760861099192823e+00,2.251998395419178234e+00,-2.421100118371037446e+00,-2.030883713953609837e-01,2.996809710468921195e-01,1.015263530223021515e+00,-2.421470623744958584e+00,-3.485994124938348371e+00,-1.747685915785913924e+00,-1.597382645213787811e+00,6.113803197360200281e-01,-2.211800861400946339e+00,3.353711366644106295e+00,-1.944924437451216459e-01,-2.717972897417039846e+00,-2.436758352545655981e+00,-2.257700335169987138e+00,1.555722176098016662e+00,4.257043054147822136e-01,-1.601940504952907185e+00,-1.826897639478236357e+00,-1.838958776439341358e+00,3.564761963368083819e+00,-3.673355739574605039e+00,2.635256634896518957e+00,-1.274517975897536459e+00,-9.833884261767358859e-02,-2.103062820315652282e+00,1.997812976822633146e+00,-2.958704972221838148e+00,1.463509483204293637e+00,-1.542506207851928712e+00,-1.816614729757138891e+00,-1.455036320769928171e+00,3.144397523502346026e+00,-2.239219262284452672e+00,1.390523789127014798e+00,-2.267668262146920952e-02,-3.390356722719189975e+00,-1.667031762082581414e+00,-2.385096937649056059e+00,-2.638650206498753370e+00,3.207766936795533930e+00
1.176208819834746899e+00,-3.604109270499828099e+00,5.498238588841470875e-01,-4.806686068415972457e+00,2.578188340031014603e-01,3.339601929540974012e+00,2.576924635293950772e+00,-3.277562417444348952e+00,-1.019255154660358764e+00,1.681972718036995218e+00,2.752668339382181806e+00,-3.486682216891049402e-01,-1.793411740475453764e-01,1.856554418002618556e+00,-6.863808388268068938e-01,-8.197241508451547087e-01,-4.168838421972442809e+00,-2.556778695561234827e+00,-2.430062894214767510e+00,-1.596756157088322414e+00,2.013221539763297763e+00,-3.382132330145578791e+00,3.320151258226500701e+00,2.010536222759542468e+00,-1.580940872039583001e+00,-4.084023332514437499e+00,-4.488191179441066048e+00,1.063370420181116716e+00,-2.479386846571139724e+00,3.609106061372959195e-01,5.762144707558608525e-01,9.571050000537495439e-01,2.257181666083911242e+00,2.095077929972826158e+00,5.923332965388482529e-01,2.556258139557966658e+00,-1.351232990080549978e+00,-2.626002325774463575e+00,-3.312187066060354734e+00,2.762332553591781981e+00,-3.705033844405015708e-01,-2.098686659254274112e+00,-8.341554230003349335e-02,2.240249676240225529e+00,-1.992596061570082844e+00,-8.112465409608087263e-01,-3.872976362678536510e+00,-2.768278238728347329e+00,-2.291150435425506338e+00,3.365342424596823090e+00,-2.283454438027454625e+00,-3.204239094620974448e+00,1.793570300077548474e+00,-2.132921387325811491e+00,-2.920891131183710243e+00,2.013303907961943473e+00,1.546336518677795979e+00,2.317535013461933247e+00,8.178047362550496802e-01,-1.336837695105059787e+00,2.477378513411372829e+00,-3.237556906260557810e+00,3.339547392836451856e+00,-3.403020508003530509e+00
-1.896332405699082402e-01,8.163700058283257510e-02,-2.076729431177045393e-01,4.277577208892108240e-02,-9.915891815546996890e-02,9.819734535917222507e-02,9.665686025370575155e-03,2.769441503560546303e-02,-1.138470896025059603e-01,-7.318316589479058332e-02,2.316760888936043525e-02,6.524510130968937116e-02,3.274829154611575976e-01,2.491631799055040938e-02,1.091243127657796769e-01,-1.740705054783388273e-01,-1.486864302333344434e-01,-3.974552408352324123e-02,-1.338764862794381283e-01,1.661844886227887841e-01,-4.586384413489585921e-02,1.545326329858042469e-01,1.662273339905394887e-01,4.782918085902748175e-03,5.610291803032697866e-02,-6.272111794609805391e-03,6.019908671969134012e-02,5.403926184759930834e-02,-1.382444844434993665e-02,5.645736025738598562e-02,1.927151022477607001e-01,7.971763793471309256e-02,3.642550415718032175e-02,1.394965652863567121e-02,-1.132202971866813762e-01,-1.148552825106989722e-01,3.615235926792044474e-02,-1.531025820577145147e-01,-8.567803021583846046e-02,1.432773235495535813e-01,2.140173863590640879e-01,-1.862595517624279218e-01,1.818649498438308365e-01,-2.363951956885180367e-02,-1.677619730521611070e-03,-1.267980577781256495e-02,1.208085060358578405e-01,-1.797437058287428835e-01,5.100064219259366205e-02,-1.056396995636618291e-01,6.381609762371674710e-02,1.724898743930512734e-01,-4.665851137124094489e-05,4.183181031789962034e-02,4.578928082226984414e-02,-8.939727098150856976e-02,1.690064171902462276e-01,1.907889501160245083e-01,7.846176627663536962e-02,8.193560386476707313e-03,-5.164129847594582656e-02,-7.004373631001860334e-02,1.912773448483875982e-01,1.581364091970183239e-01
2.223622480790323763e+00,2.454031307212966695e+00,-1.345897037774023586e+00,-2.528914404008618000e+00,-3.746556641326197035e+00,-3.702550562438238213e+00,-6.314374763236408894e-01,2.126201156679685234e+00,2.614032282431129062e+00,-3.860256234826338950e+00,2.049593817331219814e+00,-2.659120123985930562e+00,1.270589179484030051e+00,-2.072670374405717331e-01,9.038673919165330917e-01,2.615292045685914335e+00,2.467708220373610040e-01,-1.677499622850835870e+00,-2.169106173162058115e-01,-2.167639186872565737e+00,5.192342524278643623e-01,-2.447916122228102953e+00,-1.164101478842225479e+00,2.006017772891349527e+00,-4.447090827959918613e+00,-1.806986367625960543e+00,2.352537764518890739e+00,-3.205208977503038792e+00,-3.920985325070458494e+00,-2.506752625009103674e+00,-3.965169023876502941e+00,-9.286651899591634729e-01,-2.548186989198057528e+00,-2.755986301825544604e+00,1.687263505110688788e+00,3.762537661787674348e-01,-2.515773594091111232e+00,3.061026797575306935e-01,-4.035372637205562718e+00,-2.129191898839783548e+00,-3.918462321873494414e+00,2.145108614182518636e+00,2.806907562971055814e+00,-7.010941764233700191e-01,1.920097514365600722e+00,1.399403631717341112e-01,-1.686611144826886677e-01,-2.348589505546643252e+00,1.871377661661137060e+00,9.250747923501414505e-01,-4.024616860528192674e+00,-1.404651630818998909e+00,3.121458249186995104e+00,-5.923693357703264661e-01,-2.782936064877766569e+00,-7.113962797853555786e-01,1.786150056491041527e+00,-6.959256042605616033e-01,1.827583056942959638e+00,-7.076892459021643100e-01,2.298647020507092797e+00,-7.722343401034930110e-01,-3.025536337786714824e+00,1.097631709412152157e+00
1.223315885802544467e-01,-1.223398577375309493e-01,-1.650636474387453742e-02,1.265404236607738653e-01,-1.883584237852289900e-01,-5.583649133740224701e-02,-1.595364832135481858e-01,-1.042645213921164077e-01,-1.131961508920519138e-01,1.398179578088824537e-01,-2.622214946825922668e-02,-9.652608843170375208e-02,-1.157842406632058618e-01,1.583887054162060049e-02,-1.245000985291843136e-03,1.502720834292652075e-01,5.590356609108829838e-02,-1.600798580893290635e-01,-7.032218093549970350e-02,1.196377438922334446e-01,-6.943915658546161163e-02,1.939310647504534635e-01,-1.227924913705860238e-01,6.402011911116463339e-02,-9.628682603397312190e-02,-5.697446791355489232e-02,1.228251622139302640e-01,-1.420654069074795030e-02,9.094672582624822865e-02,5.291549716704039424e-02,8.428474571748251210e-02,-9.930246084005699136e-02,-2.477277082288764296e-02,4.743288468529017338e-02,-9.492923305970248082e-02,1.821836433003166389e-01,-8.689673681389763205e-02,-3.354141957629991344e-02,-1.125367246124265169e-01,-2.396291265298630679e-01,2.009015983253014670e-01,-2.284578766826269799e-02,-5.007840134139910498e-02,-2.221701930244843540e-02,1.587456180317050602e-01,-1.079021990583141910e-01,7.597799715875881710e-02,-4.738096659111028230e-02,-6.670982965883087701e-02,6.339903551973251339e-02,1.104886550506032072e-01,-5.745609653317928361e-02,-8.595994927382324957e-02,-1.307088781608985173e-01,1.233754717915859223e-01,-6.431557544253728442e-02,-2.067391002735766425e-01,1.576374413237487115e-01,-1.531549482995392397e-01,8.714633668366805752e-02,2.050794614846877806e-02,3.218992391022976185e-02,-6.533514199831351454e-02,4.087436785278483753e-02
-1.864634605998236327e-01,6.574461897590813675e-02,1.740790147257840481e-01,9.883724537019461520e-02,-2.257914457105219264e-01,-1.100379116574666805e-01,-2.099611056824686461e-02,5.444124573131167710e-02,-1.192413141431823177e-02,-5.514304485299845876e-02,6.655659775132538591e-02,1.301561242702734267e-01,-2.597125954175281623e-02,8.149683671516509686e-02,-2.883466391832577025e-01,-1.048167358441607772e-01,-3.591784108205177406e-02,-5.462336405587558952e-02,3.720797184535572233e-02,1.133407568216870109e-01,5.664731921465434444e-02,-6.956692260880900647e-02,-1.702506482167455981e-01,6.227048173213903942e-02,-2.055144072280540579e-01,7.301178787692848282e-02,-2.106924789701367443e-02,-1.314623481676262529e-01,3.211634388548231800e-02,-3.215580527897056039e-04,-4.091701737659979646e-03,-9.416450816218752129e-03,4.690422123204223553e-02,1.033548656906380092e-01,5.552326712347212950e-02,1.131599307363191226e-01,-4.934970592571172147e-03,1.809492533900533828e-01,6.385201924500485959e-02,-6.078684046657386458e-02,-1.223011853554559353e-01,2.300878213507926567e-02,-1.460735469660742469e-01,-1.088267415560759677e-01,2.673074821286618510e-02,-6.796388262776005551e-02,-1.043479278825961004e-01,-3.854427329054836010e-03,8.125636142897260314e-03,-2.301294362357516471e-02,-4.221102878560900606e-02,9.555196189384732031e-02,3.828454174162732732e-02,-2.497979874079175183e-02,2.755195680892036925e-01,2.167104699843939650e-02,1.265620214890622874e-01,-6.271958285443149372e-02,-1.523814303637530954e-01,-8.852106953035809855e-02,-2.996440471565864350e-02,-5.552248575698362498e-02,1.494125173932596973e-01,-1.342100545511247869e-02
-2.927876951317314735e-01,1.927149791743280716e+00,-2.929284137713006331e+00,1.765437917128761303e+00,-4.046860141213471707e+00,1.798123488293490224e+00,3.054934201883748646e+00,2.170232014007570154e+00,-2.786090798623349407e+00,2.764967149007662606e+00,-7.500807116401051466e-01,5.597740914499671483e-01,-1.410780170463876271e+00,2.488012869109982983e+00,-1.193792347450311819e+00,-2.723946132859456526e+00,2.034961821267915916e+00,-3.439901084792504005e+00,3.264186355524982375e+00,-9.423219939335921724e-01,-5.808091890343374253e-01,-1.054580227588921781e+00,-4.664928019736130360e-01,2.468224186456065006e+00,-1.662069993050613981e+00,-1.843309136158258976e+00,-2.106456829127374863e+00,2.184810691218585621e+00,2.112931704511246345e+00,-2.203520797764046968e+00,-7.112902735439001756e-01,-2.387478334942464198e+00,-2.032109274192138937e+00,-1.813357215642917630e+00,1.829497036106248586e+00,-2.007087827582201278e+00,2.741477423817591852e+00,2.392632006261062649e+00,-2.450953148844332019e-01,-2.273348686540918262e+00,-1.894800090590981423e+00,1.686521959775298951e+00,-3.170393667818812045e+00,-4.284595512493623914e+00,-2.523332123737509924e+00,-3.203080798880312052e+00,-1.928948241384625284e+00,-1.722827260268838812e+00,3.112670298498595445e-01,-1.886477153983273203e+00,-1.554207374572516231e+00,-2.424574073941773822e+00,-1.644860998301017396e+00,1.115497614954055861e+00,-2.502957860284894753e+00,3.208778650040827518e+00,-4.338414521678080504e+00,-1.956438344723916645e+00,4.745826805807520365e-01,2.259863685933792610e+00,-7.328667788810599992e-01,-2.763791600392414338e+00,3.280393731333666185e+00,-1.298094676177035334e+00
1.062838900756482297e-01,3.121007184977814486e+00,8.556191477540032730e-01,-2.084338816836919683e+00,1.026930062111466091e+00,1.497031933502637413e+00,-1.009041327566982282e+00,-6.239960674155368148e-01,-2.565909542672938581e+00,-2.381920479086951037e+00,-4.042299392988812912e+00,1.409576307097631043e+00,3.101218430019166750e+00,-1.551926135335895074e+00,-2.347286585498518097e+00,1.005258095571993193e+00,-3.179238076146126524e+00,-2.187542426381693161e+00,-1.847590979705588277e+00,2.229729232000116301e+00,-2.306649435137364534e+00,2.081197819212014632e+00,-2.757194571422020513e+00,-4.204867848040992895e-01,-2.498669705137375185e+00,-1.063327163770656059e+00,-2.682758815380693829e+00,-1.525582056868245662e+00,-7.198617798663040634e-01,-2.819869146277511174e+00,-2.194767429944380233e+00,-4.367194182265952129e+00,2.971322535617307192e+00,-3.590358081766828136e+00,2.441800291802417089e+00,3.872465588885411147e+00,-1.819447521448313898e+00,1.223998240800937554e+00,-4.306641839877995981e-01,3.134002598383730298e+00,-1.568950164747000331e+00,-3.202279738566737310e-01,-2.090283745593142672e+00,1.440135859773314930e+00,-1.501184265854220712e+00,-5.906162582044836018e-01,-3.133339929664104684e+00,4.102244827303399566e-01,5.820024091263440447e-01,-3.265529537955541795e+00,-3.159234542406975876e+00,2.886866775136214702e+00,-2.751721612396819783e+00,4.855219979273341924e-01,-2.527239994695563929e+00,-1.965870174064679121e+00,2.688077228697025589e+00,7.678249608311991103e-01,1.140880839546003722e+00,2.901783838397553161e+00,3.276018795088210034e+00,-1.227631097142719785e+00,1.103781484447204697e+00,-1.108469193534120878e+00
-1.532345988306181850e-01,3.472219019563635434e-02,-5.668841882575229724e-02,-2.248122920254631285e-01,-4.389035372753883474e-02,-1.221136781541255906e-01,7.811147082041482170e-02,5.831947334440876207e-02,5.555434247062333852e-02,-7.435391330346458050e-02,8.178995330456391433e-02,3.573793220404265086e-02,-4.582313044191185097e-02,-5.068466575034608068e-02,9.980780569469338559e-02,-5.295054328952110423e-02,3.394982583063117787e-02,1.155999054162118872e-01,2.134709951541811090e-01,1.860266706088865019e-01,1.007150468225327666e-01,-1.683660075101102993e-01,-7.703795639840248233e-02,-6.127801043926303648e-02,1.848277701304226472e-01,-7.818612269493901978e-02,4.317471349083856769e-02,1.127728050670602673e-02,-1.045504003956015671e-01,4.268922204752378935e-02,4.453085619548544788e-02,-1.403999000005378417e-01,1.367218549881412115e-01,-2.332789130127623511e-01,-6.604865760504563532e-02,1.086695824596936866e-01,-1.334102815166037792e-01,3.916092031710862592e-02,-1.449374975760941431e-01,-1.040041552630213348e-02,-2.586876982782176926e-01,-9.420238004739810156e-02,-1.725038619889671110e-01,-4.491855191447756412e-02,-4.642428137246736725e-02,-7.531794405266499515e-02,8.920940738336974318e-02,-9.915615410573101751e-02,7.092658626353308404e-02,1.821585687860662051e-01,1.554784466572591353e-02,-9.589044398533723423e-02,-1.396802923069520030e-01,-7.935638666418472209e-02,7.878145117235789419e-02,1.739557300298042244e-02,1.047368892270267443e-01,8.612561056714167218e-02,1.574310947778969488e-02,5.293759698172086081e-02,2.074228319631500894e-01,1.582751777248700975e-01,-3.384803368576053129e-02,1.106495254051353405e-01
-2.776144889912250946e-01,1.358815742373957747e+00,-3.093598274338029253e+00,1.871023759378520612e-01,-3.225676584810188707e+00,-2.455444875248451453e+00,2.722873540118493363e-01,-6.197402638119617890e-01,1.172252723248785822e+00,2.020652003878391501e+00,3.777845416445091864e+00,-2.489887910061832521e+00,-1.142195923962699533e+00,-1.349138007068669598e+00,2.118807915024746968e+00,-6.936153967773692752e-01,1.926587958906259557e+00,-6.949648829537613537e-01,-3.895261587264198688e+00,3.420424723337318618e+00,-4.326459632804034783e+00,2.809454523684275618e+00,-9.613391136252273927e-01,-1.681390953637580843e+00,-1.926624615511431271e+00,-1.461063619530940771e+00,-5.490605592704773663e-01,-1.789658125585478432e+00,9.258057410734900072e-01,1.200923269208583610e+00,2.142933760471041005e+00,-1.965234679751424185e+00,4.250157289297022523e+00,2.171236446653014518e+00,1.516484082469695682e+00,-1.120637165498574950e+00,-4.624926892917287646e-01,2.889616047654059550e+00,9.862145974271091520e-01,-9.609618082808502049e-01,-1.615586386072786151e+00,-3.409581917677042107e+00,-1.974189170633642076e+00,-1.663851071353054323e+00,1.351265688780067364e+00,-2.839329141071157636e+00,3.121785306044349562e-01,-2.160773967660978290e+00,4.348556434124510872e-01,1.307501092709808521e+00,-3.253377082258735342e+00,-1.275540316587641776e+00,-1.203050967209484234e+00,-2.977883617373737302e+00,1.142393556653135800e+00,-1.815541849052514367e+00,-2.689436066976847339e+00,-8.427006529988119166e-01,8.884588679059758354e-01,-9.570254871619515713e-01,-1.698138708887438453e+00,-1.029007901843283834e+00,-1.280086930960152136e+00,-2.661825155023448894e-02
4.661178565852807099e-01,-3.974876144279165135e+00,-8.172396846302242279e-01,-3.745663701633083154e+00,2.656277981288732160e-01,-3.248946759278716900e+00,-2.825370852967458379e+00,-4.479572485985627850e+00,7.720530992319359909e-01,-5.528174631237322778e+00,1.651402172943670754e+00,1.762140290702507217e+00,3.096550813587891415e+00,-2.194379764086881845e+00,2.965833767068470350e-01,-3.201669271628718505e+00,-1.622369376682726572e-01,1.611728427765459548e+00,3.864484353602291922e+00,-3.945501473837632833e+00,-4.553919043907467490e+00,-2.323470616293653368e+00,-3.429605170768528222e+00,-2.342509169479314757e+00,-2.042256831315428123e+00,-3.543302855282051578e+00,2.713737938352188017e+00,2.925395333905276285e+00,2.931433303007781266e+00,-1.107598165852672345e+00,6.662282366972283043e-01,-3.754915184283844187e+00,6.063624560215303827e-01,-3.220453355912741955e+00,-2.836995756860975604e+00,-2.522466267395482742e+00,-2.913912623133016577e+00,-1.082847802622498135e+00,2.127089148060319346e+00,3.213699687673959637e+00,-3.366145175513393983e+00,-2.822601978797676381e+00,-1.205477181965975086e+00,-1.308819571594624920e+00,-1.484294484529317559e+00,-5.071966460159792689e+00,2.556576159515400626e+00,3.058742556242773913e-01,-2.150464909742201058e+00,-3.249787869099721505e+00,-2.737742646472711705e+00,-2.764034047948887185e+00,1.892121438372312614e+00,2.436524165718045865e+00,-3.121787895212791319e+00,3.494405582707704738e+00,-3.468427996586167517e+00,1.892220107024044640e-01,-7.421028796217966628e-01,-3.986559612594575697e+00,-2.647774160056631576e+00,-2.367759118140751795e+00,-3.737250417494408783e+00,6.290423141558112441e-01
2.338038333917837441e+00,-3.257224469688776436e-01,-5.530541739121866973e-01,9.828662861855770316e-01,1.614774506872009185e+00,1.493208171862986156e+00,-1.850316464842049147e+00,4.726052926885140337e-01,1.431879797477569660e+00,-2.898121289413010171e+00,-2.948962455330724985e+00,-1.431795787817685239e+00,1.339643423701822433e+00,-1.440210471273885018e+00,3.034543619428487382e+00,2.297805029030174140e+00,1.726849828180425872e+00,4.964434961610655339e-01,2.814740974038475452e-01,2.363058866356318788e+00,2.757276934943538649e+00,-3.241817912883797614e+00,-4.222916364013252349e-02,1.524794508435269647e+00,-1.849964552151490693e+00,-1.996078685243185324e+00,4.438927030619938680e-02,-4.838945490073663369e-01,-1.271130427475951841e+00,-1.925058407915489544e+00,3.334151393789269502e+00,1.723496157392960137e+00,-3.515023710433627380e-01,6.317198923724447468e-01,1.946772282549374067e+00,2.856285007836531609e+00,-2.994901951847439125e+00,-2.480015007415239836e+00,1.849672189995247296e+00,1.123739757950780849e+00,2.370157150066146468e+00,3.995849489439125546e-01,-1.914783112967250567e+00,-3.020191783696742682e+00,3.910387251037690803e-01,-3.713941658191997952e+00,-3.186934134913399941e+00,-1.743882372678588366e+00,-3.984355455503342247e-01,-2.446787471276069326e+00,1.165041905721790894e+00,-1.013154087149107152e+00,-2.050949788803308138e+00,-2.649842897445608525e+00,-1.195474352703044918e+00,-8.423571091159490765e-01,-6.158092544464310869e-01,-1.347337780027753729e+00,-2.460287419342256143e+00,-8.987806821301621563e-01,-1.778220076392089677e+00,-2.666808257574568852e+00,-1.582036719329976027e+00,-4.685323469035046484e-01
2.293637925962419999e+00,-5.100373907752681069e-01,8.633095781049282547e-01,-2.763506586781121488e+00,1.618247015282051615e-01,-1.246014834443741393e+00,-1.972726065480459701e+00,1.931225397834044122e+00,-1.412400675173344888e+00,-1.763557386489277290e+00,-2.132071362791172042e+00,-1.670296667143045477e+00,1.404058561717813625e+00,1.752869729742442262e+00,-1.684953845269352879e+00,-3.582261824299545871e+00,-1.855868608847376144e+00,1.054477695161976980e+00,-2.453980564593268188e+00,1.418400214148168637e+00,1.997113386491155440e+00,1.649913148995093559e+00,5.881298027098785797e-01,-4.223566944898819564e+00,-5.877202397261169775e-01,1.800636327903381462e+00,2.733181097811852922e+00,2.826568790631101002e+00,-1.256223119181243186e+00,-2.167510283496012491e+00,-1.607181651518760690e+00,-2.800795151664468907e+00,-1.774720229213544886e+00,-1.153879531746102166e-01,-4.062444168810350753e+00,2.122080629520452177e+00,-1.701987363004142439e+00,3.564988560414753760e+00,2.973967816818315679e+00,-1.768274583775691466e+00,-6.760149010823475191e-01,1.013670436826164645e+00,-3.657867472009266763e+00,1.717745450537504270e+00,-2.088320239818343804e+00,-7.097274125383096210e-01,-2.785563390338738454e+00,-6.913088705847730830e-01,1.892763649858359987e+00,1.110287181664945555e+00,-1.716874715819904695e+00,-3.066390855940947513e-01,9.370076329002356985e-01,1.082708192400178682e+00,3.471602731021095511e+00,-2.204019809083576753e+00,8.867121460911520092e-02,-1.046136355562705456e+00,-2.769567777327062164e+00,-3.294811171087862700e+00,-2.584432679660855214e+00,-1.408230905227872976e+00,2.095096490026628011e+00,-3.643122282353529862e+00
-2.147376521771927393e+00,1.706572833340695761e+00,2.427778841664035347e+00,3.475779541803045269e+00,1.852938088774223280e+00,-2.095128729113915345e+00,-1.845971672923790052e+00,-4.099134867663765114e+00,-2.267956312748430125e+00,-1.095669033433900541e+00,-8.379319680753424815e-02,-3.344879132811269251e+00,-3.063595428724918079e+00,9.078377938298236582e-01,4.502819194600711228e+00,1.259525692307647882e+00,-1.757672958047386436e+00,-1.393104064592456171e+00,1.246514110815223342e+00,1.488293249709958133e+00,-1.773100830127946281e+00,6.100678729397852884e-02,-6.334911588607274879e-01,2.097395568122922271e-01,7.634272896861195035e-01,-1.825850083779881006e+00,1.268828369355579966e+00,-8.902346813030600492e-01,3.424964790463864150e-01,-2.234684674392557024e+00,-9.096875135262927348e-01,2.574408343986751557e+00,-5.573548760977610206e-01,-3.127732072484783465e+00,8.003513933277719428e-01,-3.045597783530568758e+00,2.637216884365768621e+00,9.549032111306752224e-01,-1.240121448782044888e+00,6.016715021766995131e-01,2.698306785648578732e-01,9.550104798039349419e-01,-1.278034103801518828e+00,2.217718306029510256e+00,-9.080838163052911138e-01,1.290947272719338068e+00,1.286256049584369121e+00,-2.331831835850887380e+00,-3.215520518262884320e+00,-1.171096510766574395e-01,-7.195823836517846184e-01,-2.955866479631894084e+00,1.579518935345704422e+00,-2.293122075154526929e+00,8.735807189047528620e-01,5.812803970921986974e-01,-2.606904808260204209e+00,2.155311742294417243e+00,-3.177616894228733280e+00,-1.704231089598995164e+00,-1.355893133286719232e+00,-2.937370553268128237e+00,2.273254213208626862e+00,1.600068598738058068e-01
-1.790421535681196774e+00,-2.810567220957202572e+00,2.822208381856140758e+00,-5.363444445302704283e-02,-2.009802405155943106e+00,-3.452518063406851745e+00,1.503028319016460658e-04,2.514775778843969523e+00,-3.336336863516508711e+00,-4.636968036754787748e-01,-9.258150007116768831e-01,2.655976670748755986e+00,9.266637836231781389e-01,2.426964837755233306e-01,1.736819140619441981e+00,1.672555697428200094e+00,-3.088706628717079905e+00,-3.063091986937590772e+00,-2.517946403293337632e+00,-2.023769526605655233e+00,-7.306514076562464766e-01,-6.632958885290048956e-01,1.150604200217183681e+00,1.123477692524620375e+00,-2.487790943211315220e+00,6.927355535637874651e-01,-2.188145528872278867e+00,-4.352124596474655327e+00,-2.299892012902680971e+00,7.317055087120658170e-03,2.066207555060492140e+00,-1.053609406252265401e+00,-1.986252718976171172e+00,2.095859485775458886e+00,-2.697037525906182509e+00,-1.791811153644339516e+00,-2.577325539274091248e+00,-6.067527319621662807e-01,-2.924586445626398135e+00,2.424458439688744082e+00,2.630853965437793818e-01,1.593087648214453145e+00,-2.111720039256931081e+00,1.579710781979697831e+00,2.192268375241024359e+00,-2.510495059517058536e+00,3.346650895840437734e+00,-4.011163219489715992e+00,-2.298728067911072870e+00,-7.097343053242753941e-01,-6.503216147362531618e-01,5.468764038502929026e-01,2.455341270049393176e-01,4.256262135953476466e+00,-3.199404919341498621e-01,5.204020045238840098e+00,-1.824581275350029230e+00,-1.719506219742653608e+00,3.017116109207954033e-01,8.197699377627402084e-01,-2.432631752794311986e+00,3.362412448503629414e-01,-2.909828000218438238e+00,-2.760156008212413692e+00
-3.519522717018120694e+00,-3.013433992733702826e-01,-2.241664866746412521e+00,2.365000149658383233e+00,-2.124194070762933872e+00,1.516015537708751193e+00,-2.289569928405820853e+00,-1.605211763593985985e+00,1.840200913760232648e+00,-2.035906163170734029e+00,-1.313395644937320306e+00,-6.765523747453228154e-01,2.515025514912114346e+00,-1.480401895784607680e+00,-2.432114458041158556e-01,8.117359395200484107e-01,-1.825690206667361037e+00,-1.525339059647579099e+00,-2.843297613728286155e+00,-8.033017558123244362e-01,3.605096311110873031e-01,1.207109749289154266e+00,1.181875433690439570e+00,3.118064875294341842e+00,5.972982683346899080e-01,-1.158623492275972833e+00,1.962828405529920994e+00,-4.926071943601316727e-01,-1.988541693608510075e+00,1.608974964279808573e+00,-2.633145923939303579e+00,6.239444888658938343e-02,4.705100792787791919e-01,2.254875077203766232e+00,-1.118356092340455188e+00,-2.597908113906008065e+00,1.520496629160141167e+00,2.557874350550254139e+00,-1.198384876199821633e-02,-2.835207603521161523e+00,-1.784507486801116372e+00,1.464070379267170097e+00,2.634766098093281883e-01,3.393463806343316458e-01,-1.238936236406329161e-01,5.234185446187995527e-01,-2.498186351772048397e+00,2.860925235335799455e-01,2.034450374779552373e+00,-2.154366097507379507e+00,2.454782890848774102e+00,-1.588752825242654820e+00,-2.443464243317511553e+00,1.756697077718171407e+00,-2.052397958660292954e+00,-1.804734348732237370e+00,-1.324391423432848436e+00,1.475225684476044075e+00,1.729439317900008932e-01,7.765449988242431045e-01,-1.679924002799543237e+00,-3.318881863363178919e-01,8.337838843214021578e-01,-6.169421171611604304e-01
1.692864277762980985e+00,3.108169564987879774e+00,4.012692529010167819e-01,-3.116422568657561953e+00,-9.230288645031645700e-01,-1.864564886204731708e+00,-2.126247040253108178e+00,-1.406015821881046568e+00,1.916632605122457145e+00,-1.286558129624454649e-01,-2.991365632120308593e+00,7.071145180521026807e-01,1.112153302240112884e+00,-1.572132176740952181e+00,-4.087611262308673332e+00,-2.169601160385735472e+00,1.856896614334733187e+00,-3.223651992047677606e+00,-2.574732492308276388e+00,-8.077213683036241765e-01,-1.402750791186277990e-01,-2.891204013506894377e+00,1.260284869915584416e+00,-2.881049984662547470e+00,2.782081584998099100e+00,-1.372169557960843944e+00,-3.790299924814746757e-01,-2.028840247793733120e-01,-1.358107375018311913e+00,3.461006530190846142e+00,-3.074009161280338631e+00,2.156477306345349287e+00,3.153190031287840256e+00,-2.253861441156634893e+00,-2.963094305465885814e+00,-3.732979905544925314e-02,-7.275439210426928316e-01,-1.358786077858271213e+00,-1.525531240534766075e+00,1.849356440074914287e+00,9.572523091945421645e-04,2.635168423062781873e+00,-9.835116864054704866e-02,-3.778013739598821807e+00,4.882687935868891826e-01,9.522220706528110590e-01,3.864642337952088447e+00,-1.097357009457330168e+00,-3.179743745200585892e+00,-2.765590106670606119e+00,-2.348773221416989632e+00,-1.357948313197274270e+00,8.311175192938279332e-01,-2.595714146582565718e+00,3.250023413204526701e+00,-2.009342649441316020e+00,1.753973749311760644e+00,2.928658463440288351e+00,-1.793923362219839612e+00,2.037247069808063138e+00,-2.055734585664573011e+00,-2.794047077521756517e+00,-1.410981649855567177e+00,-2.014904130806416838e+00
-2.683194591328366130e+00,-3.439031498135333820e+00,2.635474075525919613e+00,-6.657603257264457786e-02,2.651818602526362589e+00,2.745964797300794569e+00,1.177161303706133921e+00,1.665660203079561752e+00,1.143299217514221200e-01,-2.614898074762875613e+00,1.921707235538671288e+00,-1.621677891436716923e+00,-3.546712801880654187e+00,1.678513117270995281e+00,-1.926321667096687174e+00,1.353413048500967664e+00,1.766842959026067028e+00,3.231198621620857470e+00,1.558364884413815155e+00,-9.041310265859144879e-01,1.105779745667403668e+00,1.516718594191268865e+00,9.018826585158036258e-01,-2.103836971738525907e+00,-1.687223485633343900e+00,-2.867233015308158439e+00,3.012550313750900877e+00,-2.591918255355553091e-01,2.344298344293006320e+00,-1.068964407993025778e-01,-3.019866307570591601e+00,1.071201955216529944e+00,-2.421083143032793039e+00,-4.673489727975741470e-01,-1.951918699238202937e+00,-2.989023655298309823e+00,-4.063992183892666810e-01,4.941385319598728398e-01,-3.497360909489687586e+00,2.053316020932497654e+00,-1.634291908477013777e+00,-1.344002843325421137e-01,-8.049177674778930092e-01,-2.611662023279360145e+00,-6.577311236347870016e-02,-2.756076073355587575e+00,6.013212604230172564e-01,-1.782916366444295075e+00,3.208188911627626982e+00,-3.026619017322580429e+00,-1.447277186017552397e+00,2.556593046883684828e+00,-2.708922235350474050e+00,-9.068995570954194729e-01,1.725639918341007606e+00,-1.877581232501061903e+00,-1.924174320548219796e+00,-1.675211251782917632e+00,9.660925451709182488e-01,3.030868146778483707e-01,-1.631334584383984931e-01,-3.621002320243597694e+00,-2.617345179331738603e+00,1.835469666590470728e-01
-7.807625656551188120e-01,-1.104695690240466543e+00,-3.947559368328275475e+00,2.057316361667498761e+00,1.164812200765218408e+00,3.808653122827168058e-01,4.273523507205552185e+00,-1.665966099413563217e+00,-2.784086519540320381e+00,-2.354448329206635826e+00,-7.436712435579009295e-01,7.756204952399198271e-01,-1.191276043092750703e+00,-1.937701486896144853e+00,-2.695614220752555745e+00,3.397657699742511639e+00,2.111674511223461170e+00,1.920405070409773041e+00,-2.879684084701544133e+00,5.806450764252735208e-01,-3.558910014597346100e-02,-1.761335925428712534e-01,2.338284035611130740e+00,-2.920679299796782757e+00,-9.307869911961970111e-01,-1.934862502183904320e+00,1.744607036722640281e+00,7.018081419090328732e-02,-2.046096059500385866e+00,2.493512313647609169e+00,-1.601564890798670704e-01,-4.186936214493358399e+00,-4.843080188965357413e-01,-3.143908195745863221e+00,9.496363418551764246e-01,-1.549119572393146127e+00,1.417876854873119652e-01,-1.543204294936627141e+00,7.132481283097573677e-01,-7.877548707152081109e-01,5.181582507614206357e-01,2.425034083030426224e+00,-6.019725963512417843e-01,9.118012769058136957e-01,-2.716656814061485292e+00,-7.936283305211738748e-01,1.579811430569069364e+00,-2.669532845800309584e+00,-1.372003609715895633e+00,2.717742957017015293e+00,1.795225492490747810e+00,9.572524489903988520e-01,2.036381113117812447e+00,6.120455752283504580e-01,-2.511572044816510640e+00,-3.163475687986368801e+00,-1.641631292838694911e+00,7.927519106921770975e-02,-3.509903615027064383e+00,-6.968258217033030943e-01,-7.934619027062431718e-01,1.701577732818536415e+00,-2.021640389811856231e+00,9.917047963803735655e-01
2.660978045351345966e-01,-2.792855664595200516e+00,1.355096898872445665e+00,-1.130376675901579420e+00,-3.305685183772094859e+00,2.060481986788117226e+00,-6.351911882012090116e-01,-3.244407282017422567e+00,-3.680342440051639352e-01,-1.730783772335019899e+00,-1.317214546740806957e-01,1.067761971498030649e+00,-2.163371737966192754e+00,-1.947473051661419152e+00,-1.964400835912148091e+00,6.323962719288160617e-02,-2.125694770052534821e+00,-2.534513006344984554e+00,5.686613775198174903e-01,3.489191945553097085e+00,-5.972567608921084403e-01,1.374228379912047604e+00,1.506909911085598353e+00,-4.630614076778852839e-01,-2.796576700770818658e+00,3.035809955717358566e+00,-1.179405801198784687e+00,3.417146715455813943e+00,-8.459963767866639506e-01,-2.007771404313860142e+00,-2.261631273217197258e+00,1.912007230394546342e+00,-5.532829725954820088e-02,-1.625403965043533905e+00,9.331993086638082913e-01,1.721496197561718455e+00,1.307604530217976180e+00,-6.290341482840351439e-01,-1.338359929797769521e+00,-3.768744512650518796e+00,2.061638955698466003e+00,9.997804505057599211e-01,-1.859575612305039760e+00,6.922219487205241162e-01,2.427036058548023512e+00,-1.702867167480834887e+00,2.410819068018597466e+00,-1.558090113049567460e+00,-9.630008727286827330e-01,1.169447172736096219e+00,-1.107452329120421630e-01,-1.336555363860330914e+00,-2.181444495911997628e+00,-1.755075267788343663e+00,-1.655417153698915289e+00,-1.597882169754633486e+00,4.362064707178166523e-01,-1.930133791496512430e+00,2.376394630926573992e+00,-1.044298833051216624e+00,-1.392713461192295998e+00,4.973948505290645139e-01,-1.741997271288659777e+00,8.779918541972321355e-01
-2.600403010243724111e+00,-2.500970992257910641e+00,-3.119353124837581870e+00,-4.482596634352128184e+00,-1.741327244221301251e+00,-1.297088463375856593e+00,-1.934874966995870915e+00,-8.354551060433565990e-01,-1.777134950155960569e+00,-2.780848069917750909e+00,2.134313992005161698e+00,-3.117983288208550530e+00,-1.985520190910582961e-01,-2.527597007673315854e+00,2.419771687008006378e+00,1.045913516760740514e+00,1.051062951929583100e+00,-2.539656404371716025e+00,1.211530133492695116e+00,2.092029307543179950e+00,1.709413861915579869e+00,-3.732309798006699264e+00,-1.762899966162416288e+00,-1.416101605504430205e+00,1.798143584549419582e+00,1.439224465361878869e+00,-4.461056138135128357e+00,-3.199326044926585677e+00,2.454268799337360196e+00,2.275993944394315793e+00,-2.247287659310829966e+00,2.829700274995366471e-01,-3.074038535419814977e+00,1.662447122406623068e+00,-1.815515983356531526e+00,3.285766872312790632e+00,2.683627805651450426e+00,-2.565370147903434983e+00,8.869781262659018894e-01,1.763317010746089819e+00,-2.078302076383535812e+00,1.566818667655831332e+00,-1.700955198097257259e+00,-1.086209704753544392e+00,1.011464708822224390e+00,2.253366262990340374e+00,-1.593296480645185920e+00,-1.289283687064067374e+00,1.193565917134137067e+00,1.708286878560197009e+00,-1.542340055122660036e+00,-2.869492735454638677e+00,-1.365608036624041954e+00,3.455173034161315160e-01,-1.540820103826993082e+00,-7.486114543005509825e-01,-2.343862598683359166e-01,2.322993595158246549e+00,-1.772945876345416671e+00,-3.067319618471469944e+00,-1.021177541706775882e+00,-3.530706359061240862e-01,8.154446524776413074e-01,1.769966562434887480e+00
1.507802143170631215e+00,-1.436562192874719646e+00,2.269994752474830513e+00,1.797244272904102713e+00,2.096899313874764914e+00,-2.190581565348539150e-01,3.188949759033648412e+00,2.149524240142003662e-01,-2.424829798069184417e+00,-1.951477519307268427e+00,-3.323296353912768897e+00,-2.245091393567807181e+00,9.208635563065630247e-01,-3.647034720480466063e+00,-2.494368389141415232e+00,-2.188085827498854385e+00,-2.561814396149137529e+00,-1.627492386963018678e+00,2.059510316263593044e+00,-2.946891783792235930e+00,-1.647557885303229996e+00,2.384080809917202615e+00,1.267341395785327007e+00,6.827532304623374904e-01,1.206301852755489401e+00,1.769861025057873016e+00,-7.178816339401010715e-01,-1.501835698246395623e+00,2.596504491086598421e+00,-1.966020038011249804e+00,3.522283120925539635e+00,-1.873432698141743957e+00,1.867558054222402397e+00,1.509590195450927208e+00,-3.546565383664693094e+00,-1.004982234035098010e+00,1.948883979567245794e-01,-2.685700859882492075e+00,1.476153717684758782e+00,8.747375619554361714e-01,-2.328287533769638262e+00,-2.006564118357769821e+00,-9.429352867152304141e-01,-2.818790547020068260e+00,-2.469146146812006837e+00,-2.561087147804908426e+00,2.347201338813059479e+00,-1.626532349098604779e+00,1.826103256494124416e+00,-2.050183435729796777e+00,-2.206729334358985550e+00,-4.146075823234202318e+00,-5.018996592988933525e-01,-4.144244461869420526e+00,-1.092482373911373150e+00,-3.020069854992344816e+00,-1.991925842539400415e+00,-8.132699545949296782e-01,-2.268044262312198356e+00,2.928298616996303227e+00,-2.960493997716120429e+00,3.616727869512073923e+00,3.358081007124583461e+00,1.124417718470780203e+00
-1.157439646285212786e+00,2.740833456618049890e+00,2.475614464257906988e-01,-3.763398978576907306e-01,1.580080455809285134e+00,-1.118394439342742935e-01,-2.128764106380315546e+00,-1.351560177943041507e+00,-2.370750492512072594e+00,-1.556160241927166066e+00,-5.174769595557897617e-01,2.304055166124318710e+00,1.875038863284602453e+00,-2.569774676557819326e+00,-3.776997589845255687e-01,2.533563841393700056e+00,-1.599602181616012198e+00,-3.338433326471774709e+00,-1.785081926056984569e+00,-9.262853255149424703e-01,1.476664270640194454e+00,-1.388737719755190447e+00,-8.647716192319709894e-01,3.385443425879176349e+00,-2.908311375148604938e+00,2.408039962910704546e+00,-5.944392253483888888e-01,5.645936962086296751e-02,4.655933864047430149e+00,1.766151927055411353e+00,-2.840901947122104865e+00,7.673468642150582664e-01,-1.655174423863041921e+00,-5.701965827777217832e-01,2.962855003382103725e+00,-2.507659926383126514e+00,-1.383326321784241308e+00,-2.283648541111636732e+00,1.416330031603533879e+00,-2.084979586658871398e+00,4.300557367631504535e-01,-3.344110321621877713e+00,2.355186730005109474e+00,-1.846881465113619614e+00,-1.880460916011724715e+00,-6.355046442781488170e-02,-5.709040791967596729e-01,3.520968512827088670e+00,-3.472818155567663378e+00,-8.988264582318364893e-01,-4.661120397526725689e+00,-1.002588895948305137e+00,-1.280707096950908508e-01,1.811107898278069062e+00,1.205696199702789961e+00,-1.801580164902069736e+00,-4.083913689258736213e+00,-4.370009026046742129e+00,-2.151987502412300302e+00,-3.091772532314912336e+00,-2.888595945790795927e+00,1.264699952986138687e+00,-1.348647705114415452e+00,-1.686458277845671816e+00
-2.768580797645373792e+00,-2.339566755081506688e+00,-2.476240775747068579e+00,1.501927878737557842e+00,1.859503541406874794e+00,-2.365229419530127331e+00,1.288483423632865943e+00,1.105311108883314297e+00,1.346408170531492976e+00,-2.826110275845723052e+00,9.366565127649674194e-01,2.325040109644005426e+00,-2.088177515131523609e+00,1.475684546064904845e+00,-1.911077886328212294e+00,-1.990486319143787819e+00,-7.469133921573321011e-01,2.972771642284381510e+00,-2.534619682720728129e+00,9.462317665652967280e-01,1.680206714544679514e+00,-4.012065483269978694e-01,-7.512962475632504189e-01,2.766712607572865412e+00,-4.263065500771729077e+00,1.927536453998975441e+00,-1.114572671627088285e+00,-1.234020112235592187e-01,2.091148016896505091e+00,1.254891067072825273e+00,1.097381225210934730e+00,-3.489816868057527555e-01,3.433084638357873919e-01,-2.127826344299914574e+00,-2.567986754354496082e+00,2.347181417344088139e+00,-1.116835454863434718e+00,-2.307967083664162811e+00,-3.701601913522889031e+00,-1.663649412789147242e+00,-2.183835921187691653e+00,-2.989060090982534335e-01,-2.586645739018355261e+00,-2.338625164567146086e+00,1.445384308325438960e+00,2.765198465629690627e+00,-1.796066199385764950e+00,2.834975677836372832e+00,-2.572719111572314699e+00,-2.801040800939364139e+00,-8.448386792928089806e-01,-3.040808927323157995e+00,1.738658458408548046e+00,-2.091909747358752458e+00,-1.775577552764500133e+00,2.283904871430262884e-01,-3.086550905760525598e+00,1.613545995096966834e+00,1.410144076308951666e+00,-8.767412177607513124e-01,-7.075818015096345670e-01,-5.047315431829637600e-01,2.908015440747455660e+00,-1.217070889156049995e+00
-2.992849724923978272e+00,3.403114804116324610e+00,1.491552818007371162e+00,-2.675572884607134050e+00,1.110032789456914637e+00,-1.836779318883449141e+00,2.153229598831170932e+00,-3.078923715870603317e+00,4.149167187043760197e-01,3.678913008923735184e+00,-2.552772102275674637e+00,3.014637349990866078e+00,-2.453737352816444783e+00,2.798932773980362221e+00,-7.598558081054094249e-01,-2.977227847188461674e+00,-1.629370948636443384e+00,2.286029720980682356e+00,-3.672722150997060009e+00,-2.121311964835884911e+00,-3.634861706593120800e+00,-2.923558625508583919e+00,1.648278344622118308e+00,-2.401075496590901359e+00,-1.002881065382165815e+00,-1.478394266812368851e+00,-4.648098692117880404e+00,-2.471889580942384923e-01,1.039103473049354243e+00,-1.806396216165631952e+00,-6.395540610142764759e-01,2.263024472810670318e+00,3.155042280735760318e-01,2.275396182574260351e+00,1.525763129281270780e+00,1.192510600122330261e-01,-3.514235933851018512e+00,-2.603087887233379139e+00,1.301628394410294876e+00,-2.777271875422055558e+00,-1.404559095329882323e+00,1.647496422558344831e+00,2.682411336328434093e-01,2.430796872537214881e+00,2.862393058935847057e-01,-3.136529061985781741e+00,-1.620556144606260185e+00,-2.041640008919953342e+00,9.634041217112075950e-01,-3.313321626130354414e+00,1.679561034514907014e+00,9.604675169297216542e-01,-1.799122754253683398e+00,1.327787152188967812e-01,-8.144348745854956828e-01,-2.794467169218849634e+00,-2.296474123022584912e+00,1.938610377570355148e+00,-2.851939242773251948e+00,-3.065647337891096669e+00,-3.098759866056497891e+00,-2.163461400766947540e-01,9.312003609835031170e-01,2.652477535567096645e+00
1.916851650189078438e+00,2.768204427883443230e+00,-3.415060909858744775e+00,-4.618932245699430617e+00,2.264402765116825533e-01,1.001771104947559499e+00,-3.035522926254985432e+00,1.827549682090956917e+00,-4.646278301739604349e-02,-7.429352315623996006e-01,-1.447118785635402860e+00,2.857049679792726948e+00,-2.360524602485778001e+00,-2.570839583893715030e+00,-6.827155426534372573e-01,2.679859389301092465e-01,-3.057295055048087296e+00,1.486547526166437372e+00,-1.035478917492201889e+00,-2.323972895884919954e+00,-1.088697115289332107e+00,1.851319081099798147e+00,-2.144838333257341301e+00,2.473147244133430955e-01,2.742962181980014069e+00,-1.712241072189359059e+00,3.130900942901895245e-01,2.594401688334579403e-01,-1.846867407004572081e+00,1.899613723921238506e-01,2.750186453116783447e+00,2.168064718041773808e+00,-1.620499222264755179e+00,-1.143909814865859520e+00,4.783162709441589611e-01,-1.977131796904517014e+00,2.924570902558708774e+00,-3.555060421319292008e+00,-3.022649529280125424e+00,1.464554355160069488e+00,-3.134479635140762444e+00,-3.560223212833645845e-01,-1.863263014320667432e+00,1.405902884467388869e+00,2.042653703287501177e+00,-2.456373611053815909e-01,6.484038175418703476e-02,4.383174396461764211e-01,9.516975771294735598e-01,1.624729098126293181e+00,-8.914651477470567631e-01,1.573542636120362825e+00,-1.688205246499346335e-01,-1.322936671118456031e+00,-1.476343543216417364e+00,-2.132868878491121389e+00,-3.094759539768897838e+00,-4.092897499493381552e+00,1.062190236401357790e+00,-2.953209295740745421e+00,-1.363374470426239604e+00,-1.038805385646440094e+00,2.573214561972970493e+00,-1.782170905558373653e+00
-1.290433845191478524e+00,-1.373994484501906699e-01,-2.587830363119835386e+00,-6.210929092833014087e-01,-3.116599639367653385e+00,9.198649455437024614e-01,3.004974207840901634e+00,-2.343489244114807857e+00,-1.042994642561327207e-01,9.108711955790373960e-01,-2.462934682253053731e-01,-1.242489002934776154e+00,2.162789055469147126e+00,-4.371627905612308213e-02,2.695045401800963525e+00,1.587895216222739103e+00,-3.730928748928489025e+00,1.927802613665899001e+00,1.359406884364267709e+00,-2.336409411582363038e+00,-8.619682672687413172e-01,-7.273257940730790683e-01,1.964837111828395599e+00,-6.412449031491022078e-01,-7.843051591044708504e-01,1.576607183335384521e-01,5.109114749285901258e-01,-4.295914435622503191e-01,-1.321069285541344618e+00,1.645719688761172916e+00,2.659909571289778896e+00,-5.215509264740515460e-01,-6.182463443357365529e-01,-3.064089869367577101e+00,-6.565722243489632293e-01,2.759473534199192724e+00,4.602462754215417284e-01,4.591851393357788691e-01,-2.109688204367856201e+00,-1.786282865450304458e+00,-5.296369580382898762e-02,-5.138460696055128230e-01,-1.455689056264435122e+00,9.452763328364537365e-01,-2.733424737996896337e+00,-7.577422568192727637e-01,2.807420052716114722e-01,2.146407442829704859e+00,-2.484338373798660182e+00,-2.718061704757911645e+00,-3.742894697746566468e+00,1.640878764107889465e+00,-1.829714291616423960e+00,-2.242669713682370058e-01,2.763464634685028898e+00,-3.360084782608333542e-01,2.420856068276331818e+00,-2.263063168922351931e+00,-1.087006778961794096e+00,-8.145698647051329289e-01,-2.388526326577992798e+00,-2.589462875483066640e+00,-1.282452464034689044e-01,1.414445965764470126e+00
1.974524075626764574e+00,-1.486941003786035775e+00,9.394015353750427844e-01,-1.410867619945850582e-01,-2.001546529196998048e+00,-2.379341991362220465e+00,-1.303610240656744024e+00,1.421048131194861064e+00,-1.128933958119554548e+00,3.578006507119209090e-01,-2.622815542252245002e+00,-8.494676017615713226e-01,-9.563703239558122293e-01,-1.325258100956137275e+00,2.201946362111340427e+00,1.039950633936640001e+00,5.671980190399463773e-01,9.372917646582759055e-01,1.578314439965954552e+00,-2.548282636610773810e+00,2.343641488884813384e+00,1.631405025324445646e+00,-1.041497629166511230e+00,-2.424581311452675525e+00,-3.963447896072789689e+00,-2.369889489452176257e+00,-2.540902524390453721e+00,3.080845190990930682e+00,-1.391572469634184239e+00,2.172563060648962097e+00,-2.819508241609224974e+00,-1.817578339653910025e+00,1.244830285588631957e+00,-3.505653395769239289e-01,-5.930892157601139747e-01,1.466823319736131892e-01,2.011992930289263626e+00,-2.646154337740041385e+00,-1.076357603184667777e+00,-1.569772086144541445e+00,-6.295755566443560491e-01,-2.657552944280447083e+00,2.239103474088611989e+00,-4.097729689001385012e+00,1.842934118108534802e+00,2.201599635541770184e+00,-1.244703670360944869e+00,-2.218314449817777145e+00,-5.141989924615726348e-01,2.653431231362804787e+00,1.731267335134802687e+00,5.077778130735606243e-01,-3.060623089185650958e+00,9.584616616986321169e-01,1.434846407651028777e+00,-4.111838644285971123e-01,-1.397527795277600182e+00,2.821034256999719325e+00,-1.986183593513740631e+00,-2.132734182106156506e+00,2.019566305945538764e-01,-5.239474307019492683e-01,7.901664451074151552e-02,-3.153552559493503882e+00
-1.132105481057606999e-01,2.739017882654467759e-02,2.697086767695192622e-01,-5.111838694768702090e-02,3.548638318723186524e-02,1.683275022167176060e-01,8.516111233253036150e-02,4.828626505214008574e-02,-1.133339060709846885e-01,-1.428387223859309552e-01,5.973928478485180174e-03,-5.179134310477884889e-02,-2.130773076563691887e-03,2.299311515670774547e-02,-7.562693147629818979e-02,5.524239770277353939e-02,2.077928988846312330e-01,-1.128477530129714801e-01,-5.249687881201223899e-02,-5.546640260850750105e-03,1.275072678264203840e-01,-1.326415400403243572e-01,-1.190871783753923996e-01,-2.419046552461714406e-01,-4.923399217342115664e-02,7.604260837167424458e-02,1.190957430293776431e-01,3.993099325485122836e-02,-6.718903287260567792e-02,7.898592762062395245e-02,2.284351288422925216e-02,-2.147414141985885261e-01,-1.373051764272285591e-01,1.690316797621193023e-01,3.602362341143340585e-02,-1.537066853895219798e-01,9.167354439941907684e-02,1.186720361862007578e-01,-4.863828311987587749e-02,7.353109375527107361e-02,-4.181559634575253703e-01,1.088491947678555116e-01,1.313863670229123981e-01,-1.257455862345131792e-01,3.153810643882035136e-02,-3.780302594216086026e-02,-1.146314443506637158e-02,-4.750307781453707440e-02,-1.489551615001098728e-01,2.113535592503955340e-01,-3.469380769074200538e-02,1.171196999781730537e-02,-1.128544156984966490e-01,-1.159252727955633194e-01,4.612990517587457762e-02,5.885242370177031640e-02,9.815490608500822278e-02,1.234056850686454515e-01,-2.350191749713719316e-02,-4.966341234509614316e-02,8.349632483936901550e-02,-7.126786951968845651e-02,9.746556283952588495e-02,4.187040499334777899e-02
-4.228879953632769251e-01,-2.490982566506220186e-01,8.916109215934974186e-01,-2.118331160714990169e+00,-1.165522958649755303e+00,1.862766034185422193e+00,-2.383953360728028770e+00,2.080278759362074847e+00,-3.268938109549492932e-01,1.592974308969219432e+00,-7.439246620724271342e-01,-1.715360333206432664e+00,-2.135741702095197425e+00,-1.623829560529669092e+00,-2.782121656123898390e+00,1.866824498062889193e+00,1.868457388012418008e+00,7.943509918759985577e-01,-2.140322242451155876e+00,-7.867422194665917301e-01,-1.154208036300952811e+00,-2.526397872559741131e+00,2.068263466195733091e+00,2.935417170144677623e+00,-2.082946691106349224e+00,4.212671499113160994e-02,-1.227767967159061557e+00,-2.314855686261859891e+00,-1.683649956673165082e+00,1.024997237347871737e+00,-2.989463480236665305e+00,-5.989885492676579881e-01,-6.263532488205115767e-01,1.661536445345608293e+00,-3.381640736155764326e+00,2.681387165457695509e+00,-1.174874949849078032e+00,2.399419458518723680e-01,-8.366718494265181771e-01,-1.688364896747546418e+00,6.000022751155389411e-01,-3.101529170599427232e+00,-1.135988750693297966e+00,2.773190391404645738e-01,-2.471928077514057964e+00,-2.883408595769515692e+00,2.982106804695674462e+00,1.546122537933356078e+00,-8.648725685437897992e-01,1.412441765570734420e+00,1.745819028341268675e+00,2.604792764916322723e-01,-5.560199123353944950e-01,-3.243292927727158687e-02,-1.781959778082639723e+00,-5.518959976961871350e-01,-2.392865862587177261e+00,-2.754278362569043459e+00,-2.768698994940463454e+00,1.238305697784728876e+00,2.746603685612993839e+00,-1.929789570712187485e+00,3.632507995440142246e+00,1.301808371724791913e+00
1.560844985202904101e-01,1.314642833163670588e-01,-1.270270923882080571e-01,5.649432581116807517e-02,-7.401656354182993558e-02,-8.350778515893093890e-02,-5.413141934599365350e-04,1.953952482754812425e-01,1.182832512391703977e-01,6.766580493323964829e-02,-1.286416208420209928e-01,2.855961272706453169e-01,9.768610060746223123e-02,-2.626080069512704007e-01,4.466258843963626102e-02,-5.463773025188915777e-02,4.583742087387029929e-02,4.479295473582759618e-02,-1.026935546808740857e-01,2.041402330654173702e-01,2.233659971764464028e-02,1.052458954717195722e-01,1.510937478586035221e-01,-8.252852835643004203e-02,-1.019388155884685399e-01,1.254330548240087662e-01,1.557239590625312253e-01,-1.539553565284294545e-01,2.248638241765898160e-01,-2.633007098884978733e-02,7.734386157681664986e-02,6.310052006287671100e-02,-1.085993728284830734e-01,-9.660351872590909605e-02,-2.329527054030629263e-01,-1.287024977784546331e-01,-1.657458511614908203e-01,4.493436265657708463e-03,1.531038151010561954e-01,-3.034895510737795933e-03,3.788504705496687636e-02,8.698344048531971018e-02,7.599382575348870295e-02,-4.313727310550174998e-02,-1.636069515281135811e-01,-4.805371687774318695e-02,7.039069909482520773e-03,-9.745289740088990127e-02,4.046843771558399777e-02,-3.272620721815354405e-02,6.952176026935555364e-02,-8.980490354802961317e-02,-1.030791179636074417e-01,1.983455283510163203e-01,3.215045115247280611e-03,6.182323781741874691e-02,-1.228073412732659242e-01,-4.217944839762383796e-02,7.626886678668505504e-02,1.750411744410207693e-01,-8.099989379679008172e-02,-8.976889561478484936e-02,-2.534464579392437401e-03,-1.704325589704713262e-01
