6.906036239014188283e+00,-5.242995464944405271e+00,8.021366736778411166e+00,-6.611332610496816642e+00,4.756720029972270503e+00,-9.123847834243259403e-01,6.753778948370587010e+00,-6.541515623711700478e+00,-1.400876017485713554e+00,-7.076594893876513304e-01,2.067948560219361909e+00,1.037432501298387599e+00,-6.770254131871017433e-01,-1.261060127624606153e+01,-4.478481997104386991e+00,1.082731448222617798e+00,-4.857784099140151746e+00,4.792525841114502860e+00,-5.711206653262615340e+00,-2.381384380134088374e+00,-3.996403249409493430e+00,-9.355043629373430036e+00,-1.542409274323361390e-01,1.745458686969312723e+00,3.406838924829622139e-01,1.144282744454145018e+00,-3.777152384167209664e+00,4.127167473869580938e+00,3.002164347209207662e+00,1.614772572714233245e+00,-1.315396416547657710e+00,-3.220250152059605409e+00,-6.245918872540091593e-01,-5.408579227497826158e-01,-8.381731662787860193e-01,-7.444893974359020339e-01,6.539970890676169990e-01,2.561539387400962653e+00,-9.009979698876967591e-01,-8.080531365939904731e+00,1.295942708024406809e-01,-3.509468183009809561e+00,-6.842782397052094012e+00,-8.907785000690340738e+00,-1.895702192081158310e+00,-1.748307883593611445e+00,-1.415075495927668037e+01,5.435336937996056328e+00,-1.315824482080706304e+01,-5.785883870699258580e+00,-5.993238435649436369e+00,-5.425726562919124696e+00,-5.058257694616722588e+00,6.416201303239243980e-01,3.190862097434771005e+00,-5.712244065467102949e+00,-5.492847049273894555e+00,-6.789266018172635420e+00,-1.010271885115520130e+00,1.841995832951884182e+00,-6.543650259355868748e-01,7.605312117237943426e+00,-3.875210601762916429e+00,6.297476140452841875e+00,4.902987640527054936e+00,-1.559138063521822382e+00,3.456893693274543544e+00,2.705218742976917223e+00,3.876980284180156833e+00,-4.216330554444471801e+00,-2.484970767618602139e+00,1.532492029916858067e+00,1.704186451351695109e+00,2.116605517697358607e+00,2.073679300231492828e+00,-2.844767538476772550e+00,-2.876234222930414308e+00,2.721391973118465035e+00,-6.990492835286166162e-01,-4.120457127182499235e+00
5.207234832047346273e+00,6.419248507576560847e+00,4.542784368411658669e+00,-4.215912255951928422e+00,-9.893831174896376979e+00,5.905725213070185831e+00,9.084005026817001394e-01,-6.390766577376451707e+00,-1.353650016363242692e+01,-9.961365736617109334e-01,1.437343962994685143e+00,-2.406986687671573755e+00,-6.975022103657931849e-01,5.321965832848234434e+00,-6.288962742874627310e+00,-6.416819707323048405e+00,4.399531553313847709e+00,-2.514858517579625016e-02,1.315657294679109857e+00,-3.312257533649558994e+00,3.032355863989583789e+00,3.753717547810385469e+00,3.877821009434773369e+00,-5.541118212696036771e+00,4.064892297113257058e+00,4.358103009750137202e-01,9.290542425694112705e-01,-8.959167512962448399e+00,3.806911571073460898e+00,-1.718270757855031028e-01,-4.527194073731602764e+00,1.946598818362903272e+00,-7.888896324154925921e-01,-3.553873474576327407e+00,-6.280559771816901504e-01,-8.480346409881027725e-01,1.576173084736329777e+00,-9.065595279950914076e+00,-9.143938986667803359e-01,-1.053843122099281970e+01,-3.374072672223781821e-01,-3.421515684965259041e+00,-9.553651705370279856e+00,-3.982563538641734624e+00,2.001781289944752906e+00,7.323563914031256949e+00,-1.946086578169582415e+00,2.518858602495114507e+00,-3.854670527000965574e+00,-3.143487682291856267e+00,9.177195852857350511e-01,8.028698916099947791e-01,-7.913766731943022492e+00,-2.814453305621679835e+00,4.210769826387448234e+00,1.512068183980192160e+00,3.164300379586124201e+00,8.510325543264203318e+00,-6.631955749763461805e-01,-2.466450628046381599e+00,-1.046602243308065505e+00,-6.935342138695743230e+00,-7.687845698750040313e+00,3.880990434914270981e+00,-4.876650098925720656e+00,-3.837809427874798285e+00,-5.856172228589421991e+00,-3.647963860961042304e+00,1.309207405965103543e+00,1.200057899861462607e+00,1.586592860999092247e+00,-6.719850277510637682e+00,5.220213401930723585e+00,-1.429316066262546592e+00,-7.813342791624616979e+00,-6.167866108892058996e+00,-3.261722340364753059e+00,-4.112414031564534334e+00,-6.735733580229330553e-01,2.406404730001475034e+00
-1.874414676514982947e+00,1.205030478658756371e-01,-3.623135980941153633e+00,-6.497611601024435579e-01,-2.856288504226037972e+00,1.213929593577659949e+00,5.964471060718545381e+00,-1.012519023271029894e+01,2.935019853026894499e-01,-4.208232258141110238e-01,-1.618480934782308145e+00,-2.751549057795096509e+00,-8.411000491187933248e-01,3.113456002094738384e+00,-2.359304830637226402e+00,8.038595955247160418e+00,-2.383060436213986666e+00,-5.347603001864589700e+00,5.403448072189206419e-01,-5.495975214612489168e+00,-1.649727865221673750e-01,-4.884866363591257254e+00,9.363529680351584394e-01,5.459514439363508664e-01,5.730423744234913741e+00,8.188233051465379830e+00,3.309233580081403669e+00,-1.137857825001213463e+01,-5.889917713464758009e+00,-7.646047000345790323e+00,-3.821458910497413708e+00,-5.332178241566816190e+00,-6.641862166595993155e-01,-7.907299737400683703e+00,-7.116482511015091994e-01,-7.887855463922101018e-01,1.615312846137281655e+00,-1.011595923984796741e+01,-6.321763234369290885e-01,8.016975157160837639e+00,-4.377764848235486284e+00,-7.297672794235845473e+00,-6.628496891294746618e+00,4.780807320541152761e-01,-4.461728713848149397e+00,-1.725173488318167747e+00,-5.584228932991761596e+00,-7.137588067268553438e+00,-1.856108497772834376e+00,1.559077936607058401e+00,5.861199785964717357e+00,-3.561818406752013111e+00,-7.255614307931963936e+00,7.588578607677469279e+00,-2.779753697323240846e+00,-9.754335982768131075e+00,-2.090025897432524982e+00,5.676558397420095048e+00,-6.875638013961202777e-01,8.956672301999766272e-01,-8.663763617101754022e-01,1.388444532957700206e+00,1.022196347494638857e+01,-8.365938523460586529e-02,8.272118960435204116e-01,6.500740013825421215e+00,-1.647194585303383141e+00,2.537121050273257516e+00,6.644279540988720534e+00,2.210237693501530654e+00,3.675876860533955348e+00,7.947941201928893085e-01,8.379617786281096103e-01,-7.613648870474688302e+00,-2.549876513426045488e+00,-4.002256468787283694e+00,-9.292292463703518024e+00,-1.244574616406931566e+00,-9.414115220068636214e-01,1.507047999439413033e+00
2.202746710319050116e+00,-5.816435877675072419e+00,-2.955307035274841176e+00,-7.171913991219648343e-01,3.768551105506751653e-01,-2.050683515920457278e+00,-8.663137573318307361e+00,-2.056244996536362279e+00,3.634047177444695187e+00,-5.762527203313981827e-01,-1.143389408488996617e+00,9.078345475198251746e-01,-8.533830704487135321e-01,4.058774907560357192e+00,-1.318265770210456367e+01,-4.274022673917333925e+00,-5.315031830482166875e+00,-1.178636988192749691e+01,-4.658771086114063209e+00,-1.751132284370021219e+00,-6.645827575434722911e-01,3.117555633509985213e+00,-8.765903484124342171e+00,-1.674771579464651383e+00,2.897925080757684846e+00,-4.114305296850757077e-01,-3.355539535000648055e+00,2.669496587485610917e+00,3.706153312427424407e+00,3.346480541261145802e+00,-5.777328592761953985e+00,-6.095154375898721888e+00,-9.140122330743437606e-01,1.668513657744131073e+00,-6.266473991776633223e-01,-7.389903120941188064e-01,4.052418856381239665e-01,-1.031974123751980876e+01,-8.966680259169459433e-01,5.346003478598774450e+00,2.845223219996690922e+00,-2.236624425251567239e+00,-2.097963896448744592e+00,-9.213057182945659784e-01,5.862878905057079315e+00,4.101122578755396653e+00,3.091770653061332030e+00,-4.041484842769740737e+00,3.554580771691645324e+00,-7.320300088151038942e+00,-2.334163795325332913e+00,-8.032546099595974098e+00,-3.691020826723296455e+00,4.779125923885913174e+00,-3.170050346887717807e-01,-7.551390539445522521e+00,6.175757533181293724e+00,-3.262545333049437613e+00,-9.404561735874732431e-01,-1.021893602344259477e+01,-7.707850555950427340e-01,5.448459673828990546e+00,-5.079397814475330897e+00,5.476237261528603462e+00,2.467595655589833736e+00,-9.625303073391313191e+00,-5.489194290176848234e+00,-9.824673183124396303e+00,2.508178312750096506e+00,1.598961427456265794e+00,4.247055693628369433e+00,6.793615767215213985e+00,-1.049038883330125627e+00,-2.076398459601740409e+00,3.245162994961644287e+00,2.565402954018923154e+00,3.922679237258541285e+00,2.239525334170155535e+00,-8.171911441869356141e-01,-2.195919984961457239e+00
6.319765006732820822e+00,-6.547594737383014341e+00,2.739544957031959882e+00,-3.604752181377615106e+00,-7.157271203727022524e-01,1.563382178865236227e+00,-5.935811939461924425e+00,6.051773507060549839e+00,2.545373872640397384e+00,-8.232130361018769049e-01,1.578324098288564015e+00,-1.665593301699425988e+00,-6.384686011298118524e-01,7.765066084133156465e+00,6.225253143982636850e+00,4.226145269380895186e+00,6.303987609591353625e+00,-5.305706494047959798e-02,-7.509678043051055685e-01,-3.573932055854616152e+00,-5.293237713672733769e+00,2.342935347717523431e+00,6.330086170971702675e-01,1.227429636991205220e+00,-8.446237355433170890e+00,2.646508950466881060e+00,-1.280087524244572172e+00,1.794390340243216198e+00,2.232112281781309271e+00,4.725446113424699668e+00,-1.078332077661000810e+01,-7.621378875998798819e+00,-8.448200068895651560e-01,4.490186016469055907e+00,-7.035509323317749031e-01,-8.945598160473166027e-01,-6.997434183494043225e+00,-5.439179280578025910e-01,-6.168658252099575856e-01,-8.336189272734769729e-01,-7.889411574687681394e-01,-3.297574946286584652e+00,-5.507336968651812548e+00,-1.204388225220483122e+01,-1.078289623091530380e+01,-1.019371515761529956e+01,-5.102163786235609955e+00,-4.979532526283280802e+00,-4.311151283129508904e+00,1.950937205238861383e+00,-9.232101883282227917e+00,-4.932173370527089595e+00,9.726637427312133655e-01,-6.471877871115858660e+00,-4.797207399891598278e+00,-5.493838927114630621e+00,2.746627214352569180e+00,5.578924932292485650e+00,-1.040771171898118075e+00,1.026115966266919521e+01,-7.012422609562365405e-01,-5.226054556464878154e+00,2.473696280728345354e+00,8.375421687838201734e+00,-1.962171766514126059e+00,-8.337847129737042673e-01,-1.169889667649539433e+01,5.384303473544356233e-01,-6.558873010251399016e+00,2.450342790522916037e+00,2.563839330964771679e-01,2.336015019992411013e+00,5.883732313597163532e+00,4.382146646378295429e+00,-2.233972636655457755e+00,4.952972358452865542e+00,-3.966656175386629624e+00,-3.509542889728527459e+00,-7.696610584869302274e-01,3.123217179448043002e+00
-1.683414629511037930e+01,-3.862260361237828565e+00,1.509815684862350071e+00,5.936843552077146313e+00,3.875928108413183304e-02,-4.684190082905984376e+00,6.107651072487251476e+00,-1.032229969941108116e+01,-2.804094778606483374e+00,-8.019637820662496308e-01,-5.221566031448245049e+00,-2.288194583033516416e+00,-8.480844630465663725e-01,8.511138528703396933e-01,1.805715893520030590e+00,5.367944180189640591e+00,-1.005473411914357795e+00,-1.323950571859997316e+00,-1.961495212021017620e+00,-4.190396142503873378e+00,-1.083271871497013983e+00,3.600383391040168579e+00,-9.650253929122346364e+00,-2.145726212425383750e+00,6.274005727126479304e-01,5.699747903911443814e+00,4.918680347148589149e+00,2.308075056318306117e+00,5.380929844270343487e+00,-3.806559178378266850e+00,-4.584093355518088497e-01,-2.602951723325191313e+00,-7.408464459474912722e-01,-6.200268043245593219e+00,-7.518536087616479735e-01,-4.953500289831323511e-01,-1.082394479678020538e+01,-6.296559162712122015e-01,-9.604030595015509153e-01,-3.659845587907033515e+00,7.853103824457020599e-01,9.264862405858188821e-02,4.534286538949699796e+00,3.556538470596558810e+00,-7.399489959332042233e+00,-3.396440586618716839e+00,4.134406632161980788e+00,-8.199337701328463623e+00,-1.232273307882784152e+01,-3.237769347690750532e+00,-1.930834603484382628e-01,-6.203012023892967797e+00,-7.029493462906507339e+00,-8.761681302312103625e+00,-2.898053386296113310e-01,6.060320277554055224e+00,1.118507556027266814e+00,-4.230254342609222284e+00,-7.146871506162454368e-01,1.803737394880005507e+00,-1.174823336800703277e+00,3.354594094446006758e-01,-6.904778157766871871e+00,8.531459269486593167e-01,4.745136287337830439e+00,-7.671080699113270285e+00,5.770873183195652345e+00,2.263236508406759384e+00,-1.069238502830062565e+01,-1.704553251413384318e+00,4.750455308644077057e+00,-1.818857583882887763e+00,-4.573472625558187232e+00,9.600369859043924592e-01,4.453617864322489517e+00,2.758686666263624687e+00,-8.712951952434295322e+00,-6.410177058009145501e-01,-9.928493841865601022e-01,6.933781691849074669e+00
3.407668832015535720e-01,7.254107533846507749e+00,3.892710532706109561e-01,3.337568346258216856e+00,4.092163474485282393e+00,5.853399033414367736e+00,9.125755568346869406e-01,4.855442344727655346e+00,2.202353233728096438e+00,-8.048836837687929346e-01,-2.183951298695216703e-01,2.443901590992512279e-02,-8.395296780047560858e-01,-5.897716927863108083e+00,-3.318429043770853237e+00,-2.194180394984540650e-01,-2.635062896097179586e+00,6.438239192888336682e+00,-7.004151041959159052e+00,3.010546775960071031e+00,6.705201799047405764e+00,9.170072049184112561e-01,-2.549416619367503856e+00,-7.592537381809098207e+00,-7.465359630530510771e+00,2.661682179484551547e+00,-6.085221016090445190e-01,5.103412154432431791e-01,1.216533030557217510e+00,-9.102877975076854256e+00,-2.676576857522529274e+00,-6.132759152141945336e+00,-9.268164483187945057e-01,8.916314291700987438e-01,-8.076125282841987163e-01,-6.166851418821129860e-01,-7.649415979594867965e-01,3.421342650938193231e+00,-5.902411617571161617e-01,-4.556283365287361775e+00,-2.454273404744969245e+00,-6.557288212222913693e+00,7.397402813430583812e+00,-4.699134075317288328e+00,5.835267339645040074e+00,-8.680945107168620112e+00,-2.797451532058602641e+00,-2.388181481892876157e+00,-9.743007549636784503e+00,3.634622792799470758e+00,1.379541161139038186e-01,-5.565560083681173609e+00,-5.493436924424719869e+00,-7.091805046356988385e+00,-6.061121743079567192e-01,-8.297483101401727623e+00,4.358480670636070364e+00,1.174035900332682347e+00,-7.043055471369628062e-01,-1.040988585981361325e+01,-5.483215753499703915e-01,-8.161506962387434783e+00,8.767315754567346353e-01,-7.005651377732956320e+00,-2.274951241996706841e+00,7.688623002388311534e+00,-6.929903722072895178e+00,-2.407455446155670753e+00,-4.665807165654552335e+00,-1.406025100700304176e+00,3.233436441232551140e+00,7.902042149097914248e+00,1.263516139756875711e+00,-1.006086195269576145e+01,4.061819338277270930e+00,-8.301845345399515352e+00,-2.830358493924713503e+00,-3.494649376659218376e+00,-1.809240804976122163e-01,-5.340546906326166798e-01
8.847808258926272984e-01,1.652205320309008130e+00,2.754514791259832673e+00,-4.486159981905428751e-01,-5.450554323050748273e+00,-1.071469887105208230e+01,-1.409720017783423485e+00,-3.343418856647000670e+00,2.403901973342278175e+00,-8.499180893835139861e-01,-4.067102409304010457e+00,-2.760514547599279389e+00,-9.754697649283086136e-01,-1.053932105507989769e+00,-2.118989233969851504e+00,-6.523118449603606095e+00,6.850813458570714776e-01,-1.255949630937224271e+01,-1.525141907907446859e-01,-2.377711171490763498e+00,-3.023801132727006458e+00,-1.017967879558033584e+00,1.874534138796988936e+00,-4.765785831558553731e+00,2.726146040421967287e-01,-5.928608696441658665e+00,-1.192354088368258402e+00,-9.138409861469884987e+00,4.034366582475855445e+00,-3.903202594342832565e+00,2.877515402070693451e+00,-4.726047464551517585e+00,-6.142480956625693267e-01,-3.767655295783591818e+00,-7.025766394751998822e-01,-7.920663603247297679e-01,-4.381022284965275126e+00,3.902718541443796596e+00,-6.563585325581282603e-01,1.464497293853073367e+00,-3.363299847767295958e-01,6.183486959110283898e+00,-1.027374773214155645e+01,5.307819443206289733e+00,5.214016300660394343e+00,2.028651917772251456e-01,5.106007928606452140e+00,-8.352155553395511356e-02,-9.911290542509918922e+00,4.878272212418203857e+00,-2.566833712551993774e+00,-7.055435675082391889e+00,-1.695612315248709701e+00,-1.204114830626873989e+01,-3.680942539544512115e+00,-3.132485853194890257e+00,-1.033986302438210636e+01,1.472357183059902042e+00,-8.916502965109465162e-01,-8.851139126273066537e+00,-8.052248501989129892e-01,5.451313651956014361e+00,2.626613334714761105e+00,-4.336734199488614827e+00,6.128973038129601925e+00,1.473854051201235915e+00,3.564427233113801052e-01,3.623093743060059602e+00,3.281337391602749509e+00,3.935083449976001013e+00,-1.150511606546402943e+00,5.363472270602542835e+00,1.870937563208978860e+00,7.261480796962626272e+00,-3.924106813663748028e+00,1.576685463807433241e+00,4.864553251159739133e+00,-1.791847875934959866e-01,-7.463504194649079881e-01,1.978333308426465376e+00
-1.292362947784017813e+01,-2.790169798182970506e+00,-3.692240534301245880e+00,-7.012348119750659414e+00,-2.415047804478219984e+00,-8.515665255574777603e+00,-7.228944221323299502e+00,2.973733171829207933e+00,-9.272569627604088538e+00,-9.071891651877559415e-01,-1.879911877527622233e+00,-1.310290939106443675e+00,-6.588406368587496065e-01,-8.040673508294707617e+00,-2.743149586782109850e+00,-2.231547415960079661e+00,-3.324503331296933872e+00,-5.351396761410663672e+00,-1.010331750684248853e+01,-8.558702111688221592e+00,5.369819334815827405e-01,-1.674619984624502900e+00,1.765921293592418173e-01,-6.868667599265991797e+00,4.546947917804912365e+00,-4.566178574282963254e+00,-7.016954097481047370e+00,-4.673380102860352991e+00,-1.898496744234127398e+00,5.052323953672288592e-01,1.036242645892129843e+01,-2.075205845671063809e+00,-8.895455026724891079e-01,4.012719759209756987e+00,-7.383869216017083792e-01,-7.526161070606961490e-01,1.697650158900669393e+00,-1.840574137434649593e+00,-9.321612730060619967e-01,-3.446466512844803542e+00,7.329195657123764862e-01,-2.517396641443118810e+00,1.389626559066852840e+00,-7.587524693268218989e+00,-4.418225089810732698e+00,-1.249612719550819318e+00,4.912258636140161450e+00,5.449513130033369457e+00,-3.281418584481199829e+00,7.613567933620890571e+00,4.294228521315845093e+00,5.724254459415790031e+00,-9.989345222063605867e-01,4.620577530677003608e+00,8.883885880905907584e+00,-5.921760017140788257e+00,2.252937441928099194e+00,1.918195507146816858e+00,-6.682839649796452619e-01,7.618910558327510962e+00,-1.009528296544114356e+00,-1.760379949586870607e+00,4.175195847395743343e+00,-8.112719692537957883e+00,1.073265554350824713e+00,-1.092240733853863510e+01,-3.013159741001264269e+00,-7.284870211533792883e+00,-2.179003490008778243e+00,2.878008920000944659e+00,-8.680182371385457785e+00,7.100797904654782222e+00,3.698233370525970010e+00,7.916909661768196660e-01,-2.972219714025273074e+00,2.919696701015092266e+00,-3.819466529948756239e+00,2.728579245480047710e+00,-5.131153733629199021e-01,1.998146379134799755e+00
-2.050334516615408553e-01,-9.943563892019867012e+00,-4.063807927116145358e+00,4.465522729790715850e+00,-4.351748377193290551e+00,5.437864013639649663e+00,-2.142566703374781945e+00,-2.594177733015051945e+00,-1.273615750779050870e+01,-7.335627986012579482e-01,4.894946178625629307e-01,1.503731073820164577e+00,-7.064380477714422568e-01,-4.374626796135808959e+00,2.348490751551389977e+00,-8.759931650591347818e+00,-1.306073242643651655e+00,3.127957949623750178e+00,-7.269308065096625526e+00,-3.913075887053881097e+00,-2.238551059915637964e+00,-4.844136536630498924e+00,-8.838577296090608826e+00,-2.916506739079704480e-01,-5.875366875612448858e-01,-4.815745864599417558e+00,-1.971889374254196081e+00,6.735081483220688447e-01,-7.689342274811576949e+00,-2.577273508673627589e+00,-9.820898703721980816e-01,-3.591501422309271607e+00,-9.503584269754988822e-01,-6.320755139276451828e+00,-7.305583358460411292e-01,-9.889009295726212123e-01,-1.087765825589757362e+01,-5.289626180375387676e+00,-6.973592682796544429e-01,8.001070619385636462e+00,7.698848699081505265e-01,-2.119927691284169580e+00,6.951351534200582272e+00,1.880545015941165854e+00,2.419874546901998880e+00,9.748489609502083653e+00,-4.844082700689101628e+00,-6.938257002295372011e+00,2.502128900226102459e+00,4.740333449235808239e+00,-1.780345344990823753e+00,6.620954517021675478e+00,-6.668403952279475355e+00,1.299190051948051039e+00,4.396002388382171944e+00,1.572587593568636199e+00,-1.238066446032069479e+01,-5.650180894728008552e-01,-7.053470908433925324e-01,-2.650654799669074357e+00,-7.609459882070610526e-01,-6.508205676486276126e+00,-6.421306694601713438e+00,4.739104003185266589e-01,3.371958685178133130e+00,3.115929662429390845e+00,-2.447850917385539837e+00,-1.600153450247921771e+00,-4.140977467260416489e+00,4.559665189538171681e+00,2.208267992527513712e+00,-3.727551799757167772e-01,1.368890743311633518e+00,3.425699075866292187e+00,8.211518879785996816e+00,5.131585747923328000e+00,6.984473989090578261e-01,-7.329779643476427076e+00,-9.609022513145315525e-01,-8.506134700172411911e+00
-1.366812105678408829e+00,-1.424949287455020253e+00,9.751212760224552412e+00,5.434057482015733909e-01,-2.671270564148823912e+00,-9.551728562567694425e+00,-6.866789733667271634e+00,3.360159821740495989e+00,-4.812353819763913521e+00,-9.101266414616419054e-01,-8.655291428980691482e-01,4.906044278437415307e-01,-8.455505936496620079e-01,1.066423767690192426e+00,1.265144354510466584e+00,3.177470502908041894e-01,-1.218713706191191548e+01,-8.932871907847338422e-01,-2.969004345594539185e+00,4.467102340664545146e+00,4.325324419186278746e+00,2.162531810223900397e+00,4.148698273765425881e+00,1.246061411935969199e+00,-1.232777492349599591e+01,3.777274988608304795e+00,-5.556025866110363864e+00,-6.539089178248306489e+00,-3.444317848537041815e+00,-8.372890951474813548e+00,2.577275287009876514e+00,-1.121413555783469171e-02,-7.747271664026726956e-01,3.462251117692870306e+00,-9.991111446086441417e-01,-6.236548562506551985e-01,-3.552255817132242921e+00,-5.706406741940554639e+00,-9.157650567477652048e-01,-1.760869028748037524e+00,-4.329749796760354208e+00,-2.462912667711455672e+00,-4.252803263450286586e+00,-1.760821143936622146e+00,2.837179273858943862e+00,2.177636745383695782e+00,3.153617215621353775e+00,-1.095642947651026056e+01,1.778258487183334013e+00,-7.431042949648174023e+00,-1.017093958451843072e+01,-1.024147506087536463e+00,4.656834388284942783e+00,9.909499576020603939e-01,1.207587066697415334e+00,3.623355560170849810e+00,4.948191793839909813e+00,1.031536802991954715e+00,-6.052897320385248747e-01,-4.568476383953480102e+00,-1.039331290735883373e+00,2.055303293434395773e+00,3.324213985677871630e+00,-8.454152658360296613e+00,7.650961039285590903e-01,8.388915120288852056e-02,5.500535967398827442e-01,2.772330821138281554e+00,-6.758552914227389241e-01,4.058715839737502051e+00,-2.043097214008426477e+00,-1.128003857259599840e+01,-5.996519462237106524e+00,8.518617226924877883e+00,2.410470273856574419e+00,-4.308698770615136731e+00,-2.509958026637874706e+00,1.961191990655374084e+00,-8.650566939205276418e-01,-7.028024396055643663e+00
-9.842561287136250670e+00,4.192591098267286931e+00,-6.863615774023104521e+00,-5.730308857133376677e+00,-4.798158352323277143e+00,-5.220549220681482083e+00,4.728844668706122523e-01,5.002879866411181986e+00,-1.898816382806400416e+00,-5.282173554782987335e-01,1.845715291043981132e+00,-7.894910480941695896e-01,-7.557129556876085452e-01,2.648499864599298093e+00,-5.350689688013707368e+00,1.785508767555533227e+00,-5.329488219812428262e+00,-2.538335174388416937e-01,1.084104750074877943e+00,7.686689574808016623e+00,-1.657496882214491540e+00,-6.105916110713889289e+00,-6.233403653850698056e+00,-1.222172755108291398e+01,5.933163777413881235e+00,-1.126507607329478766e+01,2.897819665671285350e+00,4.317528403729271602e+00,-2.218437834036880996e-01,3.699809183050109862e+00,-9.046091613776074070e+00,2.076310976663568175e-01,-7.560115960393710699e-01,-4.318094961214392846e+00,-7.478669564657201008e-01,-7.648322260697644204e-01,-6.214375534144785718e+00,-1.994284757848160838e+00,-7.828653761316578530e-01,-7.363396627394371841e+00,-6.434682135354912624e+00,-9.224216217691315833e+00,-4.204338950796699947e+00,6.264371479082157801e-02,-3.626358354882896595e+00,-8.015699340654171223e+00,-1.996584348933086783e+00,3.398397817395941267e+00,-5.231927141536001358e+00,-7.647606718454168728e+00,-2.545044746886711895e+00,8.051454080008642045e-01,-4.503297342650060209e+00,5.280316187983244980e+00,-1.146601456879804637e+01,3.319532958102887399e+00,-7.894582090671309338e+00,6.500483276087606122e+00,-8.036842459758664070e-01,-6.900302743106536685e-01,-6.982571745872394597e-01,-2.983851844506449247e+00,3.782915587658528089e+00,6.957898114313089799e+00,-2.125653909939422270e+00,3.437890090354046801e+00,2.140313517414621280e+00,-4.738998409012025625e+00,3.610813572539194105e+00,2.668066069843646027e+00,6.749037498062782081e-01,-4.420270444879560223e+00,7.884424087966821482e-01,4.638189733221877553e+00,4.883178246327089411e+00,-4.017501948263263678e+00,5.191808251007249631e+00,-6.700905117364613695e+00,-7.260527560274824266e-01,-6.205100703962753705e+00
5.189693170460278893e+00,-6.028166834000537877e-01,-6.146053588105796273e+00,2.790803310137920157e+00,-7.131659682803580758e+00,5.330984149272100403e+00,7.617787548166907285e+00,4.653193260975410972e+00,6.016335076605138887e+00,-5.871044918403952595e-01,-1.750748492294733172e+00,-1.327474812974662743e+00,-9.694753885268907467e-01,-2.668941080609231076e+00,4.119783660196076447e+00,-7.297741853215232943e+00,-2.522503143373616918e+00,-6.013464758532267140e+00,5.300006279867286452e+00,-7.326645748611966269e+00,6.297922437043945720e+00,-3.295695994278966090e+00,6.656646882826658951e-01,3.182802490788288807e+00,2.783944199764338823e-01,-4.073840957080932412e+00,-6.770417839068668897e+00,5.770551015183264632e+00,-4.585659876029004600e+00,-5.570063935640586550e+00,2.258266524746877391e+00,3.927942777270891916e+00,-7.014761883758117156e-01,1.241637624430340370e-01,-8.454002948367440595e-01,-7.090628521605006895e-01,6.103750853317476688e-01,5.158393226756455618e+00,-8.783914761839365370e-01,1.378158113011138663e+00,3.775762163800375770e+00,-8.910639378071576466e-01,-2.875300241328602624e+00,-4.363642392401767545e+00,-5.172862969165768376e+00,-2.790968288574766643e+00,-7.269858649674301176e+00,-4.895981562330790737e+00,-5.807030697610213288e+00,-5.946148547046726129e+00,-8.734593813185043132e+00,-5.946257090497016229e+00,-8.593425003260080075e+00,-2.090042815934507747e-01,1.189803817577270717e+00,-1.132851859836080832e+00,5.904290963507925483e+00,8.550130559760258819e+00,-8.502413276802566200e-01,8.424477832984161862e-01,-7.582939635611957163e-01,6.592542505226606231e+00,-4.224464218977540320e+00,-9.687458567118449437e+00,-3.595603545891035147e+00,1.370534931657053423e+00,5.016880597977905865e+00,-1.054929231176121718e+01,-5.092553748778139600e+00,-1.226016172720080100e+01,-2.661451241733320927e+00,-3.524136535817032900e+00,-9.992310912043227411e-01,2.812520207222437119e+00,-4.477787744410214876e-01,2.957673620990988739e-01,1.352966418893830625e+00,-3.848403715234144151e+00,-7.530715238091103547e-01,6.965122000706644556e+00
4.283408394324944801e+00,-6.764755653345895681e+00,-4.162845666064409755e+00,-5.471600742292674013e+00,-3.843998332099144211e+00,-4.490192086520393033e+00,5.340414813328821175e+00,2.000705005049212115e+00,-3.919240328984785915e+00,-8.567424949058923822e-01,-4.737640104162593957e+00,-3.174085251654162665e+00,-6.802913552551265175e-01,-8.005548536920109370e+00,-9.344559872258008326e+00,8.786560242198941495e+00,6.041391552813908383e+00,-2.835212004293112820e-01,-3.237190722338969540e+00,1.797595752478531539e+00,-8.162339239103044264e+00,8.508891903325050521e+00,-1.216584941846274859e+00,3.903401029607528994e+00,-7.031356876991436966e-01,-3.288799950964899299e+00,2.220446278782682636e+00,4.711403653705535710e+00,4.852252767171419734e+00,-3.805701155283440329e+00,-3.488839686731466383e+00,-2.037485221856995654e+00,-8.951957714490703655e-01,-9.117262916593894317e+00,-7.404547104099576948e-01,-8.372581043092586217e-01,3.564054576288506748e+00,2.420303699516861862e+00,-7.920736194436945876e-01,7.748873203637483442e+00,-3.993733642949969020e+00,9.413311055793639470e-01,3.017826495325172331e+00,5.643054418626138435e+00,-3.279159636177008341e+00,2.642769010621484269e-02,-4.941726535605590165e+00,3.959259512405852721e+00,-7.572921792036953370e+00,3.936413935199333025e+00,-7.753837437043904934e+00,1.628275555200108471e+00,2.853050205365220027e+00,8.108086974487481724e-01,-1.637098742098257009e+00,3.239708364952296638e+00,6.983545423166170885e+00,2.131615179429897200e+00,-4.714737366134925667e-01,-5.651346822171904982e+00,-9.235081192099864333e-01,-4.028014826309437524e+00,6.505811264270956462e-01,-3.171877120928690896e+00,2.037503743420243207e+00,-5.044560611619521850e+00,-3.936959850234714953e+00,-6.021543889625821322e+00,-1.775189873070510016e+00,-1.576866603397034661e+00,-6.558748231572260501e+00,-8.055039811856831378e+00,-1.265485556375052445e+00,2.482495600074977382e+00,-2.895396938589382074e+00,-2.886090847200936782e+00,-6.136350793220639588e+00,1.618572859529664676e+00,-9.633717102316374792e-01,-6.681916562887566968e+00
3.350680034930986761e-01,6.560737850469444687e+00,-2.704941780897539783e+00,5.577661452847403334e-01,6.764274195954093072e-01,-3.728692658114358127e-01,-8.036791303737881309e-01,-5.854492817259298931e+00,-1.518722166284314001e+00,-7.172802439606499325e-01,1.579751448345026343e+00,1.434844478212096153e+00,-8.018668991783933775e-01,2.784107049087462649e+00,4.245523623916831468e+00,-3.616778748740505200e+00,7.488818581704744126e+00,-8.562320993169105776e+00,-1.054406864829939749e+01,1.041899842655834574e+00,-2.426659199409047396e+00,4.394324412062609930e+00,-2.172820187505944300e+00,-6.722278762796104701e+00,2.868775574471503997e+00,3.451646395182136118e+00,1.794606108684748458e+00,5.553987729666268081e+00,-5.457149425473343918e+00,3.459081031969180486e+00,5.991987711256082427e+00,3.486685492333822634e+00,-8.370051841577479390e-01,1.319076404195128172e+00,-4.279657761381353009e-01,-7.704965412089835874e-01,5.393324274432513832e+00,3.291418587081313074e+00,-6.654580984391138543e-01,-1.820925707670838223e-01,-5.386639926188637517e+00,-1.047549962320296935e+01,-4.918340869813628280e-01,-2.917626262797443193e+00,-4.433848624749813894e+00,6.773698465794886214e-01,-7.876052015829202446e+00,8.420289835095423614e-01,9.411664467479975427e-01,-9.572400119175682676e+00,-6.920931839628251758e+00,-6.349026366434861179e-01,1.362458921272168055e+00,-8.929166572657772249e+00,-5.539752384719543343e+00,-1.199601384905836987e+01,-3.685321733865253080e+00,-4.848830621228284343e+00,-6.305936798541400545e-01,-5.871095464053426305e-01,-8.390840029831861946e-01,3.953184882806752398e+00,9.893847226351304425e-01,-1.172484353395630130e+01,-9.975902771593485596e+00,-3.823863713441403300e-01,-6.904148181680950458e+00,1.559470085468261047e+00,-1.291633381938949166e+00,-1.441660434715531069e+00,-8.659436484676907853e+00,6.535162933242225414e+00,-9.923517932423063570e+00,8.769407224803382306e+00,2.420808529391456965e+00,-4.251869895136326960e+00,-5.917412337957590474e+00,1.466006413973815814e+00,-7.557326853264660915e-01,-4.520452072911385066e+00
-2.065628646540881963e+00,6.603019239521563222e+00,7.070954181482737688e+00,6.266539396082304592e-01,5.719845768298630340e-01,-2.546120904194675738e+00,-1.650989620641573952e+00,-3.802787091187246338e-01,2.962054620509223302e+00,-6.209223749896264355e-01,1.428399484845688017e+00,-3.221793884289883891e+00,-7.474057095563070297e-01,-2.376503853176033854e+00,5.724122971901371315e+00,5.573717365406986701e+00,4.282650904630793676e+00,3.167729779316306615e+00,-1.065958384275642601e+00,-6.560049553860525684e+00,6.469252062269353898e-01,8.044889762623730789e+00,-3.403734547457429649e+00,-5.654768888255809145e+00,-2.852728468265202544e+00,-1.240928742649098915e+01,-7.790125085619942880e+00,2.076025853164854273e-01,-7.388207556846109192e+00,4.710205006093870495e+00,-3.568855099752907822e+00,-5.480740579971407733e+00,-7.100933309023923501e-01,8.566073443859154590e-01,-6.838793052276611606e-01,-8.267242290672656146e-01,3.016676402806740764e+00,-3.529466201122335001e+00,-9.622578947119049264e-01,-2.636875682829384893e+00,-1.881448686942019943e+00,-2.400789309839631847e-01,-8.351008777855373211e+00,-7.156095227806405390e+00,-4.061893285786840835e+00,-5.016568617707155564e-01,-1.096190101140545536e+01,9.767994542940865443e-01,7.041068486240457780e+00,5.836208798260148711e+00,1.772492840531774139e+00,-5.943895089982460078e+00,8.841127837012348334e-02,-3.283584995856076549e+00,2.360235442112418536e+00,3.996084927361244876e+00,-5.024435520152445989e+00,-1.677487600439211857e+00,-1.064204263158282648e+00,-3.132491330844610289e+00,-6.797956290965738724e-01,6.571789801279119825e-01,-1.092137686323521317e-01,-3.811883589703212394e+00,5.631886658408931101e-01,-4.373590479322546187e+00,5.132719383142132052e+00,-7.189838171791299359e+00,1.911044337171369900e+00,-1.498677532908281318e+00,2.061174563453340713e+00,-9.196811723015771989e+00,2.581526105183489683e+00,-1.211193904910013330e+01,4.471438784403142463e+00,-7.559426810468634905e-02,1.598919692321647545e+00,1.897521028856085534e+00,-7.718306469286002613e-01,-5.483016272404978686e+00
1.259673377140813777e+01,3.712329898763392588e+00,-5.376988345947871117e+00,6.885175368512875815e-01,-1.832387280091744008e-01,-2.802999289800326643e+00,1.853552003456521380e+00,1.786286676257466510e+00,7.029369877429190616e+00,-7.143687648073507868e-01,-4.549139064687195422e+00,1.074598186533314070e+00,-7.230395694744806701e-01,-6.350670377357147345e+00,-3.572189375736858796e+00,-5.017307874415751101e+00,5.740862468489321913e+00,4.760448728764746562e+00,-5.367387721048706872e+00,2.060736678914334874e+00,5.084976228199025172e-01,-2.154711167320281895e+00,1.974582760053998021e+00,-3.908195045467994788e+00,-3.689548107077276207e+00,4.040542612202814965e+00,-1.025323039664736813e+00,-3.054083815780705535e+00,6.098988944723305217e+00,3.020216318856929760e+00,5.730993430295738378e+00,3.868695617577085244e+00,-8.817351778333751833e-01,-3.268691857870098971e+00,-1.102743829271626730e+00,-8.915153617883476711e-01,-6.510919009096745036e+00,-7.086904647850833072e+00,-6.217876202028690402e-01,1.916574091537670554e+00,2.827161941338187212e+00,-3.635567136976689984e+00,9.121545034667131180e-01,-8.541951641338664247e-01,-1.054740293002576479e+01,-7.673713041393555478e+00,3.868794528100213181e+00,-7.910579352829887334e+00,1.461266161550953679e+00,-4.197854634919392147e+00,-5.167311407462117367e-01,-1.104672547016821582e+01,5.708179138584067225e+00,4.202278953043754761e+00,-1.653828122351644225e+00,1.134495752020226567e+00,-8.247708553922054264e+00,-1.297769149017597989e+00,-7.679236207957690352e-01,8.907352877479977948e+00,-9.225448232988038288e-01,-1.113437406900554727e+01,-7.257641640986101095e+00,-6.651698434549737193e+00,-7.469050309263065124e+00,-1.346961356127262910e+01,-2.034745771244925727e+00,4.857906896007886388e+00,2.145483720842515041e+00,3.812176488546203501e+00,-1.152021122796675234e+00,-1.086829237425666284e+00,-4.953131450338054798e+00,-6.429231995923067267e+00,1.351108912695544451e+00,-1.211462856712706682e+01,1.546657005091929937e+00,2.871614743101257972e+00,-9.288419154405128664e-01,-3.837525284416945404e+00
8.415077743123364762e-01,1.849135178373934041e+00,-1.320013140860548972e+01,1.863411342260425485e+00,6.792907945123386249e+00,-1.155538199481969208e+01,-2.661003767364545691e+00,-5.426343097136605564e+00,-1.315403944579547790e+00,-5.313209941408005843e-01,-3.153568222423166034e+00,-4.024481004855213762e+00,-8.272220050806553537e-01,2.895032882880827607e+00,2.027623743667668954e+00,-2.395078047728191883e+00,8.584281725273263941e-01,-1.084292364519928054e+00,1.867871821370367780e+00,1.094710026760665977e+00,1.501392029563309638e+00,5.306510461707448778e-01,-1.581972592226510210e+00,-1.453087428423599281e+00,-6.786684451265488249e+00,-1.266005751597618856e+00,-1.860757513914841343e+00,-7.606230553533277039e+00,-7.351014568735621424e+00,1.809763675557061413e+00,-7.503945351955893628e+00,-3.982954304390136091e+00,-6.938217870524221453e-01,-2.172031234617000983e+00,-9.457057361511128635e-01,-8.772677662540112609e-01,9.393369564769549207e-01,-6.682161898774201525e-01,-6.903880865963699653e-01,-4.220312977564550039e+00,-5.610097224205792266e+00,-6.481316346324762279e+00,-1.850242475036874890e+00,4.162494380576520214e+00,-8.381075923933483551e+00,6.635336640654104556e+00,4.696931359854900734e+00,-5.535343160060909318e-01,-9.467639026827462390e-01,7.204301349199099924e+00,-4.064804186312039047e-02,4.193669899385028543e+00,3.494581263191044673e+00,1.800898913654326527e+00,-5.761361815817726217e+00,-8.202151585615473195e+00,5.658656063192042396e+00,-7.870769279133515539e+00,-6.908009178441717468e-01,8.338239663790956158e+00,-6.481237880604446833e-01,3.786804673594040604e+00,-6.189469883270434458e+00,4.005938091951060542e+00,6.833926673400932295e+00,3.220946224800928626e+00,3.654525754276067850e+00,-4.108440942078675384e+00,-1.715318129531887559e+00,-1.051316480464538827e+01,-7.286092041672169728e+00,4.162820242714424523e+00,1.544696901121118904e+00,7.219274518791021222e-01,-3.159143152433469215e+00,-1.033900340478672852e+01,3.012578340667046106e+00,-4.510239131817903591e+00,-5.677633434713894589e-01,-2.879347921665274423e+00
2.631745206510442081e+00,-1.072336346041859123e+00,5.825364401590978680e+00,3.561320794559078795e+00,-5.923675222535594642e+00,3.209882458736321720e-01,-3.487616037134277480e+00,1.464847092538817508e+00,1.811111386026849956e+00,-1.059385856475579368e+00,-3.767710532956344061e+00,-4.026227333973333877e+00,-7.937388357876055123e-01,-8.458599164662834013e+00,-7.266825829941295112e+00,3.690304203906426661e+00,-8.105536999086582206e-01,-4.689877975327141790e+00,4.186861518271196125e+00,4.208574542672099739e+00,-3.052909386994095531e+00,-4.672566138786709899e+00,-5.704003223553333335e+00,-2.400539166714609429e+00,9.442999344566869624e+00,5.587459604415703218e+00,-4.220020402357092415e+00,-3.127413796011877967e+00,-3.375416547436767001e-01,-2.299588415604164826e+00,-2.338926890405212511e+00,3.190959135055413398e+00,-6.301434834333166091e-01,1.461961792831202978e+00,-1.062788289287559751e+00,-7.738337412062746834e-01,-1.379882711525726391e+00,2.286858748426553678e+00,-6.875239240316474154e-01,-3.600636855819262738e+00,-2.803264113389002166e+00,-4.558294145323920965e+00,9.240623421937779192e-01,-3.476575066096509570e+00,-6.507374736747182808e+00,-3.084799284101406247e+00,7.489456803167646726e+00,-8.562896050388792979e-01,1.016211272383011632e+01,6.521454206943770870e+00,-8.159783091585978809e+00,-6.010551571684181305e+00,-5.874643496089689165e+00,-8.106266739461103654e+00,-8.557244943849480201e-01,-3.136888077025625776e+00,-6.042369024395437549e-01,-3.444070479287237863e+00,-8.274053724789115494e-01,3.251507370267958219e+00,-7.624414295609058811e-01,-1.165094269760176715e+01,-1.121037675042087844e+00,3.192725828870723870e+00,-7.688299619615743374e+00,5.836100052930631499e+00,5.804075329254438032e+00,-6.205036118944216028e+00,1.138631108430226080e+00,-6.356041726514778389e+00,6.327695336406430338e-01,-7.097451956224196223e+00,-1.044160634916151587e+01,6.020883846830598074e+00,-3.974070045467307022e+00,4.770431517344453809e+00,-9.164386799606221601e+00,-1.136114723027305429e+00,-9.497681866596859868e-01,-3.184251248175151705e+00
-1.916024744926275281e+00,-1.815997313150299108e+00,-1.608900530122987504e+01,-8.423855939659407710e+00,-7.310172645792484936e+00,-3.490196358580132330e+00,-1.157458495839634161e+01,-1.007276751929608949e+01,-2.659565176375995946e-02,-9.966114634418931084e-01,-2.157354248497438842e+00,-3.627860988171204060e+00,-7.047523643514581604e-01,-7.242551454794337040e-01,-1.829434426604743535e-01,9.605586585662772237e+00,5.080395631013587376e+00,-4.741269782110830278e+00,-8.887603876018944860e+00,-5.103182008227626909e+00,-3.211975113676146520e+00,-5.770472185136437560e+00,-2.689756014047418820e+00,1.068866483894597597e+00,-1.017045508750005389e+01,-5.720151390006857461e+00,-1.114111836990661786e+01,6.211871935826382085e+00,-3.312351267629327189e+00,-8.640114342035595030e+00,-1.280384419990143741e+00,3.464714123722454797e+00,-8.977325477879287696e-01,4.105256458337129821e+00,-9.085936816137607508e-01,-7.832950961684063129e-01,-7.665113165489884750e+00,-7.185820110896320223e+00,-6.686909330261531226e-01,-8.187292374398305483e+00,-4.841016324793744552e+00,5.323245227850250672e+00,4.589241637180056621e+00,6.956713970579870399e+00,7.842047944248351499e+00,5.991147255619098111e+00,-1.174693144683686574e+00,3.266855275296908889e+00,4.108047618879674623e+00,3.771343584491549716e+00,1.474678703250342116e+00,1.296809328399184169e+00,3.235620039516282631e+00,2.128089579644337093e+00,5.357885597649620024e+00,-7.462889429373049666e-01,-1.797417180871695441e+00,6.904962116230379809e-01,-1.112576666485856736e+00,-9.194347747055914510e+00,-6.926965616437692486e-01,1.655816448563132814e+00,-2.460122367142696109e-01,1.378452215422286464e+00,-7.968456469006314435e+00,3.400570960530521075e-02,5.543222729412548233e+00,2.282261970257690287e+00,-2.575266585630415772e+00,4.181740447270961170e+00,2.713103772772419653e+00,1.651921759818391289e+00,-6.779638994459460832e+00,-6.471357750503968775e-01,-4.045141928755388250e+00,-5.325842190781252761e+00,2.543258055858173883e+00,-7.866316074339007258e+00,-7.616838660226372681e-01,5.119430194839586612e+00
-7.785760308753097547e+00,1.459271860938825993e+00,5.810785593264897742e-01,6.898743899277341107e+00,-4.519911865592114886e+00,-2.006677029596064976e+00,-7.802503978897418868e+00,4.847142324903181532e+00,-5.081207877993914934e+00,-8.979315206231086588e-01,1.881607289023583096e+00,-2.893483588785571659e+00,-5.344165849443268668e-01,-1.037922093702447057e+01,2.055026957554332512e+00,5.881380441342579424e+00,4.893901923066180437e+00,2.851644567283122100e+00,6.024559382257823614e+00,-5.265364393558289891e+00,-1.084470329182461512e+01,-4.969782210690817159e+00,4.280444964066316693e+00,-1.258639067336814188e+00,-6.088818851033374280e+00,1.979750461695560571e+00,5.232741043774978174e+00,-1.219105751441253815e+01,-6.670791277138524045e+00,-8.974138098524740981e-01,-1.070969452633335450e+01,3.159609401894369896e+00,-8.358547914390553890e-01,3.522587719382310745e+00,-8.345800999603576464e-01,-5.092021734129154042e-01,5.046379289133145818e+00,2.528320095752264685e+00,-9.217175562444954728e-01,6.457550613041688869e+00,2.674073628495256205e+00,1.203239037704973491e+01,-3.441558801747709673e+00,-7.733037730813904886e+00,-1.523850309324659980e-01,3.361643918733518532e+00,2.471373710144254332e+00,-2.813018806233557267e+00,-2.883259928879773337e+00,-1.202024582633712768e+01,-1.026482332865938790e-01,3.845969639963964681e+00,3.441199877569455001e+00,1.156644126043097520e+00,-3.412141705439211137e-01,-9.135331752731110200e+00,-5.157647238660652889e+00,-2.125063581871986240e-01,-5.947257280321053274e-01,-5.281927600512430487e+00,-6.462268253093056414e-01,-2.303124303330055245e+00,-1.048411117021689343e+01,3.383059248530963181e+00,-3.965040170446032519e+00,-2.225684700961431783e+00,-2.209389403770364968e+00,-3.344067566451573548e+00,6.168141539633004156e-01,-7.887667737830307502e+00,-1.132029846685310037e+00,2.959330522039850919e+00,8.904806363362706145e-01,-2.267076444503854094e-01,-2.321753037073799764e+00,-3.071092339374152047e+00,-2.916052399724634814e+00,-3.797654494008480430e+00,-1.055185012193570415e+00,-2.599241335438898126e+00
8.985936271270281495e+00,3.680460292315061110e+00,-9.256845672857807017e+00,5.425077076353836070e+00,3.621958628237938793e+00,5.578379032896681883e-02,-7.641730085917243231e-01,-1.161507797593817726e+00,-1.148781875689825860e+01,-7.101857017653244730e-01,-3.879324106476405465e+00,-2.412531230031617735e+00,-8.726266639438837736e-01,6.479518703910492228e+00,-6.110932706195493225e+00,-3.933590730308323291e+00,-4.960576548003950315e+00,1.898453246121154514e+00,3.699898617527511480e+00,-1.121913556494997799e+00,-8.955672227512758710e+00,-4.651072146747328162e+00,-5.842244856493230110e+00,-7.266398165552709898e+00,-3.170442668808756137e-01,2.180399042010974675e+00,-2.574377489037447564e+00,5.549318235307123537e-01,3.309014155451125649e+00,1.559606042972482065e+00,2.048492682622710781e+00,8.334437476842726511e-01,-5.984122789237318329e-01,2.404766197993225330e+00,-6.028097899473066068e-01,-7.572949825001298318e-01,-3.777847689752811822e-01,1.719664783462404589e+00,-7.234873286175671492e-01,-1.191251006586306227e+00,-3.724164034674475321e+00,7.987588620706841169e+00,-6.901172084752862368e+00,5.497980447922832248e-01,-1.226270283125349358e+00,-1.409908716061999812e+01,-8.462733088150862670e+00,-9.605213996176738434e+00,-4.916596318191606696e-01,4.450613930685815234e+00,-2.352802466624777988e+00,5.143769194375690468e+00,1.121666868931909811e+00,-2.802268667525114498e+00,4.193708716042567453e+00,3.572875031582412042e-01,3.082139921359088763e+00,-6.050635653019479143e+00,-6.993459285922003499e-01,-7.739573247030352654e+00,-7.071208345992592292e-01,1.403220866156380753e+00,3.699447863376470469e+00,3.622086012264100763e+00,-6.388218614596483214e+00,-9.060003437610806287e+00,1.378125655085818746e+00,4.136642509708250870e+00,2.982540890168749126e+00,-5.358398282868646945e+00,-3.466905190030848072e+00,9.180197239763118189e-01,6.358916064702655468e-01,7.861862568998131406e-01,4.471761625306694299e+00,2.679328161640538664e+00,-3.023747376820956845e+00,1.888704345495937131e+00,-9.107237523057872819e-01,-2.078528063093184386e+00
4.780538599394740906e+00,4.104869827971282525e+00,5.283227963165293417e+00,-9.938071359829306672e+00,5.810735302518519774e+00,4.392565594163015064e+00,3.796270337423518271e+00,4.596971019596322705e+00,3.367108715434423249e+00,-7.871022424976161780e-01,-3.254369111257280345e+00,1.321884086978816208e+00,-8.202085693002635347e-01,2.757632155426204434e+00,3.453360692539952925e+00,2.167903080007118136e-02,-8.105403930347245378e+00,-1.132360553251860225e+01,-2.987442356353492201e+00,-1.017039071050265697e+01,-8.746760911000169614e+00,-7.503011022258467833e+00,-1.896468192541447939e+00,-9.039361403652828031e+00,-1.277166796097212176e+00,-1.500755639966083743e-02,1.290805930416816238e+00,-1.125235299738650596e+01,-4.197405219550150335e+00,1.996772543533113509e-01,-1.636399986381631144e-01,-4.170295089820807988e+00,-7.302113550786806240e-01,-6.681732123453630656e+00,-7.386416771583141916e-01,-6.501051261809841497e-01,-5.051204734208555536e+00,1.464775136873125660e+00,-5.173580701136136772e-01,2.345656443400407465e+00,-4.532683940243204646e+00,6.351677713265474701e+00,5.690154657901626223e+00,2.918299596660154815e+00,1.448541760450492211e+00,7.268900531303358115e+00,1.678899580266049574e+00,5.218148319770788746e+00,3.532208139358731236e-01,-1.960984094020422175e+00,2.759291758192952582e+00,-4.475710318548498989e+00,2.915695969146561151e+00,8.896179037558717972e-01,-5.351939465360943116e-01,8.889542946403665269e+00,-3.675014712675773954e+00,-1.263655604179737502e+01,-6.909807565453923717e-01,-5.016633833165426992e-01,-6.753200528559448745e-01,-1.993509494929912584e+00,3.983547540948471966e+00,7.315952214228222950e-01,-4.509823721806942132e+00,-3.262884770547854085e+00,-1.031693691525676293e+01,-8.876725529036848528e+00,-7.570937031902925440e+00,-3.147112004646628325e-01,-7.317090418663541485e+00,-5.110811514536651501e+00,4.328876448050676728e+00,2.324474084348709946e-02,2.108468353615199575e+00,-4.742085137516014015e+00,-6.258599574488296291e+00,-4.678978265544375681e+00,-6.339330642494251933e-01,2.997868126475746298e+00
-8.190012848144366586e+00,-5.675371637758750865e+00,1.722442875832182363e+00,-4.345019112783222309e-02,5.021720459940161696e+00,1.734313128983746344e+00,-4.080244864776804370e+00,3.495409714887945718e+00,-1.422261542851761318e+00,-5.492749199007351812e-01,1.717854385588908350e+00,4.285761744471017765e-01,-9.461411638875897312e-01,-3.600763090690614732e+00,-1.075663055975337556e+01,-4.416814280782323188e+00,6.761620762624758640e+00,5.305640901400886927e-02,4.249147288326944327e+00,-2.050580712076451206e+00,9.112054762906925731e+00,-2.189442833768898033e+00,5.162169806486436308e+00,6.606796983615306651e+00,3.073507889892634015e+00,-7.699035658611775856e-01,-6.993675399260474101e+00,-2.360081475918119231e+00,7.719201097628810793e+00,-2.907789631205129677e+00,-2.239058575903662973e+00,-4.613207767341370946e+00,-7.910613352429286538e-01,-2.183080321029583271e+00,-5.067083786250374811e-01,-7.752738986622444983e-01,-4.988806580359867127e+00,1.296999429259077852e+00,-8.283295663429549593e-01,-1.696162292382266568e+00,-1.650084109703166546e-01,-1.041627029788380021e+01,-1.149071076709393679e+00,7.173684477378944102e+00,1.480765753352603964e+00,-4.893472697471378252e-01,-7.389309034006189769e+00,-9.264205002448589354e+00,3.404496210923539934e+00,-6.274192735995022474e+00,9.729125391570278003e-01,8.880491804915376930e-01,3.558871850018053173e+00,-5.155665128773133432e+00,8.710916004447173400e-01,3.331565967804217987e+00,-7.683105661812017040e+00,-1.066574984833845896e+01,-7.143518615378082748e-01,1.471288128660296346e+00,-7.494935342765903785e-01,2.303325513768252453e+00,6.849202339113387161e+00,-6.244071612232160007e+00,-4.023880008133162711e+00,-6.540322935707741647e-02,-9.267577740709704415e+00,-4.815602033024616091e+00,-1.777975268913163154e+00,-9.091756172176433282e+00,2.472817699267728167e-02,-3.258894932961409641e+00,2.718027130232466337e+00,-5.464659936025209497e+00,-9.775458905685152189e+00,-2.623317672711156234e+00,3.130521839561537512e+00,-5.762954198701023323e+00,-7.166349008695350742e-01,7.742886001454494238e-01
8.123415709666721440e+00,-1.376499692504753902e+00,-7.112471298592213387e+00,-1.122247577850500022e+01,-1.373872377022295144e+00,-1.002039308482153501e+01,-1.237108185385285886e+01,-1.225146131517407788e+01,-4.010062576206263607e-01,-8.178105882813089256e-01,-4.805038358863596426e-01,-4.160860479867793393e-01,-7.400714944104860304e-01,-1.392075848650506664e+01,5.222482720928951494e+00,-8.622892681636555423e+00,-2.713258701712846221e+00,4.468069869155616658e+00,3.481846070918073188e+00,-4.903426579548592734e+00,-1.035446568559771130e+00,-4.913803886410748056e-01,-2.428088195496242108e+00,-2.665850761371734379e+00,5.976246655098497174e-01,1.252848586055547608e+00,1.347706161869096197e+00,-1.143514141100200998e+00,-8.551336076756712146e+00,1.393896004025050761e+00,1.834010490330006404e-01,-1.046091122006028717e+00,-8.435305097185890055e-01,3.609130568521822902e+00,-7.545985534802659433e-01,-9.456127074181118752e-01,-6.162697363120555494e+00,2.048336592251862154e+00,-7.724165317560652833e-01,3.664443216441152895e+00,3.208147258484617570e+00,-1.100054671822977603e+01,2.656708649752395068e+00,-3.858065920845441532e-01,5.997939145860106791e+00,-2.497287536333971492e+00,1.787734403052612997e+00,4.262720924699554992e+00,7.782841842932065601e-01,-8.035609190325963880e+00,3.486079922512752116e+00,3.003909645574398990e+00,-5.860501985668189473e-01,-7.568471692524390004e-01,-9.280585744618932154e+00,6.145225578601293925e+00,2.947996855273230743e+00,9.677267362241366300e-01,-6.310020314601664237e-01,-7.923898016329976812e+00,-5.007032590791722360e-01,-2.465345098071568264e-01,7.896248510232972695e-01,5.219694213883812495e+00,1.133020212646852931e+00,5.732626452214840684e-01,5.828268407264694417e+00,5.204772884183849202e-01,-6.321037605547156879e+00,1.752762038372256415e+00,-4.407891538748182292e+00,-4.687571498661578850e+00,4.113918075780206157e-02,-8.118248444771257510e+00,-5.135684179221437162e+00,3.115961733274961620e+00,-4.209306585409549939e+00,2.963154631782450310e-01,-9.817703510116138066e-01,2.627112928099258671e+00
-1.342480712450908342e+01,-1.577243914537672209e+00,-2.327200690412523976e+00,-7.091365433886442027e+00,3.451950294830938848e+00,1.986842976276601780e+00,6.209381860960140997e+00,-2.457723378922825219e+00,-7.267803060259656611e-01,-9.426495431813343151e-01,-2.381238485939798366e+00,-8.859930619725110423e-01,-7.498223696440720065e-01,-2.736692095808758385e+00,-2.673600416507147415e+00,-1.328167897060167135e+01,-9.805796333773986184e-01,-2.590457783175713402e+00,-4.299266889669243419e+00,2.009270058721840169e+00,-8.705329461606693187e+00,1.738882998277401448e+00,1.954376254618541475e+00,5.250441237480012457e-01,-7.386608628332678173e+00,-6.614926671467649122e+00,-7.157068076994216987e+00,-3.733674763251943585e+00,-6.657419743550905267e+00,-1.084964372298195201e+01,-6.107463198166405149e+00,-8.515931802697526365e+00,-7.380492507992307827e-01,-7.535957258767055578e+00,-9.286426307056927509e-01,-8.395242681175205668e-01,-7.746090656374112093e+00,-6.247861983705830013e+00,-8.200237199658230169e-01,5.245696697175477041e+00,2.127442088170997447e+00,6.776688484973075965e+00,7.912869017063818289e-01,-8.064996456229082122e-01,1.565296705234110741e-01,-1.148243262532690423e+01,-2.443940893920933721e+00,7.827080891491085879e+00,7.057276112811211810e+00,-4.931988323749792791e+00,1.344651194525283255e+00,-1.879925929603553758e+00,-1.741614465948694512e+00,-2.214735503247585946e+00,2.768429521467086207e+00,-9.322387672115890478e-01,6.292146777954578774e+00,-6.176680762305291950e+00,-8.221715391866687428e-01,6.771742186589750911e-01,-7.228157555253480471e-01,-9.550676174249861816e+00,-3.448399071410502836e-01,4.993704225683828213e+00,-1.597038270770178903e+00,1.401126923048006345e+00,2.712599471712577870e+00,5.438898419344495139e+00,2.780696171807336192e+00,3.742225493224418997e+00,7.625881613075571330e-01,-3.252502062025810936e+00,-1.482940644178351697e+00,2.743058506307276101e+00,-5.623439311818090758e+00,-4.231354991296432111e+00,4.398091367721508327e+00,5.155898552560985726e-01,-6.484137274953880592e-01,-2.481690630741483883e+00
9.218487901418691566e-01,-6.166723499572081657e+00,1.447577452947651500e+00,-5.831186627728024430e-01,-1.280107671804214320e+01,-1.415298686270852535e+00,-2.692029554208145825e+00,-5.009054001199118034e+00,2.983213693430658786e+00,-8.892259264088213655e-01,-1.656114120233983300e+00,-3.778272456320524775e+00,-6.649731484781679081e-01,4.094681631033522784e+00,-4.989686443327472354e+00,-4.869749274701416830e+00,7.146414767601018347e+00,3.814466905722910250e-01,-1.193863675091265897e+00,4.484695082941151156e+00,-3.855534496710835146e+00,-1.136709506044146956e+01,-9.944613711907923204e+00,2.020502751548421405e-01,-8.516755131605432183e+00,-4.861122813549357602e+00,2.768306763328109099e+00,-3.167357670635809530e+00,-1.536515507032852002e+00,-2.510158847106019664e+00,6.000713653104418732e+00,-2.809101977124341398e-01,-8.155645549333471189e-01,-3.859216161300298431e+00,-1.004679537530278610e+00,-6.539525427363767074e-01,4.813568702870995253e+00,1.547314338475681561e+00,-7.006852108247706434e-01,-6.495071407754748449e+00,-3.090924217718524325e+00,5.578681970562649362e+00,1.197157843053655801e+00,-4.444111044900587615e+00,-4.709131546004016178e-01,6.661353971768396498e+00,-4.851667215742369699e+00,-4.248912704029062404e+00,-5.039887078421487754e-01,-6.439347746062669131e+00,6.079981001827749587e+00,-1.425194017639378918e+00,3.581547680603863082e+00,-7.369853912518105510e+00,-5.474667122075780767e+00,-2.850821871436850508e+00,7.412950726128594958e+00,4.660118183078588494e+00,-7.013413938963657390e-01,5.962659031687155498e+00,-9.995042404876444131e-01,-5.608306815049300731e+00,4.282139411572865484e+00,6.567829044314814624e-01,4.900987528962522433e+00,1.461898847659472311e+00,-1.836154359566757766e+00,-1.388718268440744641e+00,4.906318061981588485e+00,6.122804709697333703e-01,-4.582327883660878953e+00,-2.126975725372612480e+00,-4.114885569534346921e+00,-1.192131990461881053e+01,6.119178533014924426e+00,4.455376944036409270e+00,-1.159881617700415202e+00,-3.999432348952920879e+00,-6.838791797326529975e-01,-8.902943288461031557e+00
-3.642291976849289625e+00,-1.843563733471292654e+00,-6.901842602870348564e+00,1.660891556029909788e+00,2.029776555207610578e+00,4.804373117000337423e+00,-1.075736606709785370e+01,-6.357491592421817828e+00,3.073624383820878769e+00,-7.840548496141011015e-01,1.202666325559819782e+00,1.673397625836962277e+00,-9.761432826373667160e-01,-3.520694108245871590e+00,-2.785446984627097944e+00,-2.971732829569058598e+00,-1.450030195212711526e+01,-3.279236623013551455e+00,-3.379619768185965878e+00,2.110781146358784000e+00,-3.687178803240709346e+00,6.518780437724173815e+00,5.170509502909657051e+00,4.281207030770384669e+00,-1.866606158543058669e+00,-1.682015584024333377e+00,2.724774902832591383e+00,-4.928639919629572042e+00,5.258663266619459264e+00,-1.391123987259669903e+00,-2.921739900525067046e+00,-1.401287060410884688e+00,-5.146822972939286700e-01,5.609643914612813198e+00,-5.663755861840813477e-01,-7.294031428467611100e-01,2.806801714044815377e+00,4.281174115421146453e+00,-8.387984906587434564e-01,3.349139138473680721e-01,-5.927901308257199631e+00,5.457943946451669248e+00,1.878522555045983644e+00,-1.086069715230801158e+01,-3.789731860473864788e+00,3.370160396430380345e+00,9.783569459050693862e-01,2.412626065829799327e+00,-5.390432682172005663e+00,1.662858910088211628e+00,-3.431169462031045114e+00,-1.823556049084355646e+00,-4.986449453128475540e+00,-8.113912220620768112e-01,-5.469268959136708297e+00,4.669333631267355678e+00,-8.698909785559273189e+00,3.544614107772277478e+00,-6.934811072366916518e-01,3.811922848150189225e+00,-5.559581904323076529e-01,-7.840220088544926913e-01,1.762895928793606126e+00,1.126314457805191793e+00,-6.153437268244213776e+00,5.444210807373180971e-01,-2.740515458694150475e+00,3.497180957233071652e+00,-8.884380965176632117e+00,-1.038368560149384301e+01,-1.686259841444200047e+00,-5.362880207396523602e+00,-7.658325529109397678e+00,-3.946162698990217432e+00,-3.032090968556799826e+00,1.988960235608210558e+00,6.282216621417431313e+00,7.433026809005339741e-01,-9.340665383274711076e-01,9.519040606144897332e-01
1.238591111634029751e+01,-8.216673225032563366e+00,2.262070377840633695e-01,4.054387779832385519e+00,1.615602177606790590e+00,-6.080591495273639069e+00,4.934202134837338272e-01,2.469167038050102736e+00,-6.604854238088072371e+00,-7.810839883415602314e-01,2.550040535971260347e+00,-9.138260584801861652e-01,-6.605756341980075774e-01,4.623502824004551037e+00,1.460929281707171290e+00,6.600863259491636104e-01,-3.207980281318274063e+00,-2.741807773167626916e+00,1.573582934192489624e+00,1.923573679533407133e-01,1.203246416969781185e+00,3.951866836111152193e+00,-6.082062523263832787e+00,4.025736187341045103e+00,2.975777922860440405e+00,-6.422695903857823296e+00,-8.167964839142793920e-02,4.042471054309762835e+00,-9.204768989370057497e+00,-7.227941202846769109e+00,-9.320232138296214996e-01,-5.044737568070644329e+00,-7.647294056115171434e-01,-3.769399187701640286e-01,-5.614308830944424455e-01,-8.292692801889816057e-01,4.586345507312018732e+00,-4.391120071163376437e+00,-6.143812080199386738e-01,-9.375792707012966076e+00,-6.120062785459911003e-01,5.347493056711135395e+00,6.621886300449387086e+00,2.907933904852345819e+00,4.695305495137473417e-01,-9.252495975027855479e+00,-8.640304339732083339e-01,-2.372116726114790464e-01,1.543920673838897306e+00,-7.519238266256607517e+00,1.878954529145353547e+00,6.451507506102706735e+00,-6.700334712422709060e+00,3.097700971653326363e+00,1.299740132882201804e+00,-1.042241661427762089e+00,-1.146433521758112839e+01,-5.967401916258491035e+00,-7.852417261846095231e-01,1.678400862749385825e+00,-6.918846546159480582e-01,-1.000314930813181924e+01,1.351963037562364800e-01,-4.359224451063884231e+00,7.780504788310784292e+00,1.170141242032387341e+00,-1.566711539247150342e-01,7.688324910038090154e-01,-1.068288818214696256e+01,-5.041134170043932272e+00,-1.896647350062554693e+00,-3.630971441753795048e+00,-9.819067243767007014e+00,-3.303066784691021773e+00,-1.319629227504397662e+01,-1.292470054791417855e+00,1.521428729606552066e+00,-4.098088010667026992e-01,-7.704310733852246518e-01,3.206750019012556852e+00
-5.089234207558544831e+00,-1.026291159108847850e+01,-6.907748001846713670e+00,-1.030229078377053398e+01,-5.892292845560982428e+00,-4.040096335265394245e+00,2.305825198092982031e+00,4.166851554478877562e-01,2.773727587726177557e+00,-7.976640607742494504e-01,-1.385438212904073652e+00,1.403881698558787638e+00,-5.489789401037580285e-01,-7.436143919319393447e-01,3.912709641097335211e+00,-4.878620130333428229e+00,-5.316918602890026158e+00,6.256935375030662883e+00,5.053748686553541702e+00,3.538694428607854103e+00,1.270897641970372582e+00,2.120414236955359577e+00,3.622179706647091102e+00,5.490065334174032863e+00,-8.213309048795489176e+00,6.984223588749612688e+00,3.622676322559871487e+00,-2.545386184025727250e+00,-4.450768090832312396e+00,3.250148529133497277e+00,-7.701549618497249838e-01,6.142065418761384343e+00,-7.462851760928834732e-01,-5.208917721577351223e+00,-5.945755364091668271e-01,-8.769433879382625419e-01,-1.151078828941209053e+00,-2.208681915180913613e+00,-7.474354233720638119e-01,-9.991258042830512665e+00,7.650105637080780729e-01,1.503271198353595572e+00,-3.566318245053712754e+00,5.228653879717672481e+00,-1.669222362708716600e+00,-8.944446302289366102e-01,-5.493288314564848562e+00,4.324077409919626191e+00,2.363665613336205062e+00,2.401981267518234375e+00,-3.154291786209946213e+00,-6.084420842826312459e+00,-5.234567925834150870e+00,5.836080128980714932e+00,-9.715290777511333076e+00,-5.317389443611946653e+00,-2.232746922909542242e+00,-8.479013631125257078e+00,-9.383839595030820657e-01,-7.228767047638130272e+00,-7.873779315221924868e-01,-4.251475529325905445e-01,-6.263365766492047904e+00,-1.499384937544959406e+01,-6.002481992476224271e+00,-2.449160220996059234e+00,-4.264183458318954401e+00,-1.124741100023965856e+01,5.466514904433648070e+00,5.116614965032637130e+00,5.172084889501523897e+00,1.278333178293912686e+00,7.143671400146232031e+00,-3.453122642661914377e+00,-1.903109696912778981e+00,7.327582625366791724e+00,-7.551856356462797848e+00,7.214334919284557390e-01,-5.407002974681907048e-01,-4.768394996189952550e+00
1.592023713019303566e+00,-3.967677323979263981e-01,1.546483438767723317e+00,-4.149462868682211036e-01,-6.550045854298465642e+00,-6.319262911646710279e-01,1.048158123735662084e+00,3.141355385680616674e+00,-4.843738275461514142e+00,-8.814071503031802868e-01,-4.715298878803507954e+00,1.790704397401499781e+00,-7.787204009378873026e-01,2.335258907164221132e+00,-1.947360011844431193e+00,6.230521969933885629e+00,-1.229025225470910421e+01,3.198771628196434236e+00,-3.951918531431469983e+00,-8.661940416585636626e+00,2.625255270853577017e-01,-6.416138098198687523e+00,2.934399085223561521e+00,5.299752152156125273e-01,8.747142133730267943e-01,-1.172042578591853079e+01,2.461078371129037379e+00,1.903035350680481574e+00,2.283037365262138962e+00,-2.879133952567584642e-01,-4.008490737393165526e-01,5.714988600927080498e+00,-7.955223950419744172e-01,-5.541558602254120558e+00,-9.996312986313703464e-01,-7.775097227607483674e-01,2.767102870783340607e-01,-1.223308960040078608e+00,-7.734470331538203514e-01,2.671796219934965855e+00,-1.611759794708934601e+00,-7.022384951359797789e+00,-8.781707427867196714e+00,1.256565662350472401e+00,-6.530924996306819885e+00,-1.314367910749191237e+00,4.569215586860177147e+00,8.113139677595401222e-01,-1.266194264032672878e+00,-3.025887339978658441e-01,3.447968131180378037e+00,4.740891459830327115e+00,-1.096838532311333214e+00,-1.154380247362325562e+01,-2.278446372286173194e+00,-1.347349267014732899e+00,3.046541607828456844e+00,-3.829207181567114926e+00,-7.591521443654088985e-01,3.102720207836566768e+00,-5.612337799129181182e-01,1.632647538704064649e+00,-1.205433057283436149e+01,-7.411778547201635980e+00,-8.082285628225390539e+00,3.679925545850119661e+00,-4.885571199957564836e+00,5.328244315292269384e+00,1.059204284525127715e+00,2.277816290338015914e+00,-4.453103051680021629e+00,2.809033294100765410e+00,-2.165249168192190155e+00,-9.297953479387377484e+00,-1.159722019567960594e+01,5.577582518499887065e+00,4.268076168944241466e+00,-5.819439999118334761e+00,-6.388308568608483951e-01,-2.375177219818386476e+00
-3.884521663592688245e+00,-3.500689651982071382e+00,6.007096513045364183e+00,8.668185371230163749e-02,6.548748789092438294e+00,8.986566635421768368e+00,2.649040319779597308e+00,7.405927177552559248e-01,2.026636997436870757e+00,-6.596444529759107889e-01,-3.012783569156415098e+00,-4.312265487528510910e+00,-6.596423859371655096e-01,5.788636855958346317e+00,5.615684118341434328e+00,-4.179614097280417440e+00,3.103556416388589145e+00,-1.928487513148285259e+00,2.854696856932410487e+00,8.200309185508766419e+00,2.088440378041958478e+00,-8.047263360296083690e+00,7.584638124441808738e-02,4.750591982792565560e+00,-2.617745834842730268e+00,-3.111505652023397683e+00,-3.635598453551273757e+00,3.267058527065624496e+00,-4.977485165752096208e+00,4.655581208936946602e+00,1.991916223512225192e+00,4.162439297317407916e-01,-8.335081046393526538e-01,1.580368954921178570e+00,-8.401420696624852802e-01,-8.583281175352927006e-01,6.196678807210010298e+00,1.486844470463367374e-01,-8.229869360595243322e-01,-1.821043286538805761e+00,3.146087386891469051e-01,-4.703696764061633395e+00,-3.371409101011987541e+00,-1.000936460649468529e+01,5.748147007818968035e+00,-6.776974715200194233e+00,3.544383410271292778e+00,-4.010506168689254913e+00,-1.087054264603174669e+00,9.283726198760522408e+00,8.487095886958951896e-01,1.935397179639246179e+00,3.093638423123957093e+00,2.659740411128487469e+00,-8.084617854112769564e+00,2.472181567865861407e+00,-3.033838609897111738e+00,-1.230264425056340830e-02,-6.196873349507642237e-01,-1.024167290674436792e+01,-7.562278039033230037e-01,3.396387386248034823e-01,-1.052073640281090050e+01,-2.792036933456119030e+00,-1.875506467616142370e+00,-8.136533646158060407e+00,-4.652403593706766038e+00,4.143842538249162821e+00,-8.944758182332936514e+00,-7.968603995799255379e+00,-9.401390111051583176e+00,-7.208651062808985266e+00,-1.534508633684904311e+01,-5.185134923328249101e+00,-5.532948382419862199e+00,-1.119345788059936275e+01,-4.847721131426315111e+00,-3.981464707720116181e+00,-7.940530803261316439e-01,-5.443378574241604539e+00
