3.803925099616908945e+00,1.265676800470467711e+00,-1.261767269905082589e+00,-1.950987787788108108e+00,-7.380590186840154665e-01,-4.012278635785598624e+00,8.601839132450783687e-02,4.069485721400645239e-01,3.986047693457669405e-01,-4.611333498617623539e-01,-1.688838401481499996e-01,-2.476892443825127466e-01,-4.555676626624313719e-01,-6.030607015752524891e-01,1.587863345641474355e+00,-5.629562274034440872e-01,1.643993491186581446e+00,3.052882185881122812e-01,-2.604717868358871868e+00,1.114285676266951519e+00,-3.007975556250497728e+00,2.204280336949365982e+00,1.455149502723444566e-01,1.047478464122337583e+00,2.113702193231833948e-02,-4.311331759050714418e-01,8.052049014199577082e-01,1.440019799435261483e+00,-3.327003045613863286e+00,9.826252240820258776e-02,6.997256509319791373e-01,6.027592524344421721e-01,-4.627753152634168088e-01,1.771306414586430567e+00,-2.692797571386629785e-01,-6.380378126659417282e-01,-6.437243779089585338e-02,2.995402063831580364e-01,-3.597896628134097941e-01,-4.164344920568068265e-01,8.680849404655736901e-02,2.587392657481223157e+00,1.442732933184069033e+00,-2.510550232327893649e+00,-1.429082809936580434e+00,-4.802178635585664601e+00,7.889783139479792373e-01,-3.022499705292623240e+00,-1.208640282142228184e+00,1.124152032486410296e-01,-2.253011782897592408e+00,7.577185926490638268e-01,-5.233375851125606770e-01,-2.724019974440461844e+00,-1.682379229046524260e+00,2.106822017566459149e+00,-1.373408234359186464e+00,2.495753258436268052e+00,-4.950738249463400575e-01,1.086845872072907532e-01,-4.255882098528706581e-01,-2.627915503177798429e-01,-1.821388037290131434e+00,-3.621237857321803588e+00,-1.825889637122074527e+00,1.783224227623931402e+00,-2.624118890865549947e+00,-1.877938063987261597e+00,-2.651667073059551960e+00,-7.518510454690661149e-01,-1.779025133030761152e+00,-3.113678658587571313e+00,-2.378737181440998771e+00,2.277493633319959354e+00,8.143859911859892275e-02,1.503677899073297297e+00,1.299959557497263551e+00,1.112786729407852393e+00,-3.960263545006865726e-01,-1.109274253691346468e+00
-3.440422128764454524e+00,2.577074372644501572e-03,-1.103317109513351491e-01,-2.686910097586828083e+00,-1.661937523086546076e+00,1.119651742001778638e+00,-2.513211098171594937e+00,-1.486349559780326235e+00,-1.531913564691844254e+00,-4.779703627761069384e-01,2.472517206089401287e-01,-5.266821208385872310e-01,-2.201981457323004265e-01,-3.211412132524287699e+00,-5.582129513108783359e-01,3.118270847227539111e+00,3.324295440485371955e-01,-1.168336245510298577e+00,1.284116054586062206e-01,-1.019044015843995760e-01,1.527800493998460629e+00,-2.230975311765149183e+00,1.635182026583655857e+00,-2.099056523022178489e+00,-2.105348405577858628e+00,-2.056700612121541205e+00,1.423433626471868330e+00,-1.439962706289619865e+00,-2.090206390351476262e+00,-2.039940764190740996e+00,-4.934967602840034107e-01,-2.489199239106174577e+00,-4.832427349591197907e-01,1.615007976720886251e+00,-4.279886204711701447e-01,-4.437589919983409015e-01,1.017849564672836493e+00,2.499862124901105709e+00,-2.147684636748273812e-01,1.347446414752356825e+00,-1.743078099465253938e+00,2.359274146065857836e-01,-1.503681152468930859e-01,1.800666568352068175e+00,-1.971999291467431581e+00,5.387790330595316340e-02,2.536734663724872885e+00,-2.796255207628506767e+00,-9.681583293403606127e-01,-2.821700477708395827e+00,-2.306514797542615902e+00,-1.457090400455332002e+00,2.047071853446452039e+00,-2.047422603830361343e+00,2.433245513788882874e+00,3.212395605500610873e+00,-6.783936816744854381e-01,-2.166831093593513557e+00,-4.280036466383861926e-01,-9.656846965898034929e-01,-2.830233897905858331e-01,3.154576838738345934e+00,-2.645744474152780246e+00,-2.890619529882467731e+00,5.022585738917393350e-01,-2.485175544762121547e+00,-1.888977943028455897e+00,2.414885190515041469e+00,-1.262001749422117791e-01,1.974068898069252898e+00,9.674633948050308588e-03,-1.327792884012482633e+00,-1.742938305838948709e+00,-6.757327299239489493e-01,-1.638993494882833524e+00,-3.135341980541598073e+00,1.192725013918663812e+00,-2.997763298432153389e-01,-4.818603514337250759e-01,1.688363366810071264e+00
4.447471636377795967e+00,-1.291031794553443524e+00,1.549269195563008017e+00,1.178413980703029162e+00,-8.394476243509469970e-01,-3.897973777546908259e-03,-3.205498352243747462e+00,-8.285028836480701209e-02,-2.590200709272006740e+00,-4.696119110942786334e-01,1.363725513176514137e-01,-3.093351833800194739e-01,-4.725895243197215101e-01,-3.504178779883929895e+00,-8.548375414232768366e-01,-1.042609457771332737e+00,-7.316979376334610263e-01,-2.536388961389866026e+00,8.407441680920345328e-02,-1.829518618916876616e+00,1.169497807100800202e+00,-2.191838675802991077e+00,6.207165032946037053e-01,4.042580640838104866e-01,-3.012450386137565772e+00,-1.371017341357855246e+00,6.058093606116639052e-01,-3.879601916626388647e+00,3.576806668121745858e-01,2.107658519022385935e-01,-2.854013309339672233e+00,-4.705394993044935692e-01,-2.821187150240813679e-01,-9.520500821830348848e-01,-3.777080704192019023e-01,-2.194452228731783583e-01,-2.471909579406622370e+00,9.181209724878720557e-01,-2.441647745472219355e-01,-3.135625585277425298e+00,-7.917760741400904356e-01,-5.703485705376609705e-01,9.299753200992024738e-01,2.724028717414364031e+00,1.725436026317414884e+00,-2.930501272967111159e+00,1.029529776735238711e+00,2.415841048875726482e+00,-4.081663189526048008e+00,1.888565736096174508e+00,-2.515594993401807145e+00,1.736344881719203093e+00,-7.241943029950651534e-01,-2.059416736895588684e+00,1.362870818950159713e+00,-3.037102013723902871e+00,-3.406213463728991808e+00,7.339659151662646375e-01,-5.506304247076992953e-01,1.057738589781313632e+00,-5.238946190034599049e-01,-2.291080675433610381e+00,2.154413842019057834e-01,2.633628853168878958e+00,-1.477263940755224825e+00,1.193098670761691293e+00,1.573798840683257483e+00,1.116309496565588200e+00,-3.931573738457231904e-01,-2.964228326098868882e-01,1.386418068532950576e+00,-2.761232436541305457e+00,-2.060092283798572677e+00,2.163468136731298230e+00,-1.851327109366987855e+00,9.448949983889733950e-01,2.209355238365212415e+00,-8.064322865111740735e-02,-5.557931869729555441e-01,-1.637537327936852416e-01
4.536845005206489923e+00,-2.481903624065923797e+00,-8.236643936475791516e-01,-1.652729469788701611e+00,-2.311739719086389755e+00,1.805916069907925969e+00,-1.091549733259081778e+00,-8.576006112935908865e-01,-4.818514197441409186e-01,-4.281839860462154368e-01,-1.432005371640778346e+00,-2.555840411119750244e-01,-4.514924281790971272e-01,-2.124612398910070254e+00,-1.089402453397108950e+00,2.857568023514415412e+00,-2.262753549476540726e+00,-1.324237103215797795e+00,-4.614026757937087636e-02,2.687775261224819356e+00,-2.232738169261485162e+00,-2.030376933558064589e+00,-2.170621464101765152e+00,-1.256648495423775991e+00,-5.153955163691689018e-02,-1.563939386405973631e+00,1.754310952919273969e+00,-1.134982269285431222e+00,-1.381515223947266779e+00,1.258915801629010289e+00,7.096346459278348728e-01,-2.859942217667777786e+00,-4.104809188642487561e-01,-1.632452981443540230e+00,-4.160754174852638876e-01,-3.875313310208816087e-01,1.217097374420685219e+00,-1.337239642019298458e+00,-4.759609813868376227e-01,2.966503239327060171e-01,-1.329974879491141460e+00,9.982316319517472447e-01,-1.767333964624009379e+00,3.010959092207971644e+00,3.237432190872549520e-01,3.580304725257277720e+00,-2.286103449845574342e+00,-3.169681972512153889e-01,2.324849664737814070e+00,-1.071068187718759779e+00,-3.375689776197428937e+00,1.034020211397729483e+00,-5.602243575289096444e-01,2.049149903996282163e+00,-1.704635091534414393e+00,-3.746435766411072343e+00,-6.039474858926348055e-01,-1.331741983987025646e-01,-3.823177998384261755e-01,-2.466844872858529492e+00,-2.464391375429085540e-01,1.761436419993890778e+00,1.778056128224477561e+00,-1.928616741849142224e+00,-1.222160184945183387e-01,1.949266598180642573e-01,-2.396086404420342486e+00,-2.886634982907847924e+00,1.230217510699461503e+00,1.838521657759704331e+00,2.322863686172047970e+00,-5.500296822863716129e-01,2.242876089521494531e+00,-1.023540522038822287e+00,1.869325581828963578e+00,-2.345915487448313019e+00,2.316272948737218562e-01,-1.642811648883132136e+00,-2.893179670333452247e-01,-1.218965299760072618e+00
2.558137185006030823e+00,1.496910767368268669e+00,5.804709992345376962e-02,9.558383350217506402e-01,-1.125483027563032978e+00,-1.890920873862146578e+00,-2.666260444842195820e+00,-1.247448066550508106e+00,-8.557976168627966507e-01,-4.658629362569330912e-01,-1.847469097415147532e+00,-3.356567300560335809e-01,-4.273745100941917507e-01,9.882616073130998657e-01,-2.515608649429074362e+00,2.441645110714745215e+00,1.203039528469150188e+00,-2.618488350529505126e+00,-7.935659606694425161e-01,-2.983469223939132053e+00,-2.829585841036700078e+00,-1.641451411667155524e-01,1.485605994117045636e+00,-2.622387001532600959e+00,-2.859056630561906953e-01,-6.613227994113176633e-01,-2.669127840970738408e+00,1.550726139179292584e+00,-2.293197958279907134e+00,6.207130878168662935e-01,3.386264946624694128e-01,3.027816298860402933e-01,-5.036915127122358893e-01,-2.402547636553337806e+00,-3.133587141245946506e-01,-1.671009764030025602e-01,-2.921934627907575965e+00,6.869477502484288012e-01,-4.335350172509719879e-01,-2.839463116996697956e+00,-3.480801502003638137e-01,2.169366474688777302e+00,3.535931232360775556e-01,2.529792305484877435e+00,-1.199945162675953192e+00,-2.439246257599517076e+00,-1.154092298394173932e+00,2.166692424180780563e+00,1.182168874946286197e+00,-2.789076178505016657e+00,-9.095862728753325577e-01,1.311533344374041565e+00,1.645840367403687665e+00,1.971536008728307587e+00,1.103715518241927596e+00,1.504774054983912535e-01,-3.423575794058412392e+00,-2.265341260181331862e+00,-2.947068736612418749e-01,-1.536088311689522312e+00,-4.766086198180039535e-01,3.495177801888805363e-02,-7.498336188774312738e-02,2.910358725020790072e+00,2.446470164887630805e+00,-1.059653296630113983e+00,1.802284836638756368e-02,-1.551767294571366085e+00,1.309041768770945913e+00,-1.616830188508944888e+00,-1.643018771622077878e+00,1.891367225621328307e+00,8.111344790598877807e-01,-1.777544309338420891e+00,6.712966778623844499e-01,-5.913961239021023886e-01,2.148694135271695504e+00,-8.055514907171285044e-01,-4.052274314867212457e-01,-1.481209658691267750e+00
-2.526695439602176574e+00,-2.089709409482005675e+00,-8.676923291319525999e-01,-1.791772065030458716e+00,7.781462304557293930e-01,-9.690455323936314480e-01,2.216553489861855797e-01,6.271932179579114974e-02,1.700873129694901342e+00,-5.071221626840423102e-01,-2.015785038146236108e+00,-4.605003464556994275e-01,-3.767777543458831757e-01,-9.068666329003632898e-01,-5.305045947610030899e-01,-2.368647505432535105e+00,-2.199364464319602419e+00,1.095491508651922574e+00,1.885492186587552688e+00,2.096359845309361702e+00,1.690924978094416220e+00,-1.910399396420826790e+00,1.723558367236189159e+00,1.790101348583621244e+00,-4.605719411454771706e-01,-2.847320904037527356e+00,-2.039628282916698065e+00,5.301568867076555946e-01,-3.019170560859153252e+00,1.234228140502879878e+00,1.165070258672874726e+00,1.728916666882924558e+00,-1.924998737407224436e-01,-2.483166231978115590e+00,-3.187592047039784493e-01,-3.746191307604653797e-01,1.250777935965180054e+00,8.493282628553661118e-01,-4.884830411781714843e-01,-2.797653855864498773e+00,-1.789595918990370293e+00,1.424730123969422113e+00,-1.708785274677959709e+00,-2.780106442246996323e+00,-2.712692936078679118e+00,2.395646817822925989e+00,-7.362805224570578844e-01,2.759065936018969545e+00,-9.644666682860905671e-02,2.723151384949984433e+00,-1.352444033829244496e+00,-2.359107531322652829e-01,-5.086549918484419841e-01,-2.656407574563957930e+00,-1.194359277716465995e+00,1.077387425718980607e+00,4.219909018441015403e-01,-3.393586622597172919e+00,-4.726559657305177686e-01,1.406068124987532197e+00,-5.007285140424158065e-01,2.209587832717417211e+00,-4.791349147110722129e+00,1.360644526786889852e+00,-2.945164455731537956e+00,-2.203799417766007185e+00,-1.905196206619288013e+00,-8.832832953550147082e-01,-2.042172604674866943e+00,9.022318486495063405e-01,1.558493792458451654e+00,1.665319059499589027e+00,-9.400871230941290069e-01,-2.938813752368452104e+00,-2.073079663908742543e+00,1.902964583946922916e+00,-3.086386573404552580e-01,-1.017627937053975362e+00,-5.361735249893229138e-01,-1.357108072519807918e+00
1.753136439626671095e+00,-2.966165672122467178e+00,2.021030477189921903e+00,-2.008231184716400275e+00,-1.507205865595649952e+00,-1.575141893888643896e+00,1.808556656978769661e+00,-2.300304796680004760e+00,-2.439800652849665852e+00,-3.796169023939812703e-01,5.877378537729259778e-01,-3.954318440060185513e-01,-2.890937071602175945e-01,-8.477493306333682144e-01,-3.465190909598754310e+00,3.832852343391274008e+00,-1.088518472425940908e+00,1.269371613059994797e+00,-1.761659977491935702e+00,-1.422799854007106291e+00,-2.163342488800783947e+00,2.158656882717779446e+00,-1.467298517427899185e+00,-9.023450491027639186e-01,-1.805478835768678847e+00,1.820327523920623580e+00,-9.275685633314521006e-01,-1.855350843910164471e+00,9.005121849917202548e-01,-1.918851206722395064e+00,1.311047820632256666e+00,1.526559709148394006e+00,-3.555266063035904534e-01,-5.868251164413018639e-01,-4.130118937210542907e-01,-3.613780418430512786e-01,2.228407317371827734e+00,-9.301408702950378915e-01,-5.485531353577572933e-01,2.463950674746698821e-01,-1.296773104177328717e+00,-1.983623736721262132e+00,-1.979198050210229098e+00,-2.062803701978876525e+00,-8.476272314904997884e-02,-3.247497354635535238e+00,-1.913151198616307003e+00,5.677484213458831031e-01,3.709261899054586031e+00,-5.698647435504698017e-02,-1.111991920001159428e+00,2.084265283915588629e+00,-8.037456794076776045e-01,9.704591508919470089e-01,1.140138407706261070e+00,-2.592033364833834064e+00,3.703179677157070415e+00,-1.581015640716555426e-01,-4.948186009742248093e-01,-2.073223042143768957e+00,-2.400314389237689916e-01,-4.814642670865922902e-01,-4.185709423321604561e+00,1.955692596382267556e+00,3.702760438655224862e-01,2.842624897033243059e+00,-4.598236149224209646e-01,2.766065811251967599e+00,-2.718263007607956805e+00,-6.142419176943186843e-01,4.173026637587918912e-03,-2.404071724168301838e+00,-1.890853298497900292e+00,-1.171631094207874701e+00,3.291724942603548726e-02,-7.313309949028079515e-01,-1.850344819590644452e+00,1.064098746831187770e+00,-3.314398047578703266e-01,4.460791867773749586e-01
5.770082968211209806e-01,1.735553106085779618e+00,-6.754968917242225590e-01,-2.341205835469854613e+00,1.650987812238038366e+00,-2.921494933753230328e+00,-2.139098695096631975e+00,-1.836805509986287610e-01,2.223770718135317903e+00,-3.930605734637264703e-01,-1.733838288467212330e+00,-3.758192248204016983e-01,-5.331132669236795518e-01,2.529362138085644141e+00,-1.302192857504451684e+00,2.407357476098920923e+00,-3.037890498456756294e+00,1.467554159956740156e-01,-3.471623898977056033e+00,1.710110347205717307e+00,-1.853553968038601285e+00,-2.023207116501767544e+00,-2.115994600461430952e+00,-2.057145988486316135e+00,-9.403097950649736969e-01,9.332612501666858185e-01,-1.879886807679806315e+00,-1.623962143814063674e+00,2.213914794296049315e+00,-1.215743238991571218e+00,-9.723168625986514657e-01,-1.921095810556764150e+00,-4.254867985486022741e-01,1.597231791363232345e+00,-4.830343221833057199e-01,-5.101770844710938890e-01,1.305946818822980138e+00,4.896920610121999196e-02,-4.729701007518061218e-01,-2.176158370941843334e-01,-1.696896799800438282e+00,6.224873271698962152e-02,1.719438064448892467e+00,-3.763169649511158621e+00,2.064313651930334892e+00,-1.735607808605488023e+00,-1.111805924937334655e+00,1.441646654047011200e+00,-1.900256216305633350e+00,-3.509286570100431657e+00,-7.185178756471493067e-01,-2.553766842743612764e-01,-1.399548166506867197e+00,9.895235574503248310e-01,-2.018814337892010258e+00,1.834431318563964686e+00,-1.908279038884362233e+00,9.685718356586852096e-01,-2.405179914352622017e-01,2.423676136662897385e+00,-5.253448233682701529e-01,1.715334590421245808e+00,2.572070825666364691e+00,2.380393841455704873e+00,-1.018273151566054802e+00,-2.757462890741832151e+00,1.790489588803670262e+00,-2.834190011165160783e-02,-1.744276359738455850e+00,1.918766757922343524e+00,1.672682575223578771e+00,-1.310737007331814752e+00,1.795342921581204454e+00,-5.150688180453042442e-01,5.161091535879660380e-02,1.820080851212452222e+00,-2.467098683013181581e+00,-3.136006336134508632e-01,-4.590044923817800382e-01,-2.488018011277892239e+00
2.896724245426136601e+00,-1.804830622630441139e+00,1.532740398498560808e+00,1.182943645160734913e+00,-2.412030369123425277e+00,-3.172116774051446431e+00,1.651266258852645219e+00,4.852175612080265599e-01,1.182313147976677747e+00,-4.408742278850829588e-01,1.071567046500105258e+00,-2.257564286324809377e-01,-4.397565587532054621e-01,-3.335774250171261723e+00,-1.817707504442796607e+00,-2.816732145942132948e-01,-3.592427958953797074e+00,-2.229740625179622793e+00,-4.395142474210375627e-01,-1.074762794002821042e+00,-8.536549876483228161e-01,-3.407225198333880378e+00,-2.899631802675800341e+00,-6.484146007309256055e-01,2.008259696149602203e+00,-1.538660675626187802e+00,-4.013658391033289585e-01,9.903766263573730855e-02,-6.972842004191690535e-01,-1.820662830385474606e+00,2.082943103800454221e+00,-6.044477527443447018e-01,-5.185868437921968832e-01,1.668695410818915148e+00,-2.833700741709092030e-01,-5.021919005081297849e-01,-1.594116539535266330e+00,-2.035722128079542337e+00,-3.755106905188489441e-01,9.041155990835992862e-01,7.380783126558815299e-01,1.791219572430154283e+00,-1.676409669671375058e+00,-2.664262489821058288e+00,-2.946743368844711775e+00,2.585375625700146340e+00,1.846369804487383748e+00,3.844309677035081529e-01,-3.138165249856049943e+00,-1.677619518075787741e-01,-1.647917424876705894e+00,-2.340257822182677305e+00,-2.373721361683883480e+00,4.144333551429513207e-01,2.431415576381125154e-01,-5.742654310540467044e-01,2.592686074735310597e-02,-8.337473316763722719e-01,-5.130396199248891120e-01,2.507937873216392055e-01,-3.667071713531951382e-01,1.918881624380040618e+00,2.099315035715564604e-01,3.294360138634237156e+00,-1.630920472120547027e+00,1.055979317343796797e+00,-3.341394069304103986e+00,3.630057747225274301e-01,3.167851293524642564e+00,-2.397357481443498362e+00,-6.414321621793100947e-01,8.056312284354529840e-01,-1.609300268582710913e+00,2.689594890676722194e+00,4.090463643398272731e-01,2.745474598044545633e+00,-1.120349871346623782e+00,-1.724069038174073976e+00,-3.287655466841965524e-01,7.346612229003636196e-01
-8.184894561179056893e-01,5.595959077713265062e-01,-3.336396233754239660e+00,1.765177026906281865e+00,1.418517192378889957e+00,5.528890452559892532e-01,1.937551999786372825e+00,-5.457140798066325571e-01,-1.892504883660780735e+00,-2.563252782230116544e-01,-1.702865711273539695e+00,-1.464631958445772875e-01,-4.222227593084919572e-01,-4.238307249191347048e-01,1.404663363373959806e+00,1.960211069449137922e+00,1.124418751302210528e-01,-1.541916722415382690e+00,1.659083883317209018e+00,-3.543249067756196080e+00,-6.139510994746808503e-01,-1.761234606226851795e+00,-7.288335654365930560e-01,-1.120063145130653082e+00,-2.905985972723911903e+00,2.052414383006705201e+00,1.643319684302345651e+00,1.357263491250235488e+00,-1.206923646816595169e-01,-6.512099296532501969e-01,-2.285918518127283861e+00,6.093975413636260052e-01,-3.670114438429122328e-01,-3.132918862582150688e+00,-4.318362647716500469e-01,-5.129431118319563998e-01,1.819730215345379376e+00,-1.741446446091311717e+00,-4.961491806411649774e-01,1.491788694121889192e+00,-2.100010929850519403e+00,-3.100114883498251039e+00,-2.101027036310337603e+00,-1.993883800035169296e+00,-1.187764264506366629e+00,-2.862634315093598225e+00,-6.789607618711930304e-01,-2.494187234747411441e+00,-2.369752466157287074e+00,-2.261453292564218565e+00,-2.602456297020574905e+00,-1.957915553796860886e+00,-1.880938539996179770e+00,-2.871322399457258534e+00,2.057685660500176983e+00,-1.252950121015740770e+00,2.091658510660753034e+00,1.303728367149099787e+00,-4.115034715346355121e-01,2.311855053930587545e+00,-4.712850998415117898e-01,7.566088575467244670e-01,1.438917932900069641e+00,3.013603834782551338e+00,-7.020635779487487405e-01,2.143136636196180334e+00,-1.142993216724489836e+00,-1.156846138616043795e+00,5.570402876554959581e-01,9.523513592658401361e-01,3.738780722799909251e-01,2.159236178261768391e+00,1.910283900587135930e+00,-2.584863795656658692e+00,2.065650045662254186e+00,1.774521161711097417e+00,-1.747253914561446075e+00,-1.509737548463585322e+00,-3.337164682827082895e-01,-2.603490298088523502e+00
1.856431484877445692e+00,-3.082683497444477894e+00,-1.118161343929491069e+00,-1.600154931520722856e+00,1.795828871125436876e+00,-2.394038795048058610e+00,-2.936156794808716608e+00,-7.899249952517370943e-01,6.626936837267801694e-01,-4.241774831187449801e-01,-1.012481309614130520e+00,-3.545772242043181421e-01,-5.534959715690312976e-01,2.193926137731343484e+00,7.083386038134945606e-01,-2.884153842200765983e+00,-8.426483289629477236e-01,-3.083098139707578511e+00,9.998760224977297772e-01,-2.530874548453821982e-01,1.540401435663426799e+00,-8.744515508886753219e-01,-1.309995019888789747e+00,1.450123254859802646e+00,-4.953376557907900324e-01,2.291869633275826601e+00,5.805677525426535812e-01,-1.649749614474609882e-01,-2.346830499527134073e+00,7.490922683756547906e-01,-2.092369276493994956e+00,1.864153980929863730e+00,-4.147973729137126586e-01,2.182451573701308600e+00,-5.173201184078350945e-01,-3.993910521482131881e-01,-1.852372310418286538e-01,-2.892337955857574361e+00,-2.538428710269366451e-01,3.809931013755717633e+00,9.978482000341653002e-01,-3.751194412020316449e+00,-1.848562516694976177e+00,-1.574284219395192252e-01,-1.266786594299748492e+00,-1.420760388259828089e+00,-2.454860221106388352e+00,1.049878022455414728e+00,-5.665529786724861072e-01,-8.320066228748801418e-01,1.389566523462923087e+00,-2.689389961052115474e+00,-1.917572222252997838e-01,9.671919566555280401e-01,-2.095600021063884988e+00,-1.710504417509222108e+00,-5.064743525920368805e-01,-3.526513699863455198e+00,-4.048611023473975279e-01,-1.283858885519570503e+00,-5.148622271219368551e-01,6.141821754601518857e-02,-3.378684328784500313e+00,-3.981409831170665825e+00,-9.533271309140308736e-01,1.194384289756645456e+00,-2.070667500405160233e+00,2.523859121844796771e+00,1.844990567556975547e+00,1.909968975717671658e+00,1.602952022191665105e+00,-3.506264103022779799e-01,2.174280357275331976e+00,-2.812703283412880229e+00,-1.797829800335392747e+00,-1.513083088224589590e+00,1.160536275928656824e+00,-2.021007868001184260e+00,-3.319421923887975190e-01,-2.049107557549163516e+00
4.269323387444370788e+00,-1.483110218034534578e+00,1.215892504474736624e+00,-3.555862784944108235e-01,2.216652468737623227e+00,-2.766800372997848978e+00,-2.543223879311816926e+00,-3.005353819584048569e+00,-6.779279434459662967e-01,-2.447074550363407819e-01,-5.647057086347277988e-01,-3.090399020930356677e-01,-4.023916765959478781e-01,-9.631301724638443584e-01,2.449011938415787792e+00,-3.945725965900042542e+00,-2.109402175155822956e+00,7.163187208532907357e-01,-3.151184906544918896e+00,1.142933711119413775e+00,2.186956994679958743e+00,-2.185141923745711701e+00,1.823755766066684492e-01,-1.775735569502147060e+00,-1.055217345827437869e+00,1.684782600714848755e+00,-1.870212238560936990e+00,-3.096714318235428975e-01,1.255079837369486695e+00,-2.209512792369141998e+00,8.641393876974773347e-01,4.281077228171307758e-01,-1.543257190456087113e-01,-1.264954747940089330e+00,-4.046133605408470113e-01,-4.878982104910918327e-01,7.187645620227148813e-01,1.238635964236879827e+00,-5.013577826777160240e-01,-2.372174458117640938e+00,1.155540431326428141e+00,-9.279488477958132142e-01,-1.489119057687916969e+00,-3.189708535914394183e+00,1.891652723347134746e+00,-1.156603046780911859e+00,2.241507376907988236e-01,-1.276272357683463143e+00,6.953688424490852560e-01,1.227113606406333490e+00,-2.541157428211000546e+00,-1.711000657892377985e+00,1.570283411762243952e+00,1.839525333069764956e+00,1.861861256829207889e+00,2.784473712641354570e+00,-1.602198313964028564e+00,-1.683800946714955060e+00,-4.104584032268844829e-01,-3.050839375631319683e+00,-6.633017670438229318e-01,-2.418408167800564446e+00,-2.635723322831389215e+00,-1.249894974679784498e+00,-2.370126379639071246e+00,1.285634376857282879e+00,1.099424447122392401e+00,-1.293157028502929240e+00,-1.894279468668307320e+00,1.147479016911955307e+00,-1.592699016054883288e+00,1.743440321890068034e+00,6.410013435155504924e-01,-1.323212947780436410e+00,-1.179211516764733236e+00,-3.571337609837315630e-01,2.961749720479078252e-01,-1.008083575022786088e-01,-4.760929844960851143e-01,9.581485883001776838e-01
4.739169899969316369e+00,-1.982231273047986075e+00,-2.261608167092535204e+00,1.916312835424826222e+00,-1.465782071332771386e+00,2.325141059863346626e+00,1.366793345362701029e+00,-1.270720358327650068e+00,-5.529425508300538361e-01,-3.010422834387250779e-01,-5.165159586758767407e-01,-3.227795082085598843e-01,-2.405364314936981607e-01,3.423945085043177183e+00,1.363832993717218223e+00,-1.371425088147870675e+00,1.150861888732007454e+00,-1.809334213689723692e+00,-1.244239682249133061e+00,-3.297363332798060043e-01,-2.936263846957418266e+00,-1.595836924039480964e+00,-1.893028358650111986e+00,-1.950959587667856487e+00,-1.524123488997038978e-01,-1.887058473389104707e+00,-2.453270396774566819e+00,-2.109435236668135705e+00,-6.473469157697264720e-01,-1.994040849686597339e+00,-5.639288443203045453e-01,-1.777100778434421713e-01,-3.882276607017122183e-01,7.413753943333315499e-01,-6.423813395407198534e-01,-4.436076088946977469e-01,-8.333283321726014936e-02,2.139238814643981801e+00,-3.493106280903530703e-01,-1.114356785215216528e+00,1.501953052098687680e+00,1.578869740380612452e+00,1.052427986455459319e+00,-3.175934226451033737e+00,1.114493493186068829e+00,3.776928647136794659e+00,7.281376250439048903e-01,-3.252332375492501981e+00,-1.467113114167843957e+00,-2.572578802768850093e+00,8.408725195609782765e-02,7.336260725885469514e-01,1.902572595590561022e+00,-2.028711676912442030e+00,-1.436947314376503693e+00,-2.345573467691230096e+00,2.720986797647082067e+00,-8.982449505055212224e-01,-5.086551122354884269e-01,-3.153865722941616934e+00,-3.548546333534373098e-01,-9.874187249993602311e-01,3.818399831721359661e-01,-1.511910159173912804e+00,-7.890215878843628294e-01,1.394714748687386097e+00,2.689567979789381891e+00,-2.071922049393179588e+00,1.033583595561825108e+00,2.192315820153879269e+00,-1.534088613134167167e-01,1.541637971530273266e+00,-1.927712403331701019e+00,1.580156899403199366e+00,-2.800688312447153994e+00,-1.690824069545809438e+00,-1.422477337190886315e+00,-1.586889509000054765e+00,-3.632586448008617852e-01,-2.050545392606365702e+00
-5.848677863220792972e+00,-3.758403113310803789e+00,2.923102509257779147e+00,1.006094635220435407e+00,-2.319497708527402668e+00,-1.668651773440039010e+00,-2.052948597437477929e+00,-2.019171000911253788e+00,1.862987924664056161e+00,-4.587253336617272415e-01,-8.529359834582525002e-01,-4.206109016382095223e-01,-3.970777886192187744e-01,7.733293525508518895e-01,2.107720017896071329e+00,-1.658867031089193311e+00,3.469580030966620932e+00,2.336784486635427260e+00,-6.740351027219559921e-01,-8.677862221922664210e-01,-2.025822671140741438e+00,1.912662085406783730e+00,-1.598860875215654342e+00,-2.607867980285296650e+00,6.532756390535030336e-03,-1.535695736087548058e+00,-3.603146659984381994e-01,-1.710671948667562781e+00,-2.146152667397588587e+00,-1.339373945299921154e+00,3.948439944542873614e-01,1.422029504366701502e+00,-2.800213751738975798e-01,-4.039392054108030816e-01,-6.929359977091742451e-01,-2.196096254393858638e-01,1.528809351543349404e+00,-1.119867471549150340e+00,-4.742462134362334103e-01,-1.245568631652979930e+00,-8.253783277472913626e-01,-1.148325287988231080e+00,1.508170588234159615e+00,7.818732643042854979e-01,-3.875379404886721002e-02,-2.419539106803408224e+00,-1.467390685891317936e+00,1.616796744865893087e+00,-2.308601817510049781e+00,-2.662752124725039415e+00,-2.604360718358611937e+00,-2.939948228959969878e+00,-1.701200608178583318e+00,1.674342177337052151e+00,2.246568992642611562e+00,-2.484450662696119583e+00,-4.677458407689858433e-01,-1.562553224743430835e+00,-2.799305269821943387e-01,-1.556264850548864320e+00,-3.246298451655009742e-01,2.249851594638894614e+00,-2.333956113246080211e+00,-7.255569342786030718e-02,2.272752707446906495e+00,-2.316022232195141251e-01,1.958697887183757702e+00,-1.576001971965984350e+00,5.290371134153460941e-01,-5.268167904417219577e-02,-2.032636106692258693e+00,-1.240786781746436418e+00,-7.018090612222290803e-01,3.091711002101244610e+00,7.316683480698853437e-01,2.516847463147366071e+00,-7.531272862708798810e-01,-4.802555980136158365e-01,-3.984376575866999115e-01,-1.787275271147517275e+00
-3.891905255591449286e+00,2.376355087128492194e+00,2.294985755623440760e+00,1.434121407677474647e+00,1.991199519612123492e-01,-2.382430584794331896e+00,-1.337617189214410640e+00,-3.207240056296354336e+00,4.666050404224748038e-01,-5.437450480373212658e-01,8.756750120827655470e-01,-4.738166401937533578e-01,-1.512758517186411356e-01,-1.504077125922135494e+00,-1.449530502726957160e+00,6.253866621226619182e-01,-2.964213642766700296e+00,-1.722934975718692474e+00,-1.458941579735047123e+00,2.640000565058171933e+00,8.708340539681836967e-01,-1.191189930747361014e+00,1.439820722329578029e+00,-5.813846275128375929e-01,-6.527417930004638658e-01,-1.005537815545831520e-01,-2.042213095405301715e+00,9.935818179281023788e-02,-2.462149247835407451e+00,-1.408403462433604592e+00,-2.075572425073024529e+00,-1.060276015221017554e+00,-3.429267382562913302e-01,5.339857402392513830e-01,-3.926213756159590007e-01,-4.750717533870986720e-01,-1.139285918459008506e+00,-2.096113588194290500e+00,-4.884465452357211745e-01,2.099478489310274032e+00,2.346629729123565211e-01,3.717559264883401493e+00,-4.608400390467059515e-01,3.452642731000204357e+00,1.070086300489022424e+00,-4.356298724535119238e-01,-3.233461522658116039e+00,-2.100758715672792043e+00,-2.901056691178988789e+00,-2.467371998134277877e+00,1.216491336642155474e+00,-1.798470696271729174e+00,-7.412754992613700411e-01,-1.351443476192955240e+00,-8.344735759525919727e-01,-3.785005950082437898e-01,3.771037953452098801e+00,2.880037906450446439e+00,-3.622305312955024226e-01,-3.027703103839683774e+00,-3.874328252639118730e-01,-3.054733702949581353e+00,-2.815835003934363368e+00,1.969688274176937703e+00,-1.590028051014202415e+00,-7.171516523891211525e-01,-6.334470021871747500e-03,-2.834339495008118881e+00,-6.245035453733492892e-01,-1.246473919592066437e+00,9.006297549136416114e-01,3.939303126728799231e-01,-1.865433024505089410e+00,3.044563727079274695e-01,-1.262586262795417191e+00,-2.056473895625195780e+00,-1.612955205290323102e+00,-1.403473896347460448e+00,-5.938583168220817887e-01,-4.866128227188508126e-01
1.567884102572118410e+00,-9.647304587433548351e-01,-4.538994559974282028e-01,-2.397777251792147624e+00,7.469298932860942708e-01,-2.857183700227512890e+00,1.701269581607143477e+00,-4.246406711198644324e+00,2.619054315452193360e-01,-3.459153647711070145e-01,-1.827956844724152985e+00,-3.919760461276988184e-01,-3.555309465570976046e-01,-2.086252746382933232e+00,-9.346559300830402650e-01,-2.295928578276771770e+00,3.187494962853295366e+00,5.436699598327080496e-01,-1.417586518435609788e+00,-3.312655276881939059e+00,-1.519006682446024215e+00,-7.047726371501603637e-01,-2.830824605195559673e+00,-2.667531003547964907e+00,-4.584659651295787341e+00,-2.283189283570000172e-01,-2.552373990463186471e-01,8.742195824163901952e-01,-5.211751011507791131e-02,1.306836324252871773e+00,-2.776710485326734368e+00,-8.226500600924542272e-01,-3.129028082392114052e-01,1.571959954119034775e+00,-2.820425194320859696e-01,-6.727161629476338112e-01,-1.868106573947408755e+00,3.103500542364285297e-01,-3.059938276122778911e-01,-5.016469646528713966e-01,-1.383880871686648195e+00,2.426005551014825290e+00,-2.545653705460749983e+00,8.698792235409954499e-01,1.683385405394668854e+00,1.158775004628916250e+00,-1.405735097962498958e+00,1.508079424800617963e+00,3.626353189937043808e+00,-8.089168862916135128e-02,8.518450862216496722e-01,-1.570874626665023976e+00,1.958620714501960069e+00,-1.350141174027218893e+00,-2.152242497314439174e+00,3.499061388364815284e-01,2.506826752928242641e+00,1.424288063768581303e+00,-3.890573779239278607e-01,2.208252132778588894e+00,-6.661799065101373651e-01,-9.428335347265178745e-01,-2.907528351839312908e+00,1.568482647163453203e+00,2.763008337591299490e+00,-1.686294134697634117e+00,2.739503933479817910e+00,2.367257859083947480e+00,3.160571163848263088e-01,-8.025152683558777200e-01,-1.220789211976435418e+00,-3.044881472934958921e+00,-2.166237233777120519e+00,3.901260181083264778e-01,-1.373857642587922756e+00,2.582418165339768645e+00,-1.875009713344570450e+00,-2.800117104757001041e+00,-3.708405606518953013e-01,-1.023447316288561559e+00
1.132319156627447088e+00,-4.540347394056396091e+00,1.939019393915080158e+00,-7.708626972105553365e-01,2.438863951524508078e+00,1.212623701281795974e+00,-1.067029772527947395e+00,-2.222566441412461291e+00,-1.875915164966522664e+00,-4.899064203132871831e-01,1.345550232956180592e+00,-4.880838576375495785e-01,-5.680428801947863260e-01,2.934990468113608308e+00,6.568946007943483600e-01,-2.262527785305568084e+00,3.510534160316380881e+00,-4.226233714308645917e-01,-1.048657610679422758e+00,2.087416508458946218e+00,-3.089110759824087005e+00,-1.756661473531085482e+00,1.904478178541480826e+00,1.384606417180080706e+00,-1.081674979523090441e+00,-4.604333454329612718e-01,-2.398941354965875572e+00,1.488500049681779958e+00,-1.392245431508214448e+00,-1.578074365586883410e+00,1.260714595104495794e+00,-1.787020715466922871e+00,-5.363359738914282859e-01,5.849856994289932555e-01,-2.578626168787282458e-01,-4.315745829795870625e-01,1.631763731182373611e+00,-2.159968242233802460e+00,-2.170527752044842107e-01,2.053639813991077645e+00,-3.683503328104079794e-02,1.223223531766689298e+00,-2.013218513953391575e+00,-2.214697298191771857e+00,-2.355073370182680925e+00,-3.164277999176852152e+00,1.242849965146750169e+00,1.173820151119614241e+00,2.324642638288442420e+00,-2.323573803266345994e+00,2.285630612590371924e-01,-2.244485216989669407e+00,4.373556994182779822e-02,-7.851465883534309853e-01,-1.490300458544135953e+00,-3.100215617081841124e+00,-3.860605939167050416e+00,1.112252993241638732e+00,-5.283150424466122042e-01,2.378782511166707803e+00,-3.113214495317787045e-01,-2.824824311304045654e+00,3.471326543459660741e+00,2.041233621549539468e+00,-1.481645248804857706e+00,1.427342800821481461e+00,-2.308759072995752337e+00,-1.421466121418412998e+00,-2.000600351487184181e+00,-4.305237443766435912e-01,3.086342043263196055e-01,-2.483380112930178463e+00,-3.369639654680918750e-01,-9.521945389658739156e-01,-3.131286806594455463e+00,-2.125465728952362188e+00,-5.910933410045434711e-01,-1.696249929201486761e+00,-3.904750905796066096e-01,6.042028727162657153e-01
-3.176163194195547046e-01,-1.047917283503840835e+00,-2.029297291524525981e+00,-2.814712331920242061e+00,2.049663571247861249e+00,-1.840510224422954866e-01,2.494929667088976899e+00,-6.616190538336400584e-01,-5.534722802663497587e-01,-4.252985996416414616e-01,-1.106157537330080265e+00,-3.931500385124570007e-01,-6.466958404179223852e-01,-1.098727191967014960e+00,-2.599329695071055379e+00,-6.184681012764755570e-01,-1.730906350414165074e+00,-1.529148174899072510e+00,-1.189247039368898973e+00,-2.073821588019515882e+00,-1.765682062507656580e+00,-1.450608723954749379e+00,1.643567749231063191e+00,5.068507835358833091e-01,2.287818304286068916e+00,-2.884982292313457375e+00,-2.490313305179117087e+00,-5.189501539064552693e-01,-1.702282108501087243e-01,1.371664028288823722e+00,-3.314954959208274321e+00,-2.246044865050909056e+00,-3.014380781473269821e-01,-1.339318082276153676e+00,-6.207129923092401524e-01,-5.498303338294552312e-01,-2.594775325434921953e+00,-1.595516098979105513e+00,-4.690364482601848128e-01,-5.109364187385630196e-02,6.545376662580374427e-01,7.048424291479044035e-01,4.672815069984239122e-01,-9.231038972041014645e-01,-2.389366796996862163e+00,-1.976777991138206181e+00,-2.403881622566967913e+00,2.556519483386255231e+00,1.926879531600074413e+00,-3.001620528259136833e+00,-2.021645693585300219e+00,-1.679296726384820859e+00,-2.826151391350719688e+00,2.827197369950829930e+00,2.184918261328705036e+00,1.668969244700969412e+00,2.523722131286849635e+00,1.910133244380856965e+00,-2.767268229762424592e-01,1.383596918096933193e+00,-3.462609270584623422e-01,1.621093698153998286e+00,2.814631051894034286e+00,-4.210050131161113818e+00,-2.205948902228582476e-01,3.004527124401738636e+00,1.348600723868011997e+00,-6.025074537102187433e-01,3.444898650815986785e-01,4.129564416131066285e-01,-2.683638413192477312e+00,2.571498304197411322e+00,3.884307945053319666e-02,1.513263019777012497e+00,-3.084107952038828593e+00,-7.264400186208834764e-01,-5.956659697553886579e-01,-1.140649904267292847e+00,-6.045720711395962121e-01,9.503603706640556537e-01
-3.729210327548831749e+00,-6.249976015327246559e-01,-2.575680460654104831e+00,-2.498906322317726580e+00,-2.703786653807206175e+00,-2.369717338896575320e+00,-1.100554077517998247e-01,-2.716059922460460019e+00,-1.518702440945661980e+00,-9.110047465940544764e-02,1.260560096990621881e+00,-4.444810630023970921e-01,-5.255466056645085038e-01,-1.968712537551120745e+00,-1.688988864821745928e+00,-3.061494281354405267e+00,1.950921894753705477e+00,-1.916805005641377457e+00,2.046438893141628856e+00,9.258603654593842158e-01,1.739225812489921807e+00,-3.150794515668503326e+00,1.243650092358272952e+00,-3.291300630176798414e+00,2.146981422531273331e+00,-5.538558865476260751e-01,-2.138904414644703600e+00,7.069860327932964150e-01,5.664131917220692758e-01,1.384889891025289144e+00,2.805628284906425574e+00,-9.829625232291021586e-01,-4.862688163487649540e-01,-6.171435072121531640e-01,-3.549674201826527042e-01,-3.699895913550081405e-01,2.449685999306416395e+00,-1.460301984114567686e+00,-3.115528626492238273e-01,-3.859644593734646634e+00,1.294180116120841273e+00,-7.544409223211326898e-01,-2.604905185432968562e+00,7.059942363140272459e-01,-2.527614287872296028e+00,-4.413468868023538327e+00,-2.598996239674450148e+00,1.005370966777540342e+00,-4.233013128992429763e+00,3.482163999072321325e-01,1.125652897795200724e+00,1.322459700214929645e+00,-1.338472657658211551e+00,-2.994221519489132621e+00,-2.992098846966509296e+00,-2.005968982119167521e+00,2.632820268752515513e+00,2.160631230491937504e+00,-5.558792713317410872e-01,-2.592229301898496541e+00,-4.171686448102037148e-01,-1.775900797550882704e+00,2.571438280170288859e+00,-1.074225234257541350e+00,1.045035275045679057e+00,-5.862932563501171979e-01,1.721869177028959141e+00,-1.696942805045912328e+00,8.591899896470214237e-01,9.351402728160637667e-02,3.255510095003984472e-01,1.523952653506753130e+00,1.894903812389766351e+00,-1.492008952315702519e+00,6.677496623417300547e-01,-5.211216696439180396e-01,3.157572295235841486e-02,-7.753276996774127738e-01,-3.335118238260444401e-01,-9.237093325989200743e-01
-2.842117100059097456e+00,-1.567213015482769700e+00,6.469241562402706647e-01,-1.338418775135472805e+00,-1.419338271761852975e-02,-2.753044276323395878e-01,-9.866650572094634031e-01,-2.495365209452162780e+00,3.211955317800122334e+00,-1.656588220098982600e-01,-1.379345709062928860e+00,-2.699636990206461529e-01,-2.338419518548876530e-01,-2.241931797628881284e+00,-9.590864664476413948e-01,-5.604498230401413483e-01,3.248447358287229747e-01,-1.549551226117403591e+00,-2.206690938642531741e+00,-2.296145780589385232e+00,-2.119963597350107420e+00,-1.181296993494859837e+00,1.545794396483154198e+00,-6.152008508396227260e-01,-1.723682664980582757e+00,1.836755838635330651e+00,-1.963855799440540784e+00,-2.351083513901881084e+00,2.699405120922869106e+00,3.922602381941243666e-01,-1.043483741460936587e+00,-1.378390999218419122e+00,-3.317527478117725526e-01,-1.582401354503705226e+00,-4.851368997495222879e-01,-3.730104988247625042e-01,-1.342268069377224871e+00,1.082424464892869587e+00,-4.169363015960826924e-01,3.786081394472268435e+00,-1.777538183778239578e+00,2.897071624356486019e+00,1.526503046903386895e+00,1.606296977952230476e+00,-1.070831983469081816e+00,-1.069501778665133296e+00,-3.803797520534947241e-01,-1.092080218940020497e+00,9.382717514052001384e-01,4.486642561826491793e+00,1.540342449474062292e+00,-2.062267027481686998e+00,-6.560295903797795647e-02,1.095534993959488723e+00,-9.910000161461613999e-01,-2.174149415460091106e+00,-3.141237817012897615e+00,-2.814679400121991915e+00,-2.167561237582547873e-01,-1.023711042881635169e+00,-3.761933995389101226e-01,-2.332862958724846614e+00,7.608344457353534152e-01,-3.055328532785365869e+00,-1.734258736472508611e+00,9.513102826573893722e-01,-1.291606930143625265e+00,-1.874079650491786486e+00,1.083893515776885863e+00,1.518437354965291419e+00,-1.436400480993483386e+00,-6.479189422015194100e-02,-2.820994601292494686e-01,3.176750161483216761e+00,2.601102739017497445e+00,3.741217198652938003e-01,-3.047662368369272734e+00,-5.457793332207245829e-01,-4.598551681520276491e-01,-4.423240253350899098e-01
-2.709448277335429367e+00,-1.497804544784877123e+00,-2.545553828838883259e+00,-1.717469412743938273e+00,-1.586688525740828748e+00,9.282269708147313780e-01,-1.478626308301710823e+00,-4.295457665122516033e+00,-2.372277746556452627e+00,-4.176725047363937793e-01,-1.667877819769216119e+00,-6.192430160030816255e-01,-6.524988865414942385e-01,-1.177371532662395692e+00,1.704358855977675224e+00,1.992471145933001564e+00,-1.023362204639042261e+00,-1.247759171032190695e+00,-1.479642639281203653e+00,-3.015679400545126398e+00,-1.289495480157055285e+00,1.825078032655761628e+00,1.339665256796362114e-01,1.160581269094172141e+00,-2.043837301746257218e+00,-1.469803189313906647e-02,-1.869528726248971040e+00,-2.319113366793414066e+00,-2.702768754874260271e+00,-2.406910684320131999e+00,-1.228369241407438084e+00,7.803658972970419772e-01,-5.247375330730836840e-01,-1.771218365558150168e-02,-3.524420611810841764e-01,-3.503457955999307871e-01,-3.974669838540544897e-01,-2.557735615555445818e+00,-4.564371906063274809e-01,-4.298238970699459038e+00,-1.681269476144073849e+00,3.185828435740238440e+00,1.703962125791313786e+00,-1.056003860637299452e+00,-2.374902078089194957e-01,8.944047996651888210e-01,-2.363300609930011065e-01,8.386518693137010594e-01,2.837742605467246659e-01,-4.955932730908308437e-01,1.547096157365284164e+00,-7.129634182015029964e-01,9.275174893685063093e-01,1.307330923952406465e+00,-2.837470511790332495e+00,-8.250184169618339780e-01,-6.402522183905281494e-01,2.339484655606429708e+00,-4.537695389394756362e-01,-1.515347118451397801e+00,-3.173156828868812229e-01,2.239925980206528777e+00,-1.459684061066750083e+00,1.840149358879254349e+00,-3.676280151642867366e+00,-1.936765932373256449e+00,5.041905429234612157e-01,1.622560531397680750e+00,2.411249596475324886e+00,-2.584935578241114029e-02,1.296254932278093353e-01,3.050857664908353417e+00,-6.070490818528084809e-01,-9.610192753111598263e-01,1.663026400617839240e+00,-3.142120778919455404e+00,-1.118996398051371743e+00,1.069810270551023068e+00,-4.609907213216135613e-01,1.987731997203369794e+00
-4.822123875510881064e+00,-2.682328866210419882e+00,-3.011701808010597059e+00,7.393935754361116719e-02,9.250107620943317510e-01,2.866089072497369550e+00,-8.139310516005224816e-01,-2.368228836898286449e+00,2.566028567550610706e+00,-3.875397106464779085e-01,-1.173833258278497160e+00,-5.121477525552314836e-01,-3.045670727088691798e-01,-6.426650115759348081e-01,-1.134769753518769075e+00,-1.416322389139212046e+00,9.884124891491260501e-01,-2.069110866219289857e+00,-1.127059399890296687e+00,-1.638640656352736036e+00,1.150711656384516335e+00,1.784128855427414839e+00,-2.656534411433855603e+00,-1.069335699318397115e+00,-1.178431204274416055e+00,-2.469382753378821960e+00,-2.634676309456968291e+00,1.069009575338367934e+00,-1.652185193828038079e+00,-1.720585106394083130e+00,2.426971581779527654e+00,-2.025212448729619474e+00,-4.009045341476268343e-01,-1.699743497245109980e+00,-3.751648665037867758e-01,-3.059026127763203595e-01,-1.238874027979460113e+00,1.414338742182335906e+00,-3.386797452901478267e-01,3.264487756205642022e+00,-8.203931809490606630e-01,-3.194338756745620067e+00,1.417955786732070900e+00,1.933200223331973389e-01,-5.436191851578631162e-01,2.043216247002015873e+00,-1.931596233659331086e+00,1.496850769248048163e+00,-6.522811271604748162e-01,1.853702877765292412e+00,-2.489567069269759791e+00,1.946297859501875838e+00,-6.086260876681582888e-01,-3.196988109587928784e-01,-2.342427947096819452e+00,2.203831063098872001e+00,-1.116575372611624539e+00,2.697217529078556275e+00,-4.332763048923200522e-01,-2.622086064064690358e+00,-4.371194352618133494e-01,8.653509951309875659e-01,1.854817586292137666e+00,8.396672578064418024e-01,-1.215064973223626277e+00,2.369074077957404878e+00,-4.922254613091089359e-01,1.076457409060467274e+00,-2.366628504559527002e+00,-2.959483274454769219e+00,-6.117782226037439264e-01,-9.472823810844600567e-01,-7.073403017822205152e-01,2.465566674015140070e+00,-1.785535993891191220e+00,-2.584694434785979933e+00,1.365154354632570843e+00,-6.761665905453416725e-01,-3.513866180159966324e-01,-1.536730562628414232e+00
-5.360178940295948991e+00,3.301058191916866225e+00,-1.367562926464995776e+00,-1.885146173505153122e+00,-2.867861116747157268e+00,-2.980710651641513387e+00,-2.875454174464131096e+00,-2.817366284681928068e+00,-2.064656987010160982e+00,-2.982449940007926847e-01,-1.151751661644644820e+00,-4.669130522082573509e-01,-4.835687764643969988e-01,2.474808273716074147e+00,4.512523971374226006e-01,1.553295422406634652e+00,-1.635416055949520775e+00,-1.811629892012642351e+00,-1.146518448358336384e+00,-2.265033208425573097e+00,-1.835425320051381481e+00,2.180692701764659347e-01,-1.793225578781492136e+00,-3.182802549916659896e+00,-2.146148279717769114e+00,-2.431066158815469613e+00,6.675637657281958959e-02,-2.490777495739890046e+00,-8.336774890397621318e-01,1.502890164120716410e+00,1.443117275139157440e+00,1.929710375455307547e+00,-4.228003651868971757e-01,-1.599146918895703706e+00,-5.231352565859140880e-01,-3.787263833475964514e-01,-3.887664629560679819e-01,-2.012492663879008603e+00,-4.648630268178576275e-01,-7.643559316428778505e-01,-1.718536610444550750e+00,3.657429138010760694e-02,1.004496175999728402e+00,1.449846374487882006e-01,1.895396347598481412e+00,2.571098521335098308e+00,1.716356578935223087e+00,1.150219564647294579e+00,2.490963435764179668e+00,2.567419552258756177e+00,-4.628488297767226478e-01,1.849164882344884742e+00,-1.003685183433184580e+00,-4.646475518043284292e-01,1.222719723773791234e+00,-1.546173321291608449e+00,2.257555452853962308e+00,-6.353824396987469703e-01,-5.870366238436196538e-01,2.309025612737692690e+00,-4.520983095795828022e-01,-2.524237845226632970e+00,2.045562079182834836e+00,-3.759412128170636969e+00,-3.635999084639587320e+00,-5.375044604782696078e-01,-2.080675107616385411e+00,-1.922295773657642481e+00,2.231033610822611202e+00,2.270978146112689444e+00,1.383928433772358746e+00,-1.981168093528516305e+00,-5.798500049887193031e-01,-4.901902044614900866e-01,-1.177045163140289841e+00,6.229597531301869218e-01,1.500489477808636951e-01,3.651065476961285611e-02,-2.695031859642157968e-01,3.993154211937379738e-01
1.494109595167473659e+00,-2.423608229545319570e-01,2.738448346165594849e+00,-2.778399919664982232e+00,-1.977407840215569479e+00,2.115450538232163780e+00,-2.783918865755752314e+00,1.711556006724235024e+00,-2.219040418027401262e+00,-3.152733951583737149e-01,8.802460275033943127e-01,-5.117285576103479672e-01,-3.776363539461795038e-01,-2.332735816210355306e+00,-2.204043097510512528e+00,-1.918479987229480432e+00,1.857795601130588281e+00,2.852714477823905526e-01,-1.963034639151861382e+00,-2.707592633352161382e+00,-2.558576486703869474e-02,3.124425008959405226e+00,-1.295104398420049652e+00,1.268462112874153003e-01,2.833209960097080149e+00,-1.252003700437458900e+00,8.788696132950147843e-01,6.240206806036996401e-01,-8.019316087672651028e-01,7.345225665013473959e-01,-1.395470446095893546e+00,1.204647455972687631e+00,-5.244076960576670166e-01,1.174224090085145278e+00,-4.912640948100432392e-01,-2.882028622020740838e-01,1.816491667037636981e+00,-2.961574507587353411e-01,-5.502167914491380429e-01,-1.636321738737199327e+00,-1.055838611575316666e+00,1.683072058441834828e+00,-3.299393999502328256e+00,-2.334649795805411321e-01,7.219182839977573707e-01,3.515821224674546386e+00,-2.161241571894057856e+00,-2.543796362997885030e+00,-3.247097212226639940e+00,-8.832926539887432371e-01,-1.761694772262513586e+00,4.865436748300732139e-01,1.778101892802768091e+00,2.047673551450570617e+00,-1.724568227704208478e+00,-5.877187784717501778e-02,-1.104781998052553948e+00,-1.720538949187659483e+00,-3.990445194161215681e-01,3.846604330303038832e+00,-4.016235064377429165e-01,3.178980846276099337e-01,2.921357743715652600e+00,7.476919718560132155e-01,-4.514220876657224490e-01,2.697204931267853656e+00,-1.591136533318507018e+00,-1.716572417149025531e+00,-2.051306268161832147e+00,-2.606124002723563038e+00,-2.341216818991354476e+00,-7.134846667365607464e-01,-2.063334172845023851e+00,-2.038814030089677765e+00,-2.356305779641127529e+00,-1.298513488715497655e+00,-2.750673686183743083e+00,5.310780386864490943e-01,-5.146132031100241200e-01,-2.440911229794756387e+00
-1.214775746519854760e+00,-5.840000346672187259e-01,2.114953542869546954e+00,-2.828530830192812040e+00,2.141381045746186373e+00,-8.157169859097937459e-02,6.933939501361816582e-01,1.718335672473893849e+00,1.626695050975750581e-02,-2.026646980447642243e-01,1.020105112027120065e+00,-5.056630351184100425e-01,-4.722800466717465007e-01,2.851544368365532267e-01,-3.608858180949114924e+00,-5.296772620141749766e-01,-1.203463482208575464e+00,-1.484383004950214691e+00,1.435748838049423215e+00,1.586178733595465573e+00,-2.172762733179196992e+00,9.746675024712875279e-01,-1.269640303969589601e+00,-1.792891647716483128e+00,1.104030644175310272e+00,-3.443861310192473546e+00,1.583282595911366775e+00,-9.176120504951804646e-01,-7.603348603481751011e-01,-1.124300289986554846e+00,-4.582261336337351554e-01,-1.406501248520439118e+00,-3.908985113134694767e-01,-3.205391001523834493e+00,-1.901355617643605278e-01,-4.336286246832826707e-01,-1.459885708304471175e+00,-2.584429847220733656e+00,-4.655748797825096652e-01,-1.889779584311715777e+00,-1.265782631011070691e+00,-2.293379412495580194e+00,-6.581576860719705602e-01,1.028651431983661935e+00,-1.835102790256973426e+00,2.889475119786433788e-01,2.068763475810839747e+00,-1.455312694607071800e+00,-7.267568601810066031e-01,-3.162392636940221546e+00,1.922618898874729698e+00,7.113439876580576193e-01,-2.228555539748854564e+00,-4.217104077651915084e+00,-8.927554389394046774e-01,3.110803008243680612e+00,-1.225698237296546367e+00,-4.322776578294275751e+00,-3.893393078841618782e-01,-1.671155680578157554e+00,-4.436311919953278005e-01,-3.744940070019005418e+00,-1.713495783180790877e+00,1.886336204394458482e+00,-2.013058949950678134e+00,1.011252898742064366e+00,1.701753989754731577e+00,1.935052043845968628e+00,1.621457630724062460e+00,1.949574031471767555e+00,-5.838533536953279812e-01,-2.539329387659560594e-02,3.357313726491863548e+00,1.759005885875561948e+00,8.502139002947248780e-01,-1.861182858441139398e+00,-1.879730711173565716e+00,4.883353694785264598e-01,-3.624925102401713728e-01,-2.243786979261967129e+00
-9.079821279742392726e-01,3.600550031576286614e+00,7.574988347613805795e-01,1.196608173384183571e+00,2.214382107094789554e+00,-2.584050381375334382e+00,2.226858394360704541e+00,4.142873644280915535e-01,-2.426245254848219179e+00,-3.566544893195796595e-01,4.201519731536246249e-02,-3.984139794548385294e-01,-4.813981744593381906e-01,1.536908925021562622e+00,-9.166005318397398849e-01,-2.953923193429285998e+00,4.243396658267782229e+00,2.009347833861943933e+00,-8.077114400121346294e-02,1.111454519984338196e+00,-1.406999231925775140e+00,-2.566858498503272745e+00,-4.124023204669406417e-01,-2.114117019379669671e+00,2.320457505531370757e+00,-1.594841773911515936e+00,1.638777969059760642e-01,-2.528468669271238589e+00,-2.068189365796207824e+00,-6.807179457231889996e-01,-5.261859402190554036e-01,-2.817585687956835727e+00,-4.274013314426149956e-01,-1.566326040078359849e+00,-6.188346589691031685e-01,-3.763455283182882694e-01,-1.374464178333270059e+00,-1.118667009453642169e+00,-4.981978891703184309e-01,-1.660432043867846374e+00,-1.565796429170700055e+00,-2.217974229447755796e+00,1.397679122701457111e+00,-1.753952062075647911e+00,5.280317845065622961e-01,-1.169078101902400579e+00,-1.351004961095872536e+00,-2.345350188798183133e+00,-1.475920241572073799e+00,3.665285405023273491e+00,1.228484248165672144e+00,1.448562321386586804e+00,2.125181559404047960e+00,1.736105424412367926e+00,-1.475739509805918503e+00,-1.608736643647800557e+00,-1.287156933997082031e-01,-2.463730834301983030e+00,-3.884303005006662923e-01,2.293869346271116549e-01,-5.623436150632045161e-01,2.792507545540897418e+00,-9.866908684201607105e-02,2.542246030292032000e+00,-2.317789574373731121e+00,-4.796228598977892998e-01,-2.305365943286021846e+00,1.588210809279176461e+00,-1.474580464796844348e+00,-1.194340575883332534e+00,-1.760024055628226280e+00,-1.716472419100314895e+00,1.776675354501202897e-01,-1.741935510594218695e+00,-7.210996188300661247e-02,-2.930029649519517942e+00,-2.796554944596269521e-01,-1.541394367122975062e+00,-3.947568672294929915e-01,-1.779025574584397251e+00
-9.170792709245940699e-01,2.486733677698951261e+00,1.719563272998968051e+00,4.284573410752793299e-01,-1.814533148865116186e-01,1.754195501458706730e+00,5.619172823397471372e-01,3.115117306464921798e-01,-1.565098512856423207e+00,-2.804444825775740946e-01,9.462354254606899495e-01,-4.819462137499264665e-01,-4.971596052889114548e-01,-3.127518506883526950e+00,1.982060310512730572e+00,-3.166926156641729495e+00,-3.002161097238883247e+00,-1.675483938849078536e+00,-2.445838885488872627e+00,-1.486261322903862814e+00,-1.679993974956804692e+00,-2.189510386926471597e+00,1.732384846271514123e+00,-2.347343892707336899e+00,6.456442929905458206e-01,3.872523395247958078e+00,-1.261578169143843908e+00,-7.199413381471855278e-01,-1.729661125967991042e+00,-1.147595210335005556e+00,1.319343336791749810e-01,-2.747195518819083304e+00,-2.883646783111685763e-01,1.713642807296633874e+00,-4.613514938267419541e-01,-3.972858959928466938e-01,-1.451920138996156684e+00,-2.212886655230744459e+00,-3.427310847881958611e-01,-5.582813019754886419e-01,1.442970054318628570e+00,4.106635627555980661e-01,2.605531923290500984e+00,1.488877505611635010e+00,-1.276566861357611771e+00,2.881382848981347333e+00,2.870323356404151371e-01,2.299523891313900226e+00,1.775244629045207301e+00,-1.497076033781206794e+00,-3.118730620819611943e+00,-7.386159604143434088e-01,-1.085302238751898241e+00,-6.505988492795138356e-01,-3.195597144328008010e+00,5.836103039498328204e-01,2.037435095361908241e-02,-3.538091526374745666e+00,-4.245984159166287797e-01,-2.248779318685261597e+00,-4.226018861905807555e-01,-2.501636877553136795e+00,-2.877251613975754019e+00,-1.989572417830626438e+00,7.416187603587490740e-01,-2.914640388775649793e+00,7.523543467668054596e-01,1.052196724662670446e+00,-2.237089578182627658e+00,7.881105869736172442e-01,-1.731126821837284391e+00,-2.932837052323122862e+00,4.797404825358909664e-01,-2.215660775550976958e+00,1.797346645589801506e+00,2.806064993887309456e+00,-8.696612795486675651e-01,2.043954049345740653e+00,-4.250500447282454797e-01,-2.999248730927961404e+00
-1.284513791980027797e+00,2.883698888357745904e+00,3.366092025448786718e+00,-1.813859857161389977e+00,1.000586571800751168e+00,1.412182535445373199e+00,-9.333820325867517864e-01,2.897640405851757084e+00,-1.031793055490480393e+00,-3.059270773220788553e-01,-8.533625227959054094e-01,-4.979859831582237328e-01,-4.662175130347180341e-01,-2.585562182291337052e+00,-3.218928573066241139e+00,-2.232397829369861864e+00,2.171319029257551936e+00,-1.403455163386073901e+00,2.283015575218337201e+00,-2.152355187219532340e+00,-2.339289090832312290e+00,-2.231331859432614806e-01,-1.569680940656179802e+00,1.170992296650069431e+00,-1.014679457757078795e+00,3.355989249955448894e-01,-7.389191907734778964e-01,2.472327610350830984e-01,1.730513364039748536e+00,-2.396200732595248795e+00,-1.593244681602123070e+00,4.363059365571433923e-01,-4.517594489471512542e-01,-1.853878554746545726e+00,-1.907973954343119838e-01,-4.827077220762126530e-01,1.600710731388786723e+00,-7.052605348924999573e-01,-3.034399061952066656e-01,-1.915442510072111748e+00,1.202161173354030721e+00,-5.975651641128012503e-01,2.199526499339129693e+00,-9.598026443691832776e-01,-3.316827122103244374e+00,-1.158249412469689155e+00,6.935285350595469245e-01,-6.997161396072760775e-01,-4.522402831898330033e-01,4.337019800875429709e+00,-2.616131570280096241e+00,-1.095565248413721271e+00,8.638659530194664482e-01,-1.517979055743037473e-02,1.036191276408115619e-01,4.371754128919227989e-01,-5.653255004242524473e-01,2.704583221833533724e+00,-4.031026860062161266e-01,-2.869540524768903200e+00,-3.209198561093729030e-01,3.613349253867007005e-01,-2.332261177942740904e+00,-2.068936993925799328e+00,9.331467302030362065e-02,-5.130950222978739594e-01,-3.963018253734029162e-01,-2.074916850017288983e+00,2.546399432156624787e+00,-1.820889391194393081e+00,2.397849786263356542e+00,-2.274987005340239232e+00,1.202909559895666058e+00,-2.437649284606786981e+00,-2.316245536520648240e+00,-2.509293409054032864e+00,-2.112843887493920825e+00,-1.871119703283315561e+00,-4.507981493641089465e-01,-6.187807297068634860e-01
3.048864319038155912e+00,3.386700857935858178e+00,-2.843938731713036905e+00,-1.445846517518765362e+00,-1.586286519209518131e+00,2.287660349605203258e+00,-4.757771386421119075e-01,-2.440727179030655947e+00,1.075208251338384047e+00,-4.873915786178671383e-01,-3.298957674391146955e-01,-4.938763477583960615e-01,-4.231568236969276420e-01,-1.359497068377486739e+00,1.693228522101325906e+00,-2.865605317828192611e+00,-3.967302590914512650e-01,2.111275543248517739e+00,1.979791020063178975e+00,4.025417889588684406e-01,-7.396541351820925536e-01,-9.298262144108375704e-01,-1.157208933878169255e+00,-9.924576128766393612e-01,1.226778117115883804e+00,-2.691069135732997442e+00,3.074124607029731227e-01,2.669675923905238779e+00,-1.655436401672977009e+00,-2.083392389039655512e+00,-2.749536763248426219e+00,-1.353416519253580752e+00,-2.855894455278153998e-01,-2.545472350315493681e+00,-4.603810600706104705e-01,-3.940967730222071919e-01,1.865166040034276440e+00,-7.856613851013303229e-01,-6.179843255617731845e-01,8.654935748479223312e-01,1.341170094905201671e+00,-1.839325222571743579e+00,-1.192760649555935748e+00,5.065783098089615688e-01,-1.651879746171319052e+00,-2.392861890512105738e+00,-1.206867251747370862e+00,2.139284321728847971e+00,-1.424821477747350018e+00,-9.710431475683969360e-01,2.385365520704931352e+00,1.943571506101064328e+00,2.794168159743831925e+00,1.801082842452590427e+00,7.754923195751846077e-01,-1.653412203959909954e+00,-2.493535435921438115e+00,-1.855988347573140462e+00,-4.270804173249428959e-01,-2.080645086374803832e+00,-2.594786024342856656e-01,-2.856381283359920253e+00,-2.824856721184426434e+00,-1.705676667997644946e+00,-2.070754037178400342e+00,-1.926406217536859034e+00,-2.497860769907294110e+00,1.254848967060079534e+00,-1.804836522262482923e+00,-2.924506294270331486e-01,-4.100259339209264553e-01,6.298390540567649909e-01,-3.812727429492854370e+00,-4.233148132799980923e-01,1.866241052475086981e+00,1.117402447401981025e+00,-2.389557516310485852e+00,-2.252274443599150189e+00,-4.258670223076466699e-01,6.438425359076908050e-01
6.509149598525627578e-01,8.128071303556748672e-01,-2.694649114712143412e+00,-5.450375859015296198e-01,-6.259579951743065029e-01,-1.659118956789883415e+00,-3.522016916568795786e+00,1.263564579720741987e+00,-8.832309616623568171e-01,-4.467456117549936656e-01,-1.351188462240752175e+00,-1.782888096408528078e-01,-3.136937116255846258e-01,-1.455861961810559935e+00,-2.985718910724964203e+00,-4.222342099881558397e+00,3.048264395325051002e+00,-1.946880891705874417e+00,3.080513822070316099e+00,1.876659657033203921e+00,-4.228054857786080478e-01,1.626778118430585174e-01,-9.155202186790577512e-01,-2.717048933015909995e+00,-3.036977632860027310e+00,2.347268322554146192e+00,-1.592676569975747025e+00,-2.330752942823754559e+00,-2.524100498599680886e+00,-7.104534353687088633e-01,-1.454595376905775117e+00,-3.558724262656645654e-01,-5.252451942412104113e-01,-2.286594297742900572e+00,-4.196461991492262400e-01,-2.986402720577223668e-01,-1.582724212200818270e+00,-2.052932048714218194e+00,-5.444247721228763215e-01,1.486250830731912442e+00,-6.812785169576837663e-02,-1.833322445685478197e+00,-1.951602709537751057e+00,-2.467508702874485760e+00,1.385031308931163052e-01,2.851980239783312054e+00,3.709391682543504043e+00,2.971988218564248219e-01,3.122804777792360209e+00,-2.345456061398726533e+00,1.917234461618056773e+00,-1.380158760405403973e+00,2.146020548727928468e+00,8.378900633287943434e-01,-1.494224204518084687e+00,1.799697506353466758e-01,2.841489236687338771e+00,2.658107378421226130e+00,-3.592426570556540577e-01,1.368182758122534093e+00,-4.134560344179401548e-01,6.843146196159908268e-01,1.440220848332273706e-01,8.636853825872906065e-02,-1.271118106788397428e+00,-1.070381044109000257e+00,2.242372043267256920e+00,-2.537671627475067027e+00,-1.216391232851399495e+00,-2.978805240477949035e+00,-1.329212078968396327e+00,-1.459490811326923376e+00,-2.379645692926208422e+00,2.519210924586578138e+00,2.598801910392841474e+00,1.653165477343444545e-01,1.638068019803178066e+00,7.568831493349598150e-01,-5.144769004239182486e-01,-2.334745878123912696e-02
6.762134565163807620e-01,-1.659291343553785492e+00,2.179618885117248495e-01,1.018794138086631662e+00,-2.464078711323723248e+00,2.191436335633832611e-02,-2.927933267542870865e+00,3.013422703694199623e+00,-1.507919730716636153e-01,-4.637173754448771779e-01,-5.164129019706626966e-01,-3.071481117225438040e-01,-3.184403050471860119e-01,-1.083396531776645189e+00,1.718119137915584904e+00,-1.324463434190456201e+00,3.200803942597029828e+00,9.288047100596432681e-01,1.736109843273319298e+00,-2.755286410232913874e-01,-1.342778448046751061e+00,-2.416232320058529393e+00,-1.687344016009949543e+00,1.489841949633792018e+00,-3.112517802548902868e+00,-3.176765073742267020e+00,-2.141607018737950341e+00,-7.708764736275126594e-01,1.685997455162956182e+00,9.319717991317173489e-01,-1.249572640416954483e+00,1.122947455277337747e-01,-4.708830991921101328e-01,-2.638406763448061909e+00,-3.307101735780005880e-01,-4.500444243681794299e-01,-1.078186489543349724e+00,-1.807556834144144808e+00,-4.745556914633575762e-01,1.954333612743593740e+00,6.845531526938204436e-01,3.543241247212525202e+00,-1.023345935020962161e+00,-1.828885069888061821e-01,1.292247874399006902e+00,-3.269933360845234116e+00,-2.439470131825436372e+00,-3.277495718676892267e+00,1.720519256191775370e-01,-2.978971007714618757e+00,-2.037255726282189094e+00,1.545108096883043514e+00,-1.116398071694528094e+00,8.814996840933883027e-01,-5.241306146851729825e-02,2.508314846671077181e+00,2.402411256071039336e+00,-3.720281014639376771e+00,-3.657504736794075506e-01,-3.281811442918852073e+00,-7.601303773354740889e-02,-5.217668074645067655e-01,-1.441349932412383961e+00,-1.721305617297405721e+00,-1.792955575151191416e+00,-2.885498122024062084e+00,-6.952272027612225180e-01,6.882606492609442128e-01,1.909945468182428496e-01,-1.754601211721642962e+00,4.457958531461549412e-01,-7.709934321343598906e-01,1.629869356333041752e+00,-2.041603975525159598e+00,-2.669122709304495578e-01,9.357077535502456023e-02,8.433186048618908082e-01,-9.666490890922391221e-01,-3.765677653236086386e-01,-5.981860781040675423e-01
2.140378403386517636e+00,-2.307343571104670588e+00,-4.335310071824434175e+00,1.768450089116167412e+00,2.324753438278596818e+00,-8.184357033184199715e-01,-2.847064772475884076e-01,-2.938106469935512610e+00,-1.414179292428388024e+00,-2.327106744011737394e-01,5.215821388148308424e-01,-4.276891715924976967e-01,-4.244931334099583675e-01,-6.128754147149592102e-01,-1.660963581946721002e+00,1.327097061900810004e+00,-1.602067577382177532e+00,1.237576912221657777e+00,-2.929630673970899934e-01,3.970847424516133484e-01,1.211851670482535503e+00,2.186325019902681355e+00,-1.019593797965667736e+00,-2.080705077116034918e+00,4.419529808306024710e-01,-1.553211006175506004e+00,-3.198940806491045397e+00,8.060910592682853926e-01,4.652774456080450705e-01,-2.549821518530907216e+00,5.180413588511945111e-01,5.878532273756577053e-01,-2.690812143776372123e-01,-5.323988674199519044e-01,-3.479692032223642983e-01,-6.640449790232642036e-01,-1.600829450889293293e+00,-3.844834627220115930e+00,-5.674206539469439647e-01,-2.181083610317137378e+00,-1.799565827708883292e+00,1.400267622846995907e+00,-2.082207930934034668e+00,2.557528548339084384e+00,-9.520784604423848663e-01,4.336412337134629702e-01,1.697292197167882266e+00,1.069219444390161478e+00,-3.799454232100175854e+00,2.586510200804470916e+00,-1.663602410705266321e-01,-1.118440964429004980e+00,2.870025304402030065e-03,-5.491849995797227768e-01,1.491003740000929279e+00,2.379960622831221340e+00,-6.505082998950497686e-01,-1.622273007743876061e+00,-5.220755970573044413e-01,-7.717567881144289377e-01,-3.600711008336411889e-01,-8.794202172141950546e-01,2.520753646363405931e+00,-4.925449455834476353e+00,4.808193887584565895e-01,9.955427526053720610e-01,1.241467435923775842e+00,6.736663191142733265e-01,-1.433476583942843829e+00,-1.600685679430051911e+00,1.376123962771313325e+00,-3.552033474981688865e+00,-2.585702807755338117e+00,-1.664432120165939777e+00,1.858336251245828574e+00,8.474658978506023621e-02,-4.276540391818641207e-01,7.594383620863703888e-01,-3.844817943454612585e-01,-2.659625007818165798e+00
-4.013287004072307873e+00,-9.935704830899465545e-01,2.485085966441299199e+00,-1.853343532872530286e+00,-3.883181513594401862e-02,-1.944828842231590471e+00,1.856323270873160514e+00,1.843551772667821220e+00,-2.061188159860360525e+00,-4.413458616776499976e-01,-1.525277390838340130e+00,-2.837163999812788995e-01,-3.593003206539578387e-01,-2.785734962275054016e+00,2.384148518647802195e+00,-1.725762594575851905e+00,-2.386914643591957041e+00,8.421996337401846944e-01,-7.340953307025777086e-01,-3.028004543455530939e+00,-1.354233317491543964e+00,-1.278163173394530450e+00,-1.889479537494409278e-01,-2.004460962321813700e+00,1.934795670310277993e+00,-1.663096577391290465e+00,-1.538757460644362585e+00,-1.597813265568407637e+00,-5.718755439887640568e-01,-1.512337216830087483e+00,-1.592810330623479320e+00,5.875404927349666684e-01,-4.476570809547734675e-01,-2.171343156534146779e+00,-1.301019423755442606e-01,-1.986446304027332799e-01,-2.454500029097840930e+00,2.002557882810789724e+00,-2.161012803676825300e-01,4.035746876665485594e+00,5.967992828492018065e-01,1.625918772672262369e-01,-1.683549432201457696e+00,-1.240742034847928332e+00,-1.857822668323534820e+00,1.872154709470957301e-01,2.667212251198810780e+00,-1.456579964118327908e+00,-8.831694023343533706e-01,-5.388199027089850546e-01,-2.553469340752810179e+00,1.025446634963849357e+00,-1.573287862038413643e+00,9.031443621403248412e-02,1.737572462752520197e-01,-1.958010167711613514e+00,-1.069580684514477298e+00,1.666927850847612191e+00,-1.785089977365234282e-01,-4.540716143859212517e-01,-5.688015942525985746e-01,-1.502349252095967147e+00,4.298294746063706206e+00,1.766765702499136115e+00,2.324429969969481924e+00,-8.706017743770139150e-01,2.364359228867842777e+00,6.349321114303265734e-01,-2.912742828330418199e+00,9.340923968507708341e-01,7.573856952157695388e-02,1.172115901556854523e+00,-7.664876401553395446e-01,-1.626294362873938582e+00,1.945695816200762929e+00,-1.046004382909394348e+00,2.626388036768847467e+00,-2.239901289647458604e+00,-3.146423718872662367e-01,-2.207169071568695351e+00
-2.094879419803455267e+00,5.040005399803945130e-01,5.188124017436457347e-01,-1.480582027900899433e+00,-1.687112904359658216e+00,1.879335976966813648e+00,2.306971769244985815e+00,-1.242072078169517590e+00,-3.205457502043676410e+00,-5.565985779591147153e-01,-1.548958333646945240e+00,-3.626889425483091900e-01,-4.256942088689270043e-01,2.494121080149112490e+00,-1.725967150654259097e+00,1.003831630309915068e+00,2.897024008009012608e+00,-2.805480447571836233e+00,-4.249045799946901347e+00,-5.106612572806098482e-01,2.219820831460223687e+00,-3.841645047425504167e+00,-6.305345085702531716e-01,1.372789091742658174e+00,-5.130885826778390779e-01,-1.951546783006588459e+00,-1.423397371916339527e+00,-9.307838434251792803e-01,4.822377514513112029e-01,-6.144845526331090824e-01,1.829604194956517160e+00,1.194592626090987819e+00,-4.267658476801453604e-01,-2.213532724547046193e+00,-3.375125362040639621e-01,-4.160448106466749785e-01,-9.749586004054346944e-01,-3.010479891813018671e+00,-7.661125597557006950e-01,2.178429252018898143e+00,-1.184005410889334753e+00,1.035694469035893794e+00,-1.363949245557164180e-01,-3.273741007622188004e+00,1.764092556788224853e+00,3.472047286192684989e+00,-1.782121606080323994e+00,-4.839066809964460703e-01,-2.888005032553222051e+00,-1.822576526090851301e+00,1.712424530892045604e+00,1.772150377124373621e+00,1.354838514131903593e-01,-2.243928118802712923e+00,1.345895457310777754e+00,-1.288562753104104175e+00,-3.887419851515647728e+00,-8.906470273894108169e-01,-5.687144428026233989e-01,1.877336681906966787e+00,-5.735043994435937709e-01,-1.354342283379314393e+00,-4.577028243543223240e+00,-2.050698324761772717e+00,2.017224735047200124e+00,-1.326417874238916550e+00,6.153433634814799158e-02,-9.561328036870712088e-01,1.221436598170998034e+00,-4.385454768145311544e-01,-1.931024678504190462e+00,-2.884533728679410824e+00,1.097783571634743938e+00,-6.300324256044791127e-02,1.345272992508567134e-01,1.149169913446658198e+00,-3.193458473265245456e-02,-1.438410625742269522e+00,-4.367818590286069447e-01,1.458345612572528260e+00
5.150215604621626309e-01,4.974104561905616784e-01,-6.536067104522181870e-01,1.414359850109156991e+00,-2.296454020519270167e-02,-6.594311464455003546e-02,1.551773737545389054e+00,2.767312967163091386e+00,1.064012195989829657e+00,-4.354811166643181020e-01,-1.749603053423686161e+00,-3.294477936912419969e-01,-4.614604326672746004e-01,3.223437744277339423e+00,-2.279720614917487342e+00,7.223982645430713223e-01,2.473264566114480534e+00,-1.905545869416044535e+00,3.022896750266934052e-01,4.287801797976967255e-01,7.456816986141752424e-02,8.718828300208443238e-01,1.263977042216762214e+00,5.239372981184026168e-01,2.583998742444759689e+00,-9.955808810697650002e-02,1.787841881307678404e+00,-3.186509520582667232e+00,2.352731649454736562e+00,-2.401923312219258921e+00,3.920399462441954141e-01,5.591112542753063908e-01,-4.017641572266739680e-01,1.011892853107440260e+00,-3.297040193967714083e-01,-3.723027053808558584e-01,1.750867674747554004e+00,1.923456469592886187e+00,-3.744926024093701566e-01,1.513285925922521757e+00,-1.005587886479125892e+00,1.425084357050911521e+00,-3.509034500492703934e+00,-1.889941579994038889e-01,-2.618771512413689440e+00,-2.276977410146276526e+00,-2.596975435190594705e+00,-2.185114441969820298e+00,7.300909799774363274e-01,9.610368503674182605e-01,-2.418845308174434106e+00,-2.641804714908331686e+00,2.276735690054926042e+00,-2.778290414770475891e+00,1.260915459486950052e+00,5.622115842636334904e-01,-6.929202653256344435e-01,-4.501314988494519165e-01,-2.955336326692377669e-01,-3.059124028235364889e+00,-4.084687798735873732e-01,-2.824812688297443919e-01,1.494714184243250310e+00,-1.117626279122833521e+00,-3.843278154969453908e+00,-3.117868007709443390e+00,-1.525831840970945041e+00,-4.913588396784528967e-01,-2.568422738185462961e+00,-3.089471040872599605e+00,-1.810989287257844582e+00,-5.814606694181042590e-01,-1.654646370039209557e+00,-1.655663704788431945e+00,-1.288149033627507212e+00,1.648677616380219924e+00,8.515937400232481691e-01,1.374214364165170954e+00,-2.389184963053111455e-01,-1.860056007946675027e+00
-1.160459951713153082e+00,-2.823367608946114160e+00,-3.374554671779726789e+00,1.257118866550982705e+00,7.094219402433049604e-01,2.123023732742623348e+00,-2.091975887200535400e+00,7.148069121255913316e-01,-2.200140686735692075e+00,-3.999894338708636088e-01,-1.488269242368234435e+00,-3.817045263295103519e-01,-4.622569305542520435e-01,-1.529242413722668559e+00,-9.643767387985261452e-01,-6.537854387117107702e-02,-2.261045593070459603e+00,-1.868324034988532389e+00,-2.856318642175282196e+00,9.503815627121537934e-01,-1.853611862019608703e+00,5.149034470381746997e-01,-1.131968397551189165e+00,-2.272428811322540820e+00,2.090403925949486652e+00,-2.412960849355232362e-01,9.965983270258980120e-01,2.022036895493378506e+00,1.161545235546997290e+00,-5.889293351323573456e-01,-1.761518060220446324e+00,7.937546287484047447e-01,-2.635991057491413048e-01,1.190134556794160553e-01,-4.646991508063689769e-01,-3.247155275247706752e-01,-1.645615526549677909e+00,2.267106881988765199e+00,-2.679789145890547064e-01,-1.105196625524939913e+00,-5.664372359645933885e-01,2.644750274065917672e+00,1.342537117180204520e+00,-3.789383936207442183e+00,-1.299261534599274848e+00,-3.245027221208172552e+00,-2.339851442070970955e-01,-2.838272350871422045e+00,-1.195312972795931961e+00,1.859925461337045283e+00,1.966656474779811425e+00,-7.089288123094065197e-01,-2.535966937449616765e+00,2.294372863609114965e+00,2.640063284210936723e-01,-2.016296823316985343e+00,3.581691552766369302e+00,1.067112146079112200e+00,-1.849234569603142309e-01,3.284517574871608669e+00,-6.221151043498227562e-01,-3.037550013456853382e+00,-2.566195311131063583e+00,1.366408485525702821e+00,-6.732371102355079184e-01,-3.141848459999472265e+00,-1.797631911865017251e+00,1.075110317915833669e+00,-6.759435010013097322e-01,1.969152920120726957e+00,-2.127040816076631646e+00,-2.355150727788288822e+00,1.740072445899147668e+00,1.032770373409806486e-01,9.866666764934691747e-01,-1.213404970867169252e+00,-3.769921796088545607e-01,-1.627548797288937310e+00,-4.057634154204407539e-01,-1.882880123599985467e+00
2.264653556343037444e+00,5.823880929706464205e-01,1.412312564142643279e+00,2.163038005296921362e+00,-3.002266416407834093e+00,-2.435671782330977475e+00,-2.073219055389852183e+00,-2.999081939645114936e+00,-2.743855139807446442e+00,-3.871432143695640593e-01,-3.362112497209882034e-01,-2.904803958162606170e-01,-3.819330877497255639e-01,2.217991259004408744e-01,7.614691800253839959e-01,3.888437340445985324e+00,-2.083780525118070770e+00,-2.108607635965753957e+00,-2.106093917339044719e+00,-2.487063466024308056e+00,1.193419087322751926e+00,-6.011803390405097147e-01,-2.034334355331226973e+00,1.676204537040861586e+00,3.009013906599812938e+00,-4.135364915669365038e-02,8.775663136847970947e-01,3.415266385658601717e-02,8.951512976712480141e-01,-2.218336491555804368e+00,-2.079796022567370173e+00,-8.283102343009683954e-01,-4.805574516487459147e-01,-1.641220992764300668e+00,-5.759811981654920920e-01,-4.158535202637553829e-01,1.698775089234393132e+00,-1.899061228997525275e+00,-4.425395235119019000e-01,-2.675002579676233339e-01,-1.247489712102282766e+00,-3.310147927457857353e+00,-1.580432941619978715e+00,1.982100428507464596e+00,-1.340549797282083011e+00,1.820358192953966059e+00,-3.761408773338507650e-01,3.451262895109792894e-01,-2.734194651162946132e-01,1.423101534160174708e+00,2.247329058424820669e+00,3.020652609342900363e-01,-1.213954876684734119e+00,-8.273348659400600047e-01,-2.767357779277130003e+00,2.316285306151957268e+00,1.192030305460451078e+00,2.481433474027684660e+00,-4.161466696138285681e-01,-1.114387304404800050e+00,-4.250832578842124732e-01,-7.764038791253250471e-01,1.089903433562252610e+00,-7.199278522944299041e-01,5.992941215515902309e-01,-2.435682727699874928e+00,-4.105970236805385198e+00,-9.059767830378490094e-01,-8.864589201502696136e-01,1.899628202014912670e+00,-2.250350474468450823e+00,2.506582780693694112e-01,1.293884886572074233e+00,2.524013620250040724e+00,-3.347713136512502352e+00,3.168291606506937086e+00,4.732129872921434499e-01,-2.666868799823998604e+00,-4.973211101787109456e-01,-1.668528103351037961e+00
2.069104343489520215e+00,3.653336338044503306e-01,-2.895980139512432938e+00,-2.466304172801034866e+00,-2.189725586159535720e+00,-2.875973354791171221e+00,-1.417612023704072799e+00,-5.684916408910395402e-01,-1.631939635968348234e+00,-4.296079829580966014e-01,-5.736317694838163339e-01,-6.348166174164353581e-01,-4.557457201783807754e-01,-3.223643588186612341e+00,-2.241892598605404796e+00,2.786883821511192849e+00,6.928613782549144506e-01,2.207683726145901915e+00,-1.798533977133707773e-01,4.863153670046116983e-01,-8.623803787561890033e-01,9.032702399389188619e-01,1.081139526977277665e+00,-1.061295037848705602e+00,-1.603224738871795507e+00,-2.174398675039146411e+00,-7.025582043775395746e-01,1.217224252956599306e+00,2.497295289338565372e+00,1.167469502840822043e-01,-2.073752156271903235e+00,-1.610827953426467340e+00,-4.565908494294977360e-01,3.318387684207037003e-01,-3.024955012310165392e-01,-3.902996508754681959e-01,1.337937306623817380e+00,8.439489074562014359e-01,-3.506926752452200757e-01,2.826471149893359680e+00,1.003680920084672364e-02,-2.768436810887216826e+00,3.046241497956841737e+00,1.155613934881223770e+00,2.205990606250117156e-02,2.554515211996335022e+00,-1.091134048240238963e+00,4.638364620076730893e-01,-1.653040000501344142e+00,-3.037216321303690125e-01,-1.948966998605154988e+00,-2.291842554670858956e+00,-1.782212270657810071e+00,-1.512047695109233425e+00,-2.206815121104714006e+00,-3.197680718584751336e+00,9.246523026591998429e-01,-2.374046955478867016e+00,-3.513352030324716768e-01,6.704146338949307227e-01,-4.581695978704578565e-01,-1.805847744693318324e+00,-1.261171898621644027e+00,1.151212068545448997e+00,-1.812760855192928178e+00,2.165198214920323938e+00,8.308427930745234669e-01,-9.576116040702414844e-01,-3.565396663628004337e-01,-1.388727841486168124e+00,-2.517276417600513572e+00,2.033584487151593567e+00,-4.300228593020830048e-01,-2.537138741912863260e+00,3.505694734778010413e-01,1.806041470115766490e-01,2.694043668996923380e+00,-2.164591771357100014e-01,-5.216023663568548629e-01,-6.471760409238113132e-01
2.611498741630749798e+00,-1.193550166088533260e+00,-3.601837171846021590e+00,6.049454203972771671e-01,-6.661447989481280585e-01,-3.285931578962220545e+00,-2.172099524157925732e+00,-1.141677685588075031e+00,8.851815820076488484e-01,-4.988994019170692740e-01,-1.613252449033525382e-01,-4.402433710224223362e-01,-5.368597301287008072e-01,-2.394845037895523276e+00,-2.224301379106715437e+00,-3.951066337632148429e+00,-2.565690478055769219e+00,-7.261166226839388393e-01,1.661593363968922654e+00,-2.243452186651071045e+00,9.878477886977538036e-01,2.013985497683195902e+00,-2.690376025544860106e+00,3.779664648326649945e-02,1.028685202928309339e+00,2.186344460325627015e+00,1.357609054303370533e+00,-1.043587758340879690e+00,-1.642178071526184668e+00,2.340005621886454834e-01,5.568947305371103607e-01,-1.959846186427769199e+00,-4.603995132601088613e-01,-2.929731418082737182e+00,-4.227314740387897452e-01,-4.909549324286506256e-01,-4.674450912551731951e-01,-3.416379274731858734e-02,-3.714912299205613833e-01,1.629383488722248252e+00,1.016345862839571623e+00,1.855690475286336127e+00,2.817898936583851377e+00,-1.143865436314970729e+00,-1.730907341690330670e+00,-1.202101197521426336e-02,-1.589921526927729367e+00,-3.777528524341246197e+00,9.048472367398022742e-01,-2.134380079173411993e+00,1.187536747199298137e+00,1.391432043646314787e+00,1.051723418599583182e+00,-3.627176318449886860e+00,9.273887577126446180e-01,-2.462436899349032871e+00,-2.787030478895076158e+00,-1.686465864005345594e+00,-5.107315327009801509e-01,-1.054719584950833067e+00,-3.063335268626257712e-01,8.122530887220883455e-01,2.194585665983188605e+00,1.034538237452744092e+00,1.330445916938122863e+00,-1.593955092333645407e+00,2.098352708688957069e+00,1.787775897179057605e+00,1.495782844664973688e+00,-4.059775338236960018e-01,-1.602964660516977391e+00,-1.612347706307968975e+00,-3.734472517458934937e-01,-3.190093531865140442e+00,-2.843149461101760700e+00,-3.243840414250219184e-01,-1.316531443317067396e+00,6.599173877366900642e-01,-3.108653139938171717e-01,2.077871714023949323e+00
-5.428635344990443201e+00,-1.061852620435314254e+00,-3.027677777311903018e+00,-1.987770460245251281e+00,-9.399081214265186945e-01,-1.437292513711970310e+00,7.986525421407524306e-01,-1.195400863814391063e-01,-2.594774758441744211e+00,-3.398582574693623237e-01,-1.029005892245661524e+00,-4.778926614148495955e-01,-3.532773746186568808e-01,-2.454614314193017233e+00,1.572899958741932558e+00,2.340004757941093194e-01,-2.951170857039582707e+00,1.371279487749738513e+00,2.290972133651815845e+00,-3.421481268883975191e-01,-1.464221087184501557e-01,-1.580331502155922774e+00,-5.009262887427042843e-01,2.183731961073792860e+00,1.234263680631142668e+00,2.512631857631363541e+00,2.468760260409676166e-02,-1.181067257249133640e+00,1.262897912452497717e+00,-1.517643311340236556e+00,4.545688847844456260e-01,1.842145484943647604e+00,-3.000969515570994783e-01,-1.403990804988353158e+00,-4.500389441973700055e-01,-5.721369997983093425e-01,-1.852110916031767252e+00,2.830447498846225152e+00,-3.694467499099958196e-01,-1.056984960037676835e+00,1.732539099635369562e+00,1.363337313288856434e+00,-9.709874721472718795e-01,1.251522909181192800e+00,2.355441791401494900e+00,-2.931430795492319774e+00,1.885219862023268522e+00,2.273138095321729057e+00,-5.758077729936279532e-01,-4.593125073432103633e+00,2.434371397973285056e+00,1.512743688744296211e+00,-1.920292752779961365e+00,-2.131406997530176373e+00,-1.968655064066988647e+00,2.164241482512966996e+00,-2.451790272250521152e+00,-1.924810956401176165e+00,-2.154499376716261516e-01,-2.019927061689944736e+00,-3.913056892319079494e-01,1.423905889038956929e-01,-1.427522356055868080e+00,-2.691936136957807646e-01,3.485003918928616939e-01,2.555713046827284618e+00,-2.797541206912462108e+00,-2.399093437756504077e+00,-2.130100586907965887e+00,-2.576324072509827090e+00,-2.247457429735558510e+00,-2.302435348548293792e+00,-2.260483310628014664e+00,1.412442907664334557e+00,-1.871557466673578807e+00,-1.560742650292787470e+00,-2.292389650796915035e+00,-9.656700251355104792e-01,-4.821781115183072508e-01,-7.981889941962316826e-01
-3.948796068613839694e+00,5.151481354645254251e-01,1.105380132937322735e+00,1.151400808268943088e+00,-1.854242912479590277e+00,1.668963545916408053e+00,-1.898802995919025349e+00,3.113647170470985603e+00,-8.399104672231037794e-02,-3.281623083876398228e-01,6.900876981239519870e-01,-6.524434692202784047e-01,-5.690161004944686018e-01,3.041675891225122719e+00,-2.381098151616288128e+00,2.312394017311793171e+00,-4.203252212494151152e+00,1.107548357752136114e+00,6.608732418043219425e-01,1.490216712130433496e+00,-2.064524384841788684e+00,-3.043354043220337424e+00,-1.717686585726172055e+00,-2.605522127111974950e-01,-2.319775667590828760e+00,1.540752712935561819e+00,1.241174679450603779e+00,2.484673888192218794e+00,4.777437501138613873e-01,-2.267853369474552405e+00,-1.666423668561075599e+00,-8.840006162713102134e-01,-4.590404778076134229e-01,-2.836398528963116394e+00,-5.605524206945082799e-01,-5.392046338090982216e-01,-1.471136929949731442e+00,-1.797414060675236680e+00,-2.669097081363378532e-01,-1.215597224638526708e+00,-1.771403825267530596e+00,2.581625496774865525e+00,-9.381608090357516083e-01,4.248769461146303938e-01,-2.742790334716059264e-01,-2.912723699833831059e+00,-1.550346726780074957e-01,-1.903514090059452268e+00,-1.009777786561708302e-01,2.616429170259298331e+00,-1.979213096591159182e+00,-2.121736667119494157e+00,-2.837123985800574233e-01,-2.287780814380896643e+00,-1.256988224133283261e+00,-3.110702868001388843e+00,3.554190655681918522e-03,-8.072196377395978173e-01,-5.120855396131474002e-01,7.640535780099484420e-01,-4.749495010989976396e-01,2.686575107518241468e-01,-1.013200600991240208e+00,-2.380079159603628369e+00,1.415978187850969183e+00,2.322586524210597414e+00,1.878160873793599306e+00,2.816803254080574970e+00,-3.325495345051629581e+00,-1.673248647776345743e+00,-1.169131884586828596e+00,1.975762248698537782e+00,-2.603174129612370269e+00,1.743169963302136916e-01,-1.569228389627425502e+00,-1.782549595874991066e+00,1.113949630676045466e+00,-1.539908816838511996e+00,-3.400561806295870904e-01,1.890527105891001147e+00
9.245366338256234551e-01,-3.729724029202610702e-01,-3.259674683114691662e-01,-1.606715941505435730e+00,3.474259708262393831e-01,6.526382083109687482e-01,3.027785005398657692e+00,1.031855461850378353e+00,2.272523308269401632e+00,-4.373303989163269123e-01,-1.081363993774109078e+00,-3.063953243767132406e-01,-4.130568984077861439e-01,2.076387194288507043e+00,1.861353341784824478e+00,-1.609611135610448107e+00,-2.403227279024957141e+00,-2.731835566264767312e+00,-5.716073926870125499e-01,-1.711590128683377010e+00,-1.685129559232115271e-01,-2.129741787673631759e+00,-2.178505535402015081e+00,-9.848332545239553149e-01,-2.818139215146822529e+00,-7.241271559498457799e-01,-1.612532122129071155e+00,1.156906816326057214e-01,4.603669142010275994e-01,1.550633143674683134e-01,-1.620515910014103778e+00,-1.844731881722270872e+00,-5.084963707984377912e-01,1.745615976147779413e+00,-4.572783030763084011e-01,-3.320008743511875804e-01,1.560579833012759821e+00,3.801433739822185614e-03,-4.508597211918692338e-01,-3.686074906974491583e+00,-1.746843472763099481e+00,8.713387717939040655e-01,1.626043896431496050e+00,1.227950365672864752e+00,1.802113730710965145e+00,2.373452196532062519e+00,2.396615535199018154e+00,2.933347826254867341e-01,2.381900242077108043e+00,1.330842049601943078e+00,1.226542889575541917e+00,-4.938986214669568997e-01,-2.101629151895617831e+00,-3.301642214170881218e-01,1.500984216985320918e+00,3.304646598892020948e-01,-8.521557364291179049e-01,-3.088125521813206653e+00,-4.762106112685038917e-01,-4.020766988042144163e+00,-4.349893884563506563e-01,9.742173912132220948e-02,-9.323057154981162498e-01,1.787462260223831922e+00,-9.138525717351250188e-01,2.510552235378743502e-01,-1.198939903307092297e-01,-1.423839534262258288e+00,-2.731582956896989600e+00,-3.513503170202361581e+00,-2.004587458170842496e+00,-2.378437856600376765e+00,-1.790013104909564001e+00,-2.995568586532040722e+00,3.416438362438080079e-01,-2.660335489174515899e+00,2.096196899281614456e+00,-1.996676011593112587e+00,-4.292648399957042504e-01,8.730159523528985277e-01
-3.166771848078307361e+00,-5.470955422202353757e-01,-6.341473798729551081e-01,-1.294538804423378986e+00,-6.270920599834447495e-01,9.025321863060292715e-01,-1.459928746208656536e+00,-6.061798629033218200e-01,2.213111931248885167e+00,-3.583582170747682816e-01,1.217602103972642791e+00,-2.513358029721363684e-01,-3.102708757587740451e-01,2.028548344208760845e+00,-2.837173325291067805e+00,-2.407043706319148324e+00,-4.856173115399602391e-01,2.126139291749803206e+00,-2.976936550271287008e+00,-2.667199199590684078e+00,2.786033818409581198e+00,-1.884725885538290457e+00,-9.173071563167374265e-01,-1.430018265374800368e+00,3.119629510082418289e+00,1.757957595870588641e+00,1.769675130196164625e+00,2.914342042729906601e-01,2.936699907828949740e+00,1.435093803262599943e+00,-1.596095536892094158e+00,-7.999959176007934714e-01,-3.237635228752582250e-01,1.910091261173930244e+00,-2.332108900866399770e-01,-5.034715294905167671e-01,-2.761117619310911042e+00,-1.523259629337010201e+00,-3.315538190229129212e-01,-2.117390236192242536e+00,-1.447656397750071156e+00,-2.285782426253267552e+00,-3.328884323564181624e+00,-1.612727064127076781e+00,-2.655026558637975320e+00,-3.019144089089574323e-01,-1.225499786078613068e-01,-1.082579549290143772e+00,-1.300887553328439861e+00,-2.424622523128844520e+00,-1.947459448710264551e+00,-1.704943066530472784e+00,1.499750106752405276e+00,-2.771995643430235301e+00,-3.145422553738984051e-01,-2.257431775601713930e+00,-1.740720049179204310e+00,2.237614580895860072e+00,-4.206492001691109484e-01,-1.202799737629914656e+00,-8.157167060381384505e-02,1.355951285683538288e+00,-1.989408511989790185e+00,-1.534362011526445024e-01,-2.642483038331534306e+00,-1.748569451727325808e+00,-2.494803626431664423e+00,-2.370889077796209499e+00,-1.582584836117763294e-01,2.362331695242598339e+00,-1.121821482897279454e+00,2.417143711738399536e-02,-6.058627443590309802e-01,1.582986217939738927e+00,2.895623259445355036e+00,-1.685275235278951511e+00,2.020162752476557966e+00,-1.597700936826928597e+00,-3.491322079360782427e-01,-2.945647730250993690e-01
2.729798769632248767e+00,-2.765045308368259125e+00,-1.406928165055846058e+00,-1.425336801110405949e+00,-2.785464860999603554e-01,-1.591219024164223894e+00,-1.518917419648347700e+00,-2.023073915319054394e-01,-2.467726233080375309e+00,-2.478722202020011423e-01,-3.103696543316010747e-01,-4.453231836379157316e-01,-3.694449035905139622e-01,-1.415629769852341235e+00,-1.133178793535213336e+00,-1.901823720134853568e+00,2.984202079526987905e+00,-2.663125226813253033e+00,-1.758322147904267885e+00,-1.595534930799818563e+00,-2.295679492736883098e+00,-1.269400736990709655e+00,-2.170385199778922303e+00,-3.436344271007055751e-01,-1.189167554180573738e+00,1.661133202814183862e+00,8.569336972174037559e-01,2.389928601342270476e+00,-1.012376784035692978e+00,-4.756154505722750558e-01,2.591407084619712808e+00,1.460751610152739577e+00,-4.891554863518935425e-01,-9.229169281188814855e-02,-5.463922943646661867e-01,-1.755475032403869262e-01,-2.301889378379179174e+00,1.410505102673469846e+00,-5.848841600768261983e-01,-1.646566538077457675e+00,-6.765566675357631565e-01,-2.582619534994365917e+00,2.036956431676635315e+00,2.328653142435584744e+00,1.677805700220879270e+00,-6.716474414786972880e-02,-2.694830717728456282e+00,-2.326262969516982526e+00,1.097344658192665356e+00,6.242478109964602062e-01,-1.184989210007810545e+00,-2.090103446397535869e+00,-2.843419563143461115e-01,-1.945560453404054924e+00,1.849251652328397721e+00,1.208338035502218633e+00,8.688524933523477101e-01,-3.929334579211137601e+00,-4.565367195745388962e-01,2.455778592355186141e-01,-3.913238028498947640e-01,4.285484789024983088e-01,4.155202956122847624e-01,-8.656154326804661736e-02,6.559605263738442771e-01,-3.055781932829241931e+00,-1.337069981444339195e+00,-2.329563257774762697e+00,-2.574734728906687753e+00,1.191949651612897121e+00,2.030242621550129467e+00,8.094380877192993706e-01,-1.211928963381205149e+00,3.069979775062014138e+00,2.128222053506156008e+00,-2.242638744600162770e+00,-1.342933899694073840e+00,-6.273906477703232731e-01,-3.230783913651495975e-01,1.882577613904467873e+00
-3.126405855424733815e+00,-3.603918058786192091e+00,-3.059557996075557007e+00,-2.517404880499430231e+00,-3.135425654424590203e+00,-2.435435112472960295e+00,4.253541863969276249e-01,-1.148697088488420004e+00,-1.465822872319723080e+00,-4.404237592818898706e-01,1.339967435352165337e+00,-3.697553534832570543e-01,-4.196504468481495054e-01,2.035957797992218765e+00,-1.246699342902519936e+00,-1.401975066316514917e+00,-2.032165386890739889e+00,-1.639634478563707365e+00,-1.803011952159397024e+00,-1.714604402322750909e+00,-2.567970587107716973e+00,2.825566249047930523e+00,-2.532643849700510152e+00,-1.319168270927277176e+00,-3.788173040275698789e+00,-1.956700870704573880e+00,1.543399549684329353e+00,-3.158570950558980961e-01,-2.691548952360101055e+00,-1.045995320063715095e+00,-3.226495921448838455e+00,-2.238653245113193968e+00,-4.354702044070896116e-01,7.863101148262668927e-01,-4.976398189738862610e-01,-5.224519061360531902e-01,-2.515658532421357840e+00,-1.833810035920293124e+00,-1.683433824756188080e-01,1.855109910147332508e+00,-3.048110166318534486e-01,1.435117678589968193e+00,-1.188063699028469200e+00,-2.398213260078973230e-01,2.649400397400500928e+00,1.047377395172046421e+00,6.247630427405731490e-01,6.961784389298806275e-01,-2.502583479316367487e+00,3.332695061927549940e+00,1.070363286410436654e+00,-1.307791633330502412e+00,-2.156098592531257463e+00,1.745914266147699623e+00,6.848660947141145261e-01,2.518049368627119922e+00,-2.965799317159385939e+00,2.136680822833048943e+00,-5.799143779362633255e-01,-3.338208051506337259e+00,-4.167726554418838547e-01,-9.093236052361246546e-01,-2.070468241730361925e+00,1.187308219003997412e+00,1.532750603965581160e+00,-7.773416614134714964e-01,-2.253209960822865898e-01,-2.921601122286987984e+00,9.230171746456194981e-01,2.294264359503934259e+00,1.326226074096330088e+00,2.098261590354750794e+00,1.474044007436237314e+00,-2.447414937055266471e+00,-1.699315857276443520e+00,2.341860242060870512e+00,-7.784409951073910650e-01,4.487315972529853370e-01,-6.067361236878905384e-01,1.298527508504330408e+00
9.945950963354710517e-01,-3.237723668345664496e-01,-3.137819687739320962e+00,-6.949097932476013817e-01,-1.826059840403146506e+00,-1.756448938793408132e+00,-3.184917181535034114e+00,3.615841601415067164e+00,1.982493271567770998e+00,-5.763572249461211827e-01,-1.470979792522409069e+00,-3.585688313031430430e-01,-2.923001814297150336e-01,7.069976087327056735e-01,5.887304502067440826e-01,3.957452136431518497e+00,3.705588763769022798e+00,9.234011953262587502e-01,-1.033234876947337177e+00,-1.817825514723209412e+00,-5.580585970582203625e-01,-2.253044970384714407e+00,1.745369455294807359e+00,8.574091559800106621e-01,6.372976658123393756e-01,-1.482816020335509244e-01,-7.091897283193251411e-01,1.226794800966442667e+00,4.362425943609333778e-01,9.003887587678205406e-01,2.454614636811152550e+00,-4.137835594263474803e-01,-4.556337269663837675e-01,5.755883626553741639e-01,-4.563627239751775200e-01,-2.759810376220475092e-01,-2.867853853545526466e+00,-2.441488440976947727e-01,-4.138074832450083229e-01,-2.743466319045702484e+00,-2.113110124918534449e+00,-4.069828056890563595e+00,-8.858938771114996946e-01,1.335050297066682212e+00,-1.966700447034246402e+00,1.115208820768232162e-01,2.670380058173866811e-01,-3.302533387850656865e+00,-9.782566263918471838e-01,-1.661685063222550607e+00,1.825984141645143222e+00,-1.748413092044340589e+00,5.216546389277384455e-01,2.579627307893448851e+00,-1.758939282791999181e+00,-7.585430432854939342e-01,-4.476194063828433101e-01,1.960312039851171972e+00,-4.033963983491528627e-01,-2.589420766624802805e+00,-6.520020238234426335e-01,-3.823483875906524165e+00,-9.885492563033562163e-01,8.650249934041647215e-01,-2.613409573501499494e-01,1.198990932102060869e+00,1.447134078370603927e+00,1.555453295622944765e+00,-6.888032772975756224e-01,1.305824586280685651e+00,1.769285719224158226e+00,-1.829352294510083965e+00,-3.216309731446928222e+00,-2.965927417016312795e+00,-1.972274936629617503e+00,8.241859654942796931e-01,-2.813096058945697919e+00,-1.639325087742782516e+00,-4.181483193241619101e-01,6.257482177257665812e-02
-1.665174612642383645e+00,-2.596306802921504175e+00,-2.796156932623792418e-02,1.283408857654415147e+00,-2.605920228751346102e+00,-8.244701850497571094e-02,2.512785385901599722e-01,4.485108181557457829e-01,3.016610743811763751e+00,-4.180438240289989782e-01,-1.661026210510971657e+00,-3.425210680897098903e-01,-4.588593819139494823e-01,-4.018895497626418845e+00,-1.105233598022850705e+00,2.976327539047151749e+00,3.089583047598344567e+00,1.489698698465248716e+00,-3.436535477486316825e+00,1.517802994607633682e+00,-1.060151963093230176e-01,-1.620690530333869450e+00,-9.710357295215804596e-01,1.473434730501186785e+00,-1.960498020971261912e-01,4.236348831716324481e-01,-2.083014542064329788e+00,-1.312024120329379873e+00,-2.112886356971429791e+00,-1.406604548281134237e+00,-1.509221490715350278e+00,-2.756754645546642291e+00,-5.749731129648247840e-01,-3.313384331273435679e-01,-4.021492449494641908e-01,-4.578098952178781267e-01,-1.906791724474908412e+00,-2.286365102836870999e+00,-5.258127100695876299e-01,1.389243760877676703e-01,9.248319455177673731e-01,-3.788788095815453172e+00,-2.370458774965585658e+00,8.652274675300922757e-01,2.335038041877133708e+00,-2.666255221602126468e+00,3.144847538043782365e+00,1.070917627115963056e+00,1.755555668082610099e+00,3.571246830569824837e+00,-9.215642231692502406e-01,1.535368119546412391e+00,7.446717037582167853e-01,-2.278344752951011465e+00,-1.059816771405062807e+00,8.620088709618758394e-01,5.712717812512283638e-02,-1.448306845467670190e+00,-5.461934221235852371e-01,3.469364572040094963e+00,-2.551888044034523739e-01,-3.488624336135143222e-01,-7.485726879164890102e-01,-1.143130509734591405e+00,-2.055226097980153988e+00,-2.265058073415863404e+00,5.546790190951036426e-01,-2.522114987093231786e+00,1.913357952395574602e+00,-7.495064752624155391e-01,-2.879215192858232353e+00,8.418660980890441126e-01,-8.089151221552454141e-01,-3.644435782059528783e+00,-1.950235911644648379e+00,-2.334265871303446094e+00,-2.635992571829325115e+00,-1.504856068971175631e+00,-3.650015125408617167e-01,-7.660502115623591957e-01
-4.665367153503657605e+00,-2.033699612480427188e+00,1.747199007273962046e+00,-3.157552304189208403e-01,1.534173750087711063e+00,-4.799467599267520646e-01,-1.874319796648179492e-01,-3.452292379771883635e+00,1.766805451611266786e+00,-4.440025302845139743e-01,-7.809476471344577453e-01,-3.858620238713169615e-01,-4.095522192728300870e-01,-5.154710209072322913e-01,2.155313928932394596e+00,2.470426059367722527e+00,-2.278177812546518410e+00,-2.566621781542089309e+00,2.489357769438348633e+00,-1.337993795987753920e+00,-2.428716585001274186e+00,2.672159370311023352e+00,-9.663469920516682965e-01,-7.518126228335085537e-02,2.029658625677778883e+00,-1.097921199349765953e+00,1.040513611353774404e-02,-1.319543520013081839e+00,1.710304212092171872e+00,1.272281099421870953e+00,-7.917852396113617131e-01,-2.176322525804220920e+00,-4.837350801985385584e-01,-1.264549343250731539e+00,-3.764189591571756033e-01,-4.505358030303157069e-01,-1.920523621394166547e+00,6.364910714312620177e-02,-5.032286465939387332e-01,-2.003843921054617283e+00,2.058234823630133437e-01,-2.167195283999701516e+00,-1.344634154852514474e+00,-2.772850591098850792e+00,-3.282957830035929891e+00,-5.900386089348531593e-01,-1.213422482746707276e+00,-1.705787363342985197e+00,-2.988875038087367209e+00,-1.556470797835538100e+00,-1.441852860362969224e+00,-1.860347536386728340e+00,1.959136385498106758e+00,2.451979106539203368e+00,-1.862870717245450169e+00,1.495943208021239812e-01,2.647953338343602692e+00,-1.746438593471577372e+00,-3.787049449557475800e-01,2.395181678156640626e+00,-4.310795318681290844e-01,-3.476674421763218947e-01,-1.666643993537781032e+00,1.386181438648961040e+00,1.981924069055597482e+00,5.079126134827813832e-01,1.422976756886553673e-01,-3.377309027765971194e+00,-2.070466627361955858e+00,-1.713897418254066496e+00,5.893824898789659095e-01,-3.285028339526036678e+00,-2.169262851468727327e+00,-2.057850708203633250e+00,-1.427275869592121493e+00,-9.005440674184002070e-01,1.932655542807359961e+00,1.006709583793306217e+00,-4.020416624565902319e-01,2.005633370849613240e+00
